~o
<STREAMINFO> 1 39
<VECSIZE> 39<NULLD><MFCC_E_D_A><DIAGC>
~h "cinquante"
<BEGINHMM>
<NUMSTATES> 8
<STATE> 2
<MEAN> 39
 -1.624598e+01 -5.749742e-01 5.012246e-01 -5.922282e+00 5.558840e+00 -6.597522e+00 2.926935e+00 -4.290669e+00 3.603397e-01 -3.332085e-01 -3.859163e-01 -7.664291e-01 5.560697e-01 4.418449e-01 -9.171206e-02 2.936399e-01 1.128646e-01 3.224951e-02 2.691877e-01 -8.742539e-02 -1.050049e-01 -7.645772e-02 -4.874648e-02 2.208485e-01 -5.591117e-02 1.794262e-02 2.510608e-01 -1.103455e-02 6.571019e-03 4.615222e-02 -6.241138e-02 9.736931e-02 -5.491635e-02 3.699144e-02 -8.452902e-02 -3.148876e-02 6.948993e-02 -4.359649e-02 3.854466e-03
<VARIANCE> 39
 1.796302e+01 1.858342e+01 5.795933e+01 4.634792e+01 5.271240e+01 2.705367e+01 1.375276e+01 1.531963e+01 2.033591e+01 2.580699e+01 1.709528e+01 1.014032e+01 2.734868e-02 2.874312e+00 8.711411e-01 1.367245e+00 1.831981e+00 1.614424e+00 1.967733e+00 1.588743e+00 1.753916e+00 2.236089e+00 1.698521e+00 1.388592e+00 1.122885e+00 1.000000e-02 2.191962e-01 1.296784e-01 1.724544e-01 2.546521e-01 3.634674e-01 4.042545e-01 2.783445e-01 3.640761e-01 4.317805e-01 3.715542e-01 2.614159e-01 2.207033e-01 1.000000e-02
<GCONST> 8.682558e+01
<STATE> 3
<MEAN> 39
 2.454633e+00 -5.928171e+00 4.951535e+00 -2.010328e+00 3.453827e+00 -3.166993e-01 -1.799693e+00 -5.644403e-01 -2.962679e+00 -2.339701e+00 2.842630e+00 -1.438840e+00 9.228424e-01 3.242164e-01 -2.451299e-01 -3.537108e-02 4.514222e-01 -3.440930e-01 1.600711e-01 -2.898903e-01 5.689752e-01 5.145501e-01 -2.311081e-01 -2.350239e-02 2.481860e-01 5.467709e-03 -4.689712e-01 8.218117e-02 -7.809911e-02 8.225278e-03 5.839178e-02 -1.722381e-01 1.159391e-01 1.984443e-02 1.293215e-01 6.706885e-02 -6.685960e-02 6.407675e-02 -1.299168e-02
<VARIANCE> 39
 2.889362e+01 6.768365e+01 5.732447e+01 1.705617e+01 3.008821e+01 1.458369e+01 6.114578e+01 8.871086e+01 4.528261e+01 2.543124e+01 2.174085e+01 1.978247e+01 1.000000e-02 3.840164e+00 1.392947e+00 9.259205e-01 1.350474e+00 2.568542e+00 1.492942e+00 3.223654e+00 2.919267e+00 2.888815e+00 2.104390e+00 1.932480e+00 1.160058e+00 1.000000e-02 2.409638e-01 2.072206e-01 1.836191e-01 2.547397e-01 4.145296e-01 1.805227e-01 4.638036e-01 3.549425e-01 5.540438e-01 3.444184e-01 3.346107e-01 2.377025e-01 1.000000e-02
<GCONST> 9.357544e+01
<STATE> 4
<MEAN> 39
 -3.072536e+00 -3.213672e+00 -2.129544e-01 -4.100480e+00 2.215204e+00 1.657480e-01 6.425765e-02 1.810841e+00 -1.070558e+00 -3.325942e+00 1.926727e+00 -4.827592e-01 6.382023e-01 3.420966e-01 3.388225e-01 -1.215524e-01 -5.912056e-01 -3.445422e-01 -8.417289e-03 3.330346e-01 -2.944407e-02 -2.900866e-01 -1.719662e-01 -3.890961e-01 -1.154213e-01 4.531343e-03 2.046254e-01 2.015466e-03 1.098970e-01 -1.306483e-02 -1.242930e-01 -8.136240e-02 -9.287892e-02 -4.152603e-02 9.608248e-02 3.615468e-02 -5.560918e-02 -4.078767e-02 7.264613e-03
<VARIANCE> 39
 5.147297e+01 1.506930e+01 2.285156e+01 4.366456e+01 3.693117e+01 2.251770e+01 2.471797e+01 4.244204e+01 3.990912e+01 3.060777e+01 2.387677e+01 1.620481e+01 3.798156e-02 2.034369e+00 2.318826e+00 2.524662e+00 3.045255e+00 4.843524e+00 2.279446e+00 2.628501e+00 3.380500e+00 3.012097e+00 3.335376e+00 1.847983e+00 1.058722e+00 1.000000e-02 2.304455e-01 4.340957e-01 3.626454e-01 6.705130e-01 9.155583e-01 3.868258e-01 5.630680e-01 6.867209e-01 6.027303e-01 5.389302e-01 3.502084e-01 2.026655e-01 1.000000e-02
<GCONST> 1.011816e+02
<STATE> 5
<MEAN> 39
 7.075051e+00 -1.474847e+00 4.114861e+00 -4.086742e+00 -7.934418e+00 -4.900324e+00 2.105580e+00 4.674795e+00 3.068891e-01 -2.969084e+00 -2.023519e+00 -7.754878e-01 8.629375e-01 -2.056798e-01 5.409187e-01 2.617387e-01 3.874387e-01 -3.218249e-01 -8.683019e-01 -2.212224e-01 1.430354e-01 1.353397e-01 5.780528e-01 4.215643e-01 -1.242580e-01 -7.816200e-03 -3.223010e-01 -9.302273e-02 -1.400903e-01 7.261294e-03 2.991524e-01 2.504404e-01 -2.417914e-02 -1.121663e-01 -2.190542e-01 -3.770375e-02 1.589764e-01 5.188201e-02 -9.153580e-03
<VARIANCE> 39
 4.478543e+01 4.975597e+01 3.678816e+01 2.828318e+01 4.797214e+01 3.099859e+01 6.218562e+01 4.548731e+01 9.678037e+01 3.844779e+01 3.400227e+01 2.243271e+01 1.292483e-02 1.172273e+00 1.258640e+00 1.676460e+00 1.392377e+00 2.054464e+00 1.945672e+00 2.538172e+00 9.336603e-01 1.779588e+00 1.712301e+00 1.458516e+00 9.065785e-01 1.000000e-02 1.148525e-01 2.016171e-01 3.390340e-01 2.529201e-01 2.485946e-01 2.600129e-01 2.464862e-01 2.222657e-01 2.988007e-01 3.524683e-01 3.430662e-01 1.931527e-01 1.000000e-02
<GCONST> 9.093420e+01
<STATE> 6
<MEAN> 39
 -1.649406e+00 6.716990e-01 5.204488e+00 -5.830462e+00 1.088376e+00 -5.418820e+00 -7.912312e-01 -1.324822e-01 -1.149183e+00 1.617516e+00 8.083371e-01 -1.865062e+00 6.336731e-01 -8.889561e-01 -3.830437e-01 -3.324328e-01 3.347117e-01 6.284515e-01 7.115348e-01 1.096745e-01 -4.352873e-01 4.659560e-02 3.271845e-02 8.108642e-02 3.683494e-02 -2.119779e-02 -3.266268e-02 -1.199882e-01 -9.344521e-02 -6.334146e-03 7.660583e-03 6.043033e-02 1.619829e-01 8.873735e-02 -1.497117e-02 -2.814785e-02 -5.454828e-02 6.845137e-03 -1.131644e-03
<VARIANCE> 39
 9.132673e+00 4.885993e+01 2.225203e+01 5.955589e+01 7.932621e+01 3.636956e+01 3.486612e+01 3.496548e+01 2.491412e+01 2.313908e+01 1.601149e+01 9.680812e+00 7.432569e-02 1.067704e+00 1.013315e+00 7.048420e-01 2.646883e+00 2.446867e+00 2.259942e+00 2.414342e+00 2.296272e+00 1.528626e+00 1.048162e+00 1.148618e+00 8.681061e-01 1.000000e-02 1.192204e-01 9.929783e-02 1.299244e-01 4.140498e-01 4.426861e-01 3.795842e-01 2.858992e-01 3.049949e-01 2.295117e-01 1.577099e-01 2.050783e-01 1.588684e-01 1.000000e-02
<GCONST> 8.590005e+01
<STATE> 7
<MEAN> 39
 -1.058777e+01 -2.847152e+00 1.396692e+00 -4.573867e+00 1.614019e+00 -1.200557e+00 -2.510484e-01 -1.183395e+00 4.896716e-01 -1.607114e+00 1.157327e+00 -1.050849e+00 5.084151e-01 -1.820816e-01 -1.474945e-01 -9.632985e-03 -1.854488e-01 2.660796e-02 7.922133e-02 -1.178489e-01 -1.022522e-01 -7.226414e-02 3.332049e-02 -1.276309e-02 -2.367498e-02 -8.768371e-03 4.280041e-02 4.458240e-02 1.087350e-02 -6.667677e-03 -3.596585e-02 -4.533565e-02 -4.464161e-02 -9.564857e-03 9.262633e-03 1.680917e-02 8.516857e-03 -2.454550e-02 9.534405e-04
<VARIANCE> 39
 9.744490e+00 5.842355e+00 2.598081e+01 2.474884e+01 1.076510e+01 2.303878e+01 1.905112e+01 1.682945e+01 1.533000e+01 1.568200e+01 1.011503e+01 9.253167e+00 4.654575e-02 4.919561e-01 4.434883e-01 1.510649e+00 1.224261e+00 1.167484e+00 1.349271e+00 1.239144e+00 1.676364e+00 1.366516e+00 1.459046e+00 9.396489e-01 1.086958e+00 1.000000e-02 7.873727e-02 5.941473e-02 2.325069e-01 1.907380e-01 2.124213e-01 2.152217e-01 2.468138e-01 3.153646e-01 2.706728e-01 3.101157e-01 1.812212e-01 2.259633e-01 1.000000e-02
<GCONST> 7.240961e+01
<TRANSP> 8
 0.000000e+00 1.000000e+00 0.000000e+00 0.000000e+00 0.000000e+00 0.000000e+00 0.000000e+00 0.000000e+00
 0.000000e+00 9.450549e-01 5.494506e-02 0.000000e+00 0.000000e+00 0.000000e+00 0.000000e+00 0.000000e+00
 0.000000e+00 0.000000e+00 9.159664e-01 8.403361e-02 0.000000e+00 0.000000e+00 0.000000e+00 0.000000e+00
 0.000000e+00 0.000000e+00 0.000000e+00 9.319728e-01 6.802722e-02 0.000000e+00 0.000000e+00 0.000000e+00
 0.000000e+00 0.000000e+00 0.000000e+00 0.000000e+00 8.780488e-01 1.219512e-01 0.000000e+00 0.000000e+00
 0.000000e+00 0.000000e+00 0.000000e+00 0.000000e+00 0.000000e+00 8.888889e-01 1.111111e-01 0.000000e+00
 0.000000e+00 0.000000e+00 0.000000e+00 0.000000e+00 0.000000e+00 0.000000e+00 9.621212e-01 3.787879e-02
 0.000000e+00 0.000000e+00 0.000000e+00 0.000000e+00 0.000000e+00 0.000000e+00 0.000000e+00 0.000000e+00
<ENDHMM>
