~o
<STREAMINFO> 1 39
<VECSIZE> 39<NULLD><MFCC_E_D_A><DIAGC>
~h "cinq"
<BEGINHMM>
<NUMSTATES> 6
<STATE> 2
<MEAN> 39
 -1.507104e+01 -1.604866e+00 2.845368e+00 -7.141467e+00 6.213379e+00 -7.422296e+00 2.777367e+00 -2.344613e+00 -6.017774e-01 1.025434e-01 1.710966e-01 -2.416440e-01 5.953774e-01 1.074662e+00 -1.017620e-01 1.362692e-01 2.841631e-01 -1.698498e-01 4.842325e-01 1.082002e-01 -4.305032e-02 -1.999170e-01 -3.678405e-01 1.721167e-01 -4.052939e-02 3.089420e-02 2.153571e-01 -2.835794e-02 -5.227968e-02 -3.035950e-02 -9.075962e-02 9.800861e-02 -7.918387e-02 -8.431650e-03 -9.482913e-02 -1.090900e-01 4.289762e-02 2.046064e-03 3.725749e-03
<VARIANCE> 39
 4.635617e+01 4.320500e+01 8.645047e+01 6.849887e+01 4.686714e+01 3.750964e+01 1.969119e+01 2.818475e+01 2.036823e+01 2.357067e+01 2.574840e+01 1.729357e+01 2.726210e-02 4.909261e+00 1.451203e+00 1.470235e+00 2.668359e+00 1.724334e+00 2.926913e+00 2.096207e+00 1.990508e+00 2.264871e+00 2.516714e+00 2.033437e+00 1.509833e+00 1.000000e-02 4.135900e-01 2.175693e-01 1.912575e-01 3.564281e-01 3.507164e-01 4.706300e-01 2.924626e-01 3.322064e-01 3.751469e-01 4.132099e-01 3.623796e-01 2.016461e-01 1.000000e-02
<GCONST> 9.674947e+01
<STATE> 3
<MEAN> 39
 3.672017e+00 -2.359294e+00 -1.245432e-01 -6.894053e+00 -5.948723e-01 6.311224e-01 2.491637e-01 -3.974181e+00 -2.904778e+00 -6.286667e+00 1.264377e+00 -2.942054e-01 9.575964e-01 1.670198e-01 -1.510027e-01 -1.230439e-01 1.187514e-01 -1.936422e-01 -1.397560e-01 -4.981668e-01 -2.493415e-03 3.563475e-01 1.237725e-01 -1.600719e-01 3.510484e-02 8.374388e-04 -4.302766e-01 -5.309143e-03 1.026243e-01 1.989652e-01 1.678088e-01 -2.024124e-01 -3.157466e-02 1.306454e-01 1.558672e-01 1.945556e-01 -3.388455e-02 2.283416e-02 -9.890191e-03
<VARIANCE> 39
 1.259443e+01 4.112745e+01 4.341114e+01 2.770022e+01 2.498378e+01 3.931773e+01 3.928265e+01 3.293564e+01 3.089625e+01 1.875736e+01 1.385031e+01 2.014033e+01 1.000000e-02 1.492568e+00 7.909212e-01 8.467908e-01 2.684067e+00 2.572852e+00 8.690291e-01 1.151435e+00 8.453975e-01 1.245624e+00 1.629369e+00 1.463325e+00 7.910466e-01 1.000000e-02 2.156218e-01 1.221829e-01 1.537886e-01 2.814873e-01 2.575694e-01 1.863005e-01 1.922546e-01 1.716483e-01 2.808293e-01 3.043920e-01 2.871214e-01 1.427566e-01 1.000000e-02
<GCONST> 8.099277e+01
<STATE> 4
<MEAN> 39
 -8.410577e+00 -3.880502e+00 1.890954e+00 -3.610961e-01 1.251005e+00 -2.785315e+00 1.240656e+00 -1.159090e+00 1.172995e-01 -1.568084e+00 1.396555e+00 -1.033717e+00 6.042989e-01 -3.042408e-01 -1.018554e-01 2.514471e-02 4.262358e-02 -6.761190e-02 -1.746484e-02 6.142106e-02 1.128081e-01 4.772438e-02 1.180824e-01 -1.932696e-03 -1.671803e-02 -1.261704e-02 3.191237e-02 1.698642e-02 -3.219245e-02 -4.309358e-02 -1.634042e-02 4.177995e-02 2.716985e-02 -2.497768e-02 -1.029863e-02 -1.153912e-03 1.729163e-03 1.541237e-02 1.543610e-04
<VARIANCE> 39
 1.600167e+01 1.221667e+01 1.552229e+01 1.084102e+01 1.209464e+01 1.411856e+01 2.219028e+01 1.665520e+01 1.880455e+01 1.445010e+01 1.405732e+01 9.670037e+00 3.098075e-02 6.001809e-01 7.275334e-01 1.196067e+00 1.318142e+00 1.272019e+00 1.432794e+00 1.688833e+00 1.675462e+00 1.666492e+00 1.697538e+00 1.140566e+00 8.541233e-01 1.000000e-02 8.108719e-02 1.347256e-01 1.970161e-01 2.487242e-01 2.519113e-01 2.661324e-01 3.049681e-01 2.785828e-01 2.787188e-01 3.595401e-01 2.174530e-01 1.508945e-01 1.000000e-02
<GCONST> 7.482588e+01
<STATE> 5
<MEAN> 39
 2.556135e+00 -8.666500e+00 8.427232e+00 3.672748e+00 -1.067420e+00 4.845432e-01 -2.760184e+00 7.237722e+00 1.861682e+00 -2.294722e+00 1.111424e+00 -2.863251e+00 5.266530e-01 -4.137592e-01 1.824222e-02 -2.156762e-02 -3.322321e-03 4.029217e-01 3.390042e-03 1.644048e-02 1.224274e-01 3.485202e-01 1.272369e-01 8.391029e-05 -5.543442e-02 -1.989822e-02 -1.739636e-02 2.169665e-02 3.364949e-02 -6.825261e-03 5.546456e-02 -2.811562e-02 2.127521e-02 -3.653781e-02 2.220673e-02 3.425577e-02 2.237122e-02 -6.212133e-02 -1.317271e-04
<VARIANCE> 39
 8.944791e+01 1.094390e+02 6.495531e+01 2.920007e+01 8.999683e+01 4.901283e+01 1.644311e+02 6.074968e+01 6.487674e+01 2.091759e+01 2.044995e+01 3.005896e+01 1.162760e-01 1.309285e+00 4.684635e+00 3.086030e+00 1.803583e+00 5.011405e+00 3.723632e+00 9.421980e+00 3.462089e+00 2.768936e+00 1.427815e+00 1.669014e+00 1.374829e+00 1.000000e-02 2.084267e-01 5.623192e-01 5.201825e-01 3.107847e-01 6.576490e-01 5.748713e-01 1.119397e+00 5.280381e-01 3.450729e-01 2.529543e-01 3.563889e-01 2.511054e-01 1.000000e-02
<GCONST> 1.101175e+02
<TRANSP> 6
 0.000000e+00 1.000000e+00 0.000000e+00 0.000000e+00 0.000000e+00 0.000000e+00
 0.000000e+00 9.270073e-01 7.299270e-02 0.000000e+00 0.000000e+00 0.000000e+00
 0.000000e+00 0.000000e+00 8.958333e-01 1.041667e-01 0.000000e+00 0.000000e+00
 0.000000e+00 0.000000e+00 0.000000e+00 9.622642e-01 3.773585e-02 0.000000e+00
 0.000000e+00 0.000000e+00 0.000000e+00 0.000000e+00 8.611111e-01 1.388889e-01
 0.000000e+00 0.000000e+00 0.000000e+00 0.000000e+00 0.000000e+00 0.000000e+00
<ENDHMM>
