~o
<STREAMINFO> 1 39
<VECSIZE> 39<NULLD><MFCC_E_D_A><DIAGC>
~h "deux"
<BEGINHMM>
<NUMSTATES> 4
<STATE> 2
<MEAN> 39
 -6.817749e+00 -4.378518e+00 2.758186e+00 -1.857889e-01 2.529539e+00 3.328113e+00 2.484252e+00 -2.121131e+00 1.228039e+00 -1.349726e+00 2.315048e+00 9.403822e-01 7.048877e-01 4.727929e-01 -1.859556e-01 2.496006e-01 2.547643e-01 7.825053e-02 6.976328e-01 4.922916e-01 2.424344e-02 1.799169e-01 -1.518567e-01 3.845902e-01 3.622878e-01 2.674478e-02 1.386684e-02 1.371603e-02 -2.346682e-02 3.398839e-02 -2.844304e-02 -1.856873e-02 1.078904e-02 -6.482800e-02 -2.680639e-02 -6.704910e-03 -2.582828e-02 4.609504e-02 -2.110705e-04
<VARIANCE> 39
 3.073141e+01 2.745268e+01 3.119295e+01 1.477354e+01 2.089522e+01 5.856445e+01 1.817635e+01 1.466067e+01 1.591073e+01 2.255423e+01 2.305664e+01 2.913451e+01 3.194573e-02 5.964735e-01 9.198521e-01 1.200241e+00 1.575766e+00 1.810077e+00 2.345016e+00 2.119401e+00 1.747210e+00 1.556576e+00 1.609056e+00 2.775776e+00 2.204782e+00 1.000000e-02 7.383949e-02 1.485511e-01 2.153615e-01 2.767884e-01 3.107276e-01 3.998342e-01 3.230017e-01 2.577670e-01 2.667733e-01 2.816841e-01 5.581674e-01 4.115485e-01 1.000000e-02
<GCONST> 8.653996e+01
<STATE> 3
<MEAN> 39
 -3.593171e+00 -3.089634e+00 2.716650e+00 2.124010e+00 3.517463e+00 6.997581e+00 7.488659e+00 -1.620794e+00 8.062350e-01 -2.522481e+00 3.752123e+00 4.740685e+00 7.653420e-01 -4.552452e-01 2.892804e-01 -3.323676e-01 -2.797851e-01 -9.837931e-02 -6.802217e-01 -3.352811e-01 1.975713e-01 6.209958e-03 1.463309e-01 -2.824953e-01 -3.298108e-01 -3.116532e-02 -4.714573e-02 -1.178804e-02 5.312880e-03 -5.773135e-02 1.412436e-02 -8.717321e-02 -8.788137e-02 1.173022e-02 2.114814e-02 3.020194e-02 1.992961e-02 -6.053789e-02 -2.174771e-03
<VARIANCE> 39
 1.706341e+01 1.277830e+01 1.387114e+01 1.327512e+01 2.255139e+01 3.677477e+01 2.727618e+01 2.288404e+01 1.424735e+01 2.075313e+01 2.329005e+01 1.695978e+01 5.356178e-02 4.845895e-01 8.070855e-01 5.443710e-01 7.033851e-01 1.387689e+00 1.237805e+00 1.458672e+00 1.280080e+00 1.067063e+00 1.492142e+00 1.103834e+00 1.112886e+00 1.000000e-02 5.330969e-02 1.072696e-01 8.516544e-02 1.197820e-01 2.173504e-01 2.454750e-01 2.141663e-01 2.196602e-01 1.969335e-01 2.884394e-01 1.829128e-01 2.097340e-01 1.000000e-02
<GCONST> 7.303751e+01
<TRANSP> 4
 0.000000e+00 1.000000e+00 0.000000e+00 0.000000e+00
 0.000000e+00 9.408284e-01 5.917159e-02 0.000000e+00
 0.000000e+00 0.000000e+00 9.425287e-01 5.747127e-02
 0.000000e+00 0.000000e+00 0.000000e+00 0.000000e+00
<ENDHMM>
