~o
<STREAMINFO> 1 39
<VECSIZE> 39<NULLD><MFCC_E_D_A><DIAGC>
~h "diviser"
<BEGINHMM>
<NUMSTATES> 8
<STATE> 2
<MEAN> 39
 -1.167141e+01 -1.968586e+00 2.271481e+00 -2.516623e+00 2.391397e+00 -8.923813e-01 2.502425e+00 -1.384473e+00 1.485695e+00 -2.157805e-01 1.369043e+00 -1.054468e+00 6.462538e-01 -1.220832e-01 -1.243209e-01 4.379850e-01 2.138201e-01 8.082648e-02 3.401889e-01 1.962337e-01 -1.090953e-02 1.465587e-01 1.944340e-01 -2.619353e-02 -6.184179e-02 1.804282e-02 3.815416e-02 -9.528350e-02 8.597945e-02 8.242584e-02 4.685331e-02 -9.143606e-03 -2.159081e-02 4.613353e-02 5.213991e-02 5.604958e-02 -4.892107e-02 -2.554942e-02 -6.111180e-04
<VARIANCE> 39
 1.998971e+01 9.889117e+00 1.612636e+01 1.736804e+01 1.327095e+01 1.623752e+01 1.155124e+01 1.134982e+01 1.239310e+01 1.338191e+01 1.130054e+01 1.013760e+01 2.868119e-02 6.412393e-01 8.335360e-01 9.738171e-01 1.382206e+00 1.120839e+00 1.431350e+00 1.415477e+00 1.021321e+00 1.603163e+00 1.479118e+00 1.247273e+00 1.013772e+00 1.000000e-02 9.292690e-02 1.016102e-01 1.661679e-01 1.975771e-01 2.215178e-01 2.243959e-01 2.557580e-01 2.078224e-01 2.850601e-01 2.200902e-01 2.367307e-01 1.710830e-01 1.000000e-02
<GCONST> 7.155782e+01
<STATE> 3
<MEAN> 39
 -8.404434e+00 -1.632702e+01 2.518450e+01 8.415604e+00 8.392447e+00 -1.939052e+00 -2.325806e+00 6.868937e+00 4.871291e+00 2.715966e+00 -6.383325e+00 -6.665347e-01 8.486434e-01 -2.021110e-02 -4.609762e-01 7.537767e-01 2.634965e-01 4.504813e-01 -4.216388e-01 -7.864784e-02 9.403294e-02 1.641887e-01 1.292910e-01 -2.992864e-01 2.819984e-03 6.984804e-03 -2.350908e-02 5.035399e-02 -6.323789e-02 -1.420331e-02 -4.804160e-02 -3.508997e-02 -4.192210e-02 -8.351576e-02 -2.616686e-02 -7.535764e-02 6.835566e-04 1.351203e-02 -1.576291e-03
<VARIANCE> 39
 8.871593e+00 5.957447e+01 1.096220e+02 2.065314e+02 8.925932e+01 3.214913e+01 3.805076e+01 3.113641e+01 3.676610e+01 3.992534e+01 2.317323e+01 1.006035e+01 1.753654e-02 8.760000e-01 2.468975e+00 3.964150e+00 5.098720e+00 5.525484e+00 2.267724e+00 3.027855e+00 3.576911e+00 1.440797e+00 2.314535e+00 1.608302e+00 7.871015e-01 1.000000e-02 1.300263e-01 2.764754e-01 5.089726e-01 6.380875e-01 7.934731e-01 3.669854e-01 6.119013e-01 6.419106e-01 2.350211e-01 3.974229e-01 2.936076e-01 1.714977e-01 1.000000e-02
<GCONST> 1.006537e+02
<STATE> 4
<MEAN> 39
 -1.075846e+01 -7.377796e+00 8.579465e+00 4.207613e+00 3.625781e+00 3.886936e-01 2.984764e+00 -1.799424e+00 7.073590e+00 3.329743e+00 -7.026707e-01 -8.602038e-01 8.132730e-01 -6.837473e-02 2.219826e-01 -1.851157e-01 -4.764144e-02 2.358067e-01 -2.614577e-01 8.386214e-02 2.377214e-02 -4.082526e-02 1.111706e-01 1.934201e-02 1.791435e-02 -2.360901e-03 -6.356593e-02 6.716547e-02 -8.215950e-02 -1.147248e-01 2.029585e-02 -3.561832e-02 9.192872e-03 2.401129e-02 -5.467737e-02 -9.244242e-04 5.720380e-02 -2.329048e-03 -1.405029e-03
<VARIANCE> 39
 5.177666e+00 1.006713e+01 1.649435e+01 1.783328e+01 2.047877e+01 2.110054e+01 1.667788e+01 1.386821e+01 2.074799e+01 1.572737e+01 1.500734e+01 1.230201e+01 1.713919e-02 3.767577e-01 6.278927e-01 1.082838e+00 1.099691e+00 1.000462e+00 1.409358e+00 1.092601e+00 1.213544e+00 1.519933e+00 1.057374e+00 1.366528e+00 9.660245e-01 1.000000e-02 5.018721e-02 9.873255e-02 1.797847e-01 1.901355e-01 1.716569e-01 2.345607e-01 2.133305e-01 2.299562e-01 2.766802e-01 1.671581e-01 3.043877e-01 1.904336e-01 1.000000e-02
<GCONST> 6.983560e+01
<STATE> 5
<MEAN> 39
 -1.444187e+01 -2.869238e+00 7.421927e+00 -5.640398e-02 1.172872e+01 -6.092921e+00 4.124394e+00 1.365513e-01 4.436258e+00 4.907044e+00 6.094429e-02 -1.002451e+00 7.532133e-01 5.795529e-01 -1.593441e-01 -4.128706e-02 2.537771e-01 2.214331e-01 2.294229e-01 -2.351306e-01 -5.561656e-02 -4.217348e-02 5.610440e-02 4.883688e-01 4.771321e-03 8.265824e-03 2.453399e-01 -1.632964e-01 9.160081e-02 2.124618e-01 -1.269073e-01 2.020983e-01 -7.845773e-02 2.270461e-02 5.776272e-02 -6.198296e-02 3.312849e-03 -9.439091e-03 4.509105e-03
<VARIANCE> 39
 1.598414e+01 3.034042e+01 1.325536e+02 2.593327e+01 6.967556e+01 4.335011e+01 1.900643e+01 2.065595e+01 1.686948e+01 2.184337e+01 4.141794e+01 1.137576e+01 1.361701e-02 1.595022e+00 8.262002e-01 1.544802e+00 2.148951e+00 1.124074e+00 1.397385e+00 1.920910e+00 9.229935e-01 1.498064e+00 1.766437e+00 1.624278e+00 1.178566e+00 1.000000e-02 8.724873e-02 8.530182e-02 2.162889e-01 2.294139e-01 2.754232e-01 2.153487e-01 3.168978e-01 1.838877e-01 3.314112e-01 2.797843e-01 2.987092e-01 1.937560e-01 1.000000e-02
<GCONST> 8.387111e+01
<STATE> 6
<MEAN> 39
 -7.477983e-01 -1.090663e+01 1.329952e+01 1.188781e+01 8.325333e+00 6.394541e-01 -4.929428e+00 1.418765e+00 7.500442e+00 3.907279e+00 3.861501e+00 -2.781130e+00 9.017381e-01 3.362050e-01 5.604522e-02 -2.405966e-01 4.664481e-01 -6.174847e-01 1.569122e-01 -2.684692e-01 2.274317e-01 3.849960e-01 -4.687517e-01 -1.145460e-01 -4.244793e-02 -9.693470e-03 -2.382527e-01 2.164374e-01 -1.248426e-01 -2.514891e-01 7.431280e-02 -1.910447e-01 1.281999e-01 -1.910865e-02 -5.981088e-02 2.191349e-03 -1.026948e-01 9.667617e-03 -6.624989e-03
<VARIANCE> 39
 1.893884e+01 3.163029e+01 7.506669e+01 2.645967e+01 2.194075e+01 2.054678e+01 9.438264e+01 3.281751e+01 2.405721e+01 3.266403e+01 1.748678e+01 1.996217e+01 1.201889e-02 1.113426e+00 1.382514e+00 1.791897e+00 1.667845e+00 1.684097e+00 1.804734e+00 1.581860e+00 1.184197e+00 1.459149e+00 5.490867e-01 1.522940e+00 7.346131e-01 1.000000e-02 6.894460e-02 9.744635e-02 2.383169e-01 2.715764e-01 2.086841e-01 1.889688e-01 1.757439e-01 1.842216e-01 2.690800e-01 1.087959e-01 1.963938e-01 1.243806e-01 1.000000e-02
<GCONST> 8.021525e+01
<STATE> 7
<MEAN> 39
 -6.783322e+00 -2.990697e+00 2.700570e+00 3.187271e+00 3.193875e+00 -2.643381e+00 -4.323574e-02 1.549285e-01 3.271478e+00 1.782158e-01 1.106160e+00 -1.739932e+00 5.764074e-01 -3.999322e-01 2.585379e-01 -4.081160e-01 -6.887718e-01 -3.619372e-01 -1.686807e-01 3.124514e-02 -3.924914e-01 -4.171279e-01 -1.306484e-01 -1.702418e-01 1.126409e-01 -3.081843e-02 4.228680e-02 -7.900773e-02 8.208487e-02 7.130864e-02 -5.978554e-04 3.634319e-03 -8.247130e-02 -1.134210e-01 1.158438e-02 -1.384937e-03 3.507435e-02 5.046780e-02 2.418764e-03
<VARIANCE> 39
 2.500198e+01 6.289695e+00 1.522216e+01 3.567405e+01 1.491579e+01 1.604521e+01 2.509512e+01 2.245049e+01 2.527594e+01 1.854904e+01 1.071896e+01 2.032876e+01 6.900379e-02 3.947955e-01 5.857612e-01 9.845926e-01 1.918224e+00 1.041826e+00 1.432710e+00 1.482653e+00 1.811818e+00 1.788214e+00 1.209455e+00 7.413179e-01 1.080648e+00 1.000000e-02 6.071040e-02 7.890360e-02 1.257377e-01 2.758467e-01 1.723189e-01 2.271088e-01 1.896827e-01 3.413256e-01 2.720919e-01 2.056492e-01 1.470769e-01 1.873748e-01 1.000000e-02
<GCONST> 7.444910e+01
<TRANSP> 8
 0.000000e+00 1.000000e+00 0.000000e+00 0.000000e+00 0.000000e+00 0.000000e+00 0.000000e+00 0.000000e+00
 0.000000e+00 9.310345e-01 6.896552e-02 0.000000e+00 0.000000e+00 0.000000e+00 0.000000e+00 0.000000e+00
 0.000000e+00 0.000000e+00 8.876405e-01 1.123595e-01 0.000000e+00 0.000000e+00 0.000000e+00 0.000000e+00
 0.000000e+00 0.000000e+00 0.000000e+00 9.421965e-01 5.780346e-02 0.000000e+00 0.000000e+00 0.000000e+00
 0.000000e+00 0.000000e+00 0.000000e+00 0.000000e+00 9.130435e-01 8.695652e-02 0.000000e+00 0.000000e+00
 0.000000e+00 0.000000e+00 0.000000e+00 0.000000e+00 0.000000e+00 9.082569e-01 9.174313e-02 0.000000e+00
 0.000000e+00 0.000000e+00 0.000000e+00 0.000000e+00 0.000000e+00 0.000000e+00 9.137931e-01 8.620691e-02
 0.000000e+00 0.000000e+00 0.000000e+00 0.000000e+00 0.000000e+00 0.000000e+00 0.000000e+00 0.000000e+00
<ENDHMM>
