~o
<STREAMINFO> 1 39
<VECSIZE> 39<NULLD><MFCC_E_D_A><DIAGC>
~h "dix"
<BEGINHMM>
<NUMSTATES> 5
<STATE> 2
<MEAN> 39
 -9.555564e+00 -4.366605e+00 7.600823e+00 1.209325e+00 4.176833e+00 2.934733e-01 1.071242e+00 -1.207910e+00 5.321165e+00 1.553260e+00 -7.117738e-01 1.586121e-01 7.641330e-01 -1.346924e-01 -1.687211e-01 3.727217e-01 2.134044e-02 1.753215e-01 -1.045416e-01 1.441276e-02 3.206620e-02 1.751673e-01 1.669397e-01 -8.441596e-02 -2.981843e-02 1.168538e-02 -6.098536e-02 2.586304e-02 -5.925171e-02 -8.113102e-02 6.367944e-03 -7.446569e-02 2.079249e-02 -6.040971e-03 -9.395767e-02 -3.136316e-02 8.507912e-03 -1.510456e-02 -2.225520e-03
<VARIANCE> 39
 1.306783e+01 5.651662e+01 7.817947e+01 5.809698e+01 2.397123e+01 2.164380e+01 2.723213e+01 3.194202e+01 3.102591e+01 2.227143e+01 1.757157e+01 1.147440e+01 3.597547e-02 9.278335e-01 2.231234e+00 2.477424e+00 3.347448e+00 2.393379e+00 2.058462e+00 1.563431e+00 2.231456e+00 2.530830e+00 2.459697e+00 1.549684e+00 1.041165e+00 1.000000e-02 1.673457e-01 3.374665e-01 3.298473e-01 4.229720e-01 4.710919e-01 3.454768e-01 2.897569e-01 4.476444e-01 3.967647e-01 4.836940e-01 2.900592e-01 2.128235e-01 1.000000e-02
<GCONST> 9.388918e+01
<STATE> 3
<MEAN> 39
 -1.691105e+01 -1.443114e+01 1.700725e+01 -1.238963e+01 1.718208e+01 -1.449015e+01 -3.405064e-01 2.435595e+00 1.333364e+00 7.619602e+00 -4.453512e+00 6.141316e-01 5.494315e-01 -4.106414e-01 4.587307e-02 -4.818888e-01 -3.854552e-01 7.484255e-02 -2.022629e-01 -1.800157e-01 -3.488706e-01 -4.902662e-01 -2.206344e-01 7.602659e-02 -2.516359e-01 -1.878882e-02 9.535549e-02 -7.978550e-02 -9.110252e-03 1.974112e-01 -8.739093e-02 1.380730e-01 -7.117733e-02 -3.334125e-02 1.092626e-01 -1.762269e-02 8.079167e-03 1.278225e-02 2.114625e-03
<VARIANCE> 39
 1.696074e+01 3.427814e+01 5.700463e+01 4.284533e+01 4.836675e+01 5.064430e+01 3.612819e+01 2.392128e+01 3.650618e+01 3.673130e+01 1.296060e+01 1.289866e+01 2.627255e-02 1.539318e+00 1.093526e+00 1.956848e+00 3.051371e+00 1.897017e+00 3.669512e+00 3.151867e+00 1.964211e+00 1.959862e+00 2.908619e+00 1.131503e+00 1.132557e+00 1.000000e-02 1.398828e-01 2.483230e-01 2.693675e-01 4.008250e-01 3.865705e-01 3.853652e-01 5.274724e-01 4.795999e-01 4.804790e-01 5.445405e-01 2.127846e-01 1.901085e-01 1.000000e-02
<GCONST> 9.452631e+01
<STATE> 4
<MEAN> 39
 -1.484596e+01 -1.261764e+00 9.838264e-02 -3.672190e+00 3.396116e+00 -4.731348e+00 2.112463e+00 -3.061398e+00 6.906822e-01 -2.481796e-01 3.440085e-01 -1.917620e+00 6.705174e-01 1.768291e-01 -3.805842e-02 -4.931982e-02 5.510127e-02 8.309175e-03 -2.544156e-03 -1.070670e-01 1.238565e-03 -1.005425e-01 -3.757935e-02 4.509397e-02 4.814690e-02 -6.337757e-03 2.382180e-02 -2.016860e-03 3.168457e-02 2.312408e-02 3.459639e-02 1.396741e-02 -2.262586e-02 2.237282e-02 2.044432e-02 7.085013e-03 1.729013e-02 2.679203e-02 4.514390e-04
<VARIANCE> 39
 1.778052e+01 1.256775e+01 1.430156e+01 2.370520e+01 1.687623e+01 1.440345e+01 1.900273e+01 1.950731e+01 1.453328e+01 1.608219e+01 1.279373e+01 1.106621e+01 2.530509e-02 3.423934e-01 5.434894e-01 6.881698e-01 8.566337e-01 9.403976e-01 9.755498e-01 1.400370e+00 1.486421e+00 1.331589e+00 1.356744e+00 1.295910e+00 1.133122e+00 1.000000e-02 6.391154e-02 1.057581e-01 1.173442e-01 1.701720e-01 1.775238e-01 1.842425e-01 2.634620e-01 2.844338e-01 2.681635e-01 2.349826e-01 2.557980e-01 2.263375e-01 1.000000e-02
<GCONST> 7.071851e+01
<TRANSP> 5
 0.000000e+00 1.000000e+00 0.000000e+00 0.000000e+00 0.000000e+00
 0.000000e+00 9.578059e-01 4.219410e-02 0.000000e+00 0.000000e+00
 0.000000e+00 0.000000e+00 8.684211e-01 1.315790e-01 0.000000e+00
 0.000000e+00 0.000000e+00 0.000000e+00 9.687500e-01 3.125000e-02
 0.000000e+00 0.000000e+00 0.000000e+00 0.000000e+00 0.000000e+00
<ENDHMM>
