~o
<STREAMINFO> 1 39
<VECSIZE> 39<NULLD><MFCC_E_D_A><DIAGC>
~h "douze"
<BEGINHMM>
<NUMSTATES> 6
<STATE> 2
<MEAN> 39
 -8.537999e+00 -2.011401e+00 1.139249e+00 -1.823785e+00 1.330347e+00 -5.540834e-01 2.346830e+00 -1.379792e+00 1.642200e+00 -1.067989e+00 1.168702e+00 1.974795e-01 6.816084e-01 1.276085e-01 -2.602973e-01 3.163775e-02 -8.390396e-02 2.877282e-01 3.480311e-01 1.497417e-01 2.494067e-01 1.694774e-01 -1.692965e-02 1.386470e-01 1.249513e-01 1.800619e-02 7.196107e-02 -3.366173e-02 7.116504e-02 6.157578e-02 1.428592e-02 5.490708e-02 1.038931e-01 3.876032e-02 2.753641e-03 3.245269e-02 3.253832e-02 1.022021e-01 1.860946e-03
<VARIANCE> 39
 8.584229e+00 8.556912e+00 1.609076e+01 7.503351e+00 1.140958e+01 1.676113e+01 1.365890e+01 1.536624e+01 1.269575e+01 1.331532e+01 1.117216e+01 1.069579e+01 2.412044e-02 3.371817e-01 8.386238e-01 1.112238e+00 1.338021e+00 1.960964e+00 2.176975e+00 1.829906e+00 2.458579e+00 1.706828e+00 1.697306e+00 1.476096e+00 1.476362e+00 1.000000e-02 5.899854e-02 9.273557e-02 1.411206e-01 2.215801e-01 2.881201e-01 4.261764e-01 2.932380e-01 4.773107e-01 3.627966e-01 2.717391e-01 2.958241e-01 2.868128e-01 1.000000e-02
<GCONST> 7.475755e+01
<STATE> 3
<MEAN> 39
 -2.626128e+00 -1.204533e+01 1.686943e+01 -4.899530e+00 -5.118337e-01 1.148328e+01 3.711633e+00 1.961408e+00 2.052164e+00 -3.708058e-01 -2.451932e-01 6.295852e+00 7.626597e-01 8.952869e-02 1.985894e-01 4.376072e-02 1.383203e-01 1.555215e-01 2.068836e-01 1.338426e-01 1.536296e-01 1.079096e-01 -6.842183e-02 -5.636894e-02 2.760509e-01 6.895607e-04 -1.659535e-02 1.526272e-01 -4.703797e-02 -3.016080e-02 -1.670367e-01 -1.041810e-01 -2.834427e-02 -4.022882e-02 7.514215e-02 -2.829424e-02 -5.468674e-02 -7.999653e-02 -3.615727e-03
<VARIANCE> 39
 1.076016e+02 5.812577e+01 8.315459e+01 1.107319e+02 2.341278e+02 6.967120e+01 3.085218e+01 4.614676e+01 8.112489e+01 6.314523e+01 4.287946e+01 3.413258e+01 4.952535e-02 2.593101e+00 2.606427e+00 2.173199e+00 3.314633e+00 7.005576e+00 4.388808e+00 1.879148e+00 4.693371e+00 3.795819e+00 2.990011e+00 2.031243e+00 2.285628e+00 1.000000e-02 1.877014e-01 4.131932e-01 3.254244e-01 4.899735e-01 1.020711e+00 7.702436e-01 2.925714e-01 8.404714e-01 5.264111e-01 5.149047e-01 3.532996e-01 4.132922e-01 1.000000e-02
<GCONST> 1.143082e+02
<STATE> 4
<MEAN> 39
 -5.553002e+00 -2.838146e-01 4.542343e+00 6.257214e-01 4.539649e+00 5.912010e+00 6.642521e+00 4.527126e+00 5.784782e+00 -1.938562e+00 1.229058e+00 3.231366e+00 6.976057e-01 -2.125845e-01 3.258243e-02 -5.458192e-02 -8.044729e-02 -1.551580e-01 -8.889668e-02 -1.933044e-03 -1.459145e-01 -1.031698e-01 -4.744790e-02 -4.730809e-03 -1.300254e-01 -6.672033e-03 -5.008642e-02 -2.501646e-02 -1.368814e-02 -3.740774e-02 1.624353e-02 -4.068029e-02 -6.828444e-02 -4.858266e-02 -6.516077e-02 1.850518e-02 -2.639747e-03 -5.341475e-02 -1.305113e-03
<VARIANCE> 39
 2.347707e+01 1.926366e+01 1.734801e+01 3.732301e+01 3.267761e+01 2.917332e+01 1.855153e+01 3.461658e+01 2.645430e+01 1.445514e+01 2.878948e+01 1.760264e+01 1.553034e-01 1.181505e+00 7.872328e-01 5.944048e-01 1.137690e+00 1.852123e+00 1.650489e+00 1.469822e+00 1.861718e+00 1.581958e+00 1.518779e+00 1.772492e+00 1.704168e+00 1.000000e-02 1.481459e-01 1.189553e-01 9.784773e-02 1.799147e-01 2.765527e-01 3.034590e-01 2.390039e-01 3.051739e-01 2.521945e-01 3.178367e-01 2.577805e-01 3.267412e-01 1.000000e-02
<GCONST> 8.416142e+01
<STATE> 5
<MEAN> 39
 -1.074671e+01 -2.456930e+00 4.487087e-01 -3.125928e+00 1.204648e+00 -1.126307e+00 9.304606e-01 -2.503886e+00 1.177425e+00 -1.537634e+00 9.262392e-01 -4.244467e-01 5.456317e-01 3.507986e-02 3.769044e-02 -3.705640e-02 4.598902e-02 -4.964585e-02 -1.457384e-01 -1.350698e-01 7.259955e-02 -1.141386e-02 4.739052e-02 -2.290410e-02 -3.586242e-02 -7.199730e-03 1.967603e-02 -4.861310e-03 6.740705e-03 2.932598e-02 1.043228e-02 3.056296e-02 6.206020e-03 4.590339e-03 2.536918e-02 -1.055272e-03 3.015073e-02 5.600975e-02 4.308609e-04
<VARIANCE> 39
 8.767980e+00 4.449987e+00 1.057104e+01 8.817405e+00 1.316425e+01 1.752304e+01 1.465061e+01 1.756912e+01 1.492600e+01 1.058302e+01 1.333197e+01 1.432647e+01 2.055559e-02 3.141411e-01 3.386267e-01 5.532050e-01 6.661735e-01 7.993702e-01 1.426021e+00 1.416361e+00 1.232701e+00 1.020173e+00 1.140775e+00 1.261298e+00 1.209626e+00 1.000000e-02 4.614867e-02 5.748950e-02 1.009367e-01 1.031684e-01 1.444700e-01 2.740828e-01 2.635026e-01 2.380980e-01 1.910017e-01 2.201494e-01 2.399561e-01 2.321531e-01 1.000000e-02
<GCONST> 6.355970e+01
<TRANSP> 6
 0.000000e+00 1.000000e+00 0.000000e+00 0.000000e+00 0.000000e+00 0.000000e+00
 0.000000e+00 9.137931e-01 8.620691e-02 0.000000e+00 0.000000e+00 0.000000e+00
 0.000000e+00 0.000000e+00 9.173554e-01 8.264462e-02 0.000000e+00 0.000000e+00
 0.000000e+00 0.000000e+00 0.000000e+00 9.612403e-01 3.100775e-02 7.751939e-03
 0.000000e+00 0.000000e+00 0.000000e+00 0.000000e+00 9.649123e-01 3.508772e-02
 0.000000e+00 0.000000e+00 0.000000e+00 0.000000e+00 0.000000e+00 0.000000e+00
<ENDHMM>
