~o
<STREAMINFO> 1 39
<VECSIZE> 39<NULLD><MFCC_E_D_A><DIAGC>
~h "egal"
<BEGINHMM>
<NUMSTATES> 6
<STATE> 2
<MEAN> 39
 -6.382288e+00 -7.584365e+00 9.058926e+00 6.114944e+00 3.164896e+00 -2.989582e-01 -7.517834e-01 1.573807e+00 5.453159e+00 -2.716679e+00 1.606367e+00 1.950805e-01 7.183898e-01 1.168877e-01 -7.607994e-02 2.006158e-01 9.529967e-02 -1.012305e-02 -1.226224e-03 3.967658e-02 8.452159e-02 1.533424e-01 -1.562640e-01 2.003816e-02 2.446618e-01 1.296404e-02 4.463040e-02 -1.316341e-03 -1.913810e-02 7.834910e-02 4.661158e-02 3.921062e-02 -2.536192e-02 -1.375536e-02 5.016479e-02 -1.425458e-02 -3.378564e-02 -8.994564e-03 8.971834e-04
<VARIANCE> 39
 2.300784e+01 3.530715e+01 5.395716e+01 5.845449e+01 1.970783e+01 2.935667e+01 4.003152e+01 3.939786e+01 4.188699e+01 2.853322e+01 1.684770e+01 2.382820e+01 3.917699e-02 1.269562e+00 1.839196e+00 4.005196e+00 3.947554e+00 1.766324e+00 1.865351e+00 1.269384e+00 2.364075e+00 3.402383e+00 1.804493e+00 1.395180e+00 1.845643e+00 1.000000e-02 1.833972e-01 3.191466e-01 5.376014e-01 5.627240e-01 3.199323e-01 3.270078e-01 2.574347e-01 4.443395e-01 5.189609e-01 3.034087e-01 2.346539e-01 3.173552e-01 1.000000e-02
<GCONST> 9.654381e+01
<STATE> 3
<MEAN> 39
 3.789533e+00 -1.065388e+01 8.579697e+00 9.623057e+00 3.995820e+00 6.020040e+00 -2.406976e+00 -2.176736e+00 5.160374e+00 -7.618309e+00 1.706596e+00 2.173077e+00 9.157929e-01 1.133994e+00 1.273796e-01 -5.956938e-01 -9.759007e-02 2.736271e-01 5.135722e-01 -2.796237e-01 -1.321418e+00 -6.744063e-01 -1.413983e-01 2.372650e-01 -1.642646e-01 1.464022e-02 -1.415364e-01 9.548645e-02 -2.443861e-01 -5.284570e-01 -2.081266e-01 -1.722050e-01 3.322418e-02 -9.254764e-02 -5.744453e-01 -3.002851e-02 2.179228e-02 5.059390e-02 -9.775369e-03
<VARIANCE> 39
 6.061826e+01 4.087630e+01 1.416551e+01 2.348280e+01 2.528069e+01 5.273730e+01 2.727106e+01 3.020522e+01 6.994017e+01 4.444517e+01 1.950920e+01 2.143878e+01 1.000000e-02 1.300048e+00 1.024043e+00 8.124287e-01 5.125346e+00 2.115907e+00 2.411802e+00 2.412287e+00 1.881229e+00 4.670473e+00 1.979289e+00 1.134697e+00 1.568779e+00 1.000000e-02 9.824587e-02 1.966788e-01 2.191251e-01 6.527782e-01 3.808867e-01 2.715451e-01 3.387533e-01 3.208401e-01 6.888976e-01 2.368952e-01 2.306698e-01 2.972832e-01 1.000000e-02
<GCONST> 9.225484e+01
<STATE> 4
<MEAN> 39
 3.279974e+00 -4.465809e+00 3.295535e+00 2.994142e+00 3.592685e+00 2.204822e+00 -2.221055e-01 -9.885867e+00 -3.486483e+00 -5.656006e+00 4.028646e+00 2.067969e-01 8.937753e-01 -2.268665e-01 2.452697e-01 -3.469390e-01 -4.972021e-02 3.503749e-02 -4.686686e-02 5.355318e-01 1.997886e-01 -5.153239e-01 3.283068e-01 2.673934e-01 -3.743013e-02 -1.165193e-02 -1.657087e-01 -1.668042e-02 5.869310e-02 1.513447e-01 1.149219e-01 4.509360e-03 6.242066e-02 2.358886e-01 2.408821e-01 1.332505e-01 3.580299e-02 -2.389232e-02 -2.373463e-03
<VARIANCE> 39
 1.053422e+01 7.234596e+00 9.741563e+00 2.646960e+01 1.769290e+01 3.282976e+01 2.856357e+01 2.394777e+01 1.955018e+01 5.298127e+01 1.335503e+01 1.796884e+01 1.000000e-02 4.814525e-01 3.530112e-01 6.855533e-01 1.482866e+00 1.827441e+00 1.065550e+00 1.401775e+00 2.231270e+00 1.521051e+00 1.762271e+00 1.106590e+00 6.494571e-01 1.000000e-02 3.687248e-02 4.919754e-02 9.070052e-02 1.520490e-01 1.923541e-01 1.732533e-01 2.345814e-01 2.676030e-01 1.913529e-01 1.926108e-01 2.088079e-01 1.148845e-01 1.000000e-02
<GCONST> 6.997374e+01
<STATE> 5
<MEAN> 39
 -5.168953e+00 -1.661246e+00 5.859171e-01 2.459819e+00 5.699009e+00 1.036411e+00 2.570571e+00 -2.781757e+00 -1.923430e+00 -1.010805e+00 4.347402e+00 7.011974e-01 5.754219e-01 -3.534712e-01 7.806432e-02 -1.420024e-01 -3.389113e-01 -1.551048e-01 -1.203151e-01 -1.072015e-01 6.390560e-02 1.005325e-01 2.591247e-02 -1.914650e-01 1.550141e-02 -1.814950e-02 6.424127e-02 1.431075e-02 3.059112e-02 -1.892587e-02 -5.315406e-02 -1.785825e-02 -1.490801e-02 -6.075649e-02 -3.200170e-02 -1.433809e-02 -2.491643e-02 -1.962592e-02 1.332677e-03
<VARIANCE> 39
 1.592475e+01 1.234597e+01 1.273623e+01 3.452479e+01 3.168793e+01 3.006370e+01 2.183986e+01 1.824160e+01 2.154729e+01 1.445636e+01 2.446262e+01 1.579092e+01 3.224390e-02 4.109188e-01 6.582184e-01 9.182707e-01 1.285369e+00 1.307940e+00 1.458585e+00 1.447495e+00 1.219470e+00 1.235105e+00 1.145173e+00 1.439970e+00 8.640564e-01 1.000000e-02 6.727278e-02 8.269293e-02 1.278475e-01 2.337972e-01 2.146185e-01 2.796996e-01 2.497504e-01 2.135942e-01 2.186913e-01 2.091522e-01 2.599977e-01 1.474325e-01 1.000000e-02
<GCONST> 7.479004e+01
<TRANSP> 6
 0.000000e+00 1.000000e+00 0.000000e+00 0.000000e+00 0.000000e+00 0.000000e+00
 0.000000e+00 9.530516e-01 4.694836e-02 0.000000e+00 0.000000e+00 0.000000e+00
 0.000000e+00 0.000000e+00 8.648649e-01 1.351351e-01 0.000000e+00 0.000000e+00
 0.000000e+00 0.000000e+00 0.000000e+00 9.166667e-01 8.333333e-02 0.000000e+00
 0.000000e+00 0.000000e+00 0.000000e+00 0.000000e+00 9.545454e-01 4.545454e-02
 0.000000e+00 0.000000e+00 0.000000e+00 0.000000e+00 0.000000e+00 0.000000e+00
<ENDHMM>
