~o
<STREAMINFO> 1 39
<VECSIZE> 39<NULLD><MFCC_E_D_A><DIAGC>
~h "et"
<BEGINHMM>
<NUMSTATES> 3
<STATE> 2
<MEAN> 39
 -3.920672e+00 -7.614508e+00 9.407955e+00 1.039576e+01 4.132984e+00 2.288853e+00 2.348530e-01 -2.136597e-01 8.177673e+00 -2.500781e+00 1.000484e+00 -1.631221e-01 7.643409e-01 -6.460581e-02 1.096627e-01 -1.634866e-01 -5.947562e-02 -4.166108e-02 -9.720974e-02 5.265862e-02 -3.257552e-03 -7.430967e-02 -4.408815e-02 -1.272752e-02 7.138456e-02 -7.885624e-03 -2.498652e-02 3.834251e-02 -5.473088e-02 -4.259208e-02 -2.269200e-02 -4.801435e-02 -2.451644e-02 -4.079550e-02 -2.079114e-02 1.971952e-02 8.101138e-03 -4.824779e-03 -3.045697e-03
<VARIANCE> 39
 2.683882e+01 4.168596e+01 3.484686e+01 4.360722e+01 1.995380e+01 3.840413e+01 2.361743e+01 2.428592e+01 3.794318e+01 1.641811e+01 1.568821e+01 1.499447e+01 7.038390e-02 8.202040e-01 1.330091e+00 1.671597e+00 2.631060e+00 1.412736e+00 1.246923e+00 1.344142e+00 1.866218e+00 1.961438e+00 1.061488e+00 1.199790e+00 1.034130e+00 1.000000e-02 8.690684e-02 1.459657e-01 2.114453e-01 3.185750e-01 2.020371e-01 1.997023e-01 2.429360e-01 3.372543e-01 2.678519e-01 1.858943e-01 2.334688e-01 1.819470e-01 1.000000e-02
<GCONST> 8.411521e+01
<TRANSP> 3
 0.000000e+00 1.000000e+00 0.000000e+00
 0.000000e+00 9.557522e-01 4.424778e-02
 0.000000e+00 0.000000e+00 0.000000e+00
<ENDHMM>
