~o
<STREAMINFO> 1 39
<VECSIZE> 39<NULLD><MFCC_E_D_A><DIAGC>
~h "fois"
<BEGINHMM>
<NUMSTATES> 5
<STATE> 2
<MEAN> 39
 -9.138798e+00 -7.715777e+00 -2.089545e+00 -6.312223e+00 8.522555e-01 -2.829049e+00 1.603878e+00 -1.530803e+00 7.524261e-01 -8.139365e-01 3.103330e-01 -5.711974e-01 4.841481e-01 2.624368e-01 9.803881e-02 1.359903e-01 -3.471532e-02 -1.091230e-01 -2.530014e-01 1.160661e-02 6.934284e-02 2.612990e-02 9.282126e-02 2.980923e-02 1.099173e-01 1.142723e-02 9.827530e-02 1.432752e-01 9.839942e-02 1.118534e-01 -4.572687e-02 -2.060579e-02 -6.590654e-02 -2.547088e-02 3.793655e-02 2.440942e-02 3.682474e-02 1.938599e-02 3.018177e-03
<VARIANCE> 39
 1.168531e+01 5.612532e+01 1.928941e+01 3.523331e+01 1.145011e+01 2.169522e+01 1.936683e+01 2.459689e+01 2.316178e+01 1.830843e+01 1.409186e+01 1.097739e+01 1.966654e-02 5.403228e-01 9.776023e-01 1.210082e+00 1.061222e+00 9.374971e-01 1.741421e+00 9.336395e-01 1.209386e+00 1.603130e+00 1.373405e+00 1.285965e+00 1.210978e+00 1.000000e-02 6.271171e-02 1.670605e-01 2.001889e-01 2.055289e-01 1.591285e-01 3.418622e-01 1.539226e-01 2.355272e-01 3.369178e-01 2.490781e-01 2.727619e-01 2.375113e-01 1.000000e-02
<GCONST> 7.658125e+01
<STATE> 3
<MEAN> 39
 5.603904e+00 1.087974e-01 1.337991e+01 -2.981519e+00 -1.169509e+01 -3.672220e+00 -1.193679e+00 -5.505363e-01 5.186620e+00 -4.024838e-01 3.746261e-01 3.563817e+00 8.391757e-01 9.590566e-01 1.147854e+00 9.107750e-01 3.504816e-01 -9.852530e-01 -8.539732e-02 -6.509674e-02 3.060197e-02 5.803295e-01 1.391408e-02 -7.474959e-02 1.867852e-01 2.960816e-02 -1.739556e-01 -2.264629e-01 -3.189785e-01 -2.354633e-01 4.154930e-02 1.098084e-02 1.429791e-01 3.971347e-02 -4.690923e-02 -9.463678e-02 -1.540283e-01 -1.634085e-01 -7.547711e-03
<VARIANCE> 39
 3.152120e+01 5.967929e+01 8.078816e+01 5.348805e+01 1.372677e+02 1.715022e+01 1.027201e+01 2.513492e+01 2.931583e+01 3.069463e+01 2.328154e+01 2.206832e+01 3.046109e-02 1.775897e+00 5.187164e+00 5.836706e+00 3.337140e+00 5.269124e+00 1.705700e+00 1.619693e+00 2.170225e+00 2.408481e+00 1.770698e+00 1.344509e+00 1.479456e+00 1.000000e-02 1.947946e-01 7.377661e-01 8.258539e-01 3.544417e-01 1.023115e+00 2.908700e-01 2.503723e-01 2.799221e-01 3.820940e-01 2.679829e-01 1.870483e-01 2.603919e-01 1.000000e-02
<GCONST> 9.968945e+01
<STATE> 4
<MEAN> 39
 1.107983e+00 3.222993e+00 2.918071e+00 -5.706885e+00 -7.240977e+00 -5.486009e+00 7.410668e-01 6.910573e-01 3.029509e+00 -4.898062e+00 -3.078422e+00 -1.688533e+00 7.287164e-01 -5.872097e-01 -3.564068e-01 -5.225025e-01 -1.920729e-01 4.719438e-01 1.141686e-01 2.806694e-02 -8.730688e-02 -4.847997e-01 -3.418667e-01 -2.631761e-01 -3.630655e-01 -2.829814e-02 -4.664651e-02 -2.866910e-02 5.742750e-02 5.381101e-02 4.128740e-02 9.615460e-03 -9.131505e-03 -5.432741e-02 -4.355284e-02 2.186366e-02 4.052927e-02 2.818056e-02 -1.228350e-03
<VARIANCE> 39
 2.701720e+01 2.452884e+01 2.101965e+01 1.332043e+01 3.162937e+01 2.070544e+01 1.462071e+01 1.466006e+01 2.865568e+01 3.036514e+01 2.101272e+01 1.337506e+01 7.356678e-02 7.363169e-01 7.997809e-01 6.817185e-01 9.667687e-01 1.244907e+00 9.033005e-01 1.375771e+00 1.413046e+00 1.541608e+00 1.841237e+00 1.916748e+00 1.256998e+00 1.000000e-02 8.977836e-02 1.109305e-01 1.141495e-01 1.229410e-01 1.517024e-01 1.432446e-01 2.587724e-01 2.397920e-01 2.747964e-01 2.560299e-01 3.629828e-01 2.167795e-01 1.000000e-02
<GCONST> 7.732505e+01
<TRANSP> 5
 0.000000e+00 1.000000e+00 0.000000e+00 0.000000e+00 0.000000e+00
 0.000000e+00 9.507389e-01 4.926109e-02 0.000000e+00 0.000000e+00
 0.000000e+00 0.000000e+00 8.901099e-01 1.098901e-01 0.000000e+00
 0.000000e+00 0.000000e+00 0.000000e+00 9.342105e-01 6.578948e-02
 0.000000e+00 0.000000e+00 0.000000e+00 0.000000e+00 0.000000e+00
<ENDHMM>
