~o
<STREAMINFO> 1 39
<VECSIZE> 39<NULLD><MFCC_E_D_A><DIAGC>
~h "huit"
<BEGINHMM>
<NUMSTATES> 6
<STATE> 2
<MEAN> 39
 -8.047897e+00 -3.544428e+00 -6.260930e-01 2.972821e+00 6.163523e+00 1.458283e-01 1.891146e-01 -1.504100e+00 5.317079e+00 1.943049e+00 5.232943e-01 -7.257422e-01 7.201977e-01 3.224293e-01 -3.445438e-01 4.595185e-02 7.679924e-01 6.815574e-01 1.432117e-01 -2.381631e-01 1.972547e-01 4.259936e-01 2.962356e-01 -1.081480e-01 1.943559e-01 2.690375e-02 2.890719e-02 -3.251420e-02 1.424208e-01 9.140901e-02 -1.607447e-01 -7.750579e-02 1.223956e-01 4.252424e-02 -2.840003e-02 -9.633985e-02 -8.890525e-02 7.305547e-03 5.360353e-04
<VARIANCE> 39
 8.810983e+00 5.653056e+00 7.748225e+00 1.951195e+01 3.281353e+01 1.400140e+01 1.272587e+01 9.848649e+00 1.715161e+01 2.018390e+01 1.147860e+01 9.616381e+00 4.348057e-02 2.759756e-01 4.180136e-01 7.082423e-01 1.394826e+00 1.546856e+00 1.096496e+00 1.641543e+00 1.333842e+00 1.271996e+00 1.591698e+00 1.479460e+00 9.412758e-01 1.000000e-02 5.639565e-02 7.706342e-02 1.263822e-01 2.228755e-01 3.709884e-01 1.634679e-01 3.520871e-01 2.036962e-01 2.541038e-01 2.605683e-01 2.666450e-01 1.903530e-01 1.000000e-02
<GCONST> 6.980528e+01
<STATE> 3
<MEAN> 39
 -4.439458e+00 -9.634817e+00 1.410725e+01 9.676861e+00 3.801421e+00 3.007524e+00 -2.325742e+00 1.262594e+00 8.516139e+00 8.324327e-01 -7.875787e-01 2.499435e-01 8.686907e-01 -3.271264e-01 1.765799e-01 3.491598e-01 -8.021355e-01 -4.445938e-01 -1.417836e-01 3.308250e-02 -9.615383e-02 -2.806650e-01 -3.913349e-02 8.140036e-02 -1.593971e-01 -1.326399e-02 -6.748676e-02 9.683267e-02 -2.882772e-01 -1.763861e-01 4.121584e-02 -7.790258e-03 -2.802108e-02 -7.783318e-02 -1.284120e-01 -4.409575e-02 7.658024e-02 2.108520e-02 -7.928389e-03
<VARIANCE> 39
 2.506603e+01 5.308278e+01 1.227525e+02 6.282495e+01 4.672015e+01 4.626227e+01 6.724178e+01 4.245076e+01 3.024113e+01 2.693239e+01 2.993535e+01 1.933290e+01 4.298224e-02 1.237817e+00 3.931062e+00 5.100681e+00 4.232204e+00 4.781891e+00 4.581253e+00 4.164636e+00 2.774377e+00 4.420585e+00 1.738583e+00 1.925893e+00 1.123913e+00 1.000000e-02 1.453826e-01 5.812645e-01 5.242508e-01 7.543661e-01 8.506516e-01 9.129218e-01 7.554665e-01 6.525277e-01 7.247933e-01 3.468671e-01 3.534375e-01 2.049950e-01 1.000000e-02
<GCONST> 1.087978e+02
<STATE> 4
<MEAN> 39
 -1.051124e+01 -2.528271e+00 2.638913e-01 -2.569474e+00 1.755360e+00 -2.627138e+00 1.316315e+00 -1.939545e+00 3.781863e-01 -1.164669e+00 8.766156e-01 -1.482591e+00 5.443237e-01 -5.470675e-02 7.044300e-03 -1.675752e-01 -9.218843e-02 -7.420433e-02 -3.664118e-02 1.317378e-02 -3.062612e-02 -1.256983e-01 -1.852084e-02 2.643171e-02 2.185744e-03 -6.966051e-03 5.756496e-03 -1.416303e-02 8.105108e-02 2.834412e-02 1.870528e-02 3.335424e-02 -1.734576e-02 1.788911e-02 5.645366e-02 3.322854e-02 -3.118367e-03 -1.184466e-02 2.851480e-03
<VARIANCE> 39
 4.566581e+00 4.650770e+00 1.004005e+01 1.100771e+01 1.252220e+01 1.060110e+01 1.469332e+01 1.317188e+01 1.125262e+01 1.077517e+01 1.015990e+01 9.992065e+00 3.166380e-02 3.959962e-01 3.914953e-01 9.148549e-01 8.661762e-01 1.194622e+00 1.179729e+00 1.381044e+00 1.094641e+00 1.177937e+00 1.074794e+00 8.907703e-01 9.469642e-01 1.000000e-02 7.272513e-02 7.461975e-02 1.209787e-01 1.717210e-01 2.321458e-01 2.451289e-01 2.764185e-01 1.901370e-01 2.218401e-01 1.831079e-01 1.731851e-01 1.735440e-01 1.000000e-02
<GCONST> 6.346174e+01
<STATE> 5
<MEAN> 39
 -8.723073e+00 -6.835417e+00 1.003983e+01 -7.388156e+00 9.031686e+00 -3.000843e+00 -5.369151e+00 -1.910079e-01 -3.301755e+00 3.239356e+00 -1.535002e+00 -1.608120e+00 3.356589e-01 4.830357e-01 7.574888e-02 5.422371e-02 2.762410e-02 1.607476e-01 5.566614e-01 -2.563830e-01 -3.703252e-01 -1.472586e-01 -3.925310e-01 1.805731e-02 -7.816557e-02 8.257626e-03 4.040040e-02 6.261003e-03 1.339060e-02 6.253687e-02 -5.848970e-02 5.760735e-02 9.091750e-02 2.271055e-02 3.571692e-02 -1.361496e-01 -6.233447e-02 8.079939e-03 -1.619193e-04
<VARIANCE> 39
 4.924400e+01 3.895317e+01 6.214534e+01 6.714056e+01 4.142767e+01 6.228903e+01 4.792234e+01 3.528791e+01 1.391445e+01 3.210811e+01 2.569589e+01 1.413099e+01 8.058574e-02 2.334580e+00 1.133889e+00 4.105375e+00 4.985495e+00 2.999390e+00 3.785790e+00 2.602493e+00 2.194907e+00 1.695458e+00 3.129088e+00 1.765357e+00 8.902305e-01 1.000000e-02 3.840695e-01 1.263508e-01 4.763965e-01 5.840831e-01 4.239722e-01 5.013715e-01 4.696939e-01 3.682621e-01 2.401225e-01 5.254838e-01 2.610725e-01 1.752582e-01 1.000000e-02
<GCONST> 1.006523e+02
<TRANSP> 6
 0.000000e+00 1.000000e+00 0.000000e+00 0.000000e+00 0.000000e+00 0.000000e+00
 0.000000e+00 9.137931e-01 8.620691e-02 0.000000e+00 0.000000e+00 0.000000e+00
 0.000000e+00 0.000000e+00 9.218750e-01 7.812500e-02 0.000000e+00 0.000000e+00
 0.000000e+00 0.000000e+00 0.000000e+00 9.647887e-01 3.521127e-02 0.000000e+00
 0.000000e+00 0.000000e+00 0.000000e+00 0.000000e+00 8.529412e-01 1.470588e-01
 0.000000e+00 0.000000e+00 0.000000e+00 0.000000e+00 0.000000e+00 0.000000e+00
<ENDHMM>
