~o
<STREAMINFO> 1 39
<VECSIZE> 39<NULLD><MFCC_E_D_A><DIAGC>
~h "moins"
<BEGINHMM>
<NUMSTATES> 6
<STATE> 2
<MEAN> 39
 -5.360235e+00 -7.909413e-01 1.336877e+00 1.159598e-01 7.652978e-01 -3.391394e+00 3.004424e+00 2.974888e-02 1.147565e+00 -2.242629e+00 1.615934e+00 7.509030e-02 7.809875e-01 6.390948e-01 4.052693e-01 4.323853e-01 2.853298e-01 -9.028438e-02 -1.515032e-01 -1.749491e-01 -1.696650e-01 -1.004684e-01 -1.791010e-01 -1.245347e-01 -6.250962e-02 2.308387e-02 9.900781e-03 2.521066e-02 -5.941477e-03 -6.981397e-02 -6.582180e-02 -7.443219e-02 -1.587795e-01 -6.932441e-02 -1.919345e-02 1.179519e-02 1.890091e-02 1.402494e-02 -1.485612e-03
<VARIANCE> 39
 1.156659e+01 1.006703e+01 1.280510e+01 1.222055e+01 9.611419e+00 8.553280e+00 1.470582e+01 2.268352e+01 1.188758e+01 8.945596e+00 1.558420e+01 1.203698e+01 2.334711e-02 3.101915e-01 4.617757e-01 6.670980e-01 6.513064e-01 1.131104e+00 1.505921e+00 1.630216e+00 1.566719e+00 1.431281e+00 9.863446e-01 1.232363e+00 9.999260e-01 1.000000e-02 3.026954e-02 4.675097e-02 1.332524e-01 1.310425e-01 2.150247e-01 3.168258e-01 2.468222e-01 2.527440e-01 2.253037e-01 1.843468e-01 2.187574e-01 1.960828e-01 1.000000e-02
<GCONST> 6.548772e+01
<STATE> 3
<MEAN> 39
 6.759027e+00 -6.143827e+00 1.523217e+01 1.916728e+00 -1.073883e+01 -2.056977e+00 -6.008123e-01 8.511309e+00 3.087034e+00 -5.614443e+00 1.068630e+00 6.584047e-02 8.474353e-01 5.369444e-01 -2.187830e-01 2.353427e-01 -3.867693e-01 -7.320669e-01 -2.283999e-02 -6.987796e-01 -3.650053e-01 3.675934e-01 -7.308834e-03 -9.742891e-02 1.030571e-01 8.925181e-03 -9.501737e-02 1.857123e-02 -1.948130e-01 -1.252690e-01 7.886394e-02 6.435782e-02 1.485963e-01 9.033292e-02 6.665905e-02 1.370350e-01 2.740846e-02 -5.845084e-02 -2.059558e-03
<VARIANCE> 39
 2.121579e+01 8.375896e+01 1.066843e+02 3.067458e+01 1.205513e+02 2.405498e+01 8.641763e+01 1.280394e+02 2.346209e+02 3.186293e+01 4.230093e+01 1.182935e+02 1.958355e-02 8.153165e-01 2.486525e+00 6.016030e+00 1.930088e+00 4.610893e+00 2.551213e+00 5.412947e+00 4.105959e+00 4.266507e+00 2.088574e+00 2.060893e+00 2.508683e+00 1.000000e-02 8.098817e-02 2.291607e-01 7.388656e-01 2.825125e-01 5.475358e-01 3.637185e-01 6.655662e-01 6.438216e-01 8.552741e-01 4.517729e-01 4.292736e-01 3.287206e-01 1.000000e-02
<GCONST> 1.104625e+02
<STATE> 4
<MEAN> 39
 5.488877e+00 8.591205e-01 3.313017e+00 -5.905328e+00 -8.504802e+00 -4.412395e+00 -2.841498e+00 -6.800389e-01 5.665312e+00 -3.815141e+00 -3.082746e+00 -4.566870e-01 9.491418e-01 -9.947819e-02 -2.177637e-01 -8.058827e-01 -5.961316e-01 6.115301e-02 2.950579e-01 9.148936e-01 5.162705e-01 2.571196e-02 -3.210253e-02 -8.602226e-02 -3.272827e-01 -6.863871e-03 -1.920037e-01 -3.745903e-02 6.757201e-02 2.326045e-01 1.998471e-01 1.383682e-01 1.729357e-01 3.370951e-02 -1.121172e-01 -5.313030e-02 1.822168e-02 1.533083e-02 -4.346051e-03
<VARIANCE> 39
 3.189585e+01 4.904314e+01 3.550434e+01 2.562663e+01 4.047779e+01 4.570742e+01 6.669963e+01 2.771491e+01 4.842753e+01 4.274864e+01 3.310007e+01 2.101126e+01 1.000000e-02 5.357496e-01 4.609137e-01 6.434342e-01 1.474869e+00 1.999837e+00 1.354256e+00 1.361962e+00 1.072285e+00 1.609865e+00 1.561378e+00 1.571629e+00 1.171035e+00 1.000000e-02 4.493336e-02 6.408448e-02 1.060721e-01 1.428148e-01 2.660075e-01 3.048258e-01 3.502752e-01 2.255815e-01 1.401554e-01 2.272651e-01 2.415466e-01 2.009747e-01 1.000000e-02
<GCONST> 8.114887e+01
<STATE> 5
<MEAN> 39
 -2.176639e+00 -1.000875e+00 6.160562e-01 -2.866620e+00 -1.958542e+00 -2.440247e-01 5.005501e+00 1.978558e+00 1.696629e+00 -1.930565e+00 1.419638e-01 -1.890570e+00 6.660022e-01 -9.666034e-01 -4.691180e-02 -1.103421e-01 2.802134e-01 4.417920e-01 9.032121e-02 4.662780e-02 -6.030761e-02 -6.391910e-02 1.965902e-01 1.423929e-02 -1.588677e-01 -4.048051e-02 6.395938e-02 -1.497359e-03 1.468922e-02 -8.697964e-04 -3.573417e-02 -1.056596e-01 -1.184333e-01 -7.350109e-02 7.793698e-03 -4.978066e-02 -1.256588e-02 -2.374943e-02 1.077837e-04
<VARIANCE> 39
 4.148606e+01 8.820533e+00 2.065532e+01 3.082742e+01 1.619372e+01 2.605152e+01 3.625423e+01 6.211651e+01 1.280800e+01 1.143338e+01 1.092603e+01 1.614533e+01 4.231617e-02 5.242272e-01 8.400264e-01 6.932943e-01 7.095858e-01 5.764537e-01 1.376230e+00 2.088851e+00 1.527053e+00 1.147295e+00 1.066524e+00 8.878801e-01 8.111613e-01 1.000000e-02 6.473040e-02 6.135774e-02 1.039231e-01 7.156685e-02 1.011263e-01 1.612353e-01 4.036756e-01 2.450280e-01 1.878391e-01 1.548263e-01 1.068178e-01 1.183246e-01 1.000000e-02
<GCONST> 7.009113e+01
<TRANSP> 6
 0.000000e+00 1.000000e+00 0.000000e+00 0.000000e+00 0.000000e+00 0.000000e+00
 0.000000e+00 9.236641e-01 7.633588e-02 0.000000e+00 0.000000e+00 0.000000e+00
 0.000000e+00 0.000000e+00 8.701299e-01 1.298701e-01 0.000000e+00 0.000000e+00
 0.000000e+00 0.000000e+00 0.000000e+00 8.809524e-01 1.190476e-01 0.000000e+00
 0.000000e+00 0.000000e+00 0.000000e+00 0.000000e+00 8.989899e-01 1.010101e-01
 0.000000e+00 0.000000e+00 0.000000e+00 0.000000e+00 0.000000e+00 0.000000e+00
<ENDHMM>
