~o
<STREAMINFO> 1 39
<VECSIZE> 39<NULLD><MFCC_E_D_A><DIAGC>
~h "multiplier"
<BEGINHMM>
<NUMSTATES> 14
<STATE> 2
<MEAN> 39
 -6.385233e+00 -3.409791e+00 -1.254352e-01 1.865847e+00 6.040943e+00 7.177192e-01 2.294837e+00 4.972776e-01 5.493388e+00 -1.922142e-01 -8.174911e-02 5.252779e-01 7.888088e-01 5.308295e-01 -2.380627e-01 7.854229e-02 6.857026e-01 6.344293e-01 1.788466e-01 -1.774066e-01 7.009836e-02 5.335949e-01 3.546322e-01 -2.302313e-01 -1.052885e-01 3.356332e-02 -9.636648e-03 -7.393267e-02 5.768215e-02 8.793058e-02 -1.986780e-02 -7.027154e-02 -1.759224e-02 -4.194482e-02 -1.452615e-02 5.886024e-02 4.397087e-02 -4.213854e-02 -3.450212e-03
<VARIANCE> 39
 9.454282e+00 4.928966e+00 8.037828e+00 9.936210e+00 1.335320e+01 1.202134e+01 8.025990e+00 1.241752e+01 1.668255e+01 1.174095e+01 1.138986e+01 9.218569e+00 3.285565e-02 3.845668e-01 6.024688e-01 6.600558e-01 1.049299e+00 1.290839e+00 1.230939e+00 7.258998e-01 1.756197e+00 1.490690e+00 1.139019e+00 1.380836e+00 7.436149e-01 1.000000e-02 5.089648e-02 9.031624e-02 1.194872e-01 1.870376e-01 2.178967e-01 2.208134e-01 1.112497e-01 2.577968e-01 2.359783e-01 1.907806e-01 2.449776e-01 1.393590e-01 1.000000e-02
<GCONST> 6.406982e+01
<STATE> 3
<MEAN> 39
 -8.779886e-01 -7.740003e+00 4.642769e+00 1.122641e+01 6.616749e+00 8.086107e-01 -1.043568e+00 -2.102993e+00 7.393718e+00 2.968510e+00 2.698905e-01 6.229333e-01 8.938136e-01 -1.166175e-01 -8.022526e-01 3.682192e-01 2.973527e-01 -5.242983e-01 -2.905730e-01 -2.946993e-01 -2.537722e-01 6.980308e-02 -1.063687e-01 1.817599e-01 -2.378794e-02 3.517570e-05 -1.941251e-01 5.463155e-02 -2.892965e-03 -3.636851e-01 -2.331402e-01 -2.657100e-02 4.931429e-02 7.926111e-04 -2.249953e-01 -2.204929e-01 -1.963085e-02 3.053222e-02 -8.203016e-03
<VARIANCE> 39
 4.497405e+01 7.215295e+01 3.006359e+01 3.675507e+01 2.149167e+01 4.730110e+01 3.592916e+01 7.244481e+01 2.201624e+01 1.649692e+01 2.053745e+01 1.896475e+01 1.000000e-02 1.345887e+00 3.914466e+00 1.341990e+00 2.695027e+00 2.306601e+00 4.079173e+00 2.846713e+00 5.340026e+00 4.161129e+00 2.984281e+00 2.151029e+00 1.023068e+00 1.000000e-02 1.017153e-01 4.810949e-01 2.285421e-01 3.227435e-01 4.293908e-01 6.959535e-01 4.544717e-01 7.841969e-01 7.046896e-01 6.041028e-01 4.334457e-01 2.220240e-01 1.000000e-02
<GCONST> 9.976202e+01
<STATE> 4
<MEAN> 39
 -6.238842e+00 -1.577097e+01 1.465649e+01 -7.051522e-01 6.728706e+00 -5.199726e-01 -4.866858e+00 2.272998e+00 2.480479e+00 7.913049e-01 -2.396303e+00 3.478256e+00 6.161033e-01 -9.750279e-01 6.323019e-01 9.435593e-01 -2.217268e+00 -2.221636e-02 -1.988486e-01 1.118474e-01 6.139456e-01 -1.567588e+00 -4.040345e-01 -1.222621e-01 -1.102515e-01 -2.746028e-02 1.076509e-01 8.247057e-02 -2.046926e-02 2.158450e-01 1.027022e-01 -6.740523e-02 -6.969002e-02 -1.232367e-01 8.567593e-02 2.214407e-01 -5.767554e-02 -4.189149e-02 3.198180e-03
<VARIANCE> 39
 4.608076e+01 3.220846e+01 9.728948e+01 1.088865e+02 4.813327e+01 2.462932e+01 5.999641e+01 4.851428e+01 6.115706e+01 2.821054e+01 4.115098e+01 4.890312e+01 3.869180e-02 2.059828e+00 6.216338e-01 4.601276e+00 6.036888e+00 4.630913e+00 2.595277e+00 4.002101e+00 3.233310e+00 2.195108e+00 3.313345e+00 2.938387e+00 2.667758e+00 1.000000e-02 3.411508e-01 2.376682e-01 8.206619e-01 1.256232e+00 8.979986e-01 4.739170e-01 1.003898e+00 4.824536e-01 6.635861e-01 5.916957e-01 6.658691e-01 4.364252e-01 1.000000e-02
<GCONST> 1.123294e+02
<STATE> 5
<MEAN> 39
 -1.258825e+01 -4.483381e+00 4.235151e+00 -4.524845e+00 2.050260e+00 -2.013608e+00 1.000402e+00 -1.415501e+00 7.917901e-02 -7.938354e-01 9.897860e-01 -1.679642e+00 6.090799e-01 -2.497510e-01 1.526277e-02 2.792647e-01 -1.059831e-01 -1.252405e-01 -4.604970e-02 4.633203e-02 -9.749991e-02 1.253432e-01 1.533616e-01 7.026167e-03 -5.892811e-02 1.981332e-03 1.454540e-01 -1.206523e-01 -2.049563e-02 2.530573e-01 5.378443e-02 6.387142e-02 5.061750e-02 2.912214e-02 2.007504e-01 9.112569e-02 1.655540e-02 5.518849e-02 5.407610e-03
<VARIANCE> 39
 1.850905e+01 9.900972e+00 3.164459e+01 2.601063e+01 1.398246e+01 1.360212e+01 1.331613e+01 2.173270e+01 1.339503e+01 1.551469e+01 1.082871e+01 7.896528e+00 1.646510e-02 1.381469e+00 1.092393e+00 1.644140e+00 2.905427e+00 1.791113e+00 1.604422e+00 1.385436e+00 1.975493e+00 2.114726e+00 1.966440e+00 1.194312e+00 8.737706e-01 1.000000e-02 2.811786e-01 1.778392e-01 2.903696e-01 4.775239e-01 3.752620e-01 2.805929e-01 2.783887e-01 4.279590e-01 3.492246e-01 3.613388e-01 2.283027e-01 1.421605e-01 1.000000e-02
<GCONST> 8.164328e+01
<STATE> 6
<MEAN> 39
 -6.109868e+00 -1.214846e+01 1.403811e+01 5.637342e+00 3.237086e+00 1.181404e+00 -9.754653e-01 2.054166e-01 5.128413e+00 2.848321e+00 -2.221690e-01 6.227852e-01 8.105997e-01 8.552972e-01 2.334599e-01 -1.388848e+00 1.305724e+00 2.064711e-01 4.377735e-01 1.623515e-01 8.939219e-02 1.662768e-01 -1.435144e-01 4.602874e-02 1.663302e-01 -7.315997e-03 -3.107051e-01 4.437179e-01 -3.958238e-01 -7.073098e-01 6.848089e-02 -1.310070e-01 -1.627631e-02 5.962021e-02 -5.158683e-01 -3.415000e-01 -4.654244e-02 -1.143973e-01 -1.923510e-02
<VARIANCE> 39
 2.283275e+01 3.155377e+01 9.880313e+01 6.204702e+01 2.981646e+01 2.702665e+01 2.897450e+01 3.891115e+01 2.911912e+01 1.527288e+01 2.707579e+01 9.423470e+00 2.655991e-02 2.071266e+00 3.465212e+00 4.419354e+00 8.542779e+00 3.490914e+00 2.316858e+00 2.167464e+00 3.053625e+00 5.050813e+00 2.528142e+00 2.179242e+00 8.406133e-01 1.000000e-02 2.803021e-01 3.148730e-01 8.468791e-01 1.254263e+00 7.799215e-01 5.317804e-01 4.682666e-01 5.515932e-01 6.310334e-01 5.436324e-01 5.239048e-01 1.371560e-01 1.000000e-02
<GCONST> 1.039291e+02
<STATE> 7
<MEAN> 39
 -1.008999e+01 -5.436588e+00 6.629634e-01 -7.829701e-01 1.178087e+00 -2.346482e+00 1.284906e+00 -1.186280e+00 1.101127e+00 -1.185274e+00 6.096012e-02 -1.005333e+00 5.489659e-01 -2.171855e-01 -8.868455e-02 -1.943426e-01 -2.215105e-01 -4.353635e-02 -2.429184e-01 -1.271078e-01 2.435442e-02 -1.710551e-02 -8.575595e-03 -3.428970e-02 -8.243018e-02 -1.192819e-02 2.979191e-02 -1.152666e-01 2.022505e-01 1.285619e-01 3.164365e-02 3.559496e-02 -3.101774e-02 2.751022e-03 1.071606e-01 6.575201e-02 3.564435e-02 2.151482e-02 6.518785e-03
<VARIANCE> 39
 6.237147e+00 1.339960e+01 1.253535e+01 1.809716e+01 1.112773e+01 1.400410e+01 1.422522e+01 1.163671e+01 1.175681e+01 1.065332e+01 1.022215e+01 8.382649e+00 1.586379e-02 4.573886e-01 1.480062e+00 1.868662e+00 1.860928e+00 1.768104e+00 1.320622e+00 1.604663e+00 1.301593e+00 1.685434e+00 1.614635e+00 1.428643e+00 7.901369e-01 1.000000e-02 9.181131e-02 2.899710e-01 3.056442e-01 2.842349e-01 3.684539e-01 2.287659e-01 3.535773e-01 2.545998e-01 3.361960e-01 3.227359e-01 2.605347e-01 1.707987e-01 1.000000e-02
<GCONST> 7.489140e+01
<STATE> 8
<MEAN> 39
 -8.927997e+00 -1.321803e+01 1.004983e+01 1.765782e+00 3.170989e+00 -5.766709e-02 -1.624543e+00 1.703408e+00 4.327842e-01 -2.087072e-01 -1.544383e+00 -1.239410e+00 5.263089e-01 -1.128809e-01 -2.236894e-01 1.485739e+00 6.796234e-02 3.072694e-01 2.545203e-02 -5.547316e-02 8.531825e-02 3.482958e-01 3.086432e-01 -2.116145e-01 -1.229595e-01 2.964636e-02 1.732042e-01 3.076229e-02 1.300106e-01 2.942738e-01 -6.671401e-02 1.920943e-01 1.249287e-01 -1.593397e-01 2.878110e-01 1.013725e-01 -6.232534e-02 5.267638e-02 7.892743e-03
<VARIANCE> 39
 4.555700e+01 6.326625e+01 1.199288e+02 4.812657e+01 4.067547e+01 4.553890e+01 3.423558e+01 4.340178e+01 2.650545e+01 2.070645e+01 1.941365e+01 1.017510e+01 3.890157e-02 3.441083e+00 4.606870e+00 5.184673e+00 4.238006e+00 5.696653e+00 4.022712e+00 4.149081e+00 4.011569e+00 3.562342e+00 2.636357e+00 1.470908e+00 8.792043e-01 1.000000e-02 6.374716e-01 8.626087e-01 8.776835e-01 1.033631e+00 1.340049e+00 6.777400e-01 8.124228e-01 8.172551e-01 7.795707e-01 4.835186e-01 3.379985e-01 2.131169e-01 1.000000e-02
<GCONST> 1.117553e+02
<STATE> 9
<MEAN> 39
 -6.913614e+00 -1.357609e+01 1.951727e+01 9.756262e+00 2.403367e+00 -5.397545e-01 -9.066080e-01 -1.172487e+00 7.980271e+00 3.777109e+00 -4.461748e+00 -9.824197e-01 8.769708e-01 8.112553e-01 -3.627115e-01 4.772137e-01 1.515282e+00 -8.120833e-01 3.678056e-01 1.769279e-01 -7.414764e-01 1.213443e+00 -3.505312e-02 -3.858426e-01 6.210169e-01 4.002615e-02 -2.184928e-01 -9.108023e-03 -1.241145e-01 -3.320345e-01 -7.953409e-03 -1.497753e-01 -1.861876e-01 2.332399e-01 -2.403795e-01 -2.729369e-01 -5.503595e-02 7.905750e-02 -1.042906e-02
<VARIANCE> 39
 8.446965e+00 3.706065e+01 1.556073e+02 6.027897e+01 5.704201e+01 5.114254e+01 4.579973e+01 3.524886e+01 1.814169e+01 3.326390e+01 3.336750e+01 8.526070e+00 1.000000e-02 7.646595e-01 5.199092e-01 2.062565e+00 2.971505e+00 2.931625e+00 1.636263e+00 1.522984e+00 1.588815e+00 2.827584e+00 1.875703e+00 9.809789e-01 9.435894e-01 1.000000e-02 1.299689e-01 9.557135e-02 2.815017e-01 4.529024e-01 3.343213e-01 2.625256e-01 2.607026e-01 2.470598e-01 2.614268e-01 3.901200e-01 1.510881e-01 1.362668e-01 1.000000e-02
<GCONST> 8.731670e+01
<STATE> 10
<MEAN> 39
 -8.264445e+00 -5.991215e+00 9.968305e+00 5.584908e+00 2.093092e+00 1.553036e+00 3.572556e+00 -1.538196e+00 1.058416e+01 9.669310e-01 -2.280481e+00 1.930701e+00 8.959304e-01 1.560619e-01 2.583150e-02 9.444851e-02 3.564743e-01 8.693389e-02 4.983944e-02 7.632601e-02 1.109250e-01 1.891536e-01 -8.704142e-02 9.380861e-03 7.437558e-02 3.708159e-03 3.087202e-02 -2.293218e-03 -6.341972e-02 4.803293e-03 4.016855e-02 -2.928621e-02 -3.190818e-02 1.517564e-02 -8.407814e-02 2.131888e-02 5.176476e-02 -6.446226e-02 -1.529076e-03
<VARIANCE> 39
 5.468002e+00 1.634412e+01 1.759089e+01 3.003993e+01 1.876056e+01 1.507154e+01 1.595021e+01 2.381593e+01 3.828601e+01 1.437675e+01 1.754984e+01 1.462344e+01 1.000000e-02 2.213665e-01 3.156512e-01 5.064544e-01 1.088183e+00 6.244193e-01 6.991832e-01 8.512190e-01 1.141691e+00 1.356821e+00 1.106939e+00 9.405869e-01 8.659147e-01 1.000000e-02 2.654561e-02 4.494744e-02 1.051893e-01 1.603205e-01 1.403817e-01 1.179562e-01 1.386407e-01 2.127428e-01 3.108000e-01 2.033710e-01 1.801112e-01 1.596655e-01 1.000000e-02
<GCONST> 6.340619e+01
<STATE> 11
<MEAN> 39
 5.357868e-01 -1.886148e+01 2.652763e+01 1.438388e+01 9.530625e-01 1.001060e+00 -9.310858e+00 6.123884e+00 1.049951e+01 1.490288e+00 -1.730199e+00 1.423148e-01 9.396985e-01 6.223406e-01 -1.928997e-02 -6.287015e-01 -1.000806e-01 2.033050e-01 1.297989e-01 -3.586809e-01 2.461635e-01 -4.426508e-02 -1.240952e-01 4.347330e-01 -2.220471e-01 -3.855431e-03 -5.354241e-02 6.945501e-02 -1.244872e-01 -3.608281e-02 5.906270e-02 -8.462463e-02 6.658979e-02 -3.754327e-03 -1.103559e-01 1.000065e-02 3.652868e-02 -1.965372e-02 -2.572919e-03
<VARIANCE> 39
 2.710661e+01 3.487424e+01 8.181035e+01 6.906333e+01 2.924193e+01 3.680661e+01 1.030511e+02 5.684761e+01 1.222188e+01 1.818801e+01 6.048397e+01 2.502242e+01 1.000000e-02 3.525481e-01 4.886667e-01 1.180623e+00 9.931155e-01 6.510108e-01 1.023651e+00 3.989899e-01 6.014900e-01 1.049550e+00 8.191975e-01 8.599306e-01 3.082748e-01 1.000000e-02 8.058494e-02 1.224811e-01 1.337393e-01 1.917205e-01 1.519563e-01 1.182571e-01 8.102668e-02 1.033761e-01 2.015602e-01 1.565701e-01 1.403878e-01 6.970844e-02 1.000000e-02
<GCONST> 7.165847e+01
<STATE> 12
<MEAN> 39
 -1.470725e+00 -1.013914e+01 1.140600e+01 1.449195e+01 4.640140e+00 2.431983e-01 -8.576708e-01 7.348555e-01 9.703409e+00 2.978107e-01 -1.624276e-01 2.293108e-01 8.588938e-01 -4.447048e-01 9.596344e-01 -7.896203e-01 -1.083035e-01 5.590706e-01 -3.278719e-01 3.934139e-02 4.328188e-01 -7.832347e-01 -1.085339e-01 8.932581e-02 -4.575961e-02 -3.248231e-02 -1.949144e-01 1.530016e-01 -1.730605e-01 -3.454460e-01 -1.243889e-01 9.064573e-02 5.844150e-02 -1.146417e-01 -3.682961e-02 1.475331e-02 -9.131489e-02 -6.066401e-03 -8.319597e-03
<VARIANCE> 39
 1.409361e+01 1.823310e+01 2.468643e+01 2.463924e+01 1.982512e+01 1.707122e+01 6.076154e+01 4.225902e+01 2.589728e+01 2.487743e+01 7.580281e+00 2.289974e+01 1.693545e-02 6.740542e-01 6.907980e-01 1.503313e+00 1.167991e+00 1.539412e+00 1.041317e+00 1.789284e+00 2.361530e+00 9.870310e-01 8.666742e-01 1.085213e+00 9.485629e-01 1.000000e-02 3.878398e-02 5.932629e-02 2.025398e-01 1.376517e-01 2.827949e-01 1.505277e-01 3.716325e-01 2.912972e-01 2.207462e-01 1.889833e-01 1.387202e-01 2.079746e-01 1.000000e-02
<GCONST> 7.547572e+01
<STATE> 13
<MEAN> 39
 -7.622174e+00 -2.842332e+00 3.593172e+00 6.274137e+00 4.466894e+00 -1.211184e+00 8.503458e-01 9.164737e-01 3.994927e+00 -3.833751e-01 4.559343e-01 -5.377510e-01 5.944813e-01 -5.309486e-01 4.253595e-01 -9.323637e-01 -1.245118e+00 -2.556559e-01 -1.004768e-01 1.811097e-01 -1.596383e-01 -4.595085e-01 2.342561e-01 2.350714e-01 -1.833171e-01 -4.620936e-02 2.874357e-02 -8.089621e-02 9.452805e-02 6.145753e-02 -8.636941e-02 2.468721e-02 1.375126e-01 -5.237497e-02 9.740572e-02 5.940082e-02 3.484118e-02 3.787193e-02 5.924195e-04
<VARIANCE> 39
 5.671285e+00 7.145103e+00 1.826247e+01 5.762834e+01 1.795318e+01 1.495195e+01 1.849842e+01 2.028954e+01 1.801183e+01 1.610597e+01 1.555367e+01 7.316525e+00 5.346892e-02 3.201590e-01 8.152071e-01 5.710517e-01 1.356976e+00 1.314027e+00 1.227304e+00 1.788834e+00 1.534027e+00 1.592225e+00 1.547365e+00 1.076949e+00 1.402255e+00 1.000000e-02 3.403793e-02 8.623950e-02 6.203515e-02 1.766216e-01 2.025153e-01 1.960248e-01 2.321628e-01 2.989804e-01 2.099354e-01 2.945671e-01 2.279738e-01 1.541405e-01 1.000000e-02
<GCONST> 7.095649e+01
<TRANSP> 14
 0.000000e+00 1.000000e+00 0.000000e+00 0.000000e+00 0.000000e+00 0.000000e+00 0.000000e+00 0.000000e+00 0.000000e+00 0.000000e+00 0.000000e+00 0.000000e+00 0.000000e+00 0.000000e+00
 0.000000e+00 8.863636e-01 1.136364e-01 0.000000e+00 0.000000e+00 0.000000e+00 0.000000e+00 0.000000e+00 0.000000e+00 0.000000e+00 0.000000e+00 0.000000e+00 0.000000e+00 0.000000e+00
 0.000000e+00 0.000000e+00 8.809524e-01 1.190476e-01 0.000000e+00 0.000000e+00 0.000000e+00 0.000000e+00 0.000000e+00 0.000000e+00 0.000000e+00 0.000000e+00 0.000000e+00 0.000000e+00
 0.000000e+00 0.000000e+00 0.000000e+00 7.777778e-01 2.222222e-01 0.000000e+00 0.000000e+00 0.000000e+00 0.000000e+00 0.000000e+00 0.000000e+00 0.000000e+00 0.000000e+00 0.000000e+00
 0.000000e+00 0.000000e+00 0.000000e+00 0.000000e+00 9.212598e-01 7.874016e-02 0.000000e+00 0.000000e+00 0.000000e+00 0.000000e+00 0.000000e+00 0.000000e+00 0.000000e+00 0.000000e+00
 0.000000e+00 0.000000e+00 0.000000e+00 0.000000e+00 0.000000e+00 8.245614e-01 1.754386e-01 0.000000e+00 0.000000e+00 0.000000e+00 0.000000e+00 0.000000e+00 0.000000e+00 0.000000e+00
 0.000000e+00 0.000000e+00 0.000000e+00 0.000000e+00 0.000000e+00 0.000000e+00 9.145299e-01 8.547010e-02 0.000000e+00 0.000000e+00 0.000000e+00 0.000000e+00 0.000000e+00 0.000000e+00
 0.000000e+00 0.000000e+00 0.000000e+00 0.000000e+00 0.000000e+00 0.000000e+00 0.000000e+00 8.360656e-01 1.639344e-01 0.000000e+00 0.000000e+00 0.000000e+00 0.000000e+00 0.000000e+00
 0.000000e+00 0.000000e+00 0.000000e+00 0.000000e+00 0.000000e+00 0.000000e+00 0.000000e+00 0.000000e+00 7.560976e-01 2.439025e-01 0.000000e+00 0.000000e+00 0.000000e+00 0.000000e+00
 0.000000e+00 0.000000e+00 0.000000e+00 0.000000e+00 0.000000e+00 0.000000e+00 0.000000e+00 0.000000e+00 0.000000e+00 9.264706e-01 7.352941e-02 0.000000e+00 0.000000e+00 0.000000e+00
 0.000000e+00 0.000000e+00 0.000000e+00 0.000000e+00 0.000000e+00 0.000000e+00 0.000000e+00 0.000000e+00 0.000000e+00 0.000000e+00 7.777778e-01 2.222222e-01 0.000000e+00 0.000000e+00
 0.000000e+00 0.000000e+00 0.000000e+00 0.000000e+00 0.000000e+00 0.000000e+00 0.000000e+00 0.000000e+00 0.000000e+00 0.000000e+00 0.000000e+00 8.000000e-01 2.000000e-01 0.000000e+00
 0.000000e+00 0.000000e+00 0.000000e+00 0.000000e+00 0.000000e+00 0.000000e+00 0.000000e+00 0.000000e+00 0.000000e+00 0.000000e+00 0.000000e+00 0.000000e+00 8.648649e-01 1.351351e-01
 0.000000e+00 0.000000e+00 0.000000e+00 0.000000e+00 0.000000e+00 0.000000e+00 0.000000e+00 0.000000e+00 0.000000e+00 0.000000e+00 0.000000e+00 0.000000e+00 0.000000e+00 0.000000e+00
<ENDHMM>
