~o
<STREAMINFO> 1 39
<VECSIZE> 39<NULLD><MFCC_E_D_A><DIAGC>
~h "neuf"
<BEGINHMM>
<NUMSTATES> 5
<STATE> 2
<MEAN> 39
 2.398007e+00 -1.135461e+01 9.652859e+00 -2.168793e+00 1.014434e-01 6.599901e+00 6.292654e-01 1.809944e+00 -2.865515e+00 -2.244324e+00 3.193188e+00 1.978720e+00 6.009902e-01 7.398599e-02 -4.384431e-01 8.286989e-03 -3.009742e-01 -4.020547e-02 -5.270371e-02 -1.329547e-01 -8.684561e-02 -7.204289e-02 -4.791205e-02 -1.213631e-01 7.341777e-02 4.842581e-03 1.964032e-03 1.536361e-02 -2.106677e-02 6.287710e-03 1.023600e-02 6.281549e-03 -3.044350e-02 1.329262e-03 -1.684017e-02 -3.273901e-02 3.408186e-02 2.717164e-02 -3.663968e-04
<VARIANCE> 39
 7.245745e+01 9.090154e+01 3.658110e+01 1.387422e+02 4.120727e+01 5.335668e+01 6.444418e+01 4.686002e+01 6.300607e+01 5.651983e+01 5.078099e+01 4.676895e+01 9.408635e-02 1.931844e+00 2.076657e+00 1.712669e+00 3.308361e+00 2.954098e+00 4.059501e+00 4.334051e+00 4.066266e+00 2.882250e+00 3.780987e+00 1.792546e+00 2.065124e+00 1.000000e-02 1.851885e-01 3.332781e-01 2.579716e-01 4.546385e-01 5.649600e-01 7.037605e-01 8.201949e-01 7.713455e-01 4.606570e-01 6.075208e-01 2.103212e-01 3.435845e-01 1.000000e-02
<GCONST> 1.110526e+02
<STATE> 3
<MEAN> 39
 -4.651907e+00 -2.754376e+00 1.357093e+00 3.334652e-01 3.817195e+00 2.797246e-04 1.797741e+00 -2.958278e+00 -1.749407e+00 -3.122571e+00 3.043480e+00 9.045094e-01 7.458644e-01 -5.647580e-02 -7.960018e-02 2.121306e-02 -9.669472e-03 -1.028829e-02 1.894324e-03 -1.665926e-02 -1.583280e-02 -2.317408e-02 -3.291122e-02 9.541959e-03 -2.457862e-04 1.897061e-03 -1.911617e-02 -6.431947e-03 6.302232e-03 -4.199489e-03 -1.329453e-02 -4.569655e-03 1.399084e-02 2.756034e-03 -4.633828e-03 1.743932e-02 8.258678e-03 -1.725132e-02 -1.734456e-03
<VARIANCE> 39
 3.308010e+01 1.003105e+01 1.322416e+01 1.805376e+01 1.362679e+01 2.081910e+01 1.741883e+01 1.731957e+01 2.339339e+01 1.415621e+01 1.202404e+01 1.153183e+01 6.020970e-02 1.606431e+00 5.969592e-01 7.348456e-01 1.096292e+00 9.448809e-01 1.379923e+00 1.416622e+00 1.491500e+00 1.612641e+00 1.011372e+00 1.006410e+00 8.922729e-01 1.000000e-02 1.624630e-01 1.041297e-01 1.330659e-01 1.939295e-01 1.780477e-01 2.577919e-01 2.738868e-01 2.520337e-01 2.559190e-01 1.696945e-01 2.006127e-01 1.674649e-01 1.000000e-02
<GCONST> 7.414467e+01
<STATE> 4
<MEAN> 39
 -1.053302e+01 -4.039847e+00 -7.437263e-02 -2.619362e+00 1.226473e+00 -2.064496e+00 9.965371e-01 -2.308694e+00 2.243193e-01 -1.386572e+00 1.147035e+00 -2.801001e-01 4.886174e-01 2.666325e-02 6.111054e-02 -9.382520e-03 -2.003497e-02 -1.233848e-02 2.717694e-02 3.890737e-03 1.841470e-02 -2.680972e-03 -2.256667e-02 -5.709333e-02 -2.289722e-02 -3.935731e-03 1.798077e-02 2.212390e-02 7.684445e-03 4.165691e-03 1.570515e-02 -7.858762e-03 -2.093510e-02 -3.362152e-03 -1.859242e-02 -3.046508e-03 7.508940e-03 1.253000e-02 5.183704e-04
<VARIANCE> 39
 6.980327e+00 8.475677e+00 6.445278e+00 9.441074e+00 9.687236e+00 1.092867e+01 9.551325e+00 1.104470e+01 1.160127e+01 1.178714e+01 1.210580e+01 9.569349e+00 1.915573e-02 2.238752e-01 3.019375e-01 4.794593e-01 8.810829e-01 9.725894e-01 8.844746e-01 1.003560e+00 1.068095e+00 9.853161e-01 1.159855e+00 1.164514e+00 9.074913e-01 1.000000e-02 4.110360e-02 5.653097e-02 9.336917e-02 1.666804e-01 1.906157e-01 1.741992e-01 1.898767e-01 2.006479e-01 2.039703e-01 2.418135e-01 2.445827e-01 1.773937e-01 1.000000e-02
<GCONST> 5.919627e+01
<TRANSP> 5
 0.000000e+00 1.000000e+00 0.000000e+00 0.000000e+00 0.000000e+00
 0.000000e+00 9.200000e-01 8.000000e-02 0.000000e+00 0.000000e+00
 0.000000e+00 0.000000e+00 9.568965e-01 4.310345e-02 0.000000e+00
 0.000000e+00 0.000000e+00 0.000000e+00 9.668874e-01 3.311258e-02
 0.000000e+00 0.000000e+00 0.000000e+00 0.000000e+00 0.000000e+00
<ENDHMM>
