~o
<STREAMINFO> 1 39
<VECSIZE> 39<NULLD><MFCC_E_D_A><DIAGC>
~h "onze"
<BEGINHMM>
<NUMSTATES> 5
<STATE> 2
<MEAN> 39
 3.033082e+00 8.632960e-02 9.252022e+00 -7.119988e-01 -5.510386e+00 -6.741651e-01 -1.467762e+00 -1.949119e+00 2.807144e+00 -3.614047e+00 -9.315088e-01 -2.114273e-01 8.579451e-01 3.355771e-01 -1.369732e-01 1.575468e-01 3.263497e-01 -6.946081e-02 7.888312e-02 8.436497e-02 -5.103010e-02 2.107877e-02 5.047116e-02 2.450396e-02 1.496194e-02 1.554141e-02 -5.455624e-02 2.640547e-02 -5.075254e-02 -3.151904e-02 3.837612e-02 -2.624498e-02 5.618509e-02 7.356579e-02 -1.786227e-02 -4.940354e-03 2.898760e-02 -3.079719e-03 -2.639500e-03
<VARIANCE> 39
 6.089247e+01 6.275646e+01 3.778201e+01 2.618783e+01 7.424627e+01 1.845136e+01 3.219883e+01 4.928857e+01 2.931140e+01 1.748930e+01 1.917940e+01 1.551254e+01 3.751999e-02 9.258351e-01 1.633104e+00 1.149947e+00 5.945365e-01 1.786741e+00 9.095659e-01 1.338707e+00 1.205532e+00 1.275122e+00 1.173872e+00 7.991899e-01 8.691774e-01 1.000000e-02 1.171293e-01 1.789943e-01 1.175816e-01 7.192978e-02 2.538919e-01 1.400131e-01 1.507002e-01 1.340658e-01 1.790150e-01 1.775214e-01 1.043855e-01 1.529701e-01 1.000000e-02
<GCONST> 7.843062e+01
<STATE> 3
<MEAN> 39
 -1.390578e+00 6.561113e-02 6.063552e+00 -2.556262e+00 -1.886244e+00 -4.491376e-01 5.358002e+00 4.668435e+00 1.895761e+00 -2.274487e+00 1.951461e+00 -1.168324e+00 8.166609e-01 -7.250525e-01 4.771218e-02 6.872485e-02 -7.485107e-01 5.143710e-01 2.569918e-01 1.190194e-01 3.721332e-01 -3.099864e-02 -4.450874e-02 -4.648034e-02 1.853406e-02 -1.360324e-02 -1.131593e-01 4.845813e-04 3.938041e-02 -5.275135e-02 8.517209e-02 1.400429e-02 -1.234208e-01 -1.022858e-01 -4.912797e-02 -8.758599e-03 -5.989869e-02 -1.680541e-02 -1.755276e-03
<VARIANCE> 39
 5.064883e+01 2.704107e+01 1.306872e+01 2.787180e+01 4.350038e+01 2.954046e+01 3.971465e+01 3.228685e+01 5.091830e+01 2.024579e+01 2.483818e+01 2.330109e+01 1.000000e-02 8.630565e-01 6.009502e-01 1.090951e+00 1.846327e+00 1.980527e+00 1.506166e+00 1.779471e+00 2.298846e+00 1.766461e+00 6.957535e-01 1.873067e+00 1.378701e+00 1.000000e-02 6.627510e-02 8.632355e-02 1.334005e-01 2.137234e-01 2.644925e-01 2.745515e-01 3.176457e-01 3.712538e-01 2.738851e-01 1.413906e-01 3.423710e-01 2.209967e-01 1.000000e-02
<GCONST> 8.298202e+01
<STATE> 4
<MEAN> 39
 -1.149331e+01 -1.783661e+00 5.275064e+00 -8.454642e+00 3.631723e+00 -1.862855e-02 2.753585e-02 1.532604e+00 1.851013e-01 -8.892237e-01 5.648113e-01 -4.722699e-01 5.176250e-01 -3.426804e-02 -3.531065e-02 -1.986534e-01 2.307381e-01 -9.745996e-03 -7.391768e-02 -1.340931e-01 -2.195448e-01 -6.150060e-02 3.949429e-02 1.294118e-02 3.063229e-03 -1.110618e-02 8.680091e-02 2.116086e-02 -3.412723e-02 6.731019e-02 -6.220508e-02 -1.672236e-02 2.814984e-02 1.234334e-02 7.688595e-03 4.936208e-03 1.724161e-02 4.941877e-03 1.129646e-03
<VARIANCE> 39
 1.903917e+01 1.971987e+01 7.335485e+01 7.957707e+01 4.459119e+01 4.326152e+01 2.065618e+01 2.744422e+01 2.272481e+01 1.669296e+01 1.663911e+01 1.248769e+01 1.965428e-02 1.571463e+00 9.371962e-01 6.165202e-01 1.555873e+00 1.309293e+00 1.757361e+00 1.906967e+00 1.343028e+00 1.676580e+00 1.655751e+00 1.234334e+00 1.119741e+00 1.000000e-02 1.305411e-01 1.175489e-01 9.575240e-02 2.168268e-01 1.963886e-01 2.641662e-01 2.837236e-01 2.294959e-01 2.816469e-01 2.523727e-01 2.462645e-01 1.981505e-01 1.000000e-02
<GCONST> 8.237527e+01
<TRANSP> 5
 0.000000e+00 1.000000e+00 0.000000e+00 0.000000e+00 0.000000e+00
 0.000000e+00 9.549550e-01 4.504504e-02 0.000000e+00 0.000000e+00
 0.000000e+00 0.000000e+00 9.319728e-01 6.802722e-02 0.000000e+00
 0.000000e+00 0.000000e+00 0.000000e+00 9.578059e-01 4.219410e-02
 0.000000e+00 0.000000e+00 0.000000e+00 0.000000e+00 0.000000e+00
<ENDHMM>
