~o
<STREAMINFO> 1 39
<VECSIZE> 39<NULLD><MFCC_E_D_A><DIAGC>
~h "par"
<BEGINHMM>
<NUMSTATES> 6
<STATE> 2
<MEAN> 39
 -4.505626e-01 -2.341186e+00 1.515358e+00 -3.121487e+00 -3.323539e+00 -1.686163e+00 3.403042e+00 -2.344518e+00 -1.309191e+00 -6.382204e+00 -7.840351e-01 -7.686753e-01 7.070451e-01 1.229452e+00 2.017566e-01 5.032622e-01 -1.674205e-01 -1.131918e+00 -4.060676e-01 7.797154e-01 -2.504648e-01 -6.070763e-01 -1.144438e+00 -3.177430e-01 6.561123e-02 7.392748e-02 5.698939e-02 -6.355391e-02 -8.750745e-02 -2.167774e-01 -8.020526e-02 -4.650564e-02 -1.234779e-01 -1.199923e-01 -1.375703e-01 2.966817e-02 8.258893e-02 1.139414e-01 -4.477129e-03
<VARIANCE> 39
 5.822234e+01 1.823343e+01 2.161262e+01 1.583571e+01 3.185731e+01 2.476226e+01 3.178242e+01 1.714045e+01 1.705247e+01 3.607856e+01 1.557437e+01 1.412469e+01 4.993850e-02 2.859207e+00 1.649869e+00 2.892019e+00 2.000530e+00 2.620938e+00 3.022796e+00 3.311578e+00 1.367610e+00 1.756132e+00 3.458529e+00 1.223820e+00 1.407003e+00 1.000000e-02 3.584016e-01 2.459308e-01 3.337531e-01 2.083271e-01 4.689216e-01 2.718041e-01 5.112930e-01 2.048076e-01 2.501018e-01 8.293585e-01 1.863981e-01 1.658566e-01 1.000000e-02
<GCONST> 9.183290e+01
<STATE> 3
<MEAN> 39
 5.215436e+00 -1.359429e+00 2.121554e-01 -1.060944e+01 -1.009466e+01 -4.811412e+00 5.854037e+00 -4.102606e+00 -4.731146e+00 -7.798194e+00 -1.357010e-02 -2.700759e-01 9.354221e-01 -1.203505e-01 1.377520e-01 -1.099050e-01 -2.955559e-01 -1.996926e-01 -1.528516e-01 -5.250182e-02 2.028648e-01 2.740586e-01 3.110844e-01 9.418029e-02 -1.453886e-01 -8.548206e-03 -1.013244e-01 1.118129e-02 3.968491e-02 1.035737e-01 7.769019e-02 4.371807e-02 -1.169559e-02 9.166652e-02 1.312099e-01 6.926134e-02 -4.696702e-04 -2.462462e-02 -4.089898e-03
<VARIANCE> 39
 2.090726e+01 3.729321e+01 2.670215e+01 2.739021e+01 4.036774e+01 3.401678e+01 2.085124e+01 1.954478e+01 1.690488e+01 3.024707e+01 1.458654e+01 1.228307e+01 1.000000e-02 3.167728e-01 3.504410e-01 4.976343e-01 8.076923e-01 5.797002e-01 7.674268e-01 7.591631e-01 8.609512e-01 7.510667e-01 9.259689e-01 6.054847e-01 5.703951e-01 1.000000e-02 5.484296e-02 7.185236e-02 7.278360e-02 9.900230e-02 1.045675e-01 1.534731e-01 1.605421e-01 1.610728e-01 1.188882e-01 1.681390e-01 8.986895e-02 1.110642e-01 1.000000e-02
<GCONST> 6.322861e+01
<STATE> 4
<MEAN> 39
 -3.385116e+00 -3.995814e+00 1.637926e+00 -1.060077e+01 -9.706614e+00 -2.864500e+00 6.777634e+00 1.408085e+00 1.090784e+00 -6.312996e+00 -1.270553e-01 -1.893973e+00 6.738759e-01 -6.018316e-01 -1.768429e-01 3.375294e-02 -1.430971e-01 1.959204e-01 1.570936e-01 -1.065632e-01 3.845286e-01 1.715127e-01 3.285214e-01 8.714774e-02 1.464567e-03 -2.204360e-02 3.744059e-02 7.942880e-03 -2.445139e-03 -6.498300e-02 7.002032e-02 3.624482e-02 -3.497365e-02 -5.554848e-02 -1.546423e-01 -5.422821e-02 -1.777443e-02 -8.699021e-04 3.475921e-04
<VARIANCE> 39
 4.548851e+01 2.033589e+01 2.014128e+01 1.706628e+01 3.697211e+01 3.544740e+01 1.413137e+01 2.764556e+01 2.109312e+01 2.256545e+01 1.156839e+01 1.401097e+01 1.775168e-02 1.083561e+00 1.523360e+00 7.421286e-01 1.962673e+00 9.631978e-01 1.624491e+00 1.536684e+00 1.082977e+00 1.208930e+00 1.631564e+00 6.887422e-01 1.248215e+00 1.000000e-02 1.010479e-01 1.909533e-01 1.071581e-01 2.331779e-01 1.743184e-01 2.500231e-01 2.883809e-01 2.177539e-01 1.876338e-01 2.695688e-01 1.286091e-01 2.246211e-01 1.000000e-02
<GCONST> 7.780051e+01
<STATE> 5
<MEAN> 39
 -4.466898e+00 -1.493490e+00 1.780483e+00 -8.939964e+00 -6.586401e+00 -3.258048e+00 3.370533e+00 7.212135e-01 8.382576e-02 -2.949552e+00 -2.119861e-01 -1.970620e+00 5.024681e-01 -1.520752e-01 -2.484841e-02 -1.035718e-01 2.570239e-01 3.996855e-01 9.619243e-02 7.764656e-02 -2.753297e-01 -2.390165e-01 -4.295606e-02 -7.789837e-02 -7.777568e-02 -1.058310e-02 3.113777e-02 9.990503e-03 -6.039874e-02 6.264104e-02 -5.649262e-02 -2.582456e-02 3.301746e-02 2.988187e-03 2.139383e-02 -4.177806e-02 3.591626e-02 -6.861595e-03 1.829777e-03
<VARIANCE> 39
 4.289250e+01 2.193610e+01 2.481441e+01 6.514804e+01 8.404102e+01 2.609623e+01 4.267682e+01 1.769315e+01 2.432284e+01 2.489203e+01 1.295481e+01 1.302611e+01 1.598551e-02 5.089716e-01 8.828262e-01 9.802632e-01 2.355638e+00 1.791733e+00 1.374169e+00 2.321704e+00 1.350326e+00 1.668031e+00 1.556341e+00 1.257896e+00 8.600737e-01 1.000000e-02 9.783200e-02 1.752026e-01 1.831585e-01 4.354670e-01 3.158796e-01 2.439513e-01 3.188057e-01 2.197600e-01 2.164170e-01 2.869527e-01 2.415107e-01 1.713978e-01 1.000000e-02
<GCONST> 8.375304e+01
<TRANSP> 6
 0.000000e+00 1.000000e+00 0.000000e+00 0.000000e+00 0.000000e+00 0.000000e+00
 0.000000e+00 8.529412e-01 1.470588e-01 0.000000e+00 0.000000e+00 0.000000e+00
 0.000000e+00 0.000000e+00 9.319728e-01 6.802722e-02 0.000000e+00 0.000000e+00
 0.000000e+00 0.000000e+00 0.000000e+00 9.065421e-01 9.345794e-02 0.000000e+00
 0.000000e+00 0.000000e+00 0.000000e+00 0.000000e+00 9.029126e-01 9.708737e-02
 0.000000e+00 0.000000e+00 0.000000e+00 0.000000e+00 0.000000e+00 0.000000e+00
<ENDHMM>
