~o
<STREAMINFO> 1 39
<VECSIZE> 39<NULLD><MFCC_E_D_A><DIAGC>
~h "pause"
<BEGINHMM>
<NUMSTATES> 5
<STATE> 2
<NUMMIXES> 32
<MIXTURE> 1 3.484688e-02
<MEAN> 39
 -9.257221e+00 -2.020696e+00 -5.242236e-01 -3.423981e+00 -8.327502e-01 -9.433695e-01 3.524943e+00 1.318853e+00 6.540942e+00 -2.246966e+00 1.271002e+00 -1.053051e+00 4.203739e-01 -6.797732e-02 -1.758424e-01 -1.482127e-01 -3.278603e-02 -4.186128e-01 -3.842989e-01 -8.459882e-03 -8.094555e-02 -6.826206e-02 -6.478142e-02 -3.662582e-01 -7.037967e-02 1.968733e-03 -4.946236e-02 -8.944070e-02 -1.335208e-01 1.498109e-01 1.833710e-01 -2.016687e-01 -3.365052e-01 -5.115318e-01 -7.539592e-01 1.535875e-02 5.273747e-02 -1.631078e-02 1.713727e-03
<VARIANCE> 39
 4.420717e-01 1.924396e+00 3.121610e+00 3.368845e+00 2.754301e+00 1.823869e+00 6.373759e+00 5.049943e+00 8.171807e+00 3.244499e+00 7.349610e+00 5.994988e+00 1.000000e-02 9.423267e-02 6.871089e-02 2.285120e-01 4.240405e-01 6.698956e-01 1.057253e+00 1.817564e+00 1.000848e+00 1.284031e+00 7.777224e-01 5.787191e-01 7.672290e-01 1.000000e-02 1.179090e-02 3.690118e-02 6.956628e-02 1.034415e-01 1.093170e-01 8.585782e-02 1.894283e-01 1.621796e-01 2.365725e-01 1.383818e-01 8.249646e-02 1.248671e-01 1.000000e-02
<GCONST> 3.544774e+01
<MIXTURE> 2 4.963041e-02
<MEAN> 39
 -9.579806e+00 -2.204715e+00 -1.033970e-01 -1.403376e+00 4.736946e-01 -1.751312e+00 3.307398e+00 -3.709720e+00 1.523546e+00 -2.694284e+00 -1.945437e+00 -2.676740e+00 4.216971e-01 -5.150300e-02 -5.446928e-02 -1.924351e-01 7.480495e-02 1.422094e-01 1.153939e-01 -1.452713e-01 -1.095498e-01 -2.257706e-01 -2.456108e-01 2.584037e-01 6.062611e-01 -3.492657e-04 1.189137e-03 -6.115729e-02 -1.524440e-01 -1.812925e-01 -1.074889e-01 -1.876991e-01 -2.460830e-01 2.248663e-01 7.064860e-03 1.048233e-01 4.387045e-01 1.249608e-01 1.042201e-03
<VARIANCE> 39
 6.377242e-01 2.006207e+00 3.639367e+00 3.256071e+00 2.663383e+00 5.553612e+00 3.238654e+00 3.389592e+00 3.413436e+00 2.452675e+00 3.989323e+00 3.952198e+00 1.000000e-02 1.266011e-01 2.597784e-01 4.666579e-01 5.124343e-01 8.713924e-01 1.597176e+00 1.381782e+00 1.600377e+00 1.763018e+00 1.301761e+00 8.148797e-01 7.617394e-01 1.000000e-02 2.570504e-02 4.678576e-02 6.011773e-02 9.873350e-02 5.681111e-02 1.472628e-01 9.768491e-02 1.002367e-01 1.470338e-01 9.234540e-02 1.679633e-01 1.606907e-01 1.000000e-02
<GCONST> 3.801440e+01
<MIXTURE> 3 3.907075e-02
<MEAN> 39
 -9.739779e+00 -3.085253e+00 -1.732558e+00 -3.683203e+00 2.327917e-01 -9.313086e-01 1.144527e+00 -1.163177e+00 5.239525e+00 2.199842e+00 4.839570e+00 1.482144e-01 4.155491e-01 -4.809253e-02 -5.196613e-02 -1.609371e-01 -2.666710e-01 1.538917e-01 -7.016448e-02 -2.711763e-01 -1.678744e-01 2.437124e-01 1.715659e-01 2.013849e-01 -2.251946e-01 -1.534572e-03 -5.128595e-03 5.335896e-02 1.056379e-01 1.727548e-01 9.014115e-03 -3.760003e-01 -1.785463e-01 -2.268691e-01 -5.216153e-01 -5.062594e-01 -3.973359e-01 -1.946642e-01 8.754650e-05
<VARIANCE> 39
 5.062611e-01 1.118644e+00 2.308636e+00 3.827972e+00 2.965913e+00 3.740708e+00 4.114045e+00 7.174346e+00 3.280480e+00 3.673138e+00 4.627460e+00 4.450950e+00 1.000000e-02 7.177588e-02 2.160045e-01 1.241660e-01 5.462092e-01 8.452684e-01 1.170845e+00 1.435226e+00 9.178852e-01 1.209374e+00 8.080361e-01 1.285273e+00 6.558207e-01 1.000000e-02 1.261937e-02 3.068670e-02 5.530605e-02 9.127834e-02 9.691599e-02 1.409767e-01 1.431296e-01 2.086590e-01 1.623231e-01 8.423918e-02 1.856124e-01 1.335764e-01 1.000000e-02
<GCONST> 3.505268e+01
<MIXTURE> 4 5.068638e-02
<MEAN> 39
 -9.882858e+00 -3.389347e+00 -3.169718e+00 -3.926171e+00 -1.494207e+00 -4.203698e+00 1.085315e+00 -1.102756e+00 3.063014e-01 -5.727474e+00 -9.185451e-01 -2.514337e+00 4.156438e-01 4.962801e-02 5.963717e-03 9.842619e-02 8.390018e-02 -3.840609e-02 -2.468118e-01 -5.238473e-01 4.917824e-02 4.374264e-01 3.285191e-01 1.109654e-01 -4.746766e-02 -9.116157e-04 5.036205e-02 8.038853e-02 2.452492e-01 2.371124e-01 3.079795e-01 1.904363e-01 -1.752262e-02 -1.604030e-01 1.623771e-01 4.116981e-01 2.344649e-01 9.512367e-02 -1.372939e-03
<VARIANCE> 39
 6.534649e-01 1.412515e+00 1.819404e+00 2.293504e+00 3.898033e+00 5.881646e+00 2.155682e+00 3.649342e+00 4.431250e+00 4.574944e+00 4.813786e+00 4.515105e+00 1.000000e-02 1.376236e-01 1.940175e-01 3.504760e-01 8.522639e-01 1.074718e+00 1.095077e+00 1.212660e+00 9.788712e-01 1.046374e+00 7.414053e-01 6.317842e-01 1.061642e+00 1.000000e-02 1.286294e-02 2.366893e-02 3.116170e-02 8.677792e-02 1.390654e-01 1.357207e-01 7.595631e-02 1.099476e-01 1.158999e-01 1.720117e-01 1.668891e-01 1.780402e-01 1.000000e-02
<GCONST> 3.514639e+01
<MIXTURE> 5 4.646251e-02
<MEAN> 39
 -9.261885e+00 -2.278044e+00 -1.061322e+00 -3.208963e+00 -1.209359e+00 -2.844319e+00 1.813208e+00 -2.572525e+00 1.124721e+00 3.254484e-01 1.179361e+00 -3.740129e+00 4.271935e-01 -3.044955e-02 -1.114912e-01 1.027765e-01 1.803863e-01 1.916860e-01 -6.981532e-02 -1.560395e-01 -3.456850e-01 -5.196507e-01 4.049933e-02 -5.255299e-02 1.062583e-01 3.447644e-03 -2.973218e-02 2.436549e-02 -8.824593e-04 8.068032e-02 2.100139e-01 5.492675e-02 -1.609648e-01 -6.271246e-02 2.972753e-04 -3.356941e-01 2.371277e-02 3.035125e-01 1.047967e-04
<VARIANCE> 39
 7.954822e-01 1.187739e+00 2.104628e+00 3.075132e+00 3.284164e+00 3.260774e+00 3.616384e+00 2.308491e+00 3.493144e+00 4.553077e+00 4.848448e+00 2.502429e+00 1.000000e-02 5.797164e-02 1.226718e-01 2.604028e-01 2.414089e-01 6.266569e-01 9.312448e-01 9.810290e-01 1.066218e+00 1.690007e+00 1.176399e+00 1.008439e+00 5.070739e-01 1.000000e-02 1.666798e-02 2.317417e-02 3.031081e-02 9.156469e-02 1.101198e-01 8.773902e-02 1.082043e-01 8.942308e-02 8.245161e-02 7.718698e-02 1.269432e-01 8.502772e-02 1.000000e-02
<GCONST> 2.862864e+01
<MIXTURE> 6 2.851109e-02
<MEAN> 39
 -9.185544e+00 -2.190501e+00 -1.919243e+00 -3.507580e+00 -1.381105e+00 -1.053187e+00 3.988465e+00 -5.237259e+00 -1.829164e+00 -1.886017e+00 3.856823e+00 -7.507896e-01 4.250323e-01 -1.504795e-02 2.150018e-02 2.261409e-02 -9.663937e-02 7.487604e-02 3.895983e-01 2.737238e-01 -8.552250e-01 -8.354059e-01 -6.404930e-01 -4.779707e-01 -1.409081e-02 4.141026e-04 -7.373933e-02 -4.365976e-02 1.288073e-01 1.939053e-01 2.506150e-01 -2.767166e-01 -5.283728e-01 1.593965e-01 3.092957e-01 -1.534283e-01 -3.555627e-01 -1.885839e-01 -1.779783e-03
<VARIANCE> 39
 6.784664e-01 1.211546e+00 1.116364e+00 5.071778e+00 2.931439e+00 2.520336e+00 3.013783e+00 4.812097e+00 1.852843e+00 8.903693e+00 5.051769e+00 4.215557e+00 1.000000e-02 6.807788e-02 2.272669e-01 2.667689e-01 6.239159e-01 7.076973e-01 9.622218e-01 8.522647e-01 9.029641e-01 1.409129e+00 8.281259e-01 1.110479e+00 7.163289e-01 1.000000e-02 1.000000e-02 2.391355e-02 3.424086e-02 1.089586e-01 4.794260e-02 9.530304e-02 1.415337e-01 1.440343e-01 1.803563e-01 2.610299e-01 1.615454e-01 9.107888e-02 1.000000e-02
<GCONST> 3.276697e+01
<MIXTURE> 7 3.484688e-02
<MEAN> 39
 -8.743118e+00 -1.244772e+00 -1.720280e-01 -1.885138e+00 -1.397281e+00 -6.527916e+00 -4.930140e-01 -3.913894e+00 -1.658298e+00 -4.119703e+00 -1.244891e+00 -6.784183e-01 4.197944e-01 1.781086e-02 3.925852e-02 3.708586e-02 -3.269755e-01 -4.260945e-01 -7.619284e-02 3.299609e-01 4.250694e-01 4.203694e-01 4.682223e-01 2.682009e-01 3.418796e-02 -2.479164e-03 -1.087801e-01 -1.536288e-01 -7.617740e-02 5.166316e-02 2.791963e-01 5.654366e-01 2.763610e-01 2.099994e-01 2.727873e-01 7.016768e-02 1.819826e-01 -1.560118e-01 -7.095349e-04
<VARIANCE> 39
 5.194612e-01 1.405141e+00 3.260040e+00 3.187474e+00 1.801541e+00 5.351662e+00 4.356728e+00 2.626751e+00 6.718709e+00 2.592700e+00 3.682398e+00 3.479890e+00 1.000000e-02 1.385457e-01 2.879799e-01 3.525597e-01 5.959267e-01 5.460005e-01 1.037934e+00 8.852588e-01 1.200430e+00 6.738867e-01 1.299330e+00 9.420580e-01 7.677776e-01 1.000000e-02 1.545294e-02 2.989911e-02 5.856678e-02 9.964792e-02 5.765047e-02 6.865910e-02 1.825612e-01 1.158663e-01 1.910667e-01 6.531123e-02 1.272476e-01 9.002472e-02 1.000000e-02
<GCONST> 3.318951e+01
<MIXTURE> 8 5.385428e-02
<MEAN> 39
 -9.424205e+00 -2.422303e+00 -6.147484e-01 -1.135053e+00 2.401906e+00 -8.398326e-01 -2.801141e-01 -7.282973e+00 -4.520551e-01 -1.677280e+00 3.296345e+00 -1.423293e+00 4.166248e-01 3.139233e-02 5.148448e-02 9.146043e-02 -2.537941e-03 -2.795209e-01 -1.798382e-01 3.018078e-01 -6.091741e-04 -1.608216e-01 -3.605051e-01 -7.170105e-02 -5.802282e-02 -3.398939e-03 -4.215933e-03 2.136249e-02 -6.870207e-02 -2.218108e-01 -2.794678e-01 -2.860276e-01 1.745231e-01 6.333824e-01 1.792855e-01 -6.885907e-02 -2.622128e-01 -2.408184e-02 -3.301637e-05
<VARIANCE> 39
 9.719263e-01 1.441899e+00 3.070932e+00 2.470806e+00 4.438595e+00 5.182817e+00 4.028567e+00 3.037767e+00 5.088914e+00 3.155649e+00 3.719604e+00 3.854241e+00 1.000000e-02 7.272687e-02 1.547312e-01 3.234113e-01 4.784022e-01 7.417643e-01 7.730111e-01 7.226554e-01 1.019523e+00 9.972205e-01 8.447601e-01 8.072929e-01 9.739761e-01 1.000000e-02 1.748653e-02 3.711704e-02 4.507725e-02 6.270276e-02 9.586616e-02 1.324807e-01 1.558158e-01 1.348216e-01 1.648225e-01 9.815736e-02 1.387930e-01 8.959928e-02 1.000000e-02
<GCONST> 3.372915e+01
<MIXTURE> 9 3.801478e-02
<MEAN> 39
 -8.884717e+00 -1.680606e+00 -1.035776e+00 -1.722370e+00 7.194616e-01 -2.273229e+00 1.742360e+00 -2.399897e+00 2.488336e+00 -5.963343e-01 3.412859e+00 1.565905e+00 4.368083e-01 4.698746e-03 3.737578e-02 2.328111e-01 1.818999e-01 2.271236e-01 9.747937e-02 3.808508e-01 2.556383e-01 6.330789e-01 5.506322e-01 4.033598e-01 1.575349e-01 2.061022e-03 -8.973566e-02 -1.149916e-01 -8.896224e-02 -1.972882e-01 -1.018898e-01 -7.280671e-02 -2.493967e-03 6.424142e-02 -1.165696e-01 -1.043223e-01 -2.220114e-01 -3.732549e-01 -3.373119e-04
<VARIANCE> 39
 7.354949e-01 1.265664e+00 1.754699e+00 1.481281e+00 2.534122e+00 3.762774e+00 2.385566e+00 2.799380e+00 6.691557e+00 3.282242e+00 3.034137e+00 4.337317e+00 1.000000e-02 6.286877e-02 1.225788e-01 2.854162e-01 2.965227e-01 7.541008e-01 1.257162e+00 7.595596e-01 1.319951e+00 1.675047e+00 8.997747e-01 5.885004e-01 3.552578e-01 1.000000e-02 1.736011e-02 2.527850e-02 3.725430e-02 7.424339e-02 6.168669e-02 8.320521e-02 8.020945e-02 9.491549e-02 1.403389e-01 1.094275e-01 8.933937e-02 8.442340e-02 1.000000e-02
<GCONST> 2.718967e+01
<MIXTURE> 10 4.223865e-02
<MEAN> 39
 -9.736807e+00 -3.383901e+00 -1.480874e+00 -9.382450e-01 3.900322e+00 1.296844e+00 3.366488e+00 -3.823737e-01 2.068224e+00 -4.762762e-01 2.489959e+00 -5.388053e-01 4.250357e-01 6.996352e-02 1.821218e-02 8.360196e-04 -4.172906e-01 -1.908573e-01 -7.233518e-02 -1.876110e-02 1.617173e-01 3.943327e-01 3.040681e-01 1.712652e-01 3.585118e-02 -2.037631e-03 6.835705e-03 6.294219e-02 2.942899e-02 -1.679333e-01 -5.099911e-01 -5.093334e-01 -3.864965e-01 -2.383698e-01 -7.035978e-02 -2.082044e-01 -2.040351e-01 -1.456981e-01 -1.012117e-03
<VARIANCE> 39
 5.965599e-01 1.593321e+00 2.945007e+00 4.835231e+00 2.810138e+00 4.515624e+00 3.581050e+00 5.996171e+00 4.263670e+00 3.214421e+00 3.836944e+00 7.874722e+00 1.000000e-02 6.471849e-02 1.646759e-01 1.981339e-01 5.600712e-01 8.472543e-01 1.105088e+00 1.152423e+00 1.469296e+00 1.414891e+00 1.145606e+00 9.197219e-01 7.312685e-01 1.000000e-02 1.000000e-02 3.248383e-02 7.630070e-02 8.833286e-02 1.365941e-01 1.265835e-01 1.343025e-01 1.110516e-01 1.705404e-01 9.635019e-02 8.857606e-02 1.437350e-01 1.000000e-02
<GCONST> 3.614065e+01
<MIXTURE> 11 2.745512e-02
<MEAN> 39
 -9.282036e+00 -2.745978e+00 -1.036132e-01 -1.114519e+00 9.988549e-01 -2.373471e+00 -2.829297e+00 -4.995231e+00 3.422427e+00 -2.229212e+00 -3.990400e-01 -3.569828e+00 4.317630e-01 3.701964e-02 6.824353e-02 3.236699e-02 2.885276e-01 2.160424e-01 -3.166458e-02 3.883509e-02 9.426853e-02 -1.949324e-02 3.694257e-02 1.600975e-01 3.055324e-01 1.021419e-03 -3.586453e-02 -2.860378e-03 -1.368990e-01 -1.440834e-01 -2.062260e-01 -1.841083e-01 2.385392e-01 2.181413e-01 -2.174749e-01 7.772824e-02 2.560893e-01 3.497958e-01 -3.697284e-04
<VARIANCE> 39
 5.133773e-01 1.377181e+00 4.511661e+00 5.845775e+00 5.317642e+00 3.368187e+00 2.350599e+00 3.485139e+00 5.619585e+00 2.509345e+00 4.567573e+00 9.011395e+00 1.000000e-02 1.119375e-01 8.929154e-02 3.354136e-01 8.232799e-01 1.130698e+00 1.076255e+00 9.560829e-01 1.394589e+00 9.544784e-01 1.372734e+00 7.649987e-01 4.982117e-01 1.000000e-02 1.000000e-02 4.277196e-02 8.058818e-02 1.153781e-01 2.133719e-01 1.310511e-01 2.318653e-01 2.457407e-01 1.635268e-01 3.977488e-02 1.924858e-01 1.318914e-01 1.000000e-02
<GCONST> 3.845104e+01
<MIXTURE> 12 1.795143e-02
<MEAN> 39
 -1.003346e+01 -3.139857e+00 -1.525598e+00 -5.039589e+00 -3.281686e+00 -5.854655e+00 1.022593e+00 -5.283890e+00 -2.484503e+00 -4.304532e+00 -1.410130e+00 -3.421196e+00 4.092920e-01 -1.694776e-02 -1.191746e-01 3.474616e-02 6.888708e-02 2.095990e-01 7.788306e-02 7.277968e-02 -3.944014e-03 -2.040911e-01 -5.653670e-01 -3.732656e-01 -4.244025e-01 -5.146819e-03 9.282236e-02 5.060649e-02 4.325992e-02 3.263931e-01 4.091644e-01 4.195726e-01 8.155016e-02 4.629467e-01 4.957709e-01 3.408584e-01 2.039253e-01 5.976157e-02 1.762247e-03
<VARIANCE> 39
 9.230798e-01 1.818852e+00 2.400736e+00 1.934619e+00 1.427032e+00 3.687874e+00 5.021990e+00 2.228252e+00 5.198452e+00 4.707191e+00 2.761809e+00 7.633218e+00 1.000000e-02 7.411151e-02 1.404802e-01 3.185923e-01 5.351132e-01 8.610916e-01 6.853715e-01 2.854559e-01 8.534529e-01 9.823368e-01 1.158355e+00 7.232835e-01 9.226227e-01 1.000000e-02 2.481629e-02 3.051793e-02 8.767146e-02 5.878096e-02 4.969556e-02 1.301222e-01 1.568895e-01 2.240488e-01 2.519043e-01 1.976351e-01 3.607821e-02 6.870371e-02 1.000000e-02
<GCONST> 3.184523e+01
<MIXTURE> 13 3.379092e-02
<MEAN> 39
 -9.904761e+00 -2.452859e+00 -7.351846e-01 -1.234414e+00 1.926201e+00 -1.703207e+00 -8.058733e-01 -2.993431e+00 -1.498470e+00 -6.232954e+00 -2.255754e+00 -2.513827e+00 4.068090e-01 1.894272e-01 1.347424e-01 -1.563838e-01 -7.583439e-02 -2.996123e-01 -4.611958e-01 -3.990901e-01 -3.115265e-01 3.058062e-01 5.371360e-01 1.357116e-01 1.004184e-01 -2.276693e-03 2.561801e-02 -3.668311e-02 -1.015997e-01 -1.351671e-01 -1.810437e-01 -1.569438e-03 3.200431e-01 1.184492e-01 4.743235e-01 5.615379e-01 3.562342e-01 6.711533e-02 9.016072e-04
<VARIANCE> 39
 9.963377e-01 1.867335e+00 1.901364e+00 5.329753e+00 2.473767e+00 4.747096e+00 4.221927e+00 3.174553e+00 4.663781e+00 8.622132e+00 6.496670e+00 6.726933e+00 1.000000e-02 7.427204e-02 1.892099e-01 3.296188e-01 4.686498e-01 3.544912e-01 1.087488e+00 7.995873e-01 8.526049e-01 1.997874e+00 1.557188e+00 1.032482e+00 1.125644e+00 1.000000e-02 3.048136e-02 4.275724e-02 4.026387e-02 1.751180e-01 9.786151e-02 6.891844e-02 8.996613e-02 8.645174e-02 1.451495e-01 1.763404e-01 9.596266e-02 1.158982e-01 1.000000e-02
<GCONST> 3.752789e+01
<MIXTURE> 14 1.478353e-02
<MEAN> 39
 -9.824413e+00 -3.118399e+00 -2.226090e+00 -3.301340e+00 -8.766576e-01 -4.828887e+00 -4.836917e+00 -4.412538e+00 -2.788990e-01 -4.988507e+00 -7.632701e-01 -4.405044e+00 4.074856e-01 -4.220701e-02 -1.000554e-01 1.247972e-01 -1.145984e-01 -6.699456e-02 -2.918895e-01 -1.953543e-01 -3.470379e-01 1.561714e-01 2.113666e-01 9.387154e-02 3.199370e-01 3.517153e-03 7.833674e-02 1.010203e-01 2.242327e-01 6.773558e-02 1.143349e-01 2.078736e-01 5.838603e-01 2.033109e-01 7.804515e-02 1.721166e-01 3.136644e-01 9.394115e-02 2.046848e-04
<VARIANCE> 39
 5.849156e-01 3.044204e-01 1.425353e+00 1.836830e+00 2.198758e+00 4.039186e+00 2.098690e+00 5.957607e+00 4.443587e+00 2.474137e+00 3.829223e+00 5.736818e+00 1.000000e-02 2.248977e-02 9.109877e-02 3.891981e-01 6.899762e-01 4.121293e-01 9.011169e-01 6.295608e-01 9.465339e-01 1.171692e+00 4.983707e-01 8.846792e-01 1.560105e+00 1.000000e-02 1.257873e-02 2.860211e-02 3.222339e-02 9.833707e-02 1.774488e-01 3.893045e-02 1.046389e-01 8.704289e-02 1.528396e-01 8.478075e-02 8.221526e-02 6.505661e-02 1.000000e-02
<GCONST> 2.513108e+01
<MIXTURE> 15 2.323126e-02
<MEAN> 39
 -1.007581e+01 -3.116531e+00 -1.988953e+00 -5.063570e+00 -4.663344e+00 -5.816875e+00 2.476416e-01 -1.776486e+00 3.168963e+00 -3.308475e+00 2.691592e+00 1.916750e+00 4.114738e-01 8.187185e-03 -4.672392e-02 -1.548903e-01 -3.732798e-01 -3.894204e-01 -4.150003e-01 1.990177e-01 5.062945e-01 2.011805e-01 4.917763e-01 6.756181e-02 5.582150e-02 -8.527325e-04 5.987505e-02 5.060725e-02 9.587941e-02 2.974246e-01 6.439157e-01 4.364896e-01 9.540296e-03 -2.238644e-01 -2.526677e-01 1.354568e-01 -1.633262e-01 -3.676488e-01 -9.483847e-04
<VARIANCE> 39
 7.017092e-01 2.384657e+00 2.721367e+00 6.123790e+00 2.715950e+00 2.038213e+00 4.313850e+00 3.200417e+00 2.848830e+00 3.222056e+00 8.618793e+00 5.462198e+00 1.000000e-02 1.159448e-01 2.852062e-01 3.038624e-01 4.919602e-01 8.292684e-01 1.425051e+00 1.282513e+00 8.065385e-01 8.259894e-01 7.153065e-01 1.230723e+00 7.556983e-01 1.000000e-02 1.449995e-02 2.296819e-02 5.284318e-02 8.406560e-02 4.476075e-02 6.846398e-02 1.789147e-01 1.167841e-01 1.731071e-01 7.183000e-02 1.845039e-01 1.340822e-01 1.000000e-02
<GCONST> 3.472060e+01
<MIXTURE> 16 3.484688e-02
<MEAN> 39
 -9.674999e+00 -3.067545e+00 -2.593627e+00 -4.435783e+00 -1.621398e+00 -3.243159e+00 -2.507471e+00 -5.439557e+00 2.578575e+00 -5.344726e-01 2.060381e+00 7.756048e-01 4.117174e-01 2.932152e-02 1.411897e-01 -9.678227e-02 -2.163892e-01 -2.064386e-01 -5.866980e-01 -5.035831e-01 -2.152438e-01 -8.850013e-02 2.678033e-01 3.348114e-01 1.878034e-01 -2.367061e-03 -1.542663e-02 4.106183e-02 1.300651e-01 1.795557e-01 2.189955e-01 5.740524e-02 4.875824e-01 4.195207e-01 -8.608124e-03 -1.579348e-01 -4.331105e-02 -2.108648e-01 3.228968e-04
<VARIANCE> 39
 7.326211e-01 1.072808e+00 2.459563e+00 1.769844e+00 2.826759e+00 3.765427e+00 4.865906e+00 4.352874e+00 3.278557e+00 5.140785e+00 4.492091e+00 3.572945e+00 1.000000e-02 6.918340e-02 1.275670e-01 1.723556e-01 2.614141e-01 6.812057e-01 7.585269e-01 9.495915e-01 1.527234e+00 8.487443e-01 7.016599e-01 7.675422e-01 7.501404e-01 1.000000e-02 1.074988e-02 3.195113e-02 4.735640e-02 7.590492e-02 1.359582e-01 8.439120e-02 8.074380e-02 1.145920e-01 4.559239e-02 1.212049e-01 1.112907e-01 1.079848e-01 1.000000e-02
<GCONST> 2.854633e+01
<MIXTURE> 17 4.223865e-02
<MEAN> 39
 -8.702113e+00 -1.670376e+00 -1.013541e+00 -1.838772e+00 1.328437e+00 -1.791293e+00 2.479989e+00 1.021966e+00 2.452527e+00 -2.778887e+00 -1.343892e+00 -3.635420e+00 4.200095e-01 -7.581846e-02 -6.882607e-03 3.857324e-02 2.458386e-02 2.556406e-01 2.632437e-01 3.639441e-01 5.116692e-01 -6.445684e-02 -1.772820e-01 2.018399e-01 1.340432e-01 1.178447e-03 -1.181000e-01 -1.390707e-01 -1.408344e-03 -2.755091e-03 -1.271606e-01 -1.528367e-01 -2.429891e-01 -4.871052e-01 -2.047164e-01 -5.140331e-02 1.716739e-01 1.310737e-01 3.380554e-04
<VARIANCE> 39
 6.360701e-01 1.305823e+00 1.972568e+00 3.856527e+00 4.500878e+00 4.052654e+00 7.618655e+00 2.163799e+00 7.623311e+00 3.781361e+00 5.162382e+00 3.541573e+00 1.000000e-02 1.825880e-01 3.270780e-01 3.583756e-01 6.356906e-01 7.645720e-01 1.080914e+00 1.371012e+00 2.192456e+00 1.619829e+00 6.663860e-01 1.288028e+00 8.892668e-01 1.000000e-02 1.708864e-02 1.373634e-02 3.273701e-02 7.349016e-02 1.091989e-01 1.833433e-01 1.495789e-01 1.619188e-01 2.101680e-01 1.043107e-01 1.258388e-01 6.754614e-02 1.000000e-02
<GCONST> 3.789699e+01
<MIXTURE> 18 4.963041e-02
<MEAN> 39
 -9.682309e+00 -3.216355e+00 -2.162658e+00 -3.074973e+00 7.301704e-01 -6.792495e-01 4.786362e+00 1.478132e-01 7.070502e-01 -3.872664e+00 1.224042e+00 -1.095574e+00 4.218601e-01 -6.068780e-02 -7.772100e-03 1.453522e-01 1.983357e-01 3.241135e-01 1.888972e-01 -1.220659e-01 -3.053895e-01 -5.251541e-01 -5.464532e-01 -2.852907e-01 -4.306232e-01 -1.872300e-04 2.488519e-02 1.298754e-01 2.000332e-01 1.581555e-01 -5.688771e-02 -2.983666e-01 -6.492750e-01 -5.115656e-01 1.136313e-01 1.876994e-01 -2.443805e-02 -5.288929e-02 -1.509732e-04
<VARIANCE> 39
 1.155900e+00 1.529735e+00 2.143443e+00 4.616304e+00 5.456017e+00 3.937812e+00 5.590996e+00 4.391013e+00 3.247654e+00 7.061196e+00 4.102938e+00 5.483867e+00 1.000000e-02 1.213596e-01 2.705552e-01 3.144684e-01 8.072218e-01 9.245700e-01 9.163309e-01 9.838939e-01 8.758885e-01 5.945269e-01 7.014479e-01 8.241721e-01 5.712685e-01 1.000000e-02 2.323310e-02 2.133740e-02 3.154608e-02 9.941684e-02 1.535161e-01 1.018499e-01 1.381871e-01 9.595343e-02 2.291453e-01 2.268604e-01 9.284645e-02 1.154318e-01 1.000000e-02
<GCONST> 3.715991e+01
<MIXTURE> 19 2.745512e-02
<MEAN> 39
 -9.701846e+00 -2.363381e+00 -7.457885e-01 -6.945131e-01 6.076161e+00 1.769672e+00 2.216048e+00 -1.627130e+00 7.506778e-01 -3.996878e+00 -1.576390e-01 -2.136223e+00 4.336162e-01 4.617993e-02 2.185146e-02 2.215203e-01 3.338100e-01 1.630523e-01 -5.018182e-01 -1.262300e-02 2.149924e-02 -1.282530e-02 -1.045907e-01 -2.586048e-02 -1.148924e-01 -9.975428e-04 -2.409817e-02 -8.735496e-02 -6.538676e-02 -2.411874e-01 -7.222285e-01 -3.502863e-01 -9.381115e-02 -4.931156e-02 1.523803e-01 1.858253e-01 6.293203e-02 5.531392e-02 7.325357e-04
<VARIANCE> 39
 5.545176e-01 2.279593e+00 1.938252e+00 4.868018e+00 1.801951e+00 2.360619e+00 4.985954e+00 8.363958e+00 8.247621e+00 2.642349e+00 2.158618e+00 3.606098e+00 1.000000e-02 8.672250e-02 1.938088e-01 2.906480e-01 3.415490e-01 5.030392e-01 8.928231e-01 8.601002e-01 8.772222e-01 1.547826e+00 1.284438e+00 4.808213e-01 4.740789e-01 1.000000e-02 1.509435e-02 2.814220e-02 3.918469e-02 1.064603e-01 9.803761e-02 1.959239e-01 1.851346e-01 2.030686e-01 3.845569e-01 1.482526e-01 1.400304e-01 8.941790e-02 1.000000e-02
<GCONST> 3.466158e+01
<MIXTURE> 20 3.907075e-02
<MEAN> 39
 -9.806225e+00 -2.908667e+00 -1.099476e+00 -1.971194e+00 7.348982e-03 -5.234893e+00 -1.585550e+00 -1.392081e+00 5.542923e-02 -4.329350e+00 3.998413e+00 1.275990e+00 4.114199e-01 9.018749e-03 1.494124e-02 -1.022971e-01 -1.716626e-01 1.288360e-01 1.232089e-02 -5.419172e-01 -4.783128e-01 -4.047381e-01 -2.773969e-01 -7.998859e-02 -2.437178e-01 3.630021e-04 4.761095e-02 1.311534e-02 -1.433923e-02 -2.518033e-02 -6.843432e-02 3.013119e-01 2.449367e-01 -2.853073e-01 1.486184e-01 3.190023e-01 -3.192702e-01 -3.568341e-01 -3.673904e-04
<VARIANCE> 39
 5.776023e-01 1.292896e+00 2.766539e+00 2.906307e+00 3.771909e+00 6.238408e+00 4.069637e+00 3.195506e+00 6.388721e+00 2.933656e+00 6.384329e+00 2.316566e+00 1.000000e-02 1.084045e-01 1.280442e-01 3.613094e-01 9.726232e-01 1.251699e+00 1.182790e+00 1.237190e+00 1.021956e+00 1.427125e+00 5.968985e-01 5.599638e-01 7.252600e-01 1.000000e-02 1.562492e-02 2.950709e-02 5.145532e-02 5.685972e-02 1.162614e-01 1.737559e-01 1.067896e-01 1.353182e-01 1.208246e-01 6.215156e-02 1.221836e-01 5.957438e-02 1.000000e-02
<GCONST> 3.377534e+01
<MIXTURE> 21 2.111932e-02
<MEAN> 39
 -9.036395e+00 -1.702316e+00 -4.339610e-01 -5.287589e-01 8.022116e-01 -2.589133e+00 3.302447e+00 2.243973e-02 6.451356e+00 2.703800e+00 1.900760e+00 -4.741431e+00 4.453983e-01 1.636000e-01 1.826265e-01 -5.311631e-02 -2.184086e-01 -4.165831e-03 -3.237365e-01 -2.153185e-01 -2.094476e-02 -1.025038e-01 -1.418221e-01 -7.148652e-02 1.798126e-01 5.747086e-03 -8.125046e-02 -7.341051e-02 -8.343436e-02 -1.793027e-01 -5.400958e-02 9.178447e-02 -1.974316e-01 -1.807763e-01 -4.939924e-01 -5.197346e-01 -6.899616e-02 4.872716e-01 1.830949e-04
<VARIANCE> 39
 4.529979e-01 8.240053e-01 3.134040e+00 2.073318e+00 6.284953e+00 5.311950e+00 6.727721e+00 6.106811e+00 5.894852e+00 2.643495e+00 2.902101e+00 2.649527e+00 1.086170e-02 5.217448e-02 1.226379e-01 3.859981e-01 2.562787e-01 4.494646e-01 4.193714e-01 1.144755e+00 1.616134e+00 1.238638e+00 1.176134e+00 9.699165e-01 7.572870e-01 1.000000e-02 1.203272e-02 2.318933e-02 5.561088e-02 7.813913e-02 9.278376e-02 8.940649e-02 2.726780e-01 1.209403e-01 2.630607e-01 8.653035e-02 8.759697e-02 3.928944e-02 1.000000e-02
<GCONST> 3.120801e+01
<MIXTURE> 22 1.583949e-02
<MEAN> 39
 -9.478560e+00 -1.961913e+00 1.663820e-01 -6.318045e-01 2.739829e+00 -4.159149e+00 -4.300976e+00 -7.762003e+00 -2.852529e-01 -1.586551e+00 1.937894e+00 1.885778e+00 4.268858e-01 -2.372724e-01 4.246051e-02 1.137184e-01 1.861745e-01 5.364336e-01 2.049719e-01 6.893569e-02 -2.058281e-01 8.479369e-01 2.905600e-01 1.723698e-01 2.006471e-01 6.748817e-03 2.216684e-02 -2.647885e-02 -1.206295e-01 -2.101063e-01 -3.440196e-01 1.135490e-01 6.832963e-01 7.887648e-01 2.302844e-01 -2.488276e-02 -5.646161e-02 -3.726309e-01 7.490532e-04
<VARIANCE> 39
 4.545164e-01 2.085693e+00 2.562155e+00 1.452375e+00 3.763568e+00 4.118063e+00 5.692617e+00 3.074503e+00 2.205119e+00 7.810122e+00 3.309910e+00 1.856680e+00 1.000000e-02 5.076555e-02 1.117280e-01 3.652900e-01 5.969493e-01 8.337499e-01 9.275950e-01 1.351898e+00 7.191921e-01 5.532752e-01 6.583558e-01 9.241472e-01 2.425267e+00 1.000000e-02 1.378637e-02 3.010912e-02 5.450544e-02 7.055935e-02 9.885291e-02 7.414731e-02 6.803497e-02 9.595017e-02 4.772776e-02 1.170621e-01 8.212533e-02 6.161684e-02 1.000000e-02
<GCONST> 2.843529e+01
<MIXTURE> 23 2.111932e-02
<MEAN> 39
 -1.000187e+01 -3.219140e+00 -1.162918e+00 -1.064770e+00 -8.699443e-01 -7.383117e+00 -3.746679e+00 -6.812952e+00 6.792845e-02 -8.172361e-01 3.128812e+00 -5.093759e-01 4.141354e-01 -2.614779e-02 -3.438009e-03 -1.572321e-02 -4.372000e-02 7.860944e-02 4.218599e-01 7.086627e-01 2.952939e-01 2.982938e-01 1.198069e-01 -8.973461e-02 9.253188e-02 1.410384e-03 3.489438e-02 9.053878e-02 2.417571e-02 -1.007746e-01 8.323834e-02 5.132381e-01 5.773565e-01 4.658234e-01 1.976410e-01 -2.007528e-01 -3.292038e-01 -1.625380e-01 -4.417158e-06
<VARIANCE> 39
 9.005319e-01 8.993284e-01 3.127956e+00 4.901392e+00 4.836795e+00 3.134486e+00 5.065488e+00 2.713460e+00 6.001409e+00 5.915754e+00 7.092864e+00 6.716224e+00 1.000000e-02 8.992015e-02 1.341288e-01 2.478450e-01 6.192149e-01 1.015020e+00 8.846629e-01 1.281489e+00 1.274557e+00 1.348704e+00 7.312053e-01 1.132307e+00 7.544471e-01 1.000000e-02 1.682198e-02 1.000000e-02 5.916187e-02 8.283287e-02 1.805417e-01 6.242296e-02 2.098977e-01 1.039065e-01 2.179007e-01 1.885555e-01 1.222488e-01 2.099991e-01 1.000000e-02
<GCONST> 3.789875e+01
<MIXTURE> 24 4.012671e-02
<MEAN> 39
 -9.967981e+00 -4.045534e+00 -3.230649e+00 -4.688865e+00 -1.861176e+00 -3.523690e+00 1.932587e+00 1.211189e-02 5.780004e+00 1.191070e+00 -1.465527e-01 -1.694364e+00 4.124487e-01 2.586689e-02 1.569439e-01 3.994384e-02 1.810009e-01 3.714734e-01 3.585960e-01 8.701066e-02 -3.237783e-01 2.037069e-02 1.791407e-01 1.969839e-01 3.769597e-01 -2.269588e-03 6.675829e-02 1.496949e-01 2.161749e-01 2.859815e-01 2.539856e-01 1.660096e-01 2.393511e-02 -2.817448e-01 -6.352281e-01 -3.388768e-01 1.653705e-01 -9.369248e-03 6.573698e-04
<VARIANCE> 39
 4.601497e-01 1.139768e+00 2.061418e+00 3.312519e+00 4.864538e+00 2.973615e+00 7.042661e+00 7.167953e+00 3.494412e+00 5.773136e+00 7.647691e+00 3.260287e+00 1.000000e-02 1.489311e-01 1.308580e-01 2.393990e-01 4.472061e-01 6.222643e-01 9.680052e-01 1.191511e+00 7.230223e-01 1.481173e+00 8.753621e-01 8.997017e-01 5.675976e-01 1.000000e-02 1.236229e-02 2.889089e-02 4.402074e-02 5.784136e-02 9.572690e-02 1.377099e-01 1.779158e-01 1.619718e-01 9.944298e-02 1.391013e-01 1.701043e-01 1.119468e-01 1.000000e-02
<GCONST> 3.468286e+01
<MIXTURE> 25 8.447730e-03
<MEAN> 39
 -1.026233e+01 -1.761459e+00 -3.202337e-01 -2.821173e+00 -3.601635e+00 -8.899876e+00 -5.298146e+00 -7.741811e+00 -4.292371e+00 -5.002112e+00 1.137348e+00 -3.903793e+00 3.970462e-01 1.136863e-01 4.720204e-01 3.268855e-01 1.298291e-02 2.269464e-01 -4.425148e-01 -5.194970e-02 -1.122789e-01 2.604526e-01 -3.917724e-02 -4.926221e-01 -1.793465e-01 -2.367732e-04 4.637980e-02 -8.244223e-02 -8.600322e-02 -4.343371e-02 3.427814e-01 8.277671e-01 6.058517e-01 5.873442e-01 7.350695e-01 5.573846e-01 1.840326e-01 2.341044e-01 4.145994e-03
<VARIANCE> 39
 4.659598e-01 1.243400e+00 7.352582e-01 1.342265e+00 3.256869e+00 5.377416e+00 6.961593e+00 6.924893e+00 4.365191e+00 8.734030e+00 4.258596e+00 4.845384e+00 1.000000e-02 1.581406e-01 1.692655e-01 7.337070e-01 9.990253e-01 4.897268e-01 6.166801e-01 6.993015e-01 4.697376e-01 2.330596e-01 7.452341e-01 7.256104e-01 1.113968e+00 1.000000e-02 1.313994e-02 1.188958e-02 2.981248e-02 1.209373e-01 1.558601e-01 9.345326e-02 3.107910e-01 3.347088e-01 2.156974e-01 1.183707e-01 2.711252e-01 1.682128e-01 1.000000e-02
<GCONST> 3.486674e+01
<MIXTURE> 26 7.391763e-03
<MEAN> 39
 -1.040565e+01 -4.943324e+00 -3.454134e+00 -6.343289e+00 -4.342127e+00 -7.683547e+00 -5.788771e+00 -6.341905e+00 -2.834354e+00 -5.434968e+00 -2.031744e-01 -2.245542e+00 4.150422e-01 -2.165997e-01 -2.149692e-01 -7.492436e-02 9.172222e-02 1.040246e-01 3.930629e-01 4.367478e-01 -2.090727e-02 2.393141e-01 2.870005e-01 2.751856e-01 -1.396380e-01 -9.114261e-04 5.177242e-02 2.290370e-01 2.997446e-01 5.022591e-01 5.422434e-01 5.649603e-01 8.092362e-01 5.224617e-01 5.539845e-01 2.577701e-01 1.943964e-01 2.115365e-01 3.492744e-03
<VARIANCE> 39
 1.714358e-01 1.493313e+00 1.892908e+00 7.670704e-01 6.020962e+00 2.073936e+00 3.043449e+00 3.544871e+00 7.895379e+00 2.414742e+00 4.038093e+00 1.526496e+00 1.000000e-02 3.488098e-02 1.022195e-01 5.965769e-02 4.820226e-01 7.726668e-01 1.206806e+00 1.249483e+00 1.366172e+00 5.862990e-01 1.734637e-01 1.008679e+00 3.885005e-01 1.000000e-02 1.000000e-02 3.792098e-02 1.780690e-02 2.992192e-02 1.333009e-01 1.568582e-01 1.527649e-01 2.438032e-01 3.931440e-01 7.849427e-02 1.689093e-01 4.076763e-02 1.000000e-02
<GCONST> 2.356971e+01
<MIXTURE> 27 1.900739e-02
<MEAN> 39
 -9.406178e+00 -2.196337e+00 -2.043566e+00 -2.874219e+00 1.676764e+00 -5.718008e+00 -3.629781e+00 -8.950204e-01 4.391610e+00 -3.250247e-01 4.868677e+00 -1.960262e+00 4.187962e-01 1.510193e-01 2.482820e-01 3.748844e-01 4.076155e-02 3.796643e-01 5.145007e-01 4.781317e-01 -2.156864e-02 9.910072e-02 -1.708366e-02 -5.394917e-01 -1.352400e-01 7.025381e-04 -4.155602e-03 -4.401328e-02 7.890145e-02 1.564231e-01 -1.318417e-01 4.761310e-01 4.818543e-01 -2.820153e-01 -3.805025e-01 -1.720850e-01 -3.591296e-01 -3.773575e-02 -1.388727e-03
<VARIANCE> 39
 1.155653e+00 8.509330e-01 2.068324e+00 3.082331e+00 6.204634e+00 5.056969e+00 3.327782e+00 2.028505e+00 1.003433e+01 3.477108e+00 3.593132e+00 5.857111e+00 1.000000e-02 6.281868e-02 1.274413e-01 6.068894e-01 5.496438e-01 6.779788e-01 4.686064e-01 1.178532e+00 1.595839e+00 1.248700e+00 4.248999e-01 1.205614e+00 5.186574e-01 1.000000e-02 1.993769e-02 1.192962e-02 3.998175e-02 3.643820e-02 3.302806e-02 1.231643e-01 1.635195e-01 1.794199e-01 2.469715e-01 1.076674e-01 1.743021e-01 1.184864e-01 1.000000e-02
<GCONST> 3.269220e+01
<MIXTURE> 28 2.745512e-02
<MEAN> 39
 -9.428777e+00 -2.145027e+00 -6.629636e-01 -1.416877e+00 -5.307850e-01 -6.129942e+00 4.274915e-01 2.136911e+00 1.947646e+00 -7.505811e-01 2.992068e+00 2.307818e-01 4.341989e-01 1.067193e-01 1.089179e-01 7.199582e-02 1.281650e-02 -3.606795e-01 -2.861431e-01 3.658973e-01 4.107351e-02 -5.566738e-01 2.073620e-01 5.685747e-01 2.675943e-01 7.551095e-03 -1.911164e-02 -9.190268e-02 -1.281573e-01 -1.542943e-01 1.103268e-01 4.141503e-01 -4.437313e-03 -7.301267e-01 -9.286287e-02 -1.734104e-01 -2.272408e-01 -2.526033e-01 -5.969417e-04
<VARIANCE> 39
 1.159639e+00 1.347193e+00 4.122889e+00 3.604693e+00 4.716751e+00 5.883904e+00 2.916945e+00 4.349525e+00 3.610762e+00 4.526756e+00 3.586610e+00 1.769894e+00 1.000000e-02 8.190046e-02 3.285625e-01 1.780023e-01 4.710776e-01 6.482223e-01 6.607301e-01 1.043425e+00 1.320430e+00 1.111617e+00 9.581083e-01 1.004904e+00 7.691668e-01 1.000000e-02 2.145523e-02 1.035337e-02 9.179914e-02 7.999817e-02 9.025925e-02 1.947127e-01 2.326854e-01 1.548714e-01 1.359244e-01 1.326482e-01 1.292708e-01 1.209029e-01 1.000000e-02
<GCONST> 3.583163e+01
<MIXTURE> 29 2.217529e-02
<MEAN> 39
 -9.267749e+00 -1.988885e+00 -2.008466e+00 -4.170923e+00 -2.329859e+00 -6.193652e+00 2.043752e+00 -2.723311e+00 1.144907e+00 2.703968e+00 5.737804e+00 -1.211461e+00 4.208534e-01 -7.859383e-02 -6.330806e-02 6.850214e-02 -2.686385e-02 9.679826e-02 4.702943e-01 3.635777e-01 3.068439e-01 -7.057840e-02 -1.688362e-02 -2.693675e-01 7.216783e-02 -8.914737e-04 -6.863355e-02 -9.051157e-02 7.713488e-02 2.652519e-01 4.057655e-01 4.985169e-01 -9.397478e-02 -2.656920e-02 6.795501e-02 -5.805539e-01 -4.485950e-01 4.068087e-02 -1.590928e-04
<VARIANCE> 39
 4.851503e-01 1.740177e+00 1.121512e+00 1.483234e+00 2.889263e+00 3.667702e+00 5.401603e+00 7.615974e+00 6.355384e+00 4.446832e+00 3.816889e+00 5.345853e+00 1.000000e-02 1.486556e-01 8.744519e-02 2.957613e-01 6.569502e-01 7.117695e-01 7.205313e-01 1.223029e+00 5.849283e-01 7.672461e-01 6.938890e-01 1.278500e+00 6.304553e-01 1.000000e-02 1.468988e-02 4.448108e-02 4.091012e-02 5.013812e-02 9.208816e-02 1.615422e-01 1.459698e-01 1.030110e-01 2.522879e-01 1.034873e-01 1.383379e-01 1.401634e-01 1.000000e-02
<GCONST> 3.328974e+01
<MIXTURE> 30 3.273495e-02
<MEAN> 39
 -1.037956e+01 -3.154342e+00 -1.161036e+00 4.222354e-01 3.422244e+00 9.285344e-01 4.978390e+00 -2.557818e+00 -3.499982e-01 -2.970672e+00 -1.867832e-01 -5.749721e+00 4.057079e-01 2.958893e-02 1.489903e-02 -2.855821e-01 -6.734201e-02 1.232078e-01 -1.401073e-01 -1.544702e-01 2.322275e-01 2.561819e-01 2.486619e-03 -2.403165e-01 -8.912654e-02 -1.402895e-03 1.079863e-01 9.336169e-02 -3.322626e-02 -3.842826e-01 -4.120579e-01 -5.148267e-01 -4.261394e-01 1.012679e-01 2.628171e-01 1.644983e-01 2.039225e-01 5.211343e-01 1.392119e-03
<VARIANCE> 39
 3.981505e-01 8.155552e-01 1.284306e+00 4.309129e+00 4.204340e+00 5.300025e+00 4.956457e+00 5.709932e+00 4.820057e+00 8.030199e+00 4.647870e+00 4.791748e+00 1.000000e-02 4.992939e-02 1.262725e-01 2.938820e-01 7.793663e-01 1.305783e+00 1.110414e+00 5.734993e-01 7.912478e-01 7.299933e-01 9.187933e-01 1.132912e+00 6.918191e-01 1.000000e-02 1.055306e-02 3.023547e-02 4.602611e-02 8.725180e-02 9.645282e-02 7.674180e-02 1.488850e-01 1.555399e-01 1.647654e-01 1.202518e-01 9.773064e-02 1.682511e-01 1.000000e-02
<GCONST> 3.378362e+01
<MIXTURE> 31 2.006336e-02
<MEAN> 39
 -9.524193e+00 -2.778694e+00 -1.332454e+00 -2.911330e+00 -2.505387e+00 -7.464068e+00 -8.167667e-01 -1.321747e-01 2.801325e+00 -2.322701e+00 -8.054243e-01 -4.347665e+00 4.417420e-01 -1.880820e-02 -2.925479e-01 -2.398494e-01 -3.695196e-01 -5.621435e-01 -3.390797e-01 -5.571448e-01 6.954820e-02 8.780504e-01 1.962724e-01 -1.561239e-02 2.133001e-01 4.505259e-03 -2.591380e-02 3.780310e-02 -1.661536e-02 1.206797e-01 3.499340e-01 5.710203e-01 2.751202e-01 -3.001059e-01 -7.213064e-02 -1.703013e-02 1.692255e-01 3.169558e-01 3.001196e-04
<VARIANCE> 39
 2.226579e+00 1.006979e+00 4.045227e+00 8.467874e+00 2.931318e+00 4.811771e+00 2.755424e+00 4.322321e+00 7.468056e+00 6.098518e+00 4.683785e+00 3.001113e+00 1.000000e-02 8.671608e-02 2.714822e-01 4.872611e-01 3.394135e-01 9.504471e-01 1.168411e+00 8.357638e-01 6.847172e-01 7.756521e-01 4.943274e-01 5.375206e-01 5.061504e-01 1.000000e-02 3.639321e-02 2.519779e-02 5.643174e-02 1.867135e-01 1.167174e-01 9.144351e-02 9.800968e-02 7.382581e-02 6.129918e-02 1.632341e-01 8.707871e-02 5.386522e-02 1.000000e-02
<GCONST> 3.454366e+01
<MIXTURE> 32 3.590285e-02
<MEAN> 39
 -9.432468e+00 -2.722882e+00 -7.625657e-01 -1.894099e+00 3.811862e-01 -1.076215e+00 2.431578e+00 -4.562950e+00 -4.793977e+00 -4.805457e+00 1.819321e+00 -6.625278e-01 4.282038e-01 -1.994825e-01 -1.087633e-02 6.938589e-02 -2.969578e-03 -2.308508e-02 1.333669e-01 -5.973529e-01 -1.868440e-01 7.948888e-02 -3.702053e-01 -3.809423e-01 -3.366122e-02 -2.246526e-03 -8.507516e-04 8.247104e-03 -9.346148e-02 -7.689100e-02 -5.283972e-02 -2.049939e-01 -1.129852e-01 2.594179e-01 9.173316e-01 3.906291e-01 -1.134114e-01 -1.384041e-01 -5.635434e-04
<VARIANCE> 39
 1.134595e+00 1.873366e+00 2.906399e+00 2.830756e+00 3.009934e+00 4.579883e+00 2.303969e+00 6.519664e+00 4.120968e+00 5.518621e+00 4.126190e+00 5.716400e+00 1.000000e-02 8.280610e-02 1.821423e-01 2.418384e-01 6.652829e-01 6.610752e-01 5.755680e-01 7.129102e-01 1.131080e+00 9.587991e-01 7.320915e-01 6.653033e-01 4.905455e-01 1.000000e-02 1.527922e-02 4.586320e-02 5.750302e-02 5.722282e-02 1.050738e-01 1.783611e-01 1.190186e-01 1.401888e-01 1.296687e-01 1.414652e-01 1.510197e-01 1.048762e-01 1.000000e-02
<GCONST> 3.447055e+01
<STATE> 3
<NUMMIXES> 32
<MIXTURE> 1 3.984064e-02
<MEAN> 39
 -9.636153e+00 -3.315976e+00 -2.858517e+00 -2.867308e+00 4.114307e-01 -3.428418e+00 1.880216e+00 -1.629286e+00 -1.472794e+00 -3.792147e+00 1.889850e+00 -1.636931e+00 4.118950e-01 -3.248305e-02 -1.042500e-01 -2.702526e-01 -3.191244e-01 1.604603e-01 3.495131e-01 5.302386e-01 5.035890e-01 1.873552e-01 6.842747e-02 1.507753e-01 1.297515e-01 -2.491634e-03 -4.993103e-03 7.372404e-02 2.242725e-01 1.177003e-01 7.322038e-03 1.188217e-01 -1.534339e-01 -2.129487e-01 2.787801e-01 1.420400e-01 -1.742429e-01 2.621077e-03 8.997734e-04
<VARIANCE> 39
 9.547096e-01 1.390694e+00 3.173020e+00 2.258220e+00 2.763870e+00 3.755123e+00 7.521960e+00 2.913201e+00 4.526808e+00 1.492018e+00 2.922915e+00 3.280650e+00 1.000000e-02 5.820408e-02 2.237387e-01 4.058504e-01 5.443372e-01 7.559724e-01 1.176951e+00 9.615741e-01 1.241181e+00 6.149185e-01 5.052556e-01 1.086980e+00 5.501190e-01 1.000000e-02 1.644623e-02 3.360256e-02 7.196635e-02 4.714126e-02 8.553810e-02 8.313207e-02 1.409915e-01 9.660502e-02 1.285967e-01 9.954748e-02 1.263529e-01 5.803113e-02 1.000000e-02
<GCONST> 3.053494e+01
<MIXTURE> 2 3.984064e-02
<MEAN> 39
 -9.177402e+00 -1.801849e+00 -5.956915e-01 -2.505207e+00 -8.119287e-01 -3.731098e+00 -7.841234e-01 -4.144426e+00 -2.267349e+00 -3.302187e+00 4.668884e+00 7.417136e-01 4.279605e-01 3.515567e-02 7.507848e-02 -9.027730e-03 -6.957186e-02 -5.940132e-02 -2.848377e-01 -3.371942e-01 -3.502428e-01 -2.059302e-01 -1.739690e-01 -1.522489e-01 1.556175e-02 8.178581e-04 -3.991783e-02 -9.342772e-02 -1.024491e-01 -2.681626e-02 9.990184e-02 2.310387e-01 3.046427e-01 2.477113e-01 4.221295e-01 1.853541e-01 -4.126784e-01 -3.126641e-01 -6.400634e-04
<VARIANCE> 39
 5.353740e-01 2.429069e+00 1.591121e+00 3.499593e+00 3.074757e+00 2.297515e+00 5.184710e+00 1.773534e+00 3.535525e+00 2.761163e+00 3.344969e+00 7.628826e+00 1.000000e-02 1.157647e-01 1.781757e-01 3.371636e-01 4.450130e-01 6.722940e-01 4.506392e-01 1.256793e+00 9.991764e-01 7.825529e-01 1.278403e+00 1.026442e+00 1.085270e+00 1.000000e-02 1.221104e-02 5.319426e-02 4.476414e-02 1.041423e-01 8.609422e-02 1.015250e-01 9.490856e-02 4.879206e-02 8.017684e-02 7.496401e-02 9.713770e-02 1.494342e-01 1.000000e-02
<GCONST> 3.072792e+01
<MIXTURE> 3 3.784861e-02
<MEAN> 39
 -9.616643e+00 -2.497411e+00 -1.412874e+00 -1.462495e+00 1.255267e+00 -1.140807e+00 4.686436e+00 -1.713091e+00 8.708621e-01 -4.943382e+00 -3.128313e+00 -3.988925e+00 4.140796e-01 -4.704660e-02 -1.080066e-01 6.366076e-02 3.327514e-01 4.848942e-01 2.432083e-01 -1.130188e-01 -2.985896e-01 -1.496253e-01 -5.561054e-02 -1.306049e-01 -2.341308e-01 2.291015e-03 -3.757435e-03 -4.470995e-02 -4.931639e-02 -1.754133e-01 -1.090936e-01 -1.163006e-01 -3.792164e-01 -1.107369e-01 6.149049e-02 3.648457e-01 6.226434e-01 2.592890e-01 1.275192e-03
<VARIANCE> 39
 1.285761e+00 1.454314e+00 3.119858e+00 2.107213e+00 5.057086e+00 3.707880e+00 3.350277e+00 3.649531e+00 3.265616e+00 5.887691e+00 4.982031e+00 6.583767e+00 1.000000e-02 1.096212e-01 2.000015e-01 2.452453e-01 8.693073e-01 6.258944e-01 7.579677e-01 1.311572e+00 1.042055e+00 5.599262e-01 5.718428e-01 1.102123e+00 5.115159e-01 1.000000e-02 3.202882e-02 4.771353e-02 9.869987e-02 9.357842e-02 1.117798e-01 9.449088e-02 8.840480e-02 1.386873e-01 9.305654e-02 1.012172e-01 1.156123e-01 9.196501e-02 1.000000e-02
<GCONST> 3.541241e+01
<MIXTURE> 4 5.976096e-03
<MEAN> 39
 -9.528169e+00 -2.075282e+00 5.343544e-01 -1.122070e+00 3.108802e+00 -2.495542e+00 2.134555e+00 -1.929250e+00 5.904340e+00 4.130085e+00 7.094923e+00 -2.846189e-01 4.287421e-01 -5.425220e-02 -2.185206e-01 5.036387e-02 -3.130929e-01 1.198957e-01 1.444740e-01 -3.747915e-01 -3.313940e-01 9.848592e-02 3.251973e-01 4.728835e-01 3.302143e-01 -1.620271e-03 -1.976842e-02 -1.425112e-01 -1.703790e-01 -1.374776e-01 -3.048950e-01 9.319070e-02 1.202323e-01 -1.230505e-01 -5.048957e-01 -6.848313e-01 -6.074810e-01 2.106491e-01 -1.219761e-03
<VARIANCE> 39
 4.981966e-01 1.526450e+00 4.067572e+00 6.015849e+00 2.674224e+00 8.681654e+00 7.121952e+00 1.038861e+01 6.098135e+00 2.016940e+00 2.438328e+00 3.624593e+00 1.000000e-02 4.456520e-02 1.243733e-01 2.757156e-01 4.451627e-01 8.050140e-01 2.333934e-01 2.177817e-01 6.358834e-01 5.143004e-01 2.190926e-01 4.649762e-01 1.695995e+00 1.000000e-02 1.806717e-02 2.747051e-02 6.025529e-02 8.009011e-02 5.417452e-02 1.044477e-01 2.937249e-01 4.073447e-01 8.638161e-02 1.030062e-01 4.793801e-02 1.033146e-01 1.000000e-02
<GCONST> 2.929042e+01
<MIXTURE> 5 3.286853e-02
<MEAN> 39
 -9.060690e+00 -2.322278e+00 -8.594123e-01 -1.295872e+00 2.746295e+00 -5.206025e-01 1.411722e+00 -3.637291e+00 1.331877e-01 -1.266743e+00 4.474157e+00 -3.052692e+00 4.092263e-01 9.648453e-02 -3.468724e-02 -1.240527e-01 -1.501043e-01 -4.535660e-02 1.398419e-02 4.241803e-02 4.268131e-03 1.333675e-01 4.420793e-01 3.475353e-01 4.039870e-01 8.717804e-04 -7.598966e-02 -3.034582e-02 -3.363655e-02 -1.700816e-01 -3.161986e-01 -2.392828e-01 5.471501e-03 1.498130e-01 1.395994e-01 -1.270144e-01 -3.327990e-01 1.707745e-01 9.420726e-06
<VARIANCE> 39
 6.379528e-01 1.561688e+00 2.903438e+00 4.358978e+00 2.892107e+00 4.741962e+00 3.969149e+00 6.593924e+00 2.707221e+00 2.822805e+00 2.264503e+00 4.526468e+00 1.000000e-02 9.450916e-02 1.719864e-01 2.601572e-01 6.014352e-01 5.561016e-01 4.756080e-01 7.745235e-01 6.995513e-01 8.603603e-01 9.535477e-01 4.511313e-01 7.184902e-01 1.000000e-02 1.057555e-02 4.114188e-02 6.621272e-02 1.685532e-01 1.097380e-01 1.349674e-01 1.087267e-01 1.227851e-01 7.329902e-02 1.374470e-01 8.130465e-02 1.162708e-01 1.000000e-02
<GCONST> 3.137547e+01
<MIXTURE> 6 4.183267e-02
<MEAN> 39
 -9.314758e+00 -1.571856e+00 5.267538e-01 7.316905e-02 -1.231567e+00 -4.948545e+00 -1.831388e-01 -2.394147e+00 1.675913e+00 -3.689197e+00 1.192393e+00 -1.628147e+00 4.171256e-01 1.498884e-02 5.387848e-02 1.150165e-01 2.268470e-01 3.171278e-01 2.943174e-01 2.531362e-01 2.752938e-01 2.400877e-01 2.465391e-01 -8.595653e-02 -2.093411e-01 1.031573e-03 -5.342683e-02 -1.366268e-01 -1.861658e-01 -4.005195e-01 1.028226e-01 3.094174e-01 1.658418e-02 -2.165719e-01 -1.545857e-01 2.536077e-01 1.120169e-01 7.471119e-02 -1.339952e-03
<VARIANCE> 39
 7.432567e-01 1.620568e+00 2.769192e+00 2.769101e+00 3.363181e+00 2.850108e+00 3.317730e+00 7.311162e+00 2.332708e+00 4.445325e+00 1.925062e+00 7.089272e+00 1.000000e-02 4.496219e-02 1.714811e-01 2.946662e-01 4.007800e-01 6.348165e-01 7.703206e-01 6.105049e-01 7.625301e-01 8.425214e-01 7.558042e-01 1.529011e+00 6.965848e-01 1.000000e-02 1.328330e-02 3.951251e-02 6.517833e-02 9.454351e-02 7.039183e-02 1.484895e-01 1.578151e-01 1.085313e-01 1.324279e-01 7.935577e-02 8.015273e-02 9.856155e-02 1.000000e-02
<GCONST> 3.095038e+01
<MIXTURE> 7 5.278885e-02
<MEAN> 39
 -9.458544e+00 -2.674969e+00 -1.145949e+00 -3.251476e+00 -8.327126e-01 -1.470686e+00 1.794548e+00 -4.332123e+00 -3.164069e-01 -2.233300e+00 2.165681e+00 5.783973e-01 4.127981e-01 -1.335114e-01 -7.834730e-02 1.770874e-02 3.903127e-02 -1.330326e-01 -2.455138e-02 1.230199e-01 4.504086e-01 5.632262e-01 1.907726e-01 -1.505421e-02 -1.944992e-01 -4.159489e-04 -6.927836e-03 9.781011e-03 3.428123e-02 1.632728e-01 1.877077e-01 -4.654973e-02 -4.520560e-02 2.432453e-01 1.662169e-01 -9.199098e-02 -1.979283e-01 -2.954463e-01 7.338286e-04
<VARIANCE> 39
 6.550477e-01 7.345563e-01 1.791458e+00 3.999511e+00 3.733936e+00 4.362405e+00 3.549491e+00 2.823607e+00 5.925149e+00 1.669124e+00 3.416069e+00 4.133634e+00 1.000000e-02 7.358717e-02 1.870771e-01 4.594881e-01 5.962945e-01 4.804050e-01 3.702631e-01 9.726503e-01 8.453195e-01 1.191895e+00 6.813233e-01 7.647765e-01 6.351888e-01 1.000000e-02 1.303906e-02 2.796432e-02 6.740870e-02 9.102371e-02 1.018087e-01 8.742838e-02 6.050214e-02 7.374609e-02 1.621180e-01 1.640384e-01 8.460853e-02 9.711286e-02 1.000000e-02
<GCONST> 2.912829e+01
<MIXTURE> 8 1.892430e-02
<MEAN> 39
 -9.151776e+00 -9.208689e-01 -5.062588e-01 -1.388027e+00 2.776502e+00 -6.957677e-01 9.169292e-01 -1.901168e+00 4.092999e+00 -4.688187e+00 2.546228e-02 2.000384e+00 4.945793e-01 -1.920800e-01 -3.933191e-02 1.256331e-01 1.465689e-02 2.356529e-01 2.715826e-01 6.067439e-01 8.429484e-01 3.573651e-01 1.290504e-01 -6.311570e-01 -3.097119e-01 -4.954788e-03 -2.627662e-02 -1.630407e-01 -5.970896e-02 -1.181890e-01 -2.056370e-01 -1.348347e-01 -2.075838e-02 9.385878e-04 -2.158493e-01 4.019724e-01 2.875308e-01 -4.527764e-01 1.534774e-05
<VARIANCE> 39
 1.113999e+00 2.443382e+00 2.835307e+00 4.608072e+00 3.474588e+00 4.281106e+00 7.676548e+00 3.991497e+00 2.954934e+00 1.996063e+00 6.646717e+00 2.076624e+00 3.507051e-02 1.035424e-01 3.106239e-01 4.800547e-01 6.068489e-01 4.588321e-01 6.070692e-01 8.057901e-01 6.863706e-01 6.676064e-01 1.429731e+00 1.006705e+00 4.781363e-01 1.000000e-02 1.873121e-02 6.896517e-02 7.763311e-02 9.100582e-02 7.222249e-02 9.583998e-02 1.813828e-01 1.728876e-01 6.436978e-02 9.764376e-02 1.546747e-01 2.089797e-01 1.000000e-02
<GCONST> 3.734970e+01
<MIXTURE> 9 3.187251e-02
<MEAN> 39
 -9.627151e+00 -3.242788e+00 -2.428828e+00 -4.551933e+00 -5.309037e-01 -5.871436e-01 3.583033e+00 -3.093136e+00 2.467281e-01 -4.542376e-02 1.277026e+00 -2.242628e+00 4.000670e-01 1.333899e-01 1.931490e-01 -1.256953e-01 -3.809836e-01 -2.229113e-01 1.351351e-01 -2.400382e-01 -2.066772e-01 -2.269633e-01 -1.817301e-02 4.175693e-01 9.360775e-02 -3.481764e-03 1.657691e-02 1.032941e-01 1.255333e-01 2.344190e-01 1.019460e-01 -2.010820e-01 -1.888909e-01 1.567906e-01 2.033215e-01 -1.808502e-01 -1.033808e-02 7.305565e-02 2.611548e-03
<VARIANCE> 39
 4.460734e-01 1.222162e+00 2.352206e+00 2.489603e+00 3.135216e+00 4.391184e+00 4.464417e+00 3.316512e+00 1.925383e+00 3.863941e+00 6.790626e+00 1.885551e+00 1.000000e-02 2.080275e-01 2.302618e-01 3.173290e-01 7.483318e-01 6.820668e-01 7.688877e-01 5.739890e-01 8.665056e-01 1.400038e+00 1.542884e+00 4.339645e-01 1.064516e+00 1.000000e-02 1.041272e-02 3.586649e-02 5.130814e-02 5.086017e-02 9.572448e-02 1.158664e-01 9.857725e-02 1.013080e-01 1.200591e-01 1.040745e-01 1.394273e-01 7.228735e-02 1.000000e-02
<GCONST> 3.114502e+01
<MIXTURE> 10 4.482072e-02
<MEAN> 39
 -8.924462e+00 -1.785514e+00 -8.788932e-01 -1.501743e+00 1.470910e+00 -2.206104e+00 -1.651947e+00 -2.750090e+00 1.398860e+00 -2.975346e+00 -9.071091e-02 -1.871151e+00 4.229825e-01 -1.035409e-01 -2.421428e-01 -2.457969e-01 -1.851079e-01 -3.418624e-01 -3.437463e-02 -3.813568e-01 -2.206586e-01 -5.494188e-01 -3.868003e-01 1.322736e-02 -1.141312e-01 -3.687597e-03 -7.158429e-02 -6.538828e-02 -1.411926e-02 -1.628402e-01 -1.432647e-01 -2.600290e-02 3.426309e-01 8.001974e-02 1.693930e-02 4.471846e-02 9.701887e-02 4.026697e-02 2.580530e-04
<VARIANCE> 39
 8.400646e-01 7.674423e-01 2.651618e+00 4.501236e+00 4.404624e+00 3.027357e+00 2.829608e+00 2.071873e+00 5.790681e+00 3.009256e+00 3.779063e+00 5.340473e+00 1.000000e-02 1.036721e-01 1.820002e-01 3.264059e-01 4.410225e-01 1.272176e+00 1.235319e+00 1.042489e+00 8.975397e-01 6.967019e-01 1.260923e+00 1.282445e+00 9.106955e-01 1.000000e-02 1.936870e-02 2.206735e-02 8.751397e-02 1.032645e-01 8.241741e-02 7.504266e-02 1.270731e-01 7.831293e-02 6.852671e-02 9.094360e-02 1.495406e-01 1.149692e-01 1.000000e-02
<GCONST> 3.332541e+01
<MIXTURE> 11 4.282869e-02
<MEAN> 39
 -9.404571e+00 -2.444388e+00 -1.087502e+00 -2.855190e+00 -6.519543e-01 -3.605483e-01 4.448276e+00 -4.666334e-01 2.318494e+00 -4.190144e-01 4.483422e+00 -7.532795e-01 4.178311e-01 3.118777e-02 8.638619e-02 2.853895e-01 4.234301e-01 -8.531599e-02 -1.920868e-03 1.850439e-01 3.650836e-01 2.706142e-01 -2.665094e-02 -1.582523e-01 -2.934456e-01 1.117020e-03 -2.715612e-02 8.580067e-03 2.096063e-02 1.171711e-01 1.210637e-01 -2.012128e-01 -3.579362e-01 -3.665255e-01 -2.056277e-01 -2.733931e-01 -4.716097e-01 -1.522124e-01 9.841861e-04
<VARIANCE> 39
 5.606453e-01 1.085000e+00 1.356866e+00 4.187049e+00 4.127733e+00 6.661749e+00 5.692185e+00 3.056073e+00 4.303252e+00 5.605679e+00 3.206412e+00 4.594046e+00 1.000000e-02 1.325454e-01 3.065236e-01 3.693401e-01 7.015673e-01 9.210639e-01 8.498043e-01 7.744752e-01 1.058414e+00 1.176292e+00 1.196090e+00 1.433991e+00 1.116776e+00 1.000000e-02 1.054970e-02 1.741254e-02 5.538056e-02 1.333864e-01 8.436707e-02 1.367486e-01 1.462028e-01 1.819631e-01 1.018615e-01 1.348825e-01 9.310983e-02 6.156990e-02 1.000000e-02
<GCONST> 3.591177e+01
<MIXTURE> 12 4.183267e-02
<MEAN> 39
 -9.416781e+00 -1.261184e+00 7.840620e-01 -1.548832e+00 8.004157e-01 -1.003945e+00 3.061749e+00 7.534311e-02 3.495565e+00 -1.859668e+00 -2.592126e-01 -2.319695e+00 4.224817e-01 -2.096456e-02 -6.586304e-02 -1.270426e-01 -5.632820e-02 -2.825439e-01 -1.813090e-01 5.983857e-02 1.473228e-01 2.186687e-01 -2.384101e-01 -1.199589e-01 -9.628122e-03 -1.981567e-03 -4.487995e-02 -1.981910e-01 -3.014873e-01 -1.323097e-01 -6.829955e-02 -2.502494e-01 -2.598383e-01 -3.528425e-01 -3.280086e-01 -6.985400e-02 9.158764e-02 -1.062831e-03 -1.631782e-03
<VARIANCE> 39
 5.664247e-01 1.310260e+00 1.989828e+00 2.433626e+00 3.623358e+00 4.734931e+00 3.318113e+00 6.125735e+00 3.695897e+00 6.014660e+00 3.104310e+00 2.325559e+00 1.000000e-02 5.914413e-02 1.864617e-01 3.217918e-01 3.532429e-01 9.189456e-01 1.015166e+00 5.323107e-01 4.875447e-01 1.415475e+00 1.366068e+00 1.433331e+00 5.479198e-01 1.000000e-02 1.778771e-02 2.832438e-02 3.392916e-02 6.158477e-02 1.123737e-01 1.317773e-01 1.271827e-01 2.058969e-01 1.073415e-01 1.550410e-01 8.614193e-02 5.955888e-02 1.000000e-02
<GCONST> 3.140348e+01
<MIXTURE> 13 2.888446e-02
<MEAN> 39
 -9.135179e+00 -2.132615e+00 -1.629849e+00 -2.543634e+00 9.052396e-01 -3.562520e+00 -1.024109e+00 -5.726775e+00 -1.557549e+00 -6.245935e+00 -1.676663e+00 -2.322136e+00 4.036576e-01 -1.174588e-01 -9.316536e-02 -2.306996e-01 1.983280e-02 2.996834e-01 1.182970e-01 2.493721e-01 2.673031e-01 2.334823e-02 -2.921823e-01 -1.341196e-01 6.267750e-01 1.183874e-03 -2.639360e-02 1.115344e-02 9.781772e-02 8.743696e-02 -4.957618e-02 1.104827e-01 3.089393e-01 3.372814e-01 2.787744e-01 3.876018e-01 1.965679e-01 8.335356e-02 6.030134e-04
<VARIANCE> 39
 4.464182e-01 2.779333e+00 1.729048e+00 4.847736e+00 3.353611e+00 3.301694e+00 4.737892e+00 3.757629e+00 1.070167e+00 3.522086e+00 4.098011e+00 3.053572e+00 1.000000e-02 8.158693e-02 2.711957e-01 4.138690e-01 2.274469e-01 2.866082e-01 8.170180e-01 1.241510e+00 9.227810e-01 1.046360e+00 1.311573e+00 7.832442e-01 7.877814e-01 1.000000e-02 1.000000e-02 5.665370e-02 5.665982e-02 1.454768e-01 8.628686e-02 8.329456e-02 1.105606e-01 6.021893e-02 9.963483e-02 1.977907e-01 1.549076e-01 1.082756e-01 1.000000e-02
<GCONST> 3.144834e+01
<MIXTURE> 14 4.581673e-02
<MEAN> 39
 -1.001331e+01 -3.350498e+00 -2.607851e+00 -3.956842e+00 -1.605208e+00 -6.433067e+00 -3.283779e+00 -4.923638e+00 7.447789e-01 -1.054769e+00 2.409846e+00 -2.262788e+00 4.196341e-01 -1.186322e-02 -3.748228e-02 8.510134e-02 -7.627267e-02 -1.117508e-01 -1.780730e-01 1.090541e-01 1.425142e-01 -1.244692e-01 -8.481015e-02 -3.093673e-01 -1.056492e-01 -5.370835e-04 6.800556e-02 1.051578e-01 1.744353e-01 2.438024e-01 2.527758e-01 4.786830e-01 5.325222e-01 3.095565e-01 3.666568e-02 -9.540273e-02 -2.062140e-01 7.435978e-02 -2.389433e-05
<VARIANCE> 39
 8.434342e-01 2.603120e+00 2.481775e+00 4.731338e+00 4.418843e+00 2.348541e+00 3.431043e+00 4.162404e+00 6.122647e+00 4.285667e+00 4.129651e+00 8.377741e+00 1.000000e-02 8.568626e-02 3.041494e-01 4.116369e-01 5.894528e-01 5.602841e-01 6.290879e-01 8.290446e-01 1.111586e+00 6.894749e-01 5.434659e-01 8.515393e-01 8.447620e-01 1.000000e-02 1.716826e-02 5.914023e-02 5.536974e-02 1.127463e-01 9.095369e-02 6.343471e-02 7.243943e-02 1.024398e-01 1.607115e-01 1.030997e-01 1.071837e-01 1.060600e-01 1.000000e-02
<GCONST> 3.481733e+01
<MIXTURE> 15 3.884462e-02
<MEAN> 39
 -9.377170e+00 -2.458709e+00 -9.685677e-01 -2.217754e+00 1.988873e-01 -5.339952e+00 -8.312361e-01 -8.621449e-01 5.302224e+00 5.151374e-01 4.806172e-01 -2.996852e+00 4.716917e-01 -6.853060e-02 -1.223011e-01 -2.208561e-01 5.643078e-02 -8.144919e-02 -2.654712e-02 8.395012e-02 -2.869086e-01 -5.262430e-02 -3.615640e-01 -3.643168e-01 -7.630131e-02 -1.989444e-03 -6.202137e-03 4.216994e-02 3.019852e-03 -6.294272e-02 2.959870e-02 2.643399e-01 1.427461e-01 -2.275628e-01 -5.366697e-01 -3.642083e-01 -7.370152e-02 4.124441e-02 -4.542914e-04
<VARIANCE> 39
 5.987578e-01 1.566732e+00 3.410522e+00 4.802512e+00 3.999497e+00 5.204746e+00 4.137372e+00 4.168076e+00 4.740272e+00 4.359212e+00 3.447477e+00 5.295455e+00 2.026442e-02 1.210632e-01 3.473943e-01 5.534847e-01 6.630754e-01 9.239805e-01 7.433631e-01 1.028993e+00 6.625449e-01 7.213656e-01 7.947427e-01 1.011461e+00 6.180295e-01 1.000000e-02 1.933020e-02 6.856251e-02 9.242685e-02 2.002043e-01 1.698012e-01 8.943803e-02 1.595798e-01 1.130151e-01 1.185730e-01 1.559402e-01 4.375239e-02 1.678167e-01 1.000000e-02
<GCONST> 3.943695e+01
<MIXTURE> 16 2.788845e-02
<MEAN> 39
 -9.588769e+00 -2.054633e+00 4.456738e-01 -1.334396e+00 1.844482e-01 -2.465063e+00 -2.594136e+00 -6.435808e+00 3.344739e+00 2.715261e+00 3.774999e+00 -9.252450e-02 4.195633e-01 -9.470464e-02 -2.346749e-01 -5.260813e-01 -1.495721e-01 6.972449e-02 -6.791059e-03 3.661981e-01 1.232366e-01 5.527741e-02 -2.374102e-01 -8.970916e-02 -2.208091e-01 -3.367954e-03 -5.008070e-03 -3.628049e-02 -2.155872e-01 -7.928079e-02 -7.069402e-03 -6.419824e-02 3.550923e-01 3.760314e-01 -2.287149e-01 -5.626028e-01 -3.330609e-01 -1.127853e-01 -1.088371e-03
<VARIANCE> 39
 8.670232e-01 2.222060e+00 1.685039e+00 1.743995e+00 3.180863e+00 5.682443e+00 4.397573e+00 7.030263e+00 6.466613e+00 3.510436e+00 4.388718e+00 5.116907e+00 1.000000e-02 6.369744e-02 1.935939e-01 4.486087e-01 5.570847e-01 6.712517e-01 4.435606e-01 7.720557e-01 1.717756e+00 9.576720e-01 5.232022e-01 1.378094e+00 7.293439e-01 1.000000e-02 2.166253e-02 5.935065e-02 4.673141e-02 2.866535e-02 9.902868e-02 1.484383e-01 2.269654e-01 8.561974e-02 2.102280e-01 1.722694e-01 1.674595e-01 7.681487e-02 1.000000e-02
<GCONST> 3.565356e+01
<MIXTURE> 17 3.286853e-02
<MEAN> 39
 -1.064369e+01 -3.521716e+00 -1.922766e+00 -1.406228e+00 1.962342e+00 -2.062516e+00 -1.524112e+00 -1.818203e+00 1.931625e+00 -7.813661e-01 3.658414e+00 9.404351e-01 3.927499e-01 -4.051737e-02 1.513174e-02 1.151035e-02 6.308547e-02 2.894810e-02 -3.576919e-01 -4.371414e-01 -3.010949e-01 -2.161648e-01 -1.089704e-01 3.646568e-01 2.192994e-01 1.451521e-03 1.428554e-01 1.796120e-01 1.141710e-01 -9.065853e-02 -2.584025e-01 -1.475784e-01 3.312162e-01 -6.902401e-02 -1.267730e-01 -2.137565e-01 -3.422126e-01 -3.356861e-01 2.831784e-03
<VARIANCE> 39
 9.725678e-01 2.213878e+00 2.176453e+00 4.718455e+00 4.181234e+00 3.343469e+00 2.274303e+00 4.687684e+00 5.422724e+00 3.568584e+00 9.197347e+00 5.456240e+00 1.000000e-02 7.664562e-02 2.527662e-01 3.432140e-01 4.839412e-01 8.178669e-01 9.622270e-01 6.492475e-01 8.552313e-01 7.890952e-01 5.756143e-01 8.414778e-01 7.287570e-01 1.000000e-02 2.744058e-02 6.252513e-02 3.511941e-02 9.141096e-02 9.959947e-02 9.976429e-02 1.176847e-01 1.166572e-01 1.549027e-01 9.303237e-02 1.923688e-01 1.497679e-01 1.000000e-02
<GCONST> 3.619945e+01
<MIXTURE> 18 4.382470e-02
<MEAN> 39
 -1.014619e+01 -2.817434e+00 -2.428442e+00 -4.925687e+00 -2.185106e+00 -3.818116e+00 1.012321e+00 -1.637408e+00 4.413717e+00 5.469031e-02 4.254099e+00 1.265153e+00 4.273761e-01 1.174105e-01 1.970976e-01 1.234875e-01 -3.263053e-02 -1.814285e-01 -3.876116e-02 2.052978e-01 6.357668e-02 1.481513e-01 1.028893e-01 -1.730278e-01 5.943575e-02 -2.197752e-03 5.454507e-02 3.395547e-02 1.866818e-01 3.647509e-01 3.425135e-01 1.447140e-01 1.810261e-02 -1.882222e-01 -4.598597e-01 -2.880082e-01 -3.018461e-01 -3.308297e-01 3.261854e-05
<VARIANCE> 39
 7.875386e-01 1.666747e+00 2.148459e+00 3.732562e+00 2.559351e+00 3.790038e+00 3.638291e+00 6.462515e+00 6.034067e+00 4.995558e+00 6.760385e+00 5.927074e+00 1.000000e-02 9.639385e-02 2.837830e-01 4.658598e-01 8.542295e-01 8.716028e-01 9.550329e-01 1.434726e+00 9.388176e-01 1.208452e+00 1.172055e+00 8.844303e-01 8.029061e-01 1.000000e-02 2.290799e-02 4.680034e-02 5.107162e-02 1.105981e-01 7.090031e-02 6.184474e-02 1.033428e-01 1.486662e-01 1.791731e-01 1.267948e-01 1.757006e-01 1.437606e-01 1.000000e-02
<GCONST> 3.925867e+01
<MIXTURE> 19 3.087649e-02
<MEAN> 39
 -9.574056e+00 -2.393524e+00 2.060794e-01 -9.188662e-01 2.086264e+00 -8.838255e-01 2.079355e+00 -3.803977e+00 -3.830037e+00 -6.727072e+00 -1.315378e+00 -2.955921e+00 4.153028e-01 7.368565e-02 1.294383e-01 1.738465e-01 2.644970e-01 -3.457675e-02 1.347129e-01 8.106348e-02 1.431665e-01 1.213276e-01 2.289360e-01 3.875572e-01 -7.788596e-02 9.191471e-04 -1.334260e-02 -3.945404e-02 -2.549308e-01 -1.913228e-01 -3.015721e-01 -3.878898e-01 -2.508963e-01 8.906674e-02 4.790238e-01 4.950061e-01 4.658626e-01 2.639381e-01 3.162478e-04
<VARIANCE> 39
 7.394761e-01 1.587082e+00 3.106792e+00 6.430876e+00 5.367272e+00 4.541557e+00 3.083648e+00 5.254407e+00 4.292612e+00 6.496859e+00 2.871297e+00 5.728163e+00 1.000000e-02 7.460979e-02 3.239343e-01 2.754596e-01 4.639367e-01 9.217440e-01 9.978233e-01 6.211641e-01 1.251520e+00 1.017928e+00 5.580277e-01 1.009942e+00 6.114537e-01 1.000000e-02 1.239077e-02 2.424912e-02 3.718958e-02 1.545354e-01 1.976973e-01 1.359555e-01 7.783108e-02 9.988195e-02 1.326598e-01 1.613780e-01 6.737063e-02 1.246283e-01 1.000000e-02
<GCONST> 3.559394e+01
<MIXTURE> 20 2.390438e-02
<MEAN> 39
 -1.075159e+01 -3.949753e+00 -1.277973e+00 -1.225949e+00 3.695279e+00 2.298650e+00 4.929186e+00 -9.377555e-01 3.794776e+00 -9.401071e-01 1.131508e+00 -3.496307e+00 4.730515e-01 -3.510841e-02 -8.484267e-02 -1.297592e-01 -1.204432e-01 -9.999999e-02 2.490940e-01 1.296531e-01 4.800677e-01 1.433424e-01 8.564117e-02 3.241591e-01 2.382059e-02 2.679385e-03 1.418175e-01 2.540567e-01 4.164079e-02 -6.531755e-02 -3.004135e-01 -5.133402e-01 -5.105100e-01 -2.524128e-01 -2.479573e-01 -2.087785e-01 -1.666141e-01 2.265555e-01 5.941014e-04
<VARIANCE> 39
 1.259427e+00 2.684940e+00 5.462247e+00 7.922381e+00 2.929985e+00 3.182264e+00 8.760172e+00 3.410489e+00 5.579213e+00 7.134768e+00 3.900210e+00 5.463838e+00 2.864783e-02 1.258428e-01 3.033575e-01 3.600578e-01 7.064062e-01 1.221347e+00 8.574242e-01 1.214998e+00 1.478616e+00 1.530540e+00 6.775830e-01 7.646575e-01 7.515125e-01 1.000000e-02 1.470284e-02 4.618318e-02 7.412640e-02 9.447396e-02 1.543154e-01 7.371918e-02 1.735859e-01 8.327992e-02 1.584110e-01 1.213688e-01 1.030080e-01 1.811097e-01 1.000000e-02
<GCONST> 4.285046e+01
<MIXTURE> 21 3.486056e-02
<MEAN> 39
 -9.594168e+00 -2.062600e+00 -1.238484e+00 -2.522535e+00 7.318262e-01 -1.487105e+00 -1.203233e+00 -7.284622e+00 3.068857e+00 -1.860038e+00 -1.180913e+00 -3.317587e+00 4.134424e-01 2.599070e-02 2.816697e-02 1.681393e-02 1.764009e-01 -1.487326e-01 -2.459027e-01 -4.976597e-01 -4.261475e-01 -3.832445e-01 4.163960e-02 1.280025e-01 -1.427328e-01 2.829536e-03 1.024551e-02 -9.868391e-02 -5.088393e-02 1.482850e-03 -4.010558e-02 -1.156919e-01 2.964759e-01 6.367063e-01 -2.851012e-01 -6.340280e-03 3.785987e-01 1.269751e-01 -1.713324e-05
<VARIANCE> 39
 6.046385e-01 1.208041e+00 2.359115e+00 4.276858e+00 6.682135e+00 5.561712e+00 6.720119e+00 4.671618e+00 5.190515e+00 4.878304e+00 3.411165e+00 2.998113e+00 1.000000e-02 1.507671e-01 2.468193e-01 2.331183e-01 3.399373e-01 5.475755e-01 7.090284e-01 1.252365e+00 1.209261e+00 8.310736e-01 5.321245e-01 1.038725e+00 5.449433e-01 1.000000e-02 1.424501e-02 3.267885e-02 5.184964e-02 7.996055e-02 1.579673e-01 1.471358e-01 8.951299e-02 1.023101e-01 6.446764e-02 1.165213e-01 1.457502e-01 1.013711e-01 1.000000e-02
<GCONST> 3.401632e+01
<MIXTURE> 22 1.792829e-02
<MEAN> 39
 -9.883440e+00 -3.550752e+00 -1.494188e+00 -3.006575e+00 8.244816e-01 -9.805299e-01 4.057356e+00 3.789553e+00 4.289298e+00 -1.285462e+00 1.141435e+00 8.703321e-01 4.200813e-01 1.470244e-01 7.134712e-02 2.438986e-01 3.680760e-02 -4.626384e-03 -3.289820e-01 -5.798747e-01 -4.122483e-01 -1.364057e-01 -3.354415e-02 1.129061e-01 1.291836e-01 1.198093e-03 2.259274e-02 4.632101e-02 -2.303673e-02 -4.964662e-02 -1.814854e-01 -1.917511e-01 -3.756641e-01 -7.372993e-01 -3.236515e-01 -1.321313e-01 1.355408e-01 -2.421057e-01 -1.355647e-03
<VARIANCE> 39
 1.531419e-01 8.687335e-01 1.335560e+00 3.086682e+00 3.410816e+00 4.984823e+00 3.147161e+00 3.429901e+00 3.593496e+00 6.624897e+00 2.795678e+00 3.594810e+00 1.000000e-02 8.695882e-02 1.909193e-01 4.148278e-01 4.675371e-01 5.691859e-01 7.351998e-01 8.932666e-01 8.788271e-01 1.804510e+00 5.206696e-01 7.159997e-01 5.154035e-01 1.000000e-02 1.201096e-02 3.479148e-02 4.696269e-02 7.318849e-02 1.231451e-01 6.354861e-02 1.571920e-01 1.633723e-01 1.191380e-01 1.413865e-01 6.662935e-02 7.223509e-02 1.000000e-02
<GCONST> 2.865417e+01
<MIXTURE> 23 6.972112e-03
<MEAN> 39
 -8.896844e+00 -1.932415e+00 5.478773e-01 -9.164722e-01 2.965252e+00 -2.870138e+00 4.625135e+00 4.147954e+00 3.698153e+00 -1.386117e+00 4.118463e+00 -3.200611e+00 4.840155e-01 -5.235010e-02 2.129359e-01 2.533512e-01 4.194127e-02 -3.324797e-01 -4.523989e-01 -6.482492e-01 -6.597418e-01 -2.250671e-01 2.987783e-02 3.403990e-01 -9.152705e-02 4.067646e-03 -2.401274e-02 2.612916e-02 -1.414685e-01 -3.034752e-01 -2.814903e-01 2.889942e-01 -3.789153e-01 -6.762015e-01 -3.261105e-01 -1.447808e-01 -4.077301e-01 1.161495e-01 -3.840928e-04
<VARIANCE> 39
 7.574692e-01 2.478833e+00 3.313019e-01 5.524047e+00 2.890715e+00 4.576374e+00 4.400458e+00 2.288518e+00 5.219347e+00 4.398950e+00 6.524956e-01 2.823467e+00 3.274066e-02 5.385948e-02 3.290000e-01 2.198978e-01 4.252027e-01 9.254031e-01 8.548965e-01 1.452429e+00 4.082216e-01 6.510224e-01 6.941614e-01 5.893701e-01 1.299064e+00 1.000000e-02 3.734985e-02 1.035074e-01 5.069314e-02 1.663792e-01 9.687524e-02 1.304765e-01 1.065337e-01 5.471879e-02 1.364522e-02 7.016537e-02 8.608171e-02 4.354685e-02 1.000000e-02
<GCONST> 2.831337e+01
<MIXTURE> 24 2.689243e-02
<MEAN> 39
 -9.185875e+00 -1.911376e+00 -2.675928e-01 -2.984079e+00 -3.394915e+00 -4.811836e+00 1.506634e+00 -1.603409e+00 5.338824e-02 -2.006712e+00 -2.084540e+00 -3.191973e+00 4.112558e-01 5.931858e-02 4.718896e-02 1.043907e-01 2.208814e-01 1.145136e-01 2.399359e-01 1.184824e-01 -3.053921e-02 1.444332e-02 -5.764862e-02 8.319694e-02 -2.697096e-02 2.759864e-04 -4.985355e-02 -1.018893e-01 -1.581187e-01 1.024335e-01 4.817479e-01 2.722847e-01 -2.034085e-02 -4.167057e-02 3.296916e-01 4.558238e-02 4.996532e-01 2.621413e-01 1.314763e-03
<VARIANCE> 39
 8.632381e-01 1.976853e+00 1.393029e+00 2.735727e+00 3.276203e+00 7.263093e+00 5.659869e+00 5.429040e+00 6.213578e+00 2.630719e+00 4.114176e+00 2.572594e+00 1.000000e-02 1.092950e-01 2.649134e-01 3.091694e-01 9.494457e-01 9.136078e-01 8.792391e-01 1.572270e+00 1.055601e+00 1.561434e+00 9.636349e-01 1.133166e+00 5.955012e-01 1.000000e-02 3.042611e-02 5.756623e-02 2.259000e-02 7.840589e-02 8.086056e-02 9.061551e-02 1.167831e-01 1.503590e-01 2.082192e-01 1.021966e-01 1.441202e-01 5.418871e-02 1.000000e-02
<GCONST> 3.667289e+01
<MIXTURE> 25 3.386454e-02
<MEAN> 39
 -9.990566e+00 -3.636779e+00 -2.952410e+00 -4.748073e+00 -1.146773e+00 -1.399342e+00 2.530512e+00 -2.143652e+00 9.158759e-01 -1.668567e+00 3.181360e-02 -5.604232e+00 4.260474e-01 8.592346e-02 1.708357e-01 9.967475e-02 1.562883e-01 -3.465837e-02 1.010171e-01 3.214286e-01 -2.307140e-01 3.950071e-04 -1.024198e-01 -5.495456e-01 -6.271210e-01 3.200894e-03 7.051127e-02 1.382159e-01 1.845099e-01 2.033088e-01 1.527368e-01 -1.100573e-01 -1.439711e-01 -2.130810e-02 9.200819e-02 -8.601094e-02 1.111584e-01 3.739422e-01 1.032126e-03
<VARIANCE> 39
 5.048568e-01 2.124276e+00 1.183579e+00 2.128461e+00 4.597938e+00 4.127415e+00 4.923824e+00 5.289042e+00 6.350512e+00 3.635154e+00 2.638711e+00 2.452545e+00 1.150557e-02 7.621098e-02 3.011099e-01 2.249345e-01 5.016325e-01 4.727283e-01 8.246166e-01 6.745362e-01 7.906564e-01 9.956145e-01 1.374395e+00 5.065485e-01 5.287788e-01 1.000000e-02 1.290740e-02 5.077353e-02 2.720403e-02 4.588092e-02 7.148377e-02 1.350472e-01 6.615061e-02 1.376271e-01 1.642253e-01 6.239780e-02 1.066864e-01 1.020992e-01 1.000000e-02
<GCONST> 2.921836e+01
<MIXTURE> 26 2.290837e-02
<MEAN> 39
 -8.960846e+00 -9.284672e-01 1.685020e+00 7.767611e-02 2.202693e+00 -3.159043e+00 1.981135e+00 -2.934183e+00 -2.663130e+00 2.845693e-02 1.697503e+00 -7.892008e-01 5.481433e-01 1.748456e-02 2.281398e-01 3.173060e-01 1.119360e-01 -8.460953e-02 -4.408186e-03 -2.048157e-01 -2.419806e-01 9.302456e-02 1.354961e-01 -9.585151e-02 7.037874e-02 -9.385492e-03 -9.582046e-02 -1.919139e-01 -3.377599e-01 -2.676341e-01 -1.897797e-01 8.927014e-02 -1.087417e-01 1.548970e-02 5.672960e-01 -2.918418e-01 -1.222739e-01 -1.119313e-01 -4.698252e-03
<VARIANCE> 39
 1.986573e+00 3.893076e+00 3.567973e+00 3.164856e+00 2.948095e+00 6.091819e+00 5.476135e+00 6.031180e+00 6.080965e+00 3.733688e+00 4.573207e+00 6.345386e+00 4.833801e-02 7.073337e-02 1.784646e-01 5.223067e-01 8.231698e-01 6.260927e-01 8.960537e-01 9.885138e-01 1.041996e+00 1.436804e+00 6.907477e-01 7.842820e-01 1.040220e+00 1.000000e-02 3.524792e-02 9.989024e-02 1.022764e-01 5.043558e-02 1.152204e-01 1.052479e-01 2.147470e-01 2.381162e-01 1.109957e-01 8.941191e-02 1.276719e-01 1.898370e-01 1.000000e-02
<GCONST> 4.417270e+01
<MIXTURE> 27 3.486056e-02
<MEAN> 39
 -9.664366e+00 -2.471446e+00 -1.965772e+00 -3.497476e+00 9.820963e-01 -2.963810e+00 -2.682696e+00 -7.968516e+00 -3.479064e+00 -3.596357e+00 2.831655e+00 -7.161826e-01 4.168715e-01 -2.262205e-02 -6.227541e-02 9.729425e-02 1.045474e-02 2.184285e-02 2.404895e-01 1.142590e-01 1.386101e-01 -3.923515e-01 2.290355e-01 2.448009e-01 -2.031652e-01 -3.227681e-04 1.109324e-03 -9.055580e-03 1.098788e-01 1.335939e-01 -6.179454e-02 3.582398e-02 4.019764e-01 6.902954e-01 5.357800e-01 1.118166e-01 -2.510799e-01 -1.927688e-01 1.250171e-03
<VARIANCE> 39
 8.477539e-01 2.811926e+00 2.942761e+00 5.987595e+00 5.057105e+00 4.118090e+00 5.153960e+00 4.889274e+00 4.472207e+00 4.852682e+00 5.130399e+00 4.926547e+00 1.000000e-02 8.812854e-02 2.799993e-01 4.337939e-01 7.326455e-01 4.947070e-01 1.139373e+00 1.000288e+00 1.147747e+00 7.554038e-01 5.803750e-01 6.877894e-01 3.641942e-01 1.000000e-02 2.015269e-02 6.686224e-02 7.180728e-02 1.230362e-01 1.584672e-01 1.533504e-01 1.742345e-01 1.851072e-01 1.060596e-01 7.211033e-02 1.661836e-01 7.978522e-02 1.000000e-02
<GCONST> 3.899091e+01
<MIXTURE> 28 3.486056e-02
<MEAN> 39
 -9.958990e+00 -3.649674e+00 -2.550333e+00 -2.597681e+00 2.337894e+00 -2.159269e+00 7.259127e-01 -3.132267e+00 2.227542e+00 -3.886246e+00 -8.935429e-01 -3.957271e-01 4.154381e-01 8.241843e-02 2.992524e-01 3.321765e-01 1.022086e-01 -3.514942e-02 7.527711e-02 -2.153848e-01 8.099439e-02 2.991740e-01 2.094173e-01 1.475985e-01 1.840641e-01 3.449577e-04 4.406033e-02 1.456879e-01 1.679961e-01 2.850828e-02 -2.290229e-01 -4.822133e-02 -1.834698e-03 1.733668e-02 -1.673501e-01 2.387275e-01 2.570024e-01 -1.165009e-01 -1.009798e-03
<VARIANCE> 39
 7.626088e-01 1.005074e+00 1.360394e+00 1.821817e+00 3.722430e+00 3.452363e+00 4.510628e+00 3.251406e+00 6.870072e+00 3.671297e+00 3.227591e+00 3.675303e+00 1.000000e-02 7.039332e-02 1.488104e-01 4.175767e-01 3.977896e-01 6.693071e-01 7.019154e-01 6.933865e-01 8.929330e-01 9.750639e-01 5.046336e-01 1.197468e+00 1.183267e+00 1.000000e-02 1.653011e-02 2.111031e-02 4.431941e-02 8.340498e-02 7.846414e-02 8.238183e-02 1.201172e-01 1.313463e-01 6.299716e-02 1.046006e-01 9.823281e-02 6.434534e-02 1.000000e-02
<GCONST> 2.865617e+01
<MIXTURE> 29 2.490040e-02
<MEAN> 39
 -1.021311e+01 -3.605537e+00 -1.907164e+00 -4.850792e+00 -2.499882e+00 -4.609051e+00 9.037638e-01 -1.500823e+00 -1.852475e-01 -6.589523e+00 1.790854e+00 1.909476e+00 4.498682e-01 -4.192845e-02 -8.275656e-02 -1.679383e-01 3.711606e-02 1.361920e-01 -4.355638e-02 2.652649e-01 -4.581921e-01 -6.193556e-01 -8.368877e-02 -1.220283e-01 2.100561e-02 -7.324857e-04 6.655373e-02 1.518309e-01 9.784672e-02 3.175572e-01 3.552538e-01 2.510843e-01 1.619158e-02 -6.016729e-02 1.544260e-01 5.060989e-01 -5.974228e-02 -3.065144e-01 -3.060767e-04
<VARIANCE> 39
 1.170802e+00 1.886540e+00 2.570064e+00 2.663385e+00 1.766002e+00 5.311576e+00 5.263755e+00 5.495333e+00 1.913300e+00 2.718434e+00 3.945483e+00 2.015478e+00 1.617052e-02 8.719615e-02 2.263769e-01 2.637770e-01 5.229115e-01 4.996957e-01 6.393751e-01 7.424185e-01 5.146250e-01 1.714975e+00 1.127060e+00 4.981936e-01 1.270736e+00 1.000000e-02 2.537376e-02 6.577455e-02 1.105527e-01 4.701073e-02 9.966786e-02 1.217843e-01 9.593038e-02 2.058262e-01 1.798338e-01 9.099501e-02 7.849911e-02 8.205324e-02 1.000000e-02
<GCONST> 3.342723e+01
<MIXTURE> 30 2.589642e-02
<MEAN> 39
 -9.899893e+00 -2.803145e+00 -1.281105e+00 -3.453717e+00 -2.429318e+00 -4.474192e+00 -1.450422e+00 -4.942499e+00 -3.027097e-01 -7.263858e+00 -3.961062e+00 -4.775384e+00 4.155535e-01 1.548138e-01 1.066564e-01 2.669794e-01 -2.576001e-02 -1.587225e-01 1.513762e-01 3.152916e-01 -3.568051e-02 -1.831299e-01 4.074997e-02 1.027302e-01 3.127796e-02 -1.217666e-03 7.141692e-02 2.826931e-02 2.518309e-03 8.749273e-02 3.605369e-01 1.706045e-01 3.273449e-01 2.556174e-01 3.694220e-02 5.599151e-01 6.767331e-01 3.920490e-01 4.874642e-04
<VARIANCE> 39
 5.532861e-01 1.265527e+00 3.489425e+00 4.093452e+00 2.699079e+00 2.674457e+00 3.145776e+00 7.003176e+00 6.265270e+00 4.849871e+00 5.317102e+00 5.281095e+00 1.000000e-02 9.589994e-02 8.801854e-02 3.512993e-01 9.661434e-01 6.272227e-01 2.695923e-01 8.127644e-01 1.439694e+00 1.507954e+00 1.077123e+00 1.659406e+00 5.976716e-01 1.000000e-02 1.521828e-02 3.409974e-02 8.124535e-02 8.017762e-02 1.115401e-01 1.071884e-01 8.846200e-02 1.470505e-01 1.143723e-01 1.426067e-01 1.372979e-01 1.222543e-01 1.000000e-02
<GCONST> 3.541451e+01
<MIXTURE> 31 2.888446e-02
<MEAN> 39
 -9.805895e+00 -2.601898e+00 -8.482239e-02 -8.317549e-01 5.299461e-01 -2.247280e+00 2.061074e+00 5.881934e-01 4.889488e+00 -1.244552e+00 -1.741275e+00 -5.887893e+00 4.162687e-01 6.350511e-02 -9.640341e-02 -5.198711e-02 -6.692611e-02 7.119521e-02 6.635614e-02 4.391282e-02 -1.203224e-01 -1.669279e-01 -6.671837e-02 1.357606e-01 2.814324e-02 -5.556067e-03 4.425894e-02 2.112988e-02 -1.174380e-01 -1.521455e-01 1.873128e-02 1.954254e-02 -1.222030e-01 -2.361310e-01 -6.063690e-01 -1.660120e-01 4.282317e-01 5.524437e-01 -1.636338e-04
<VARIANCE> 39
 4.510325e-01 1.514701e+00 2.845839e+00 2.391596e+00 3.830687e+00 6.196048e+00 7.208543e+00 4.323391e+00 3.082405e+00 5.016641e+00 4.721566e+00 2.547755e+00 1.000000e-02 3.468801e-02 2.886089e-01 4.283087e-01 5.682137e-01 5.064706e-01 6.789117e-01 1.335964e+00 1.244993e+00 8.074799e-01 1.100930e+00 1.155712e+00 1.230467e+00 1.000000e-02 1.013087e-02 3.990101e-02 5.018425e-02 5.923536e-02 1.001100e-01 1.452599e-01 7.883884e-02 7.019637e-02 1.070418e-01 9.026537e-02 1.171881e-01 8.565061e-02 1.000000e-02
<GCONST> 3.258871e+01
<MIXTURE> 32 2.988048e-03
<MEAN> 39
 -8.052968e+00 -3.909542e-01 6.322058e-01 6.547420e-02 4.038919e+00 1.145099e+00 7.959231e+00 7.152766e+00 7.969634e+00 -1.161944e+00 2.481366e+00 1.838317e+00 7.312359e-01 -4.022242e-01 -4.052231e-01 -2.979969e-01 -4.641753e-01 -2.774437e-01 1.631168e-02 -4.191369e-01 1.553178e-01 1.018568e+00 1.825260e-01 -4.785213e-01 -4.505090e-01 -3.100468e-02 -8.003382e-02 -2.123206e-01 -1.110375e-01 -2.210809e-01 -3.098898e-01 -1.222451e-01 -5.018264e-01 -8.869678e-01 -8.269008e-01 1.724325e-01 3.174509e-02 -5.866408e-01 -4.441722e-03
<VARIANCE> 39
 1.539038e+00 2.780362e+00 1.226251e+01 1.608943e+01 7.869811e+00 6.951494e+00 2.499348e+00 3.840253e-01 2.287367e-01 1.707563e+00 1.528835e+00 2.970927e+00 3.280530e-02 1.806886e-01 9.933786e-01 1.329331e+00 1.820730e+00 2.902370e-01 4.782304e-01 1.890696e-01 1.002017e+00 1.709043e+00 4.235748e-01 4.382728e-01 1.639719e-01 1.000000e-02 3.046142e-02 2.259475e-02 8.628827e-02 2.267956e-01 1.161511e-01 7.873621e-02 5.030096e-02 1.819615e-02 8.831965e-02 3.137527e-02 3.358159e-02 8.175928e-02 1.000000e-02
<GCONST> 2.820208e+01
<STATE> 4
<NUMMIXES> 32
<MIXTURE> 1 5.957447e-02
<MEAN> 39
 -9.500714e+00 -2.133019e+00 -3.030097e-01 -8.123677e-01 2.209889e+00 -1.423886e+00 2.862794e+00 -1.149229e+00 9.336264e-01 -5.710037e+00 -1.141940e+00 -2.421080e+00 4.250748e-01 -5.520077e-02 2.973282e-03 -6.129013e-02 -8.489599e-02 -7.001119e-02 1.495665e-02 -2.254656e-01 1.557259e-01 5.211177e-01 4.524118e-01 3.024963e-01 -2.374392e-01 -2.362315e-03 -3.771312e-02 -6.555672e-02 -1.038295e-01 -2.086990e-01 -2.180007e-01 -2.578204e-01 -3.586027e-01 -2.329634e-01 1.287882e-02 5.048409e-01 3.125878e-01 7.594239e-02 -9.662142e-04
<VARIANCE> 39
 4.722932e-01 1.467613e+00 3.442810e+00 3.456717e+00 3.824074e+00 6.975824e+00 4.591136e+00 4.476183e+00 5.511028e+00 4.736310e+00 6.052353e+00 3.546259e+00 1.000000e-02 1.503648e-01 2.859088e-01 4.813617e-01 5.028992e-01 4.397517e-01 9.470706e-01 6.592764e-01 1.515476e+00 7.604951e-01 1.165277e+00 1.004455e+00 7.385275e-01 1.000000e-02 1.049620e-02 3.422814e-02 7.212224e-02 1.085190e-01 9.402745e-02 1.243102e-01 1.762572e-01 8.472972e-02 1.392689e-01 4.986960e-02 1.216895e-01 7.308590e-02 1.000000e-02
<GCONST> 3.561822e+01
<MIXTURE> 2 5.000000e-02
<MEAN> 39
 -9.565752e+00 -2.014580e+00 -5.692002e-01 -7.866544e-01 3.988912e+00 -9.516342e-01 1.815471e-01 -5.357250e+00 -1.053288e+00 -3.978847e+00 2.419378e+00 5.419773e-01 4.242241e-01 -4.824804e-02 1.241926e-01 2.823868e-01 -2.411118e-01 -7.825816e-02 2.622858e-01 3.387685e-01 -4.967048e-02 -1.747003e-01 -7.933611e-02 -7.995399e-02 5.000230e-02 3.166011e-03 3.076936e-02 -2.488923e-02 -1.387536e-01 -2.616566e-01 -5.071077e-01 -2.398517e-01 6.005552e-02 3.592441e-01 2.732117e-01 1.828997e-01 -1.331375e-01 -3.088351e-01 4.437976e-04
<VARIANCE> 39
 8.371302e-01 8.551635e-01 1.873226e+00 3.786460e+00 3.523272e+00 4.516011e+00 3.567989e+00 4.615915e+00 2.981025e+00 3.746176e+00 4.785566e+00 2.928539e+00 1.000000e-02 1.273619e-01 1.904510e-01 4.817283e-01 7.834393e-01 5.509806e-01 8.440843e-01 1.510462e+00 1.367102e+00 6.711171e-01 1.192585e+00 7.349845e-01 9.251587e-01 1.000000e-02 1.977534e-02 2.242883e-02 7.254755e-02 8.548181e-02 5.455835e-02 1.332946e-01 1.404202e-01 1.824143e-01 1.242565e-01 1.185111e-01 1.223409e-01 8.984549e-02 1.000000e-02
<GCONST> 3.464511e+01
<MIXTURE> 3 5.000000e-02
<MEAN> 39
 -9.536783e+00 -1.850380e+00 -5.175351e-01 -2.399861e+00 2.805002e-01 -3.094420e+00 -8.415960e-01 -6.250330e+00 -8.351351e-01 -9.482921e-02 4.249286e+00 -1.442572e+00 4.061657e-01 2.536036e-02 -8.681946e-03 -1.289264e-01 2.114091e-01 1.520051e-01 -2.200738e-01 -1.286861e-02 5.160868e-02 2.738453e-01 4.119105e-01 9.511881e-02 -1.019826e-01 -7.000887e-04 -6.744288e-03 -5.430003e-02 -8.694104e-02 4.359287e-02 -2.291549e-02 1.224112e-02 2.168052e-01 3.721868e-01 1.946567e-01 -1.889264e-01 -4.032572e-01 -1.006463e-01 1.095542e-03
<VARIANCE> 39
 6.703261e-01 1.544387e+00 1.462619e+00 6.278475e+00 3.356286e+00 7.308515e+00 4.349444e+00 3.799112e+00 4.207064e+00 6.247210e+00 2.639395e+00 7.000831e+00 1.000000e-02 6.474201e-02 1.493814e-01 2.467824e-01 5.510015e-01 6.818179e-01 1.151037e+00 1.008224e+00 1.797340e+00 1.049242e+00 1.177926e+00 7.106165e-01 6.416813e-01 1.000000e-02 1.841990e-02 3.522025e-02 4.461640e-02 1.100062e-01 7.885633e-02 1.208423e-01 1.487882e-01 1.502100e-01 1.694150e-01 1.647580e-01 1.243738e-01 1.487869e-01 1.000000e-02
<GCONST> 3.676863e+01
<MIXTURE> 4 5.319149e-03
<MEAN> 39
 -9.631609e+00 -2.720621e+00 -9.534907e-01 -1.284608e+00 3.488753e+00 -2.301048e+00 1.767130e+00 1.799728e+00 9.039858e+00 1.986103e+00 5.622755e+00 -6.496299e-01 4.026140e-01 1.168042e-01 -1.324994e-01 -1.278385e-01 -2.231703e-01 8.559018e-02 3.459890e-01 8.830958e-01 8.942649e-01 4.016046e-02 4.251733e-01 8.589754e-01 -1.578016e-01 1.722644e-02 -4.750534e-02 3.218563e-03 8.743413e-02 -1.050837e-02 -1.471462e-01 1.741534e-01 3.753055e-01 -5.070648e-01 -9.957328e-01 -4.160657e-01 -2.494533e-01 2.072624e-02 2.108102e-04
<VARIANCE> 39
 3.439069e-01 1.283298e+00 4.546866e-01 2.674810e+00 4.339850e+00 2.394518e+00 3.760171e+00 1.133854e+01 3.323327e+00 4.355087e+00 6.629623e+00 4.735906e+00 1.000000e-02 2.968517e-02 1.151524e-01 2.388229e-01 5.458950e-02 5.887707e-01 6.761803e-01 1.900415e-01 7.029151e-01 3.439758e-01 1.209386e+00 7.999724e-01 4.931525e-01 1.000000e-02 1.763815e-02 2.272052e-02 5.286367e-02 1.372265e-01 1.260541e-01 7.680880e-02 8.392018e-02 9.913535e-02 6.439401e-02 1.355962e-02 1.319229e-01 1.576132e-01 1.000000e-02
<GCONST> 2.160091e+01
<MIXTURE> 5 5.319149e-02
<MEAN> 39
 -9.774659e+00 -2.316019e+00 -7.660161e-01 -1.011687e+00 2.062849e+00 -2.703760e+00 -6.985015e-01 -4.355204e+00 -2.800380e-01 -3.818783e+00 -2.813912e+00 -4.508292e+00 4.215797e-01 6.746833e-02 -1.172033e-02 -7.315955e-02 4.813149e-02 1.838215e-02 8.990561e-02 4.203506e-01 5.454299e-02 -2.589473e-01 -9.774447e-02 -7.487361e-04 -2.211937e-02 -4.470584e-03 4.890406e-02 -2.327560e-03 -6.061966e-02 -1.453277e-01 -1.834544e-01 7.331154e-02 3.060439e-01 2.855315e-01 2.430422e-01 2.659245e-01 5.462298e-01 3.322542e-01 -1.168031e-03
<VARIANCE> 39
 5.758638e-01 1.445289e+00 2.339897e+00 3.452643e+00 4.932487e+00 5.093929e+00 4.891610e+00 6.774052e+00 5.135775e+00 3.599479e+00 3.063492e+00 5.310716e+00 1.000000e-02 6.427415e-02 2.138937e-01 3.704638e-01 4.687335e-01 3.844373e-01 8.710701e-01 7.456264e-01 1.377888e+00 1.288907e+00 1.636815e+00 7.055661e-01 6.396940e-01 1.000000e-02 1.498805e-02 3.855051e-02 5.062328e-02 4.175595e-02 8.127661e-02 6.495887e-02 1.346800e-01 1.946689e-01 1.098533e-01 1.562333e-01 1.016034e-01 1.602431e-01 1.000000e-02
<GCONST> 3.436112e+01
<MIXTURE> 6 3.510638e-02
<MEAN> 39
 -9.365230e+00 -1.743005e+00 -9.566839e-01 -1.850231e+00 -1.211486e+00 -6.871176e+00 -2.074052e+00 -2.973495e-01 4.145092e+00 -1.866081e+00 1.171514e-01 -4.213113e+00 4.270445e-01 1.156023e-01 2.359958e-01 1.380384e-01 2.134995e-01 2.278965e-01 4.183353e-01 6.988607e-02 -2.817883e-01 -2.153459e-01 3.604921e-02 -4.643976e-02 9.884773e-03 -2.655783e-03 -3.705403e-03 -6.136532e-02 -4.920621e-02 -1.188642e-01 1.387978e-01 5.899082e-01 4.130830e-01 -3.285483e-01 -3.874564e-01 -6.563260e-02 1.052380e-01 3.065594e-01 -1.031223e-03
<VARIANCE> 39
 5.319521e-01 1.248915e+00 2.872507e+00 3.687928e+00 3.956978e+00 5.661214e+00 3.948284e+00 3.911467e+00 3.089889e+00 7.277618e+00 4.343914e+00 2.835123e+00 1.000000e-02 7.251512e-02 2.204550e-01 5.320175e-01 4.165583e-01 6.211236e-01 9.098434e-01 1.109244e+00 1.023390e+00 1.208962e+00 1.671722e+00 9.665946e-01 6.743774e-01 1.000000e-02 1.455283e-02 3.978381e-02 7.557003e-02 8.604758e-02 7.867420e-02 1.159156e-01 1.195473e-01 1.365734e-01 4.557540e-02 1.530457e-01 1.907096e-01 9.182219e-02 1.000000e-02
<GCONST> 3.515965e+01
<MIXTURE> 7 1.702128e-02
<MEAN> 39
 -9.647442e+00 -2.579065e+00 -2.038213e-01 -1.774904e+00 2.588531e+00 2.517068e+00 5.369218e+00 -2.905048e+00 1.196327e+00 1.079165e+00 1.048512e+00 -3.307774e+00 4.438497e-01 -3.511474e-02 -1.476499e-02 3.818039e-01 1.221956e-01 -2.053128e-01 -4.820532e-01 1.379292e-01 7.633229e-01 1.668541e-01 -9.202781e-02 -8.615970e-01 -3.891862e-01 1.392032e-03 7.195044e-03 -1.343791e-02 -1.052402e-01 -3.375342e-02 -9.739710e-02 -6.152270e-01 -4.762240e-01 -2.868411e-02 -1.373537e-01 -5.354648e-01 4.557981e-02 2.317479e-01 -1.550513e-03
<VARIANCE> 39
 9.461081e-01 4.563761e+00 2.295336e+00 7.189377e+00 5.734784e+00 8.500308e+00 7.317234e+00 7.153146e+00 2.084300e+00 3.633621e+00 8.461782e+00 2.943054e+00 1.000000e-02 9.533653e-02 1.337900e-01 5.149593e-01 8.206416e-01 7.933040e-01 7.713339e-01 1.569122e+00 8.412389e-01 4.107574e-01 5.488285e-01 7.091542e-01 9.327056e-01 1.000000e-02 1.975531e-02 8.441829e-02 8.094997e-02 1.669631e-01 1.105887e-01 2.025295e-01 2.569087e-01 3.030018e-01 2.212808e-01 1.139071e-01 2.432688e-01 1.265141e-01 1.000000e-02
<GCONST> 4.365850e+01
<MIXTURE> 8 4.361702e-02
<MEAN> 39
 -9.571163e+00 -2.714758e+00 -1.146940e+00 -1.873713e+00 -5.034376e-01 -3.824993e+00 2.454940e+00 -2.331591e+00 -8.122373e-03 -1.907646e+00 4.235671e+00 9.511606e-01 4.104232e-01 -8.093272e-02 -2.230882e-01 -2.306006e-01 -2.112275e-01 1.333469e-01 3.155427e-01 7.330781e-02 -3.645189e-02 -2.567355e-01 -3.742677e-01 -2.181676e-01 -2.070875e-01 3.983114e-03 -2.003407e-02 2.105595e-02 -7.128239e-02 -1.422379e-01 9.340450e-02 4.758018e-02 -3.541117e-01 -1.669607e-01 6.859411e-02 -7.749508e-02 -3.980491e-01 -3.404102e-01 2.367678e-04
<VARIANCE> 39
 1.018072e+00 2.300751e+00 2.892493e+00 1.480965e+00 4.521012e+00 3.452620e+00 3.460735e+00 2.684817e+00 2.858157e+00 4.818905e+00 3.711005e+00 3.596045e+00 1.000000e-02 1.320206e-01 3.024343e-01 3.916434e-01 5.387206e-01 7.401859e-01 1.294963e+00 9.853868e-01 1.538193e+00 6.469270e-01 8.738908e-01 7.372214e-01 9.343615e-01 1.000000e-02 1.934632e-02 6.339730e-02 4.788486e-02 7.773390e-02 1.524317e-01 6.419417e-02 8.533708e-02 7.036812e-02 7.437558e-02 8.678319e-02 9.836574e-02 6.547183e-02 1.000000e-02
<GCONST> 3.288504e+01
<MIXTURE> 9 4.893617e-02
<MEAN> 39
 -9.678244e+00 -2.230185e+00 -4.989450e-01 -3.626555e+00 -2.082014e+00 -4.710588e+00 2.399323e+00 -7.904212e-02 1.720255e+00 -3.907043e+00 -1.359266e+00 -1.487675e+00 4.099830e-01 -6.955229e-02 -5.786131e-03 -2.693989e-02 -1.115667e-01 -1.009706e-01 -1.231603e-01 -5.642938e-02 1.463440e-01 -1.313069e-01 -2.647902e-01 -3.989437e-01 -2.180209e-01 4.183111e-04 2.455263e-02 -4.040082e-02 -1.410561e-01 1.631519e-01 3.521102e-01 3.482257e-01 -1.828118e-01 -3.239339e-01 -8.313701e-02 2.343098e-01 3.496096e-01 -4.423613e-02 7.301130e-04
<VARIANCE> 39
 1.301439e+00 2.045029e+00 2.664617e+00 4.093227e+00 3.096622e+00 6.235097e+00 4.144620e+00 3.772267e+00 6.293433e+00 3.433669e+00 3.170868e+00 3.358590e+00 1.000000e-02 8.778371e-02 9.858200e-02 3.878321e-01 7.315788e-01 6.652517e-01 1.264493e+00 1.014335e+00 1.461156e+00 1.333997e+00 1.149201e+00 8.586899e-01 6.181384e-01 1.000000e-02 2.771064e-02 5.481515e-02 7.289598e-02 7.726447e-02 6.266024e-02 1.312678e-01 1.382436e-01 9.545201e-02 1.652195e-01 1.283601e-01 1.540639e-01 1.047277e-01 1.000000e-02
<GCONST> 3.760601e+01
<MIXTURE> 10 6.382979e-03
<MEAN> 39
 -9.785936e+00 -1.830000e+00 -1.558637e-01 -2.431273e+00 1.280579e+00 -2.945672e-01 8.650414e+00 4.771296e+00 2.475349e-01 -1.625701e+00 1.168554e+00 -2.763208e+00 4.585709e-01 6.328064e-02 -7.105564e-02 -2.562318e-01 -3.416394e-01 -1.373298e-01 3.576201e-02 -3.933241e-01 -1.680437e-01 2.784616e-02 -6.500141e-02 6.763358e-02 -2.202518e-01 9.926011e-03 1.096963e-02 1.741293e-02 -1.786169e-01 -2.704360e-02 -1.278442e-01 -2.943931e-01 -1.019049e+00 -6.355033e-01 1.743369e-01 -1.618561e-01 1.154276e-02 1.482645e-01 -9.398252e-04
<VARIANCE> 39
 3.727648e-01 1.138020e+00 5.623514e+00 4.807390e+00 5.073379e+00 6.764528e+00 1.457689e+00 8.193871e+00 5.239618e+00 5.158551e+00 2.474240e+00 2.252509e+00 1.000000e-02 1.450618e-01 1.073730e-01 6.037858e-02 3.158992e-01 7.616074e-01 1.637622e+00 1.467676e+00 4.583636e-01 4.776931e-01 7.401934e-01 2.248660e-01 1.271987e+00 1.000000e-02 1.157683e-02 1.000000e-02 7.649998e-02 1.365503e-01 8.357269e-02 1.829139e-01 1.964077e-01 3.685171e-01 7.820811e-02 1.448127e-01 1.659469e-01 8.800095e-02 1.000000e-02
<GCONST> 3.160458e+01
<MIXTURE> 11 7.021277e-02
<MEAN> 39
 -9.140799e+00 -2.512127e+00 -1.668761e+00 -2.740422e+00 -1.230712e-01 -1.396817e+00 2.039150e+00 -4.332891e+00 -1.826311e+00 -3.545941e+00 -7.291997e-02 -2.349675e+00 4.297760e-01 4.239982e-02 -1.336107e-01 8.631366e-02 -3.241101e-02 -2.695277e-03 2.916073e-01 1.491735e-02 2.525109e-02 2.374851e-01 1.819780e-01 6.538196e-02 2.149459e-01 1.718645e-04 -4.491388e-02 2.710803e-02 5.950220e-02 -2.259967e-02 -2.227035e-02 -2.505749e-01 -1.792477e-01 1.143615e-01 2.955216e-01 1.489019e-01 1.482536e-01 -1.167514e-02 -1.064394e-03
<VARIANCE> 39
 1.242994e+00 1.815463e+00 2.063485e+00 2.672121e+00 2.321881e+00 3.071362e+00 4.693056e+00 2.412739e+00 3.863916e+00 3.390499e+00 4.401895e+00 1.956858e+00 1.000000e-02 8.546412e-02 1.414032e-01 4.454842e-01 6.031780e-01 5.870197e-01 8.803185e-01 1.211834e+00 1.259425e+00 1.119610e+00 1.262574e+00 8.204030e-01 4.641719e-01 1.000000e-02 2.257520e-02 4.613784e-02 7.343940e-02 7.268009e-02 8.298275e-02 8.064667e-02 1.043829e-01 1.285495e-01 9.088900e-02 1.339187e-01 1.486254e-01 1.021524e-01 1.000000e-02
<GCONST> 3.289936e+01
<MIXTURE> 12 3.617021e-02
<MEAN> 39
 -9.900849e+00 -3.245720e+00 -2.276443e+00 -3.606164e+00 -2.302422e+00 -6.815719e+00 -1.333006e+00 -1.077642e+00 3.630425e+00 4.140480e-01 2.802369e+00 5.360778e-01 4.298849e-01 -5.386496e-02 -1.016993e-02 1.935523e-01 3.941118e-01 3.636747e-01 2.200268e-03 -3.645301e-01 -3.209332e-02 -3.210354e-01 -3.621687e-01 -1.574692e-01 -2.455534e-01 4.919558e-04 2.589560e-02 1.142414e-01 1.261509e-01 9.835889e-02 3.102479e-01 4.956798e-01 3.406356e-01 -8.810859e-02 -2.418850e-01 -2.529590e-01 -1.661584e-01 -2.422338e-01 7.091346e-04
<VARIANCE> 39
 1.133887e+00 2.513093e+00 3.733503e+00 3.841212e+00 5.691953e+00 2.310067e+00 6.750456e+00 3.709948e+00 6.122272e+00 5.880166e+00 3.987687e+00 2.289811e+00 1.000000e-02 8.955150e-02 1.627837e-01 3.047567e-01 3.007647e-01 8.319537e-01 8.031755e-01 7.175023e-01 9.300596e-01 1.275738e+00 1.427918e+00 1.078811e+00 5.506415e-01 1.000000e-02 2.164918e-02 5.033116e-02 9.762406e-02 9.001250e-02 1.468167e-01 1.306931e-01 1.591084e-01 8.630443e-02 1.341889e-01 1.133420e-01 7.140817e-02 9.657200e-02 1.000000e-02
<GCONST> 3.685695e+01
<MIXTURE> 13 2.553191e-02
<MEAN> 39
 -9.458882e+00 -2.255356e+00 -2.606227e+00 -4.605041e+00 -1.833615e-01 -5.729668e-01 3.351556e+00 -3.199378e+00 3.339935e+00 -8.440474e-01 1.598867e+00 1.536556e+00 4.207585e-01 -6.755986e-02 -2.784958e-01 -1.441141e-01 -1.283793e-01 -2.987033e-01 -4.333343e-01 -3.712724e-01 -1.412657e-01 4.900709e-02 -3.729683e-01 1.684151e-01 5.244798e-01 -1.554640e-03 -7.937932e-03 1.737730e-03 2.096929e-01 1.828669e-01 -1.204516e-02 -3.333384e-01 -3.497604e-01 2.658709e-01 -2.124209e-01 -1.423416e-01 -1.235937e-02 -4.634628e-01 -1.381041e-03
<VARIANCE> 39
 3.052275e-01 1.792839e+00 4.641604e+00 2.232116e+00 4.698466e+00 3.150412e+00 5.007193e+00 2.457853e+00 5.909807e+00 3.030419e+00 1.062028e+00 3.378427e+00 1.000000e-02 1.398126e-01 2.685958e-01 5.850713e-01 5.453188e-01 7.279709e-01 4.757631e-01 7.939014e-01 6.957706e-01 5.190045e-01 5.550604e-01 8.315505e-01 5.444164e-01 1.000000e-02 1.465161e-02 4.253796e-02 5.332599e-02 5.539095e-02 5.594449e-02 7.679287e-02 1.634377e-01 6.260491e-02 2.678283e-01 1.193358e-01 1.149577e-01 1.135730e-01 1.000000e-02
<GCONST> 2.983011e+01
<MIXTURE> 14 2.659575e-02
<MEAN> 39
 -1.005463e+01 -3.221873e+00 -6.502463e-01 -2.320073e-01 1.501233e-01 -3.869018e+00 1.209044e-01 -2.283290e+00 4.144189e+00 1.306866e+00 4.467997e+00 -8.011413e-01 4.117893e-01 -6.911824e-02 -1.798849e-01 4.654759e-02 1.732518e-01 -1.204561e-01 -1.788893e-01 -6.694838e-01 -1.447920e-01 -5.251218e-02 2.178237e-01 -2.858681e-01 -3.817965e-01 2.290522e-03 6.419937e-02 1.480599e-01 -4.664401e-02 -2.416867e-01 2.749204e-02 3.199075e-01 1.929167e-01 -1.094477e-01 -4.532288e-01 -5.257946e-01 -3.845419e-01 -8.133529e-02 1.769310e-03
<VARIANCE> 39
 3.476706e-01 5.108612e-01 8.882628e-01 1.344625e+00 3.193807e+00 3.383240e+00 5.412343e+00 1.136434e+01 2.986690e+00 8.755633e+00 4.859868e+00 3.805747e+00 1.000000e-02 8.831416e-02 4.155757e-01 3.995902e-01 5.441664e-01 5.708633e-01 5.671600e-01 1.069798e+00 1.054481e+00 1.128448e+00 1.006744e+00 7.199382e-01 5.576202e-01 1.000000e-02 1.000000e-02 2.917321e-02 5.686764e-02 4.028521e-02 7.741465e-02 6.743766e-02 7.866844e-02 1.859982e-01 5.553343e-02 1.058511e-01 1.167336e-01 1.376048e-01 1.000000e-02
<GCONST> 2.940284e+01
<MIXTURE> 15 3.510638e-02
<MEAN> 39
 -9.332267e+00 -2.594179e+00 -1.472364e+00 -2.967829e+00 1.881520e+00 -2.274719e+00 1.201744e+00 1.273144e+00 4.904452e+00 -1.723380e+00 -6.970308e-01 -3.391607e+00 4.194790e-01 7.356738e-02 5.737653e-02 -5.233625e-02 6.260793e-02 -3.317184e-01 -4.221964e-01 -3.735344e-01 -2.238544e-02 3.610878e-01 5.602338e-01 6.728906e-01 9.746223e-02 -1.350320e-03 -3.235440e-02 -1.015259e-02 2.513369e-02 5.738959e-02 -1.584961e-01 -2.006958e-01 -1.424512e-01 -5.400253e-01 -3.356139e-01 -1.559939e-03 2.253966e-01 2.673267e-01 -1.461285e-04
<VARIANCE> 39
 7.467616e-01 1.322879e+00 2.223006e+00 3.218070e+00 6.424167e+00 2.142748e+00 3.704993e+00 2.467125e+00 5.117683e+00 3.118476e+00 3.635497e+00 4.731201e+00 1.000000e-02 1.272297e-01 2.708966e-01 3.192329e-01 1.093194e+00 7.035346e-01 5.985199e-01 1.458044e+00 1.089672e+00 6.566085e-01 6.932943e-01 7.654864e-01 7.462481e-01 1.000000e-02 1.588535e-02 4.638140e-02 5.774293e-02 6.843293e-02 1.163516e-01 1.268607e-01 1.275479e-01 1.205403e-01 6.025032e-02 6.070125e-02 7.924652e-02 1.584324e-01 1.000000e-02
<GCONST> 3.297126e+01
<MIXTURE> 16 4.787234e-02
<MEAN> 39
 -9.656353e+00 -2.957839e+00 -2.292193e+00 -3.571842e+00 -1.483184e+00 -4.730531e+00 -1.748005e+00 -2.687300e+00 -1.566073e-01 -5.534213e+00 1.048293e+00 -8.729754e-01 4.235519e-01 -3.397496e-02 -4.873412e-02 -1.296411e-01 2.801767e-01 2.042790e-01 -6.269332e-02 6.816572e-02 -6.839893e-02 -2.801520e-01 4.235669e-02 2.088111e-01 -5.255646e-02 3.562351e-03 4.178489e-02 6.378398e-02 8.357789e-02 9.968731e-02 1.299678e-01 2.948712e-01 3.270956e-01 -3.123772e-02 1.056294e-01 3.693380e-01 -6.387582e-02 -9.867761e-02 9.640188e-05
<VARIANCE> 39
 9.779398e-01 1.882278e+00 2.184959e+00 2.143861e+00 4.564036e+00 3.546092e+00 3.483128e+00 4.214445e+00 6.192846e+00 3.936257e+00 2.783677e+00 7.915574e+00 1.000000e-02 6.932092e-02 1.859289e-01 3.073621e-01 4.535506e-01 1.133939e+00 9.426394e-01 9.869971e-01 7.773634e-01 9.550362e-01 1.118524e+00 1.022189e+00 9.465298e-01 1.000000e-02 2.757135e-02 5.051987e-02 4.449941e-02 5.901593e-02 9.710949e-02 1.586409e-01 1.352080e-01 1.432067e-01 1.585248e-01 1.065286e-01 1.035382e-01 1.633632e-01 1.000000e-02
<GCONST> 3.648891e+01
<MIXTURE> 17 6.808510e-02
<MEAN> 39
 -9.444826e+00 -2.232463e+00 2.492494e-01 -3.247167e-01 2.718015e+00 -2.267537e+00 -1.364569e-01 -2.714805e+00 1.767712e+00 1.972435e-01 1.395064e+00 -2.480150e+00 4.226601e-01 -2.895940e-02 -4.542432e-02 -8.547845e-02 -5.804256e-03 2.844289e-01 2.673120e-01 -9.826148e-02 -1.425906e-01 -2.450632e-01 -2.579839e-01 -1.953766e-01 3.696519e-01 -8.845456e-04 -2.703313e-02 -6.557465e-02 -1.886265e-01 -2.860248e-01 -3.001699e-01 4.011897e-02 2.186017e-01 1.300902e-01 -1.387976e-01 -4.525099e-01 -1.216161e-01 5.652912e-02 -1.611293e-04
<VARIANCE> 39
 5.766985e-01 1.695004e+00 3.160048e+00 3.184819e+00 4.444172e+00 4.024264e+00 4.124335e+00 4.271306e+00 4.256080e+00 4.039901e+00 2.983796e+00 5.032369e+00 1.000000e-02 7.406421e-02 2.352991e-01 4.601617e-01 4.469002e-01 7.710060e-01 7.540345e-01 1.363458e+00 9.662067e-01 7.724833e-01 8.391200e-01 8.685946e-01 9.691833e-01 1.000000e-02 1.841334e-02 4.334760e-02 8.728389e-02 8.594073e-02 9.577376e-02 1.024990e-01 1.790234e-01 1.160298e-01 1.117710e-01 1.507967e-01 9.572712e-02 1.016175e-01 1.000000e-02
<GCONST> 3.571095e+01
<MIXTURE> 18 2.340426e-02
<MEAN> 39
 -9.111781e+00 -1.809985e+00 -2.423993e+00 -3.189840e+00 9.576423e-01 3.534686e-01 8.614448e-01 -2.881345e+00 3.178211e+00 2.287248e+00 4.013811e+00 -1.429786e+00 4.150801e-01 -6.458072e-02 -3.564668e-01 -2.022365e-01 -2.709108e-01 -2.784998e-01 1.279834e-01 6.338394e-01 2.948429e-01 2.115828e-01 2.505052e-01 3.105717e-01 1.687081e-01 -5.204651e-04 -4.169090e-02 -1.616695e-01 1.786060e-01 9.764404e-02 -1.554070e-01 -4.692964e-01 -1.251489e-01 -1.313176e-01 -3.353565e-01 -4.955454e-01 -3.215783e-01 9.272049e-02 8.552507e-04
<VARIANCE> 39
 7.928529e-01 1.562611e+00 3.792753e+00 3.181726e+00 3.877455e+00 3.973212e+00 5.893927e+00 6.484971e+00 3.516454e+00 5.872070e+00 6.191156e+00 3.862344e+00 1.000000e-02 7.816034e-02 3.148984e-01 1.790797e-01 5.626665e-01 7.936103e-01 1.853657e+00 8.726828e-01 6.353115e-01 2.481983e+00 9.827152e-01 6.449060e-01 8.093449e-01 1.000000e-02 1.000000e-02 4.456856e-02 8.743860e-02 5.932141e-02 1.010557e-01 6.658226e-02 9.086177e-02 7.886937e-02 8.130661e-02 1.369220e-01 1.390340e-01 1.036048e-01 1.000000e-02
<GCONST> 3.552944e+01
<MIXTURE> 19 2.765957e-02
<MEAN> 39
 -9.647568e+00 -2.937156e+00 -1.046187e+00 -2.920209e+00 -4.524845e-01 -3.938336e+00 -4.927303e-01 -5.408991e+00 -5.847542e+00 -6.720818e+00 -3.043172e-01 -2.449203e+00 4.144855e-01 9.267768e-02 7.638924e-02 -3.531049e-02 -1.955955e-01 -5.369277e-02 1.887014e-01 -6.650563e-02 -1.605761e-01 -1.443756e-01 -1.686117e-01 -3.957406e-02 1.911133e-01 3.618170e-03 -4.309347e-03 3.754493e-02 -1.822823e-02 6.704926e-02 -7.021906e-02 1.142969e-01 2.611349e-01 4.007774e-01 7.761338e-01 6.221401e-01 2.561760e-01 8.070458e-02 8.622766e-04
<VARIANCE> 39
 7.353739e-01 6.582993e-01 1.686366e+00 3.744126e+00 2.997845e+00 2.830286e+00 3.976184e+00 7.341694e+00 2.206492e+00 7.361849e+00 3.710609e+00 5.410204e+00 1.000000e-02 8.574376e-02 1.297409e-01 2.067769e-01 5.750036e-01 7.506295e-01 9.376987e-01 1.298719e+00 5.015081e-01 7.741840e-01 9.263019e-01 7.891812e-01 4.256893e-01 1.000000e-02 1.000000e-02 1.996188e-02 4.940040e-02 8.112872e-02 5.863632e-02 1.137654e-01 6.304780e-02 1.228795e-01 4.798310e-02 1.027988e-01 7.555599e-02 8.122320e-02 1.000000e-02
<GCONST> 2.713263e+01
<MIXTURE> 20 4.148936e-02
<MEAN> 39
 -9.818062e+00 -3.504956e+00 -3.324771e+00 -5.789491e+00 -2.485342e+00 -3.929783e+00 9.518372e-01 -3.378792e+00 2.183094e+00 -3.484269e-01 6.762207e-01 -1.974200e+00 4.181655e-01 -1.125593e-01 -2.463492e-01 -1.698251e-01 -1.199466e-01 -2.114084e-01 -4.013349e-01 -2.180922e-01 -1.358565e-01 -2.299480e-01 -1.325062e-01 5.703194e-02 2.616183e-01 6.460435e-04 3.102472e-02 1.189567e-01 2.238555e-01 3.978520e-01 3.545491e-01 1.116469e-01 3.462075e-02 1.215123e-01 -1.408470e-01 -2.493618e-01 4.545525e-03 -1.351556e-01 1.905471e-04
<VARIANCE> 39
 6.814441e-01 2.488258e+00 2.529793e+00 3.263670e+00 4.378594e+00 3.410389e+00 5.217309e+00 4.297622e+00 3.004838e+00 4.929255e+00 1.196148e+01 3.678324e+00 1.000000e-02 5.233825e-02 1.420532e-01 2.724500e-01 6.255649e-01 4.985805e-01 6.684822e-01 5.409208e-01 6.326459e-01 6.146350e-01 7.250499e-01 8.696405e-01 6.623050e-01 1.000000e-02 1.127186e-02 4.205013e-02 8.346506e-02 5.996788e-02 8.284245e-02 1.226425e-01 1.199955e-01 8.195399e-02 6.258371e-02 1.728648e-01 2.460030e-01 1.010349e-01 1.000000e-02
<GCONST> 3.220789e+01
<MIXTURE> 21 2.127660e-02
<MEAN> 39
 -9.634169e+00 -3.310848e+00 -3.587749e+00 -4.145468e+00 5.059246e-01 -1.263423e+00 -1.553513e-01 -7.991502e+00 -1.872043e-01 -1.227901e+00 -3.789638e-01 -1.169187e+00 4.200380e-01 -5.393259e-02 -1.091052e-02 1.767678e-01 1.582191e-01 5.561858e-01 2.516546e-01 4.018767e-01 6.772484e-01 1.039882e+00 4.780611e-01 -1.978263e-01 -2.754905e-01 3.189171e-03 -3.498175e-02 3.055969e-02 2.630717e-01 1.535628e-01 -3.498742e-02 -8.437784e-02 1.864581e-01 6.964198e-01 1.222075e-01 -1.017735e-01 1.866612e-01 -6.834193e-02 -8.936242e-05
<VARIANCE> 39
 1.258659e+00 3.112801e+00 1.355401e+00 2.493960e+00 5.143111e+00 2.329294e+00 3.241903e+00 3.672729e+00 4.191903e+00 6.809338e+00 5.186454e+00 6.248630e+00 1.000000e-02 5.010196e-02 1.550581e-01 4.388177e-01 2.077500e-01 7.313153e-01 6.949135e-01 7.073635e-01 8.344266e-01 1.256666e+00 7.551995e-01 8.192970e-01 1.122878e+00 1.000000e-02 2.003398e-02 4.487135e-02 2.477302e-02 5.109306e-02 7.013552e-02 7.567089e-02 1.817915e-01 1.224724e-01 1.356253e-01 2.217594e-01 1.496670e-01 1.861189e-01 1.000000e-02
<GCONST> 3.382828e+01
<MIXTURE> 22 3.404255e-02
<MEAN> 39
 -9.707709e+00 -2.902616e+00 -3.242486e+00 -2.765400e+00 1.357184e-01 -3.370370e+00 4.651976e+00 -1.383890e+00 2.494557e+00 1.092730e+00 2.620036e+00 -3.073855e+00 4.259071e-01 3.907045e-02 2.581705e-01 6.080220e-02 4.838852e-02 -2.271219e-01 -3.207574e-02 -2.013585e-01 -5.337163e-01 -1.181244e-01 1.755101e-02 2.956608e-01 2.518936e-01 7.390156e-04 1.867753e-02 5.742060e-03 1.786165e-01 -5.440817e-03 8.557749e-02 3.980323e-02 -4.810279e-01 -2.442617e-01 -1.644817e-01 -4.444222e-01 -2.173445e-01 1.475661e-01 1.119714e-03
<VARIANCE> 39
 6.586140e-01 1.344085e+00 2.601073e+00 1.687172e+00 2.211982e+00 3.636069e+00 4.070301e+00 5.939136e+00 8.448668e+00 6.085610e+00 2.841673e+00 3.318457e+00 1.000000e-02 5.894312e-02 2.151033e-01 5.627688e-01 7.101960e-01 1.112811e+00 6.172810e-01 8.785483e-01 6.228300e-01 3.905420e-01 7.621520e-01 5.114905e-01 1.352754e+00 1.000000e-02 1.353408e-02 3.324366e-02 7.295679e-02 6.444848e-02 1.080329e-01 6.658518e-02 1.033047e-01 9.857472e-02 1.245278e-01 1.127544e-01 6.478384e-02 8.449131e-02 1.000000e-02
<GCONST> 3.076773e+01
<MIXTURE> 23 7.446809e-03
<MEAN> 39
 -9.178692e+00 -2.623271e+00 -2.449486e+00 -3.415338e+00 -1.426835e+00 -2.257463e+00 3.234787e+00 3.910705e+00 8.098275e+00 -1.018848e+00 1.198825e+00 2.415785e-01 4.597696e-01 1.817583e-01 2.260414e-01 2.832110e-01 9.726449e-02 -6.224482e-01 -9.223089e-01 -1.305177e-01 3.489339e-01 3.709361e-01 2.212419e-01 1.447780e-01 -3.200694e-01 3.317264e-03 -2.907947e-02 -8.931611e-02 4.556997e-02 5.767087e-02 1.807121e-01 5.118568e-02 -1.116006e-01 -4.969759e-01 -7.294034e-01 -2.238907e-01 -1.338915e-01 -3.675045e-01 -4.975256e-03
<VARIANCE> 39
 4.327927e-01 4.415796e-01 3.234859e+00 1.336516e+00 3.076648e+00 5.867378e+00 5.614081e+00 5.248099e+00 1.230747e+00 2.582336e+00 6.726878e+00 6.806091e+00 1.000000e-02 1.538815e-01 1.493200e-01 1.550974e-01 5.957740e-01 4.948970e-01 8.928828e-01 1.122468e+00 2.046778e+00 5.727587e-01 5.210885e-01 7.426015e-01 3.481627e-01 1.000000e-02 1.000000e-02 3.011739e-02 7.699343e-02 4.314322e-02 8.047431e-02 4.106889e-02 3.691111e-01 1.037339e-01 1.116512e-01 1.887068e-01 5.477405e-02 9.436560e-02 1.000000e-02
<GCONST> 2.831092e+01
<MIXTURE> 24 3.404255e-02
<MEAN> 39
 -9.400038e+00 -2.369653e+00 -1.120523e+00 -2.033574e+00 -1.046879e+00 -2.010060e+00 2.480839e+00 1.812116e+00 1.947332e+00 -3.217749e+00 3.288049e+00 -3.544897e+00 4.133596e-01 -7.124874e-02 6.315512e-02 -7.468171e-02 -2.253602e-01 -1.288315e-01 -3.817947e-02 -1.483981e-01 -4.496846e-01 -6.173881e-01 -2.866781e-01 8.870690e-02 2.778931e-01 8.108912e-04 -4.399184e-02 -7.458961e-02 -4.639412e-02 -4.452099e-04 2.018513e-01 7.176008e-03 -1.498410e-01 -4.679085e-01 -1.134329e-01 1.656314e-02 -3.089462e-01 2.571201e-01 2.986284e-04
<VARIANCE> 39
 7.064675e-01 1.225058e+00 2.236032e+00 2.207439e+00 3.631277e+00 3.750331e+00 3.271332e+00 3.755702e+00 2.618464e+00 3.152449e+00 1.878762e+00 7.312451e+00 1.000000e-02 6.736456e-02 2.401820e-01 6.488842e-01 3.181519e-01 3.353751e-01 4.805707e-01 1.408740e+00 1.102029e+00 9.921108e-01 1.379833e+00 9.327773e-01 8.995957e-01 1.000000e-02 1.783494e-02 2.171097e-02 5.958331e-02 6.608010e-02 9.790594e-02 1.305358e-01 1.222301e-01 1.772597e-01 1.063930e-01 9.925973e-02 6.434228e-02 1.642007e-01 1.000000e-02
<GCONST> 3.152958e+01
<MIXTURE> 25 1.170213e-02
<MEAN> 39
 -9.327536e+00 -2.852056e+00 -2.121778e+00 -2.459749e+00 7.530206e-01 1.422454e-01 6.872085e+00 3.288819e+00 5.280624e+00 -3.574020e+00 -2.701703e-01 -2.118217e-01 4.463309e-01 1.698861e-01 1.416728e-01 1.423298e-01 -1.640921e-01 7.201609e-02 1.507255e-01 7.034699e-01 -4.574566e-02 -1.040588e+00 -2.534785e-01 5.701562e-01 3.894192e-01 2.847527e-03 -6.580430e-02 -2.197165e-02 9.900653e-02 4.888806e-02 -1.395829e-02 -1.963746e-01 -5.559903e-01 -4.586443e-01 -1.374140e-01 3.328558e-01 1.022935e-01 -2.119656e-01 -4.742093e-03
<VARIANCE> 39
 5.376924e-01 2.319631e+00 2.188165e+00 1.830674e+00 5.382970e+00 3.734223e+00 5.866723e+00 2.639249e+00 1.457586e+00 5.037824e+00 4.891224e+00 1.202974e+01 1.000000e-02 4.861506e-02 2.629558e-01 2.312438e-01 2.118364e-01 3.893572e-01 4.771201e-01 1.141688e+00 8.407753e-01 1.517994e+00 7.326904e-01 1.026309e+00 1.215005e+00 1.000000e-02 1.000000e-02 6.011331e-02 7.488122e-02 9.521563e-02 1.290306e-01 4.108134e-02 1.055850e-01 2.236558e-01 5.599228e-02 1.028281e-01 1.187349e-01 2.393684e-01 1.000000e-02
<GCONST> 3.244283e+01
<MIXTURE> 26 2.765957e-02
<MEAN> 39
 -9.900526e+00 -2.669353e+00 -1.242254e+00 -4.017043e+00 -5.509538e-03 -1.324038e-01 4.771379e+00 5.345140e-01 -7.174456e-01 -5.494137e+00 7.928231e-01 -3.379855e+00 4.150645e-01 2.049389e-01 2.254022e-01 1.713243e-02 2.385541e-01 -1.250157e-02 1.192983e-01 2.690314e-01 5.574626e-01 4.070106e-01 3.690141e-02 2.809471e-01 -2.416360e-01 3.061705e-03 4.393986e-02 -4.471509e-02 -1.165871e-01 1.524562e-01 -3.441484e-02 -3.764590e-01 -5.483618e-01 -3.931433e-01 3.272385e-01 4.795402e-01 1.148276e-01 2.762624e-01 1.928163e-03
<VARIANCE> 39
 1.139019e+00 3.222288e+00 2.581078e+00 3.030791e+00 4.234956e+00 2.394723e+00 6.524216e+00 2.773744e+00 4.516580e+00 6.974632e+00 6.674631e+00 3.442056e+00 1.000000e-02 6.956448e-02 7.281102e-02 1.525269e-01 3.386836e-01 1.057746e+00 9.947951e-01 1.081043e+00 1.055741e+00 3.409906e-01 6.107986e-01 1.116320e+00 1.196756e+00 1.000000e-02 2.809354e-02 6.640399e-02 7.089496e-02 1.395881e-01 1.065920e-01 8.772124e-02 1.552829e-01 8.331703e-02 1.208839e-01 2.622742e-01 1.707049e-01 9.673934e-02 1.000000e-02
