~o
<STREAMINFO> 1 39
<VECSIZE> 39<NULLD><MFCC_E_D_A><DIAGC>
~h "plus"
<BEGINHMM>
<NUMSTATES> 7
<STATE> 2
<MEAN> 39
 -4.325490e+00 -9.893783e+00 -8.534791e-01 3.315079e-01 6.752957e+00 2.964542e+00 8.247512e-01 -2.527422e+00 7.738341e-01 2.020759e-01 4.712050e-01 4.689153e-02 7.045209e-01 4.016275e-01 -5.340793e-01 3.753762e-01 9.630517e-01 1.215748e-01 3.626918e-01 -2.075744e-01 -1.552673e-01 5.286418e-01 4.441930e-01 2.371171e-01 3.105832e-01 3.156279e-02 3.810578e-02 3.020562e-02 1.497462e-01 9.526102e-02 -1.003250e-01 3.521267e-02 3.423924e-02 -6.210883e-02 9.089483e-02 -3.362493e-02 2.967915e-02 1.884229e-02 2.104535e-03
<VARIANCE> 39
 2.138091e+01 4.889192e+01 4.346978e+01 5.932679e+01 2.975677e+01 4.670284e+01 3.294561e+01 1.963346e+01 1.889692e+01 2.177495e+01 1.694319e+01 1.150388e+01 2.530965e-02 8.522624e-01 1.364872e+00 2.101585e+00 1.940037e+00 1.956110e+00 3.354240e+00 3.041014e+00 1.873830e+00 1.884646e+00 2.706056e+00 1.466243e+00 1.790003e+00 1.000000e-02 1.431212e-01 1.919548e-01 1.952116e-01 2.369745e-01 3.503016e-01 4.328661e-01 4.724387e-01 3.543240e-01 3.155519e-01 3.839010e-01 2.699405e-01 2.719750e-01 1.000000e-02
<GCONST> 9.130679e+01
<STATE> 3
<MEAN> 39
 -1.261091e+00 -1.301024e+01 6.699211e+00 1.107887e+01 5.037533e+00 7.890191e+00 -6.494039e-02 -4.419285e+00 9.060791e+00 3.272318e+00 2.769819e+00 2.470396e+00 9.606397e-01 -4.462810e-01 1.068336e-01 7.323256e-01 -2.977003e-01 -4.534353e-01 -1.616981e-01 -1.260785e-01 3.046995e-01 9.709707e-02 1.497907e-02 2.333595e-01 -1.902174e-01 -5.026965e-03 -2.597247e-01 1.394400e-01 -1.021267e-01 -5.031018e-01 -1.972240e-02 -1.971800e-01 -7.468017e-02 7.288821e-02 -3.156848e-01 -5.961528e-02 -8.155439e-02 -1.569740e-01 -1.039241e-02
<VARIANCE> 39
 1.788288e+01 5.732541e+01 2.839470e+01 2.233362e+01 2.487978e+01 3.315335e+01 2.102465e+01 2.105691e+01 1.934199e+01 2.572913e+01 1.017997e+01 1.694702e+01 1.000000e-02 9.864389e-01 9.276596e-01 8.476357e-01 2.346632e+00 2.074447e+00 9.413092e-01 1.113719e+00 1.693418e+00 2.366464e+00 1.761677e+00 8.754333e-01 1.389796e+00 1.000000e-02 1.101357e-01 2.081925e-01 1.593726e-01 3.280638e-01 2.485479e-01 2.132590e-01 2.225487e-01 3.310555e-01 2.842224e-01 3.537730e-01 1.979891e-01 2.343394e-01 1.000000e-02
<GCONST> 8.130204e+01
<STATE> 4
<MEAN> 39
 -1.097739e+01 -1.031454e+01 1.289348e+01 -3.386701e+00 1.887337e+00 1.946248e+00 -2.488013e+00 -1.750774e+00 2.382027e+00 2.135021e+00 8.882585e-01 -3.360683e-01 7.292054e-01 -1.991317e+00 8.189474e-01 2.918075e-01 -3.022266e+00 -8.398895e-02 -9.949763e-01 -5.351206e-01 -1.855555e-01 -9.232240e-01 -9.625897e-01 -1.201438e+00 -7.561683e-02 -3.804358e-02 2.376917e-01 -6.769136e-02 -1.863856e-01 4.528687e-01 3.137375e-01 3.252650e-01 -7.406646e-03 -8.650454e-02 4.438384e-01 -1.067941e-02 -1.898132e-02 2.449564e-01 9.262739e-03
<VARIANCE> 39
 2.494986e+01 6.103496e+01 6.864241e+01 3.777803e+01 2.107953e+01 3.777106e+01 3.518602e+01 1.597847e+01 1.443436e+01 2.476483e+01 2.676228e+01 1.046907e+01 1.000000e-02 1.212899e+00 9.589232e-01 1.517525e+00 2.590987e+00 2.122547e+00 2.734695e+00 1.622525e+00 2.014147e+00 3.153533e+00 2.138877e+00 1.816309e+00 7.398739e-01 1.000000e-02 2.450378e-01 1.519103e-01 1.885274e-01 4.515140e-01 2.410958e-01 4.570312e-01 4.212879e-01 4.468260e-01 4.560439e-01 4.207602e-01 4.322310e-01 1.818943e-01 1.000000e-02
<GCONST> 9.042014e+01
<STATE> 5
<MEAN> 39
 -1.572168e+01 -4.173036e+00 1.035400e+01 -9.826051e+00 2.829349e+00 3.343790e+00 -4.774159e+00 -1.610985e+00 3.189231e+00 -1.580909e+00 1.089129e-01 4.122590e-01 7.379134e-01 3.133570e-02 4.998023e-02 -4.651910e-02 -2.283448e-01 5.110011e-02 1.410194e-01 -8.825838e-04 8.688635e-02 3.833107e-02 -4.882543e-02 2.227062e-02 1.492071e-02 -3.124793e-03 7.060847e-02 -2.063665e-02 2.061150e-02 8.778226e-02 -3.779275e-02 -4.687147e-02 5.592416e-02 -8.148301e-03 -1.060229e-02 2.806957e-02 1.449387e-02 -3.459014e-02 -3.795409e-04
<VARIANCE> 39
 1.048770e+01 6.578188e+01 5.338366e+01 2.267801e+01 2.962609e+01 2.167098e+01 1.486842e+01 1.785178e+01 2.142862e+01 2.205062e+01 2.134276e+01 1.294694e+01 1.067969e-02 3.413217e-01 5.440906e-01 6.393896e-01 7.282649e-01 1.194245e+00 1.313921e+00 1.308374e+00 1.375056e+00 1.143495e+00 9.406025e-01 1.371459e+00 1.416084e+00 1.000000e-02 5.246929e-02 8.052825e-02 1.247790e-01 1.585732e-01 2.173353e-01 2.499383e-01 2.326173e-01 2.886229e-01 2.386252e-01 1.858304e-01 3.039192e-01 2.840168e-01 1.000000e-02
<GCONST> 7.414627e+01
<STATE> 6
<MEAN> 39
 -1.134321e+01 -5.606779e+00 8.759583e+00 -8.768003e+00 1.739854e+00 2.667847e+00 -2.416685e+00 -2.042036e+00 2.558242e+00 -1.708334e+00 -3.658061e-01 5.173906e-02 5.692685e-01 3.304407e-01 1.780838e-01 -3.900230e-01 5.140552e-01 -1.179721e-01 -2.398375e-01 1.001000e-01 -1.771037e-01 -2.266112e-01 1.588363e-01 1.839179e-02 -4.029591e-02 -1.249360e-02 -5.512918e-02 -3.294776e-02 -8.689846e-02 -5.105767e-02 -4.624721e-02 1.692481e-02 -6.447759e-02 -1.970388e-02 -9.090984e-03 -2.869770e-02 -3.789155e-02 6.833556e-02 9.907507e-04
<VARIANCE> 39
 1.584410e+01 2.444047e+01 7.475974e+01 3.863181e+01 2.859231e+01 3.072009e+01 1.897554e+01 1.234493e+01 2.665785e+01 2.581026e+01 2.049696e+01 1.362758e+01 1.118790e-02 3.834646e-01 4.637194e-01 9.758568e-01 1.750188e+00 1.705179e+00 2.018609e+00 1.650734e+00 1.754222e+00 1.583875e+00 1.619739e+00 1.398749e+00 1.111661e+00 1.000000e-02 5.289717e-02 8.346226e-02 1.277529e-01 4.087732e-01 2.434208e-01 3.307797e-01 3.125574e-01 3.148774e-01 2.632759e-01 2.861468e-01 2.359768e-01 1.715865e-01 1.000000e-02
<GCONST> 7.978790e+01
<TRANSP> 7
 0.000000e+00 1.000000e+00 0.000000e+00 0.000000e+00 0.000000e+00 0.000000e+00 0.000000e+00
 0.000000e+00 9.000000e-01 9.999999e-02 0.000000e+00 0.000000e+00 0.000000e+00 0.000000e+00
 0.000000e+00 0.000000e+00 8.979592e-01 1.020408e-01 0.000000e+00 0.000000e+00 0.000000e+00
 0.000000e+00 0.000000e+00 0.000000e+00 7.826087e-01 2.173913e-01 0.000000e+00 0.000000e+00
 0.000000e+00 0.000000e+00 0.000000e+00 0.000000e+00 9.462366e-01 5.376345e-02 0.000000e+00
 0.000000e+00 0.000000e+00 0.000000e+00 0.000000e+00 0.000000e+00 8.924731e-01 1.075269e-01
 0.000000e+00 0.000000e+00 0.000000e+00 0.000000e+00 0.000000e+00 0.000000e+00 0.000000e+00
<ENDHMM>
