~o
<STREAMINFO> 1 39
<VECSIZE> 39<NULLD><MFCC_E_D_A><DIAGC>
~h "quarante"
<BEGINHMM>
<NUMSTATES> 9
<STATE> 2
<MEAN> 39
 -6.785898e+00 -7.585571e+00 2.345093e+00 -2.313037e+00 2.397021e+00 1.192342e+00 1.358808e+00 -3.283184e-01 8.272041e-03 -1.863569e+00 9.052177e-01 -1.898054e+00 5.489321e-01 9.926142e-01 -1.517777e-01 8.052687e-01 1.110502e+00 2.359408e-01 2.066453e-01 -6.834863e-01 -4.707888e-01 2.171542e-01 -5.141505e-01 2.207006e-01 -1.371532e-02 4.815255e-02 2.437738e-01 6.307191e-02 -2.478644e-01 -1.193545e-01 -1.260464e-01 8.690185e-02 -8.874184e-02 -2.324297e-01 4.255543e-02 -9.176017e-02 5.082045e-02 5.340860e-02 3.701444e-03
<VARIANCE> 39
 3.891695e+01 3.812275e+01 9.822208e+01 7.761104e+01 3.211049e+01 7.309934e+01 4.152786e+01 2.159062e+01 3.788184e+01 2.465459e+01 1.959691e+01 1.270579e+01 7.984816e-02 2.858596e+00 2.457257e+00 3.954140e+00 3.146449e+00 4.057294e+00 2.061911e+00 2.811468e+00 2.458522e+00 2.277946e+00 2.619217e+00 1.841631e+00 1.177021e+00 1.000000e-02 3.160530e-01 3.587713e-01 5.301077e-01 7.558508e-01 7.298692e-01 3.145355e-01 2.477347e-01 3.835582e-01 4.026979e-01 5.023146e-01 4.482476e-01 2.346368e-01 1.000000e-02
<GCONST> 1.034176e+02
<STATE> 3
<MEAN> 39
 5.043355e+00 -5.209932e+00 2.270831e+00 -5.193422e+00 -1.395478e+00 -7.806088e-01 -1.027658e+00 -3.240877e+00 -2.085684e+00 -1.042532e+01 1.432313e+00 5.764809e-01 9.497165e-01 2.163289e-01 6.832148e-01 -5.809179e-01 -1.383994e+00 -1.127697e+00 -6.541646e-01 9.356902e-01 4.478820e-01 -2.293621e-01 -4.532481e-01 -3.857731e-01 2.396502e-01 5.164603e-05 -2.703436e-01 3.361955e-02 2.065345e-01 -9.350374e-03 -2.487480e-02 -8.365660e-02 9.147456e-02 2.983794e-01 1.357206e-01 3.072420e-01 -5.925080e-02 -1.375227e-01 -7.681587e-03
<VARIANCE> 39
 1.245952e+01 3.424650e+01 4.270734e+01 6.175932e+01 3.256571e+01 4.888106e+01 3.936896e+01 4.932261e+01 2.330443e+01 2.826357e+01 3.358092e+01 1.879374e+01 1.000000e-02 1.239039e+00 8.239749e-01 2.040605e+00 2.763812e+00 1.884079e+00 1.080894e+00 2.009514e+00 2.734703e+00 2.635726e+00 2.493711e+00 2.120854e+00 1.989532e+00 1.000000e-02 2.048149e-01 1.910126e-01 3.142421e-01 5.114588e-01 3.467138e-01 2.607692e-01 5.070282e-01 3.480864e-01 4.222939e-01 3.829067e-01 3.228870e-01 3.302917e-01 1.000000e-02
<GCONST> 9.389819e+01
<STATE> 4
<MEAN> 39
 2.015595e+00 4.775841e+00 3.526254e+00 -7.281388e+00 -8.157561e+00 -8.418488e+00 -1.755400e+00 -2.669156e+00 3.104832e+00 -3.486971e+00 -8.257233e-02 -1.364932e-01 8.626259e-01 -1.053034e-01 1.905935e-01 2.676684e-01 2.850504e-01 3.302608e-02 -1.631753e-01 -4.772938e-01 -1.103021e-01 -1.072268e-02 2.729966e-01 3.957365e-02 -1.377867e-01 -3.538820e-03 -1.170244e-02 -9.367169e-02 -6.491216e-02 7.010823e-02 1.322599e-01 1.016377e-01 5.475255e-02 -3.121342e-02 -9.193887e-02 -6.511029e-02 3.454660e-02 3.304063e-02 -7.963448e-05
<VARIANCE> 39
 7.519929e+00 1.344221e+01 1.836201e+01 1.686063e+01 1.186184e+01 1.721375e+01 3.012285e+01 2.370921e+01 2.837490e+01 1.676558e+01 9.057159e+00 1.151610e+01 1.000000e-02 7.865019e-01 4.854796e-01 8.427683e-01 7.477404e-01 1.210796e+00 1.290629e+00 1.628214e+00 1.213277e+00 1.592775e+00 1.532578e+00 7.298451e-01 1.080762e+00 1.000000e-02 1.125616e-01 6.156827e-02 1.200584e-01 1.459208e-01 1.778242e-01 2.241913e-01 2.565899e-01 2.014832e-01 2.245362e-01 1.946092e-01 1.135413e-01 2.299588e-01 1.000000e-02
<GCONST> 6.929627e+01
<STATE> 5
<MEAN> 39
 1.082399e+01 -5.361397e+00 7.998813e+00 -2.023762e+00 -9.957902e+00 -2.757469e+00 1.448021e-01 3.947506e+00 4.127036e-01 -3.071566e+00 -1.824363e+00 -1.261062e+00 8.148378e-01 -3.555404e-01 2.596151e-01 -3.239236e-02 5.348359e-01 6.313809e-01 2.606965e-01 6.990195e-01 3.760506e-01 -1.747106e-01 5.068976e-01 5.276868e-02 -7.120878e-02 -2.043350e-02 -1.446138e-01 -1.600629e-02 -7.397156e-02 -5.160830e-03 5.748134e-02 6.499181e-02 3.214431e-04 -1.774095e-02 6.245017e-02 -2.562959e-03 1.172807e-02 5.144758e-02 -3.047219e-03
<VARIANCE> 39
 3.700161e+01 6.522849e+01 3.284659e+01 4.949324e+01 9.171333e+01 2.307682e+01 9.415950e+01 9.063297e+01 1.422376e+02 4.123332e+01 4.068909e+01 3.240417e+01 1.851138e-02 9.746647e-01 1.646549e+00 1.303960e+00 1.798872e+00 2.905901e+00 1.670142e+00 4.091332e+00 2.976114e+00 2.336620e+00 2.893548e+00 1.491270e+00 1.525348e+00 1.000000e-02 8.735974e-02 2.297677e-01 1.848988e-01 3.189590e-01 4.563884e-01 3.057157e-01 5.476341e-01 4.387099e-01 3.981273e-01 5.046493e-01 2.732067e-01 2.166871e-01 1.000000e-02
<GCONST> 9.980178e+01
<STATE> 6
<MEAN> 39
 -6.916409e+00 -6.999385e-02 8.920152e-01 -1.465206e+00 2.039370e-01 -2.407692e+00 2.431059e+00 1.079598e-02 1.553496e+00 -1.073978e+00 6.768128e-01 -1.753589e+00 6.072006e-01 -1.057056e+00 -6.082891e-01 -3.910956e-01 -1.539264e-01 3.278189e-01 4.330494e-01 -1.067915e-01 -7.702299e-02 1.889945e-01 1.722197e-01 -3.005616e-02 9.757299e-02 -3.691402e-02 8.737209e-02 9.895683e-02 6.553742e-02 -1.604818e-01 -1.022734e-01 -1.149611e-01 -1.958066e-01 -1.089654e-01 -2.291695e-02 -6.853119e-02 2.237843e-02 6.268846e-02 2.019139e-03
<VARIANCE> 39
 1.187023e+01 1.002571e+01 1.007830e+01 1.057777e+01 1.055248e+01 1.151772e+01 1.535156e+01 1.515888e+01 1.640889e+01 1.164254e+01 1.149393e+01 8.028768e+00 2.889815e-02 6.227037e-01 6.632510e-01 9.733485e-01 1.119635e+00 1.225937e+00 1.820503e+00 2.547300e+00 2.045173e+00 1.861780e+00 2.043502e+00 1.039591e+00 1.049998e+00 1.000000e-02 1.037251e-01 8.417538e-02 1.459698e-01 1.860215e-01 2.333456e-01 2.681198e-01 4.154846e-01 1.895946e-01 2.934355e-01 4.025777e-01 1.792911e-01 2.150194e-01 1.000000e-02
<GCONST> 7.242590e+01
<STATE> 7
<MEAN> 39
 -5.721911e+00 -4.878084e+00 8.406986e+00 -8.342016e+00 4.503085e+00 -1.365174e-02 -2.010117e+00 -9.926689e-01 -2.883333e+00 3.088319e-01 -1.780831e+00 -1.462922e+00 2.864358e-01 -4.869847e-01 -3.650727e-01 3.506237e-01 -5.941531e-01 2.359273e-01 2.873996e-01 -5.041304e-01 -4.419493e-01 -5.906345e-02 1.470075e-01 1.138734e-01 5.275749e-02 -2.478401e-03 1.550618e-01 -3.984175e-02 4.336846e-02 1.684711e-01 -6.011858e-02 -1.198104e-02 1.687643e-01 1.394163e-01 -3.872064e-02 4.968532e-02 1.052266e-01 -7.269558e-02 1.573244e-03
<VARIANCE> 39
 5.001292e+01 6.687301e+01 5.932067e+01 7.177631e+01 1.230013e+02 6.378243e+01 5.002584e+01 4.991656e+01 3.977832e+01 2.273458e+01 1.316775e+01 1.337951e+01 5.425388e-02 8.122879e-01 2.641206e+00 3.104305e+00 4.877200e+00 3.698468e+00 5.166234e+00 2.301025e+00 2.937744e+00 3.292762e+00 2.354556e+00 1.397456e+00 1.199233e+00 1.000000e-02 1.766260e-01 4.025212e-01 4.965307e-01 7.946563e-01 6.782438e-01 8.583947e-01 4.902257e-01 7.007782e-01 6.842675e-01 4.663779e-01 2.462792e-01 2.157486e-01 1.000000e-02
<GCONST> 1.064396e+02
<STATE> 8
<MEAN> 39
 -9.714046e+00 -2.728277e+00 1.586020e+00 -5.288088e+00 1.526791e+00 -1.714002e+00 -2.593602e-01 -1.857722e+00 -4.992969e-02 -1.789581e+00 1.508358e+00 -1.144298e+00 4.567278e-01 1.464715e-01 5.486588e-03 -1.869122e-02 7.205030e-02 -6.348201e-02 3.803785e-02 5.044474e-02 9.528295e-02 6.036166e-02 -4.665691e-02 1.330500e-02 5.963022e-03 -1.998625e-03 3.820198e-04 2.059947e-02 -2.804873e-02 3.291313e-02 9.687637e-03 -6.619331e-03 -2.685284e-03 3.127151e-02 2.756283e-02 1.175311e-02 -2.935594e-02 -2.802301e-02 5.894216e-04
<VARIANCE> 39
 6.370124e+00 5.080684e+00 1.175896e+01 1.599475e+01 1.327958e+01 1.395171e+01 1.367225e+01 1.798305e+01 1.191967e+01 1.236595e+01 1.272989e+01 1.046374e+01 1.777697e-02 3.730341e-01 4.081605e-01 7.559100e-01 9.909159e-01 1.121011e+00 9.922192e-01 1.180846e+00 1.462561e+00 1.046486e+00 1.155006e+00 1.234785e+00 1.184888e+00 1.000000e-02 5.325430e-02 7.349517e-02 1.247958e-01 1.621651e-01 2.245227e-01 1.766582e-01 2.066767e-01 2.494987e-01 1.483889e-01 1.959180e-01 2.439844e-01 2.294195e-01 1.000000e-02
<GCONST> 6.475789e+01
<TRANSP> 9
 0.000000e+00 1.000000e+00 0.000000e+00 0.000000e+00 0.000000e+00 0.000000e+00 0.000000e+00 0.000000e+00 0.000000e+00
 0.000000e+00 8.969072e-01 1.030928e-01 0.000000e+00 0.000000e+00 0.000000e+00 0.000000e+00 0.000000e+00 0.000000e+00
 0.000000e+00 0.000000e+00 8.969072e-01 1.030928e-01 0.000000e+00 0.000000e+00 0.000000e+00 0.000000e+00 0.000000e+00
 0.000000e+00 0.000000e+00 0.000000e+00 9.354839e-01 6.451613e-02 0.000000e+00 0.000000e+00 0.000000e+00 0.000000e+00
 0.000000e+00 0.000000e+00 0.000000e+00 0.000000e+00 8.360656e-01 1.639344e-01 0.000000e+00 0.000000e+00 0.000000e+00
 0.000000e+00 0.000000e+00 0.000000e+00 0.000000e+00 0.000000e+00 8.809524e-01 1.190476e-01 0.000000e+00 0.000000e+00
 0.000000e+00 0.000000e+00 0.000000e+00 0.000000e+00 0.000000e+00 0.000000e+00 8.333333e-01 1.666667e-01 0.000000e+00
 0.000000e+00 0.000000e+00 0.000000e+00 0.000000e+00 0.000000e+00 0.000000e+00 0.000000e+00 9.441341e-01 5.586592e-02
 0.000000e+00 0.000000e+00 0.000000e+00 0.000000e+00 0.000000e+00 0.000000e+00 0.000000e+00 0.000000e+00 0.000000e+00
<ENDHMM>
