~o
<STREAMINFO> 1 39
<VECSIZE> 39<NULLD><MFCC_E_D_A><DIAGC>
~h "quatorze"
<BEGINHMM>
<NUMSTATES> 9
<STATE> 2
<MEAN> 39
 -1.443332e+00 -9.656325e+00 6.458336e+00 -4.604175e+00 4.786211e+00 3.494814e+00 -3.727071e+00 1.628615e+00 -4.440518e+00 -2.750053e+00 1.886529e+00 -2.958109e+00 6.125450e-01 4.220275e-01 1.045441e-01 7.866976e-01 3.031026e-01 -1.440587e-01 -1.479231e-02 -7.233995e-02 2.482432e-01 9.097701e-02 5.145384e-02 -8.180867e-02 -1.530952e-01 2.002343e-02 -1.491779e-02 1.032349e-01 -1.179570e-01 2.410637e-02 2.231258e-02 -1.044811e-02 -7.986195e-03 -9.086081e-02 7.738414e-02 -2.043245e-02 -3.206363e-02 7.193322e-02 -2.513919e-03
<VARIANCE> 39
 7.815862e+01 4.736793e+01 1.057870e+02 1.015565e+02 4.876403e+01 5.524218e+01 4.314827e+01 6.157101e+01 6.861498e+01 3.643789e+01 3.442990e+01 1.914041e+01 1.043969e-01 3.120361e+00 4.427922e+00 3.606383e+00 2.973834e+00 3.600878e+00 2.131269e+00 3.471184e+00 2.641647e+00 3.740750e+00 3.028732e+00 2.319220e+00 1.065849e+00 1.000000e-02 4.052809e-01 8.381361e-01 5.485842e-01 5.215228e-01 7.145590e-01 3.875802e-01 6.400493e-01 5.926356e-01 5.228844e-01 5.635687e-01 4.363560e-01 2.209650e-01 1.000000e-02
<GCONST> 1.122437e+02
<STATE> 3
<MEAN> 39
 -7.266891e+00 -2.366068e+00 5.645853e-01 -2.254199e-01 2.654570e+00 -2.138336e+00 1.037134e+00 -3.037850e+00 7.187363e-01 -1.602185e+00 1.855549e+00 -1.063724e+00 5.817266e-01 -1.191575e-01 5.186660e-02 -7.353447e-02 -3.574958e-01 -6.086793e-02 1.718187e-03 1.054212e-01 -8.717917e-02 -4.913326e-02 -9.823473e-03 6.571558e-03 3.381330e-02 -3.629359e-03 5.226662e-02 -3.580537e-02 8.543096e-02 -2.682106e-02 -2.888578e-02 3.157825e-02 5.336609e-02 6.357703e-02 -8.890584e-02 -1.089389e-02 8.860227e-02 -2.443027e-02 4.978694e-03
<VARIANCE> 39
 2.023889e+01 4.393717e+00 9.241417e+00 2.661070e+01 1.781254e+01 1.522909e+01 1.200663e+01 2.061622e+01 1.508286e+01 1.406308e+01 1.426038e+01 9.891550e+00 6.828266e-02 1.621913e+00 6.976125e-01 8.771559e-01 1.533423e+00 2.077819e+00 1.496219e+00 1.352822e+00 2.550561e+00 1.631618e+00 1.579600e+00 1.600796e+00 7.729567e-01 1.000000e-02 2.440993e-01 1.031880e-01 1.601491e-01 2.641715e-01 3.555369e-01 2.969886e-01 2.940850e-01 4.364061e-01 3.265899e-01 3.358526e-01 2.747463e-01 1.278677e-01 1.000000e-02
<GCONST> 7.844466e+01
<STATE> 4
<MEAN> 39
 -2.968226e+00 -2.668296e+00 5.623339e+00 -2.059665e+00 1.156547e+00 2.684971e+00 3.184715e+00 -1.594007e+00 -4.494981e+00 -2.824152e+00 3.696060e+00 -1.479308e+00 7.016972e-01 1.386504e+00 1.236791e-01 2.469993e-01 1.382516e-01 -6.468356e-01 5.739582e-01 7.370302e-01 2.728132e-01 -4.203290e-01 -8.547829e-01 -1.104732e-01 3.112778e-01 4.706648e-02 3.455943e-02 -2.501103e-02 -8.757263e-02 -3.059475e-02 -2.052308e-01 -1.414536e-01 1.018818e-01 9.242469e-02 1.333605e-01 -1.198791e-01 -2.596456e-01 -1.843193e-02 -3.526915e-03
<VARIANCE> 39
 3.977295e+01 1.989994e+01 5.166773e+01 3.068083e+01 1.584671e+01 4.699669e+01 2.330828e+01 1.517765e+01 4.217290e+01 2.073370e+01 2.516951e+01 2.661491e+01 6.660116e-02 3.898448e+00 1.766761e+00 1.858602e+00 2.581437e+00 2.725891e+00 3.214652e+00 2.571109e+00 9.490964e-01 4.432712e+00 2.413204e+00 2.359724e+00 1.705779e+00 1.000000e-02 6.536379e-01 3.511569e-01 2.998394e-01 5.930377e-01 4.704790e-01 7.072884e-01 4.980285e-01 2.445725e-01 7.845700e-01 3.790650e-01 3.810757e-01 2.886029e-01 1.000000e-02
<GCONST> 1.000610e+02
<STATE> 5
<MEAN> 39
 4.953551e+00 4.517137e-01 6.522777e+00 -4.940932e+00 -9.438969e+00 -1.333303e+00 7.364241e+00 1.522732e+00 2.863052e-03 -6.524529e+00 -2.336138e+00 -7.328245e-01 9.341967e-01 3.820560e-02 6.656595e-01 1.531441e-01 -3.467718e-01 -9.671388e-01 -9.597697e-01 -2.067904e-01 1.645618e-01 7.884424e-01 6.376700e-01 -2.841176e-01 -3.534737e-01 -7.519352e-03 -1.467881e-01 5.840363e-02 -4.656105e-03 -1.940869e-03 1.748776e-01 1.091785e-02 -1.772682e-01 -6.867839e-02 -2.652401e-02 2.216246e-01 1.832284e-01 -1.577212e-02 -5.132307e-03
<VARIANCE> 39
 2.126540e+01 3.128943e+01 3.852547e+01 1.430964e+01 5.625440e+01 5.229280e+01 2.166300e+01 9.563003e+00 4.152603e+01 2.118571e+01 1.570259e+01 1.582424e+01 1.000000e-02 1.611839e-01 2.509183e-01 3.504631e-01 5.919657e-01 5.998846e-01 7.246981e-01 1.289380e+00 6.011594e-01 9.111333e-01 1.298580e+00 1.341682e+00 9.240262e-01 1.000000e-02 6.947857e-02 5.499566e-02 5.136237e-02 9.540126e-02 1.004470e-01 1.302333e-01 1.750149e-01 8.530094e-02 1.309413e-01 2.019933e-01 1.693480e-01 1.572292e-01 1.000000e-02
<GCONST> 6.411916e+01
<STATE> 6
<MEAN> 39
 1.429286e-01 5.425819e+00 7.421503e+00 -7.452807e+00 -5.437310e+00 -5.564904e+00 8.105409e-01 2.334475e+00 2.432028e+00 1.085496e+00 1.932634e+00 -1.977568e+00 7.834395e-01 -6.997530e-01 -1.904478e-02 -2.084797e-01 3.797850e-02 8.202068e-01 1.279399e-01 -1.953806e-01 1.382511e-01 -1.459859e-01 -5.750962e-02 2.152878e-01 1.624031e-01 -1.999689e-02 -1.178476e-01 -1.357085e-01 -6.308399e-02 -4.593546e-03 1.026167e-01 9.838352e-02 7.691166e-02 2.283331e-02 -5.325589e-02 -1.113065e-01 -3.489273e-02 5.473417e-03 -1.159753e-03
<VARIANCE> 39
 3.606497e+01 7.687328e+00 2.904943e+01 4.165005e+01 4.497507e+01 1.702152e+01 1.249574e+01 4.089202e+01 2.632222e+01 1.280646e+01 1.220691e+01 1.023846e+01 1.000000e-02 6.858776e-01 7.394891e-01 8.422322e-01 5.292122e-01 1.306997e+00 1.299349e+00 1.361510e+00 9.989617e-01 1.119483e+00 1.322777e+00 1.094265e+00 8.046581e-01 1.000000e-02 9.570802e-02 7.955856e-02 1.488543e-01 1.129963e-01 2.225438e-01 1.839388e-01 2.021550e-01 2.139374e-01 1.949040e-01 2.527199e-01 2.046721e-01 1.458855e-01 1.000000e-02
<GCONST> 7.190441e+01
<STATE> 7
<MEAN> 39
 -1.032464e+01 -8.653145e-01 2.055251e+01 -2.196565e+01 2.864507e+00 6.347090e+00 -6.773444e+00 7.318236e+00 -7.703826e-01 -1.477721e+00 -1.889736e+00 2.420456e-01 4.398641e-01 -1.540476e+00 -8.573003e-01 -1.257363e-02 -3.438052e-01 1.023183e+00 4.829846e-01 -3.647637e-01 -5.225977e-01 -2.057834e-01 1.802648e-01 -2.837286e-02 8.208721e-02 -2.769230e-02 9.459692e-02 1.896180e-02 -9.895208e-02 1.538769e-01 -1.392332e-01 -1.214962e-01 -4.554772e-02 -5.213882e-02 4.313216e-02 5.872015e-02 2.062738e-02 3.583551e-02 4.503343e-04
<VARIANCE> 39
 1.102570e+02 5.020027e+01 9.612442e+01 1.074310e+02 8.869689e+01 5.179856e+01 6.381813e+01 6.733450e+01 2.381702e+01 2.453358e+01 2.962298e+01 1.771190e+01 2.037301e-02 2.141296e+00 1.175114e+00 3.876299e+00 3.747264e+00 4.207079e+00 1.486123e+00 3.763657e+00 1.723336e+00 1.603568e+00 1.153082e+00 1.212610e+00 1.137126e+00 1.000000e-02 1.956243e-01 2.222391e-01 5.571260e-01 5.511959e-01 3.505453e-01 2.444460e-01 6.416458e-01 2.865045e-01 3.517787e-01 2.137445e-01 1.706781e-01 2.744205e-01 1.000000e-02
<GCONST> 9.998767e+01
<STATE> 8
<MEAN> 39
 -1.175469e+01 -1.733344e+00 8.496243e-01 -6.042822e+00 3.034004e+00 -2.642896e+00 1.310191e+00 -4.959350e-01 -3.224536e-02 -1.630552e+00 1.732407e+00 -8.797880e-01 4.797611e-01 -4.786849e-02 -1.551841e-01 -1.391785e-01 8.791357e-02 -7.403416e-02 3.132696e-02 -2.131423e-02 -8.149291e-02 1.506110e-03 -2.937069e-02 -2.276651e-02 5.086416e-02 -5.907257e-03 7.695099e-02 2.479246e-02 7.309875e-03 1.150950e-03 -6.128050e-02 -1.245534e-02 -2.607186e-02 1.192056e-03 2.161198e-02 2.219810e-02 -1.449415e-02 2.909880e-03 1.316402e-03
<VARIANCE> 39
 1.146222e+01 8.401794e+00 1.060403e+01 2.162713e+01 1.487303e+01 1.830873e+01 1.850099e+01 1.556396e+01 1.409731e+01 1.494250e+01 1.296241e+01 9.836617e+00 2.187882e-02 7.826273e-01 4.614953e-01 8.250335e-01 1.329405e+00 1.191470e+00 1.037956e+00 1.467128e+00 1.695553e+00 1.437724e+00 1.478417e+00 1.173570e+00 1.003120e+00 1.000000e-02 9.361313e-02 8.339656e-02 1.443796e-01 1.992391e-01 1.917913e-01 2.038256e-01 2.823286e-01 3.329156e-01 2.799215e-01 2.986235e-01 2.052132e-01 1.669268e-01 1.000000e-02
<GCONST> 7.136694e+01
<TRANSP> 9
 0.000000e+00 1.000000e+00 0.000000e+00 0.000000e+00 0.000000e+00 0.000000e+00 0.000000e+00 0.000000e+00 0.000000e+00
 0.000000e+00 9.090909e-01 9.090909e-02 0.000000e+00 0.000000e+00 0.000000e+00 0.000000e+00 0.000000e+00 0.000000e+00
 0.000000e+00 0.000000e+00 9.290780e-01 7.092199e-02 0.000000e+00 0.000000e+00 0.000000e+00 0.000000e+00 0.000000e+00
 0.000000e+00 0.000000e+00 0.000000e+00 8.571429e-01 1.428571e-01 0.000000e+00 0.000000e+00 0.000000e+00 0.000000e+00
 0.000000e+00 0.000000e+00 0.000000e+00 0.000000e+00 8.969072e-01 1.030928e-01 0.000000e+00 0.000000e+00 0.000000e+00
 0.000000e+00 0.000000e+00 0.000000e+00 0.000000e+00 0.000000e+00 9.137931e-01 8.620691e-02 0.000000e+00 0.000000e+00
 0.000000e+00 0.000000e+00 0.000000e+00 0.000000e+00 0.000000e+00 0.000000e+00 8.000000e-01 2.000000e-01 0.000000e+00
 0.000000e+00 0.000000e+00 0.000000e+00 0.000000e+00 0.000000e+00 0.000000e+00 0.000000e+00 9.465241e-01 5.347594e-02
 0.000000e+00 0.000000e+00 0.000000e+00 0.000000e+00 0.000000e+00 0.000000e+00 0.000000e+00 0.000000e+00 0.000000e+00
<ENDHMM>
