~o
<STREAMINFO> 1 39
<VECSIZE> 39<NULLD><MFCC_E_D_A><DIAGC>
~h "quatre"
<BEGINHMM>
<NUMSTATES> 8
<STATE> 2
<MEAN> 39
 -5.442748e+00 -6.842261e+00 5.610391e+00 -5.122718e-01 1.839271e+00 1.360900e-01 -7.468124e-02 -1.089795e+00 -6.452396e-01 -2.592138e+00 1.366476e+00 -1.280257e+00 6.501887e-01 1.065239e+00 6.756536e-02 6.662139e-01 8.404900e-01 -1.309986e-02 2.484847e-01 -4.127660e-01 -3.629538e-01 -1.279181e-01 -5.276822e-01 8.987346e-02 4.604156e-02 5.079351e-02 1.996922e-01 -2.157036e-02 -2.723318e-01 -6.393522e-02 -9.414793e-03 -1.548546e-02 -1.637345e-01 -2.608541e-01 3.257224e-02 -1.581786e-01 5.707703e-02 -2.191939e-02 3.230701e-03
<VARIANCE> 39
 6.397953e+01 3.909808e+01 4.065693e+01 4.510326e+01 5.046888e+01 6.103337e+01 4.653001e+01 1.619219e+01 3.869450e+01 2.499911e+01 1.719537e+01 1.005420e+01 4.085450e-02 2.726121e+00 1.516916e+00 2.987015e+00 2.471768e+00 4.802148e+00 2.020034e+00 3.789628e+00 1.866251e+00 2.873099e+00 1.581383e+00 9.884343e-01 9.481537e-01 1.000000e-02 4.796307e-01 1.881303e-01 4.027322e-01 4.260920e-01 6.713433e-01 2.886771e-01 6.807649e-01 3.206766e-01 3.783046e-01 1.869829e-01 1.477383e-01 1.828090e-01 1.000000e-02
<GCONST> 9.679727e+01
<STATE> 3
<MEAN> 39
 2.337114e+00 -4.268294e+00 1.153072e+00 -9.173467e-01 2.476251e+00 -2.374340e+00 -5.379396e-01 -7.985401e+00 -5.289168e+00 -8.649239e+00 4.822574e+00 -2.321520e-01 9.579738e-01 -1.290288e-01 6.085564e-01 -5.854962e-01 -8.640497e-01 -3.257616e-01 7.228044e-02 8.234442e-01 -5.617677e-02 -7.336556e-01 -2.262126e-01 2.223417e-01 1.418711e-01 -8.971331e-03 -4.373092e-01 5.963432e-02 1.612551e-01 -4.308353e-02 7.079455e-02 6.151646e-02 1.386082e-01 4.304915e-01 1.244311e-01 3.217084e-01 -1.368025e-01 -8.205547e-02 -1.491125e-02
<VARIANCE> 39
 4.813284e+00 1.030326e+01 2.673272e+01 3.628374e+01 1.398665e+01 3.530354e+01 2.872912e+01 1.603873e+01 6.930358e+01 3.522746e+01 1.584388e+01 1.367419e+01 1.000000e-02 1.729089e+00 7.414445e-01 8.765989e-01 1.677853e+00 9.023193e-01 1.463332e+00 1.902210e+00 3.443484e+00 2.493208e+00 2.886150e+00 1.936949e+00 1.255795e+00 1.000000e-02 1.710477e-01 1.692873e-01 1.292674e-01 4.792287e-01 2.347312e-01 2.678837e-01 5.224473e-01 3.065823e-01 5.767679e-01 3.403609e-01 3.038183e-01 2.152508e-01 1.000000e-02
<GCONST> 8.453368e+01
<STATE> 4
<MEAN> 39
 8.311094e-01 -5.531487e+00 8.714465e+00 -1.094126e+01 3.775763e+00 2.448845e+00 3.680465e-01 -6.612177e-01 -9.709992e+00 -4.733441e+00 -4.663092e-01 -2.864227e-01 5.267662e-01 -1.107568e+00 3.164827e-02 -6.256497e-03 -1.037889e+00 3.909798e-01 -4.184749e-01 -3.681285e-01 4.541441e-01 6.070506e-01 7.478564e-01 -7.142987e-01 1.741340e-01 -5.704501e-02 -4.170189e-02 -2.342781e-01 -1.218584e-02 -5.539350e-03 -2.325739e-01 -1.820727e-01 -2.055159e-01 -1.507723e-01 8.862001e-02 -1.048401e-01 -1.238646e-01 4.588189e-02 -1.638795e-03
<VARIANCE> 39
 1.618415e+01 4.731517e+01 4.388113e+01 1.424107e+02 3.920443e+01 3.880236e+01 2.287414e+01 2.136066e+01 4.425457e+01 2.825704e+01 3.587594e+01 1.750474e+01 7.178859e-02 2.145299e+00 3.869439e+00 1.182672e+00 7.494848e+00 2.019812e+00 2.554782e+00 1.576199e+00 2.120439e+00 5.463072e+00 3.016808e+00 3.010691e+00 1.226750e+00 1.000000e-02 1.983713e-01 7.750289e-01 1.615358e-01 1.329356e+00 2.922991e-01 5.000598e-01 3.382014e-01 5.164708e-01 6.813992e-01 5.618085e-01 6.369190e-01 3.450053e-01 1.000000e-02
<GCONST> 1.040072e+02
<STATE> 5
<MEAN> 39
 -9.309218e+00 -2.308273e+00 -7.249780e-01 -3.444365e+00 9.388655e-01 -2.239452e+00 1.451094e+00 -2.187570e+00 -5.324537e-01 -2.586347e+00 -4.295566e-02 -1.193058e+00 4.653336e-01 -3.342710e-01 -1.127375e-01 -1.449932e-01 -4.182951e-01 -1.743835e-01 -9.767544e-02 -2.637918e-02 1.705779e-01 2.488183e-01 3.083101e-02 -2.986338e-01 -9.580185e-02 -8.063674e-03 2.061130e-01 3.285400e-02 -4.809127e-02 -1.326966e-01 2.253726e-02 3.936888e-02 1.536846e-01 -3.748676e-02 -1.653498e-01 -6.327031e-02 1.504164e-01 2.081023e-02 1.079531e-02
<VARIANCE> 39
 3.438840e+00 4.751715e+00 6.046924e+00 1.847714e+01 8.769752e+00 8.847548e+00 9.305991e+00 1.000912e+01 1.492971e+01 1.031781e+01 9.513162e+00 7.835752e+00 1.233056e-02 8.366706e-01 5.910925e-01 5.116499e-01 1.144664e+00 1.556357e+00 9.454783e-01 1.407271e+00 1.316101e+00 2.056134e+00 1.304596e+00 1.227206e+00 1.086890e+00 1.000000e-02 1.467724e-01 1.041110e-01 1.158827e-01 1.964364e-01 2.548166e-01 1.727083e-01 2.639155e-01 2.287860e-01 3.798240e-01 2.274556e-01 2.103888e-01 2.069112e-01 1.000000e-02
<GCONST> 6.537609e+01
<STATE> 6
<MEAN> 39
 -3.984321e+00 -6.717276e+00 1.575341e-01 -2.087675e+01 -1.207410e+00 5.237411e+00 4.420832e+00 4.016537e-01 -5.161880e+00 -3.155571e+00 1.304198e+00 1.640747e-01 5.055978e-01 9.271736e-02 -9.210060e-02 -4.959504e-01 2.461802e-02 -6.170294e-01 7.700960e-01 6.232771e-01 2.128011e-01 2.178378e-01 1.972608e-01 5.706733e-01 -2.555850e-02 -8.048268e-05 -6.329625e-03 3.291246e-02 7.086238e-02 2.655329e-01 3.667649e-02 4.824680e-02 -5.011570e-02 -8.410101e-02 8.181353e-03 2.196003e-03 -2.582309e-02 -4.167234e-02 -7.134725e-03
<VARIANCE> 39
 3.453020e+01 6.556832e+01 3.694637e+01 1.395760e+02 4.696241e+01 8.050475e+01 2.599811e+01 2.345626e+01 5.992011e+01 1.767675e+01 2.435039e+01 2.027373e+01 3.368933e-02 7.340966e-01 1.271124e+00 1.561255e+00 3.461756e+00 1.473626e+00 1.458769e+00 1.561022e+00 1.587811e+00 2.630656e+00 1.285162e+00 1.159391e+00 1.688271e+00 1.000000e-02 1.233381e-01 1.580759e-01 2.465915e-01 2.931350e-01 3.296039e-01 2.566388e-01 2.847328e-01 2.637156e-01 3.996235e-01 2.417287e-01 2.371521e-01 3.079834e-01 1.000000e-02
<GCONST> 9.177042e+01
<STATE> 7
<MEAN> 39
 -8.742146e+00 -2.855748e+00 -2.646999e+00 -9.005992e+00 -1.710705e+00 3.694359e-01 5.604576e+00 5.529866e-02 -4.884819e-01 -4.168528e+00 -2.061937e-01 -1.166140e+00 5.471802e-01 -7.302029e-02 7.488678e-02 3.198664e-02 3.685378e-01 -4.714152e-02 -2.214713e-01 -1.628089e-01 -5.138773e-02 2.740912e-01 1.234422e-01 -4.279029e-02 -4.377877e-02 -1.505459e-02 -1.803713e-02 2.967027e-02 1.200176e-02 2.790383e-02 -4.972139e-03 -1.124319e-01 -4.129014e-02 2.116249e-02 6.065749e-02 4.429408e-02 2.294484e-02 -6.189551e-03 -1.177567e-03
<VARIANCE> 39
 2.955981e+00 3.042414e+00 8.517406e+00 1.939652e+01 1.355091e+01 1.452176e+01 2.163721e+01 1.551606e+01 1.629555e+01 1.384580e+01 1.280310e+01 7.052507e+00 1.316564e-02 1.939100e-01 2.931213e-01 4.441699e-01 9.450213e-01 8.315818e-01 1.575795e+00 1.728828e+00 1.251605e+00 1.044560e+00 1.473206e+00 1.619115e+00 5.198965e-01 1.000000e-02 3.960569e-02 5.408921e-02 7.496307e-02 1.731797e-01 1.639004e-01 2.955803e-01 2.599613e-01 2.121381e-01 1.586677e-01 2.734081e-01 3.147887e-01 9.916060e-02 1.000000e-02
<GCONST> 6.100640e+01
<TRANSP> 8
 0.000000e+00 1.000000e+00 0.000000e+00 0.000000e+00 0.000000e+00 0.000000e+00 0.000000e+00 0.000000e+00
 0.000000e+00 8.823529e-01 1.176471e-01 0.000000e+00 0.000000e+00 0.000000e+00 0.000000e+00 0.000000e+00
 0.000000e+00 0.000000e+00 8.734177e-01 1.265823e-01 0.000000e+00 0.000000e+00 0.000000e+00 0.000000e+00
 0.000000e+00 0.000000e+00 0.000000e+00 7.619048e-01 2.380952e-01 0.000000e+00 0.000000e+00 0.000000e+00
 0.000000e+00 0.000000e+00 0.000000e+00 0.000000e+00 8.936170e-01 1.063830e-01 0.000000e+00 0.000000e+00
 0.000000e+00 0.000000e+00 0.000000e+00 0.000000e+00 0.000000e+00 8.333333e-01 1.166667e-01 5.000000e-02
 0.000000e+00 0.000000e+00 0.000000e+00 0.000000e+00 0.000000e+00 0.000000e+00 9.247312e-01 7.526883e-02
 0.000000e+00 0.000000e+00 0.000000e+00 0.000000e+00 0.000000e+00 0.000000e+00 0.000000e+00 0.000000e+00
<ENDHMM>
