~o
<STREAMINFO> 1 39
<VECSIZE> 39<NULLD><MFCC_E_D_A><DIAGC>
~h "quinze"
<BEGINHMM>
<NUMSTATES> 5
<STATE> 2
<MEAN> 39
 -5.807957e+00 -8.143353e+00 4.745681e+00 6.267533e-01 2.928343e+00 -5.793087e-01 -1.061219e+00 -3.826844e-01 1.381752e+00 -1.908106e+00 1.467902e+00 -1.857839e+00 6.639486e-01 7.971529e-01 -2.043340e-01 4.940040e-01 4.859144e-01 -6.476157e-02 1.993310e-02 -5.522395e-01 -2.987191e-01 6.592872e-02 -1.125717e-01 1.661537e-01 -2.661033e-02 3.399124e-02 2.857069e-02 5.726424e-02 -1.382557e-01 -8.299943e-02 -7.595561e-03 4.935949e-02 -7.915680e-03 -2.405889e-02 -6.727194e-02 -2.739428e-02 1.699494e-02 -2.872306e-02 -6.478925e-04
<VARIANCE> 39
 4.000784e+01 4.192683e+01 1.085168e+02 5.024261e+01 2.116385e+01 5.579010e+01 5.311522e+01 3.792062e+01 2.981515e+01 1.850614e+01 1.539707e+01 1.497372e+01 8.955207e-02 2.268923e+00 1.686771e+00 4.121077e+00 3.909573e+00 1.829623e+00 2.888586e+00 3.274650e+00 2.651907e+00 3.041675e+00 1.561397e+00 1.244866e+00 1.432234e+00 1.000000e-02 3.722175e-01 2.874494e-01 5.385887e-01 7.052134e-01 3.500403e-01 4.317113e-01 5.736076e-01 5.003648e-01 5.294243e-01 2.700031e-01 2.407144e-01 2.734837e-01 1.000000e-02
<GCONST> 1.015955e+02
<STATE> 3
<MEAN> 39
 2.951852e+00 -2.596376e+00 9.323018e-01 -4.167805e+00 1.293553e+00 1.206403e+00 -9.533982e-01 -1.194478e+00 -5.639735e-01 -4.646724e+00 2.530051e+00 -1.365701e+00 9.099696e-01 -1.428854e-01 4.147992e-01 -1.801601e-01 -1.993937e-01 1.967561e-02 -1.180913e-01 5.207225e-01 3.676870e-01 -1.243817e-01 2.003265e-02 7.434853e-02 8.717339e-02 -7.068073e-03 -7.459139e-02 9.528073e-03 5.212068e-02 4.732279e-02 6.444152e-02 -2.393313e-02 2.927112e-02 -8.116716e-03 5.453146e-02 2.817771e-02 6.559539e-03 2.282903e-02 -1.085366e-03
<VARIANCE> 39
 1.795971e+01 4.843488e+01 3.636396e+01 2.800332e+01 2.092791e+01 4.318103e+01 5.665454e+01 6.764111e+01 3.095465e+01 3.193724e+01 1.922410e+01 3.511539e+01 1.000000e-02 2.172373e-01 3.290072e-01 8.116965e-01 1.161523e+00 1.026736e+00 1.180012e+00 1.025811e+00 1.067562e+00 1.240185e+00 1.039883e+00 7.443647e-01 8.095240e-01 1.000000e-02 2.789502e-02 4.561514e-02 7.348187e-02 1.213168e-01 1.640383e-01 1.723318e-01 1.202173e-01 1.924476e-01 2.091058e-01 1.402073e-01 1.290321e-01 1.266731e-01 1.000000e-02
<GCONST> 7.099533e+01
<STATE> 4
<MEAN> 39
 -1.023440e+01 2.515778e-01 1.944662e+00 -4.297153e+00 7.192218e+00 -4.433047e+00 5.500725e+00 -7.569122e-01 -1.638169e+00 -1.114332e+00 1.517605e+00 1.029199e+00 5.633517e-01 -4.461212e-01 -1.048157e-01 5.070087e-02 -1.273878e-01 1.131631e-01 -1.277815e-01 -1.495864e-01 -1.701603e-01 -9.515852e-03 6.485262e-02 -1.684653e-01 3.129667e-02 -1.319104e-02 4.198840e-02 -2.785518e-02 -5.175242e-03 1.131563e-02 -3.771530e-02 2.981827e-02 -6.520695e-02 2.115902e-02 -2.703195e-02 -2.033309e-02 2.480431e-03 -2.406915e-02 3.472107e-04
<VARIANCE> 39
 3.542312e+01 2.242066e+01 4.236003e+01 2.662884e+01 7.542287e+01 1.688817e+01 2.457207e+01 1.992850e+01 4.363178e+01 1.942927e+01 1.509226e+01 2.122698e+01 2.387137e-02 1.147040e+00 6.770716e-01 1.005933e+00 1.138500e+00 2.206242e+00 1.530878e+00 1.620838e+00 1.625639e+00 1.621590e+00 1.406540e+00 1.068645e+00 1.467656e+00 1.000000e-02 9.697623e-02 8.758018e-02 1.714063e-01 1.718301e-01 2.531021e-01 2.578467e-01 2.840835e-01 2.928614e-01 2.880622e-01 2.627867e-01 1.911452e-01 2.671628e-01 1.000000e-02
<GCONST> 8.257130e+01
<TRANSP> 5
 0.000000e+00 1.000000e+00 0.000000e+00 0.000000e+00 0.000000e+00
 0.000000e+00 9.342105e-01 6.578948e-02 0.000000e+00 0.000000e+00
 0.000000e+00 0.000000e+00 9.553571e-01 4.464285e-02 0.000000e+00
 0.000000e+00 0.000000e+00 0.000000e+00 9.629630e-01 3.703703e-02
 0.000000e+00 0.000000e+00 0.000000e+00 0.000000e+00 0.000000e+00
<ENDHMM>
