~o
<STREAMINFO> 1 39
<VECSIZE> 39<NULLD><MFCC_E_D_A><DIAGC>
~h "seize"
<BEGINHMM>
<NUMSTATES> 5
<STATE> 2
<MEAN> 39
 -1.356997e+01 -1.953975e+00 3.459093e-01 -3.226235e+00 3.915246e+00 -4.249312e+00 1.977729e+00 -3.456060e+00 8.568449e-01 -8.761347e-01 1.737144e+00 -1.419236e+00 5.431830e-01 6.768122e-01 -1.657766e-01 2.194342e-01 5.298508e-01 1.171524e-01 3.420613e-01 -5.666352e-02 -2.009012e-01 -2.309491e-01 -1.133531e-01 3.164819e-01 -2.424711e-02 2.809173e-02 6.428091e-02 -3.315436e-02 1.551168e-02 4.840770e-02 1.171207e-03 6.647345e-02 -2.625911e-02 4.032641e-03 3.523028e-02 -8.618225e-03 3.845427e-02 -1.021219e-02 7.978905e-04
<VARIANCE> 39
 4.597500e+01 3.186471e+01 5.841851e+01 4.344004e+01 2.984102e+01 3.178088e+01 2.598532e+01 2.740088e+01 2.056518e+01 1.987593e+01 1.989270e+01 1.337987e+01 3.089575e-02 3.012378e+00 1.086470e+00 1.241185e+00 2.012228e+00 1.354589e+00 3.381332e+00 2.049608e+00 1.446161e+00 1.630813e+00 1.162889e+00 2.077041e+00 1.196897e+00 1.000000e-02 2.884273e-01 1.354816e-01 1.516929e-01 2.721542e-01 2.241718e-01 5.122132e-01 3.411303e-01 2.155050e-01 2.994779e-01 1.716528e-01 3.610826e-01 2.235053e-01 1.000000e-02
<GCONST> 8.870927e+01
<STATE> 3
<MEAN> 39
 2.263607e+00 -7.662506e+00 6.697191e+00 5.304991e+00 8.373345e+00 4.568311e+00 2.615200e-01 -3.257174e+00 -2.035843e+00 -1.953320e+00 8.690042e+00 -1.572264e+00 9.357542e-01 -1.971148e-01 1.005336e-01 -1.480767e-01 -1.899027e-01 1.665780e-01 -2.167296e-02 1.491931e-01 2.238807e-01 7.200139e-03 1.193831e-01 7.300918e-02 2.143643e-01 -8.693767e-03 -1.532670e-01 1.143519e-01 -6.093498e-02 -1.057880e-01 5.116362e-02 -9.945100e-02 1.149533e-01 -1.230588e-02 -2.671339e-02 6.603717e-02 -7.136072e-02 4.632089e-02 -4.409580e-03
<VARIANCE> 39
 1.310879e+01 2.996517e+01 3.907269e+01 3.237965e+01 2.943616e+01 4.885817e+01 3.627248e+01 2.962517e+01 4.966437e+01 1.547260e+01 1.896669e+01 3.293131e+01 1.000000e-02 3.725890e-01 5.166351e-01 4.677210e-01 6.170868e-01 6.046555e-01 6.856003e-01 8.640811e-01 8.103414e-01 9.026430e-01 7.360210e-01 9.016837e-01 5.857837e-01 1.000000e-02 8.441652e-02 7.147638e-02 6.450205e-02 1.087312e-01 1.094490e-01 1.442133e-01 9.388554e-02 1.221002e-01 1.578507e-01 1.161976e-01 1.960220e-01 6.503528e-02 1.000000e-02
<GCONST> 6.608718e+01
<STATE> 4
<MEAN> 39
 -8.778713e+00 -4.331056e-01 2.228171e+00 -3.413915e+00 9.669180e+00 -1.451330e+00 4.851298e+00 -2.347153e+00 -1.486675e+00 3.124026e-01 2.846022e+00 7.895635e-01 5.333593e-01 -2.276548e-01 7.977726e-02 -1.395527e-01 -2.942113e-01 -2.208067e-01 -2.134543e-01 -8.817822e-02 -3.173699e-02 4.384688e-02 -5.205087e-02 -3.546782e-01 -5.963394e-02 -1.429248e-02 5.798735e-02 -4.324649e-02 3.752158e-03 3.404286e-02 -2.426610e-02 4.054218e-02 -5.717407e-02 3.361459e-02 1.921625e-02 -3.501882e-02 3.841835e-02 -2.776099e-02 5.809356e-04
<VARIANCE> 39
 3.447105e+01 2.307858e+01 6.062461e+01 3.734198e+01 9.399923e+01 2.119201e+01 2.447006e+01 1.738918e+01 3.386015e+01 2.600062e+01 3.054643e+01 1.341000e+01 3.907507e-02 1.175274e+00 7.306094e-01 8.054229e-01 9.543076e-01 2.055084e+00 1.524978e+00 1.448435e+00 1.623998e+00 1.656943e+00 1.347473e+00 1.395230e+00 8.549321e-01 1.000000e-02 1.058261e-01 8.007796e-02 1.174243e-01 1.496939e-01 3.036262e-01 2.259901e-01 2.386104e-01 2.780608e-01 2.667934e-01 2.429017e-01 2.369121e-01 1.543605e-01 1.000000e-02
<GCONST> 8.238715e+01
<TRANSP> 5
 0.000000e+00 1.000000e+00 0.000000e+00 0.000000e+00 0.000000e+00
 0.000000e+00 9.563318e-01 4.366812e-02 0.000000e+00 0.000000e+00
 0.000000e+00 0.000000e+00 9.441341e-01 5.586592e-02 0.000000e+00
 0.000000e+00 0.000000e+00 0.000000e+00 9.651568e-01 3.484321e-02
 0.000000e+00 0.000000e+00 0.000000e+00 0.000000e+00 0.000000e+00
<ENDHMM>
