~o
<STREAMINFO> 1 39
<VECSIZE> 39<NULLD><MFCC_E_D_A><DIAGC>
~h "sept"
<BEGINHMM>
<NUMSTATES> 5
<STATE> 2
<MEAN> 39
 -1.573168e+01 3.359732e-01 1.386284e+00 -7.081786e+00 7.202311e+00 -6.641721e+00 2.708352e+00 -2.291682e+00 7.349091e-01 9.220312e-02 2.237742e-01 -2.832698e-01 5.679198e-01 6.856874e-02 -7.073083e-02 1.538012e-01 1.430662e-01 3.942986e-02 -5.066355e-02 7.267267e-03 -7.001424e-03 6.113618e-02 -3.046166e-02 -1.324097e-02 -2.031611e-01 1.753901e-02 1.993221e-01 -9.088238e-02 4.777417e-02 1.392537e-01 2.495458e-02 1.349504e-01 1.261733e-02 -4.211048e-02 -6.434674e-02 2.564762e-03 5.426634e-02 -6.624275e-02 1.671400e-03
<VARIANCE> 39
 1.577584e+01 1.465583e+01 9.067529e+01 8.650932e+01 1.132018e+02 1.911035e+01 1.705585e+01 3.418391e+01 1.929121e+01 1.182001e+01 2.413407e+01 1.192785e+01 2.057926e-02 1.438707e+00 1.091123e+00 1.514571e+00 1.422737e+00 1.893577e+00 1.924355e+00 1.653605e+00 1.248131e+00 1.421413e+00 1.049751e+00 1.593019e+00 1.074868e+00 1.000000e-02 1.602156e-01 1.524728e-01 2.473039e-01 2.403602e-01 3.124605e-01 3.253125e-01 2.993517e-01 1.996151e-01 1.973162e-01 2.130729e-01 3.063579e-01 1.922318e-01 1.000000e-02
<GCONST> 8.466858e+01
<STATE> 3
<MEAN> 39
 -1.097473e+00 -6.454578e+00 8.956473e+00 -1.152166e+00 9.356050e+00 2.831369e+00 -8.930333e-01 -3.258704e+00 -3.844766e+00 1.822025e-01 3.664629e+00 -3.251662e+00 6.481109e-01 2.592309e-01 -4.279026e-02 -4.728612e-02 1.516528e-01 -1.022423e-01 3.090993e-01 -1.927466e-01 -2.704395e-02 -9.744115e-03 -5.445737e-02 1.188103e-01 4.907553e-02 -8.279417e-03 -2.608863e-01 5.180458e-02 -1.343388e-01 -1.863621e-01 -1.094613e-01 -1.267756e-01 1.935531e-02 5.460683e-02 6.538216e-02 1.671490e-02 -1.157637e-01 1.109990e-01 -8.084672e-03
<VARIANCE> 39
 5.071101e+01 4.206306e+01 6.263208e+01 1.185511e+02 3.418209e+01 8.668929e+01 3.467765e+01 3.872235e+01 3.611612e+01 2.710585e+01 5.552440e+01 3.794181e+01 1.426042e-01 4.963375e+00 1.585896e+00 2.974951e+00 5.046038e+00 2.184060e+00 3.703760e+00 2.386747e+00 2.393060e+00 2.295571e+00 2.030928e+00 3.433121e+00 1.766705e+00 1.000000e-02 3.914410e-01 1.925943e-01 3.407087e-01 6.175005e-01 3.403630e-01 4.762399e-01 3.879448e-01 3.211577e-01 3.766335e-01 3.503989e-01 5.157533e-01 2.967386e-01 1.000000e-02
<GCONST> 1.068318e+02
<STATE> 4
<MEAN> 39
 -9.714539e+00 -2.014730e+00 1.814404e-01 -2.256256e+00 2.450784e+00 -3.049940e+00 1.463411e+00 -2.166221e+00 3.771298e-01 -1.331619e+00 9.927351e-01 -1.339259e+00 4.673233e-01 -6.434357e-02 -5.427894e-02 -5.845954e-02 -1.027280e-01 -9.925261e-02 -5.290929e-02 -1.215374e-02 -3.354281e-02 2.441229e-02 -1.428654e-02 -9.019625e-02 5.100987e-02 -5.316515e-03 6.795917e-02 5.360404e-03 4.255753e-02 6.444750e-02 4.953989e-02 3.220920e-02 -1.665530e-02 -2.692803e-02 -3.533852e-03 1.979835e-03 3.603032e-02 -3.807117e-02 3.038191e-03
<VARIANCE> 39
 5.822690e+00 6.535997e+00 9.315763e+00 1.145414e+01 1.079298e+01 1.391350e+01 1.420116e+01 1.758766e+01 1.184454e+01 1.095331e+01 1.031027e+01 8.712650e+00 2.105284e-02 5.502557e-01 4.012750e-01 7.113212e-01 1.041345e+00 9.935758e-01 1.017699e+00 1.217950e+00 1.646765e+00 1.456673e+00 1.101766e+00 1.274512e+00 9.373904e-01 1.000000e-02 1.050882e-01 8.424611e-02 1.391023e-01 1.962435e-01 1.874039e-01 1.820976e-01 2.375648e-01 3.330856e-01 3.001510e-01 2.136818e-01 2.536237e-01 1.763785e-01 1.000000e-02
<GCONST> 6.626239e+01
<TRANSP> 5
 0.000000e+00 1.000000e+00 0.000000e+00 0.000000e+00 0.000000e+00
 0.000000e+00 9.367089e-01 6.329113e-02 0.000000e+00 0.000000e+00
 0.000000e+00 0.000000e+00 9.441341e-01 5.586592e-02 0.000000e+00
 0.000000e+00 0.000000e+00 0.000000e+00 9.619772e-01 3.802282e-02
 0.000000e+00 0.000000e+00 0.000000e+00 0.000000e+00 0.000000e+00
<ENDHMM>
