~o
<STREAMINFO> 1 39
<VECSIZE> 39<NULLD><MFCC_E_D_A><DIAGC>
~h "six"
<BEGINHMM>
<NUMSTATES> 5
<STATE> 2
<MEAN> 39
 -1.598537e+01 7.538434e-01 -2.344164e-01 -3.671218e+00 4.447833e+00 -5.516811e+00 4.058525e+00 -3.215260e+00 8.892908e-01 -2.258469e-01 1.415129e+00 -1.737902e+00 7.393382e-01 -6.726892e-02 -2.426037e-02 2.046356e-01 4.376419e-02 1.263270e-01 6.966169e-03 1.209664e-01 3.617688e-02 -7.828893e-04 1.084544e-01 -4.869198e-02 -1.374023e-01 1.164652e-02 4.052778e-02 -3.460075e-02 4.230039e-02 3.515037e-02 -2.608457e-02 2.657567e-02 -1.833382e-02 3.510461e-02 6.877515e-02 4.183527e-02 -1.166466e-02 1.035793e-02 2.106306e-04
<VARIANCE> 39
 1.511496e+01 1.059659e+01 1.985034e+01 2.038835e+01 1.969922e+01 1.560855e+01 1.446175e+01 1.637016e+01 1.312207e+01 1.852470e+01 9.832273e+00 1.180849e+01 1.778948e-02 6.513128e-01 6.156257e-01 1.173955e+00 1.408077e+00 1.268160e+00 1.356246e+00 1.268136e+00 1.167029e+00 1.509039e+00 1.411577e+00 9.141085e-01 9.829931e-01 1.000000e-02 7.619734e-02 8.611041e-02 1.509241e-01 2.726444e-01 2.296321e-01 2.290639e-01 2.593224e-01 2.212955e-01 2.784810e-01 2.521510e-01 1.550514e-01 2.042890e-01 1.000000e-02
<GCONST> 7.200419e+01
<STATE> 3
<MEAN> 39
 -1.509354e+01 -8.140568e+00 1.798242e+01 -8.019120e+00 1.495619e+01 -4.999930e+00 -1.033970e+00 4.606250e+00 2.424968e+00 2.720462e+00 -3.082827e+00 -5.613797e-01 6.936014e-01 8.211277e-02 5.790501e-02 -1.783501e-03 8.835223e-02 -1.264847e-01 7.262686e-02 -1.523589e-01 -3.887265e-02 -2.690134e-02 -1.814156e-01 7.484464e-02 8.874871e-03 -2.618660e-03 -6.137942e-02 7.025972e-02 -1.346868e-01 -5.802506e-02 -6.153783e-02 -8.817045e-02 2.588370e-02 -3.789074e-02 -1.072101e-01 -7.130900e-02 4.309235e-02 -7.921547e-03 -3.000516e-03
<VARIANCE> 39
 4.616986e+01 5.496088e+01 7.588010e+01 2.169513e+02 1.114852e+02 5.554597e+01 6.947527e+01 3.961562e+01 4.915630e+01 1.996636e+01 2.506944e+01 2.187036e+01 5.265298e-02 2.379281e+00 2.436533e+00 2.494472e+00 7.395263e+00 3.364746e+00 3.710621e+00 3.271902e+00 2.160947e+00 3.164781e+00 1.952147e+00 1.754362e+00 1.568939e+00 1.000000e-02 2.881374e-01 3.382698e-01 3.965309e-01 8.214828e-01 4.836247e-01 5.719712e-01 5.373750e-01 4.327550e-01 5.214860e-01 3.195428e-01 3.036356e-01 3.242551e-01 1.000000e-02
<GCONST> 1.086003e+02
<STATE> 4
<MEAN> 39
 -1.559225e+01 4.939657e-01 7.243160e-01 -4.481209e+00 4.903466e+00 -5.511559e+00 2.489587e+00 -1.933339e+00 -2.405615e-01 -1.247794e+00 1.344814e+00 -2.079228e+00 7.331643e-01 6.342513e-02 -2.365994e-02 -1.091165e-01 -3.807623e-02 -8.148741e-02 -3.802445e-02 -3.957069e-02 -6.197261e-03 -9.374102e-02 -4.804598e-02 -2.218443e-02 6.415474e-02 -6.606853e-03 2.858528e-02 -9.915684e-03 3.999161e-02 3.855089e-02 2.114279e-02 2.563099e-02 7.144569e-03 -1.320441e-02 2.422636e-03 2.826701e-02 -1.426901e-02 -3.111424e-03 6.734449e-04
<VARIANCE> 39
 1.558299e+01 6.301882e+00 1.985172e+01 1.576946e+01 1.651790e+01 1.670114e+01 2.083058e+01 2.411726e+01 1.821670e+01 1.364129e+01 1.553461e+01 1.199720e+01 1.907754e-02 3.955350e-01 3.419578e-01 7.949337e-01 9.607049e-01 8.615510e-01 1.076121e+00 1.104572e+00 1.454908e+00 1.300511e+00 1.197688e+00 1.187930e+00 9.982831e-01 1.000000e-02 4.874124e-02 6.401954e-02 1.185049e-01 1.826104e-01 1.622777e-01 1.839558e-01 1.894131e-01 3.014220e-01 2.723209e-01 2.451446e-01 2.103530e-01 1.891735e-01 1.000000e-02
<GCONST> 6.825736e+01
<TRANSP> 5
 0.000000e+00 1.000000e+00 0.000000e+00 0.000000e+00 0.000000e+00
 0.000000e+00 9.502488e-01 4.975124e-02 0.000000e+00 0.000000e+00
 0.000000e+00 0.000000e+00 9.421965e-01 5.780346e-02 0.000000e+00
 0.000000e+00 0.000000e+00 0.000000e+00 9.647887e-01 3.521127e-02
 0.000000e+00 0.000000e+00 0.000000e+00 0.000000e+00 0.000000e+00
<ENDHMM>
