~o
<STREAMINFO> 1 39
<VECSIZE> 39<NULLD><MFCC_E_D_A><DIAGC>
~h "soixante"
<BEGINHMM>
<NUMSTATES> 9
<STATE> 2
<MEAN> 39
 -1.474348e+01 -3.530531e+00 5.073044e+00 -1.171497e+01 4.813612e+00 9.255096e-02 -3.458115e+00 -4.882361e-01 2.478967e-01 -2.667741e+00 6.380780e-01 -1.932959e-01 5.490189e-01 3.081773e-01 -8.390485e-02 9.396702e-02 8.508958e-02 -1.509131e-01 2.258064e-01 1.939867e-01 -1.166679e-01 1.550867e-01 -1.845340e-01 -2.230608e-01 9.766197e-02 1.689710e-02 2.082984e-01 5.307167e-02 5.401344e-03 1.353345e-01 -1.224939e-01 2.322452e-02 1.751779e-01 5.762754e-02 2.692968e-02 1.743032e-03 -1.770979e-02 -2.296571e-02 1.897671e-03
<VARIANCE> 39
 2.144058e+01 9.619528e+00 7.246334e+01 7.325887e+01 4.116695e+01 3.061452e+01 3.971967e+01 3.628081e+01 1.987515e+01 1.860155e+01 1.549510e+01 1.560403e+01 1.066567e-02 1.491960e+00 1.012450e+00 1.636896e+00 1.657439e+00 2.015007e+00 1.339606e+00 2.299157e+00 2.275028e+00 1.741609e+00 1.518324e+00 1.430055e+00 1.136967e+00 1.000000e-02 1.453925e-01 1.757061e-01 2.978342e-01 2.566095e-01 3.115001e-01 2.063139e-01 4.380788e-01 3.929138e-01 3.188654e-01 2.172315e-01 2.716052e-01 2.356574e-01 1.000000e-02
<GCONST> 8.700040e+01
<STATE> 3
<MEAN> 39
 2.038604e+00 -4.506777e+00 1.369777e+01 -1.020051e+01 -7.980968e+00 7.210163e+00 3.612202e+00 2.426182e+00 3.524496e+00 -2.574204e+00 -3.886704e+00 -3.409022e-01 7.352188e-01 1.878313e+00 6.383032e-01 1.698010e-01 4.311185e-01 -6.215112e-01 2.580723e-01 8.903155e-01 9.328955e-01 -2.402604e-01 -3.857974e-01 2.593968e-01 -3.285009e-01 3.977370e-02 -2.262358e-01 -8.538131e-02 -7.688197e-02 -3.170877e-01 2.449355e-01 -1.373201e-01 -1.687284e-01 -8.595640e-02 -1.942471e-01 -1.108859e-01 -1.805921e-02 5.006415e-02 -5.630797e-03
<VARIANCE> 39
 1.002117e+02 5.739933e+01 9.192248e+01 8.769207e+01 1.342506e+02 3.608427e+01 2.763942e+01 2.766185e+01 4.306883e+01 4.140985e+01 2.355427e+01 2.270234e+01 6.086829e-02 4.658921e+00 5.587667e+00 5.078554e+00 4.712160e+00 8.715940e+00 3.849651e+00 2.852827e+00 2.587076e+00 5.816023e+00 3.776003e+00 1.997330e+00 1.671319e+00 1.000000e-02 6.705542e-01 9.384383e-01 8.923423e-01 7.024994e-01 1.154557e+00 9.818148e-01 2.450764e-01 3.872831e-01 7.848819e-01 6.733124e-01 4.645463e-01 2.844206e-01 1.000000e-02
<GCONST> 1.166327e+02
<STATE> 4
<MEAN> 39
 1.896849e+00 4.465713e-01 5.102652e+00 -4.510978e+00 2.019466e-01 3.935046e+00 6.180659e+00 2.593299e+00 -3.292819e+00 -8.380310e+00 1.492274e+00 -8.840125e-01 9.446191e-01 -9.289753e-01 -1.993807e-01 -3.021329e-01 -1.436699e-01 9.669232e-01 -6.626992e-01 -4.157180e-01 -6.183662e-01 -6.586570e-01 5.160468e-01 5.597270e-01 1.018980e-01 -1.300299e-02 -6.816102e-01 -7.307670e-02 -1.898139e-01 -9.232546e-02 1.999114e-01 -3.411559e-01 -2.302362e-01 -2.068332e-01 2.265696e-01 3.677832e-01 -9.999206e-02 -6.019251e-02 -1.368790e-02
<VARIANCE> 39
 9.886348e+00 1.283122e+01 2.048119e+01 1.712530e+01 2.074311e+01 1.141529e+01 1.163471e+01 1.760867e+01 3.088748e+01 2.178003e+01 2.248288e+01 1.012806e+01 1.000000e-02 3.081655e+00 7.822650e-01 1.504792e+00 1.398121e+00 2.682619e+00 2.427400e+00 1.084810e+00 1.517857e+00 2.923052e+00 3.648479e+00 2.218395e+00 8.043926e-01 1.000000e-02 1.782483e-01 2.088391e-01 2.749263e-01 2.595836e-01 2.911705e-01 1.922181e-01 2.168696e-01 4.106630e-01 4.548697e-01 4.616039e-01 5.705152e-01 1.582173e-01 1.000000e-02
<GCONST> 8.303790e+01
<STATE> 5
<MEAN> 39
 -1.298310e+01 -2.740550e+00 2.616399e+00 -1.049359e+01 7.244269e+00 -5.504237e+00 2.064753e+00 -9.523733e-01 -1.635682e+00 -6.789921e-01 2.639042e-01 -9.204365e-01 6.360559e-01 8.347066e-02 1.082729e-01 -7.505493e-02 -7.727614e-02 -2.742530e-01 -1.298404e-01 -9.101356e-02 4.979862e-02 1.281794e-01 -5.444337e-02 -1.485982e-01 -4.137040e-02 -4.754535e-03 4.727410e-01 1.341854e-01 8.589780e-02 8.120777e-02 -3.173996e-01 1.904018e-01 2.596888e-02 7.346513e-02 -5.349604e-03 -1.824337e-01 2.295993e-02 -1.180865e-02 9.207043e-03
<VARIANCE> 39
 2.444884e+01 3.288639e+01 6.161128e+01 6.535784e+01 2.355167e+01 2.487866e+01 2.200289e+01 2.997223e+01 2.010299e+01 1.625529e+01 2.576448e+01 1.018333e+01 1.298759e-02 5.609452e+00 1.460930e+00 1.247497e+00 1.664401e+00 3.044295e+00 2.884053e+00 2.083864e+00 1.618914e+00 1.791473e+00 2.004402e+00 1.654082e+00 1.228777e+00 1.000000e-02 1.711504e-01 2.475982e-01 1.529820e-01 2.696637e-01 3.698724e-01 3.321040e-01 4.051026e-01 2.845711e-01 3.583509e-01 3.698995e-01 2.944385e-01 2.504576e-01 1.000000e-02
<GCONST> 9.031297e+01
<STATE> 6
<MEAN> 39
 4.198952e+00 1.437903e+00 6.221374e+00 -6.312799e+00 -6.314260e+00 -2.546163e+00 -1.645232e-01 2.953102e+00 -9.371668e-01 -3.925266e+00 1.650546e+00 -3.502934e+00 8.344913e-01 -7.892945e-02 1.299615e-01 2.789444e-02 4.994520e-01 -1.693341e-01 1.356804e-02 1.452345e-01 1.115497e-01 2.243171e-01 2.155149e-01 1.256538e-01 -2.864348e-02 -4.063076e-03 -3.534400e-01 -1.877782e-01 -1.009192e-01 5.172053e-02 2.825067e-01 5.742144e-03 8.868625e-02 -2.655381e-02 -2.630431e-02 1.050664e-01 2.095685e-02 5.623357e-02 -8.668535e-03
<VARIANCE> 39
 3.918419e+01 3.837132e+01 2.951696e+01 4.602322e+01 3.827411e+01 4.104771e+01 5.240662e+01 5.008831e+01 5.482367e+01 2.381779e+01 2.818891e+01 1.578148e+01 1.303812e-02 2.512400e+00 1.630370e+00 1.144326e+00 1.951982e+00 2.993497e+00 1.911123e+00 2.557347e+00 1.862258e+00 2.031360e+00 1.615048e+00 1.642422e+00 1.101903e+00 1.000000e-02 1.807928e-01 2.406816e-01 1.820221e-01 2.650274e-01 2.813912e-01 3.243867e-01 2.875963e-01 2.844507e-01 3.169885e-01 2.675990e-01 2.825870e-01 1.705367e-01 1.000000e-02
<GCONST> 9.189803e+01
<STATE> 7
<MEAN> 39
 -9.306354e+00 -1.508058e+00 2.821531e-01 -3.297989e+00 1.742933e+00 -2.446304e+00 1.139054e+00 -5.673297e-01 7.461346e-01 -1.943971e-01 1.331802e+00 -6.021218e-01 5.067949e-01 -2.610810e-01 -1.997315e-01 -1.185636e-01 -9.287557e-02 6.828295e-02 9.351151e-02 -1.418122e-02 -1.816481e-01 -1.234399e-01 -4.629619e-02 -9.941052e-02 6.324825e-02 -1.468847e-02 8.093480e-02 5.379991e-02 7.853313e-02 -6.302640e-02 -7.870515e-02 -4.263781e-02 -7.122044e-02 -1.693858e-02 -7.311015e-03 -5.299048e-02 3.546207e-03 -6.497236e-03 3.079619e-03
<VARIANCE> 39
 7.001012e+00 7.126884e+00 7.679617e+00 1.295958e+01 1.180281e+01 1.270397e+01 1.448507e+01 1.608324e+01 1.508471e+01 1.081257e+01 1.096123e+01 7.502418e+00 2.471490e-02 7.820738e-01 6.291335e-01 7.768989e-01 1.035835e+00 1.299704e+00 1.146126e+00 1.531282e+00 1.347656e+00 1.375416e+00 1.250425e+00 1.163835e+00 7.109407e-01 1.000000e-02 1.226933e-01 9.704097e-02 1.189189e-01 2.052102e-01 2.448263e-01 2.231847e-01 3.314683e-01 2.694524e-01 2.706388e-01 2.551575e-01 2.163592e-01 1.335808e-01 1.000000e-02
<GCONST> 6.810836e+01
<STATE> 8
<MEAN> 39
 -9.404215e+00 -5.049470e+00 9.385427e+00 -1.076153e+01 2.852906e+00 -9.912474e-01 -2.508214e+00 -5.512245e-01 7.069588e-02 -6.429112e-01 -9.063195e-02 7.575473e-01 3.852487e-01 1.686756e-02 -5.782365e-02 4.530428e-01 -5.510778e-01 6.127419e-02 -5.360667e-02 -7.734143e-01 5.601346e-02 2.165451e-01 5.455381e-02 -3.571597e-02 -1.334757e-02 4.493199e-03 1.047610e-01 4.167389e-02 -5.766804e-02 1.881012e-01 -5.939874e-02 5.569264e-02 -1.442672e-02 4.281351e-02 1.105216e-02 7.861621e-02 4.576245e-02 -1.029948e-01 -1.563782e-03
<VARIANCE> 39
 6.398931e+01 2.459426e+01 5.590379e+01 4.241056e+01 8.039911e+01 9.007719e+01 2.688115e+01 1.835723e+01 1.994248e+01 2.306546e+01 2.299223e+01 1.354744e+01 5.588862e-02 7.281614e-01 2.374511e+00 2.728363e+00 4.854209e+00 5.254122e+00 4.939420e+00 2.255977e+00 1.098718e+00 2.546999e+00 1.751031e+00 1.710893e+00 1.718542e+00 1.000000e-02 7.640029e-02 3.427931e-01 3.736248e-01 7.792376e-01 7.006272e-01 7.261193e-01 4.287266e-01 1.219019e-01 4.390974e-01 3.082297e-01 2.899688e-01 1.980728e-01 1.000000e-02
<GCONST> 9.818443e+01
<TRANSP> 9
 0.000000e+00 1.000000e+00 0.000000e+00 0.000000e+00 0.000000e+00 0.000000e+00 0.000000e+00 0.000000e+00 0.000000e+00
 0.000000e+00 9.371069e-01 6.289309e-02 0.000000e+00 0.000000e+00 0.000000e+00 0.000000e+00 0.000000e+00 0.000000e+00
 0.000000e+00 0.000000e+00 8.305085e-01 1.694915e-01 0.000000e+00 0.000000e+00 0.000000e+00 0.000000e+00 0.000000e+00
 0.000000e+00 0.000000e+00 0.000000e+00 8.571429e-01 1.428571e-01 0.000000e+00 0.000000e+00 0.000000e+00 0.000000e+00
 0.000000e+00 0.000000e+00 0.000000e+00 0.000000e+00 9.354839e-01 6.451613e-02 0.000000e+00 0.000000e+00 0.000000e+00
 0.000000e+00 0.000000e+00 0.000000e+00 0.000000e+00 0.000000e+00 9.350649e-01 6.493506e-02 0.000000e+00 0.000000e+00
 0.000000e+00 0.000000e+00 0.000000e+00 0.000000e+00 0.000000e+00 0.000000e+00 9.497488e-01 5.025125e-02 0.000000e+00
 0.000000e+00 0.000000e+00 0.000000e+00 0.000000e+00 0.000000e+00 0.000000e+00 0.000000e+00 8.387097e-01 1.612903e-01
 0.000000e+00 0.000000e+00 0.000000e+00 0.000000e+00 0.000000e+00 0.000000e+00 0.000000e+00 0.000000e+00 0.000000e+00
<ENDHMM>
