~o
<STREAMINFO> 1 39
<VECSIZE> 39<NULLD><MFCC_E_D_A><DIAGC>
~h "sur"
<BEGINHMM>
<NUMSTATES> 5
<STATE> 2
<MEAN> 39
 -1.548593e+01 -3.799606e+00 6.300964e+00 -6.306463e+00 1.227868e-01 8.903784e-01 -2.207746e+00 -2.252765e+00 2.187135e+00 -1.405820e+00 7.894383e-01 -7.398060e-01 6.172214e-01 7.291923e-02 -2.902682e-01 2.164425e-01 5.545501e-01 5.307967e-02 -3.586726e-02 2.579619e-01 -6.296251e-02 7.157766e-02 1.819014e-01 -3.498282e-02 -2.136094e-02 1.365115e-02 1.322436e-01 -5.620040e-03 -5.906126e-02 1.515275e-01 6.470658e-02 2.511528e-02 2.934897e-02 9.457111e-03 2.908281e-02 6.764299e-02 6.091930e-02 3.746579e-02 1.544845e-03
<VARIANCE> 39
 1.904592e+01 1.616249e+01 3.252821e+01 4.912942e+01 3.152043e+01 3.119886e+01 4.337681e+01 1.985732e+01 1.896103e+01 1.966913e+01 2.177114e+01 1.334931e+01 1.655796e-02 1.163139e+00 6.799412e-01 7.887667e-01 2.670726e+00 2.093366e+00 1.856810e+00 1.601706e+00 1.357932e+00 1.430863e+00 1.532460e+00 1.636953e+00 9.444849e-01 1.000000e-02 1.181833e-01 1.075560e-01 1.211081e-01 2.532906e-01 3.297572e-01 3.391842e-01 2.905528e-01 2.533327e-01 2.669477e-01 3.146407e-01 2.955049e-01 1.755064e-01 1.000000e-02
<GCONST> 8.249569e+01
<STATE> 3
<MEAN> 39
 -8.146861e-01 -9.809801e+00 4.758056e+00 9.527720e+00 5.595513e+00 5.220577e+00 2.418965e+00 -3.039377e+00 5.067595e+00 1.514932e+00 1.661665e+00 2.330208e+00 9.482860e-01 9.090294e-01 4.300912e-01 -2.945397e-01 -2.738140e-01 -1.971403e-01 3.767202e-01 5.000344e-01 2.318930e-01 -1.744448e-01 -5.568827e-01 -2.649669e-01 2.768166e-01 1.276231e-02 -2.097466e-01 1.163329e-01 4.905661e-02 -3.781889e-01 -3.266382e-01 -1.888137e-01 2.918543e-02 6.583519e-02 -5.451022e-02 -8.909584e-02 -1.386056e-01 -1.176775e-01 -6.339669e-03
<VARIANCE> 39
 2.190277e+01 4.090046e+01 2.278950e+01 2.039731e+01 2.508716e+01 4.178512e+01 2.770187e+01 1.660137e+01 3.208269e+01 2.971940e+01 1.617914e+01 1.195744e+01 1.000000e-02 1.163697e+00 1.350558e+00 6.171771e-01 4.026836e+00 3.037898e+00 1.331069e+00 2.045733e+00 1.816785e+00 2.460625e+00 2.743337e+00 1.636836e+00 8.733062e-01 1.000000e-02 1.079681e-01 1.405790e-01 8.499864e-02 3.151855e-01 1.979398e-01 2.473931e-01 2.876317e-01 2.703190e-01 3.314141e-01 4.038284e-01 2.521931e-01 1.645732e-01 1.000000e-02
<GCONST> 8.378009e+01
<STATE> 4
<MEAN> 39
 -5.202387e+00 -7.964404e-01 2.072024e+00 -4.395495e+00 -5.827824e+00 -2.296812e+00 3.762242e+00 -5.139018e-01 1.280078e+00 -1.169377e+00 -1.369551e+00 -3.719754e-01 6.048272e-01 -5.369554e-01 1.664006e-01 -1.353960e-01 -2.741400e-01 -2.213286e-01 -5.367698e-01 -4.695258e-01 -1.584447e-01 9.509867e-02 2.968052e-01 1.618669e-01 -1.999211e-01 -2.587671e-02 7.295292e-03 -7.851143e-02 -7.139239e-03 1.108535e-01 1.458939e-01 9.448830e-02 -4.460726e-02 -5.106035e-02 2.628958e-02 -8.297286e-04 6.746701e-02 3.754108e-02 4.966488e-04
<VARIANCE> 39
 3.215675e+01 2.731001e+01 2.969363e+01 1.538653e+01 3.454970e+01 2.524232e+01 3.657524e+01 1.974363e+01 2.271848e+01 2.039266e+01 1.754613e+01 1.436124e+01 3.289610e-02 6.541153e-01 1.263560e+00 6.954257e-01 1.408644e+00 2.433654e+00 1.867574e+00 1.815208e+00 1.401761e+00 1.366735e+00 1.780574e+00 1.528406e+00 1.392888e+00 1.000000e-02 1.035924e-01 1.686368e-01 1.225750e-01 1.847558e-01 2.903232e-01 2.509632e-01 3.662025e-01 2.793610e-01 2.455527e-01 3.864424e-01 2.946913e-01 2.445049e-01 1.000000e-02
<GCONST> 8.313795e+01
<TRANSP> 5
 0.000000e+00 1.000000e+00 0.000000e+00 0.000000e+00 0.000000e+00
 0.000000e+00 9.553571e-01 4.464285e-02 0.000000e+00 0.000000e+00
 0.000000e+00 0.000000e+00 9.275362e-01 7.246377e-02 0.000000e+00
 0.000000e+00 0.000000e+00 0.000000e+00 9.484536e-01 5.154639e-02
 0.000000e+00 0.000000e+00 0.000000e+00 0.000000e+00 0.000000e+00
<ENDHMM>
