~o
<STREAMINFO> 1 39
<VECSIZE> 39<NULLD><MFCC_E_D_A><DIAGC>
~h "treize"
<BEGINHMM>
<NUMSTATES> 7
<STATE> 2
<MEAN> 39
 -8.070945e+00 -5.820949e+00 -6.836936e-01 -1.110992e+01 3.597672e+00 1.735393e+00 3.259012e+00 -3.179841e+00 -2.339158e+00 -1.090877e+00 1.050694e+00 -8.405684e-01 5.682811e-01 2.518951e-01 -1.370500e-01 1.257614e-01 -1.184137e-01 1.423893e-02 2.675619e-01 2.143760e-01 -3.015589e-01 -2.637462e-01 1.361258e-02 3.235292e-01 1.321175e-01 1.909331e-02 1.760743e-01 6.640916e-02 8.427460e-02 1.712553e-01 -4.732011e-02 -8.117579e-02 -1.086948e-01 -2.749486e-02 -4.787648e-02 -3.976408e-02 5.910590e-02 -1.401066e-02 2.337759e-03
<VARIANCE> 39
 1.131616e+01 3.621701e+01 2.489394e+01 7.646404e+01 4.570499e+01 2.974369e+01 1.755412e+01 2.248529e+01 2.618001e+01 2.695753e+01 1.915979e+01 1.384813e+01 3.216586e-02 1.009278e+00 1.143738e+00 1.230431e+00 3.351655e+00 1.818854e+00 1.801679e+00 1.492871e+00 1.521453e+00 1.822476e+00 2.148442e+00 1.264924e+00 9.942541e-01 1.000000e-02 2.032936e-01 2.008237e-01 1.977590e-01 4.576160e-01 2.734047e-01 2.814984e-01 2.592768e-01 3.143356e-01 3.309992e-01 3.806114e-01 2.335667e-01 1.956424e-01 1.000000e-02
<GCONST> 8.726244e+01
<STATE> 3
<MEAN> 39
 2.627113e+00 -6.874290e+00 5.671044e+00 -3.376548e+00 1.853855e+00 2.175892e+00 2.911122e-01 -6.110696e+00 -6.013422e+00 -3.873502e+00 6.587970e+00 3.515662e-02 8.833357e-01 1.725260e+00 -2.056469e-01 9.540114e-01 1.755089e+00 -3.863353e-02 2.179420e-01 -1.209766e+00 -2.462607e-01 -1.122338e-01 -7.952383e-01 6.584880e-01 -4.714190e-01 6.123123e-02 -5.672243e-01 -1.227601e-01 -2.776201e-01 -3.584454e-01 1.742073e-01 1.739008e-01 2.099540e-02 -4.242099e-02 1.243682e-01 1.939583e-01 -1.906124e-01 -2.623161e-01 -1.484324e-02
<VARIANCE> 39
 2.393837e+01 5.053904e+01 4.729132e+01 4.758060e+01 3.358324e+01 2.624592e+01 2.904310e+01 2.776830e+01 3.091554e+01 2.361609e+01 1.137192e+01 6.771780e+00 1.431006e-02 2.659489e+00 1.076905e+00 1.615962e+00 2.002404e+00 1.177838e+00 1.074603e+00 1.483159e+00 3.175355e+00 2.270293e+00 1.463257e+00 1.262480e+00 1.183277e+00 1.000000e-02 2.777639e-01 2.271981e-01 1.856406e-01 1.939690e-01 2.025740e-01 1.911315e-01 1.778367e-01 4.495781e-01 2.102820e-01 2.097097e-01 1.023283e-01 1.206413e-01 1.000000e-02
<GCONST> 8.368149e+01
<STATE> 4
<MEAN> 39
 2.922991e+00 -7.544760e+00 7.572572e+00 3.451679e+00 6.396941e+00 3.591128e+00 -2.852334e+00 -4.769144e+00 -3.871996e+00 -1.924991e+00 8.168720e+00 -3.881455e+00 9.323891e-01 -3.370275e-01 1.995631e-01 -7.952639e-02 3.025142e-01 5.873584e-01 8.546918e-02 2.575122e-01 4.360951e-01 1.458366e-01 5.913842e-01 2.148891e-01 -1.036504e-01 -8.909028e-03 -6.801647e-02 8.563472e-02 -5.560927e-02 -1.155659e-01 -1.254890e-02 -5.179897e-02 1.509209e-01 5.573383e-02 -3.487303e-02 5.631092e-02 -4.112527e-02 1.194271e-01 -2.593474e-03
<VARIANCE> 39
 2.278279e+01 4.804514e+01 4.877474e+01 4.068004e+01 2.277604e+01 4.472915e+01 3.973962e+01 2.449236e+01 4.083544e+01 1.809217e+01 1.766459e+01 1.992606e+01 1.000000e-02 2.113223e-01 3.276353e-01 4.020628e-01 4.020211e-01 4.372785e-01 5.724632e-01 8.914273e-01 4.335479e-01 4.503319e-01 5.980560e-01 7.568988e-01 6.065689e-01 1.000000e-02 2.703490e-02 5.029782e-02 4.361375e-02 5.948415e-02 6.936723e-02 1.005203e-01 8.471990e-02 6.672526e-02 1.008304e-01 1.013269e-01 1.335565e-01 7.548717e-02 1.000000e-02
<GCONST> 5.793296e+01
<STATE> 5
<MEAN> 39
 -6.301242e+00 -1.513878e+00 8.698198e+00 -7.347091e+00 2.071513e+01 1.105934e+00 5.097143e+00 1.779878e+00 -7.042434e+00 3.900576e+00 4.991292e+00 2.706224e+00 6.406680e-01 -9.670406e-01 5.444612e-01 -9.211602e-02 -7.549343e-01 4.183108e-01 -1.615396e-01 3.766758e-01 4.256198e-02 2.495440e-01 -6.779639e-02 -6.332836e-01 4.830375e-01 -2.891639e-02 3.150710e-02 -1.228133e-01 -3.978866e-02 3.782719e-02 -1.074083e-01 7.516768e-02 -1.192793e-01 -8.915497e-02 7.048254e-02 -1.686015e-01 -1.659283e-02 -6.272033e-02 -4.914630e-04
<VARIANCE> 39
 4.781636e+01 2.998961e+01 4.869342e+01 1.168517e+02 1.294151e+02 3.643388e+01 2.349139e+01 1.924779e+01 4.948119e+01 1.911905e+01 2.957359e+01 3.657152e+01 4.683265e-02 1.027181e+00 1.059875e+00 1.193254e+00 1.460153e+00 3.553086e+00 4.084323e+00 1.577063e+00 1.345998e+00 2.416322e+00 1.833415e+00 1.639244e+00 1.568941e+00 1.000000e-02 9.793603e-02 7.814460e-02 2.286644e-01 1.816842e-01 5.571408e-01 6.087485e-01 2.395944e-01 2.557937e-01 3.849848e-01 3.526649e-01 2.449005e-01 2.639776e-01 1.000000e-02
<GCONST> 9.356956e+01
<STATE> 6
<MEAN> 39
 -1.066775e+01 1.083623e-01 6.037102e-02 -2.246413e+00 5.055343e+00 -2.004371e+00 3.053667e+00 -2.245012e+00 8.341372e-01 -1.126912e+00 2.111099e+00 1.544323e-01 5.401910e-01 -6.180532e-02 -1.437945e-01 -1.434438e-01 -1.007542e-01 -3.414023e-01 -1.212091e-01 -3.115678e-01 -3.982488e-02 -7.461590e-02 -1.815950e-01 -1.947386e-01 -9.337216e-02 -1.191559e-02 1.715616e-02 2.108412e-03 3.996967e-02 4.631997e-02 2.443843e-02 3.808050e-03 -2.071230e-02 1.197597e-02 -3.103922e-02 3.307310e-02 3.756213e-02 -2.779964e-02 6.296370e-04
<VARIANCE> 39
 7.936844e+00 8.940015e+00 9.294521e+00 1.372375e+01 2.806583e+01 1.771031e+01 1.897842e+01 1.316955e+01 1.520247e+01 1.419921e+01 1.221672e+01 9.162601e+00 2.995722e-02 5.767244e-01 2.963369e-01 6.328502e-01 7.405365e-01 9.642364e-01 1.133909e+00 1.685175e+00 1.267466e+00 1.216030e+00 1.214474e+00 1.344126e+00 7.392657e-01 1.000000e-02 7.760679e-02 4.648681e-02 8.712868e-02 1.367036e-01 1.466342e-01 2.076127e-01 3.557632e-01 2.476736e-01 2.768998e-01 2.268987e-01 2.615886e-01 1.419262e-01 1.000000e-02
<GCONST> 6.656232e+01
<TRANSP> 7
 0.000000e+00 1.000000e+00 0.000000e+00 0.000000e+00 0.000000e+00 0.000000e+00 0.000000e+00
 0.000000e+00 9.350649e-01 6.493506e-02 0.000000e+00 0.000000e+00 0.000000e+00 0.000000e+00
 0.000000e+00 0.000000e+00 7.916667e-01 2.083333e-01 0.000000e+00 0.000000e+00 0.000000e+00
 0.000000e+00 0.000000e+00 0.000000e+00 9.253731e-01 7.462687e-02 0.000000e+00 0.000000e+00
 0.000000e+00 0.000000e+00 0.000000e+00 0.000000e+00 8.947368e-01 1.052632e-01 0.000000e+00
 0.000000e+00 0.000000e+00 0.000000e+00 0.000000e+00 0.000000e+00 9.479167e-01 5.208333e-02
 0.000000e+00 0.000000e+00 0.000000e+00 0.000000e+00 0.000000e+00 0.000000e+00 0.000000e+00
<ENDHMM>
