~o
<STREAMINFO> 1 39
<VECSIZE> 39<NULLD><MFCC_E_D_A><DIAGC>
~h "trente"
<BEGINHMM>
<NUMSTATES> 8
<STATE> 2
<MEAN> 39
 -7.528932e+00 -4.308939e+00 2.470472e+00 -1.264889e+01 -2.023710e+00 -2.115749e+00 3.798019e+00 -3.387608e-01 -9.822407e-02 -2.130923e+00 -6.151752e-01 -1.091684e+00 5.962716e-01 2.386819e-01 3.418587e-01 -3.505092e-02 -5.850841e-01 -7.535659e-01 -3.046124e-01 2.331227e-01 4.019136e-02 3.302396e-02 -2.113316e-01 -1.058865e-01 9.286924e-02 1.211249e-02 1.366539e-01 5.132896e-02 1.149111e-01 1.290378e-01 -4.370281e-02 -1.327557e-01 -1.065670e-01 2.945767e-02 1.775521e-01 7.411907e-02 -1.157112e-02 4.316680e-02 3.159287e-03
<VARIANCE> 39
 1.887019e+01 3.227848e+01 3.129823e+01 8.183506e+01 6.617327e+01 1.823870e+01 2.545489e+01 1.999669e+01 1.901681e+01 2.325844e+01 1.711646e+01 1.242101e+01 2.297634e-02 9.934459e-01 1.006377e+00 1.230184e+00 1.825713e+00 1.899901e+00 1.824883e+00 2.773147e+00 1.781395e+00 2.104862e+00 1.155683e+00 1.267630e+00 1.244246e+00 1.000000e-02 2.083924e-01 1.825135e-01 1.733120e-01 3.506036e-01 3.622744e-01 1.940889e-01 4.557794e-01 2.540335e-01 3.105828e-01 1.780919e-01 1.856573e-01 2.349481e-01 1.000000e-02
<GCONST> 8.581993e+01
<STATE> 3
<MEAN> 39
 1.281074e+00 1.263139e+00 7.624227e+00 -1.056805e+01 -1.051165e+01 -7.672300e+00 3.201668e-01 -5.076414e-01 4.451202e+00 -1.940306e+00 -2.548119e+00 1.525537e+00 8.324364e-01 1.873029e+00 9.157314e-01 6.035635e-01 1.142607e+00 -4.308722e-01 -3.594621e-01 -1.157625e+00 -7.999179e-01 3.509987e-01 -7.192608e-02 -4.598727e-01 3.511130e-01 5.637437e-02 -1.689528e-01 -2.067454e-01 -1.182260e-01 -1.758277e-01 5.415948e-02 2.481763e-01 5.828742e-02 -6.050339e-02 -2.257128e-01 -8.652326e-02 9.865325e-02 -1.855964e-01 -6.139844e-03
<VARIANCE> 39
 4.965172e+01 3.660210e+01 2.758354e+01 3.508619e+01 6.361977e+01 1.191517e+01 2.090587e+01 6.423098e+01 3.270949e+01 4.215978e+01 1.770131e+01 3.081796e+01 3.318495e-02 2.216887e+00 2.273271e+00 1.425844e+00 2.207650e+00 1.501161e+00 1.707404e+00 1.557963e+00 1.857455e+00 2.438040e+00 2.751655e+00 1.485801e+00 1.204195e+00 1.000000e-02 5.145527e-01 4.088437e-01 2.681285e-01 2.185227e-01 2.517247e-01 1.674816e-01 2.297969e-01 3.454553e-01 4.160530e-01 4.147206e-01 3.101019e-01 1.351263e-01 1.000000e-02
<GCONST> 9.303322e+01
<STATE> 4
<MEAN> 39
 5.062113e+00 3.666104e+00 5.683582e+00 -4.882255e+00 -8.531183e+00 -7.440738e+00 -4.208957e+00 -3.629247e+00 3.496249e+00 -2.888923e+00 -1.346931e+00 3.732979e-01 9.377488e-01 -5.186959e-01 -3.033853e-01 -6.132132e-01 5.010967e-01 9.715803e-01 4.484071e-01 4.899191e-01 7.863227e-01 -5.493425e-01 -1.996267e-02 5.371339e-01 -5.474635e-01 -1.815485e-02 -2.608559e-01 -1.236512e-01 -7.215901e-02 5.185867e-02 1.967493e-01 9.638364e-02 2.858121e-01 1.694058e-01 7.721174e-03 9.171128e-02 5.566684e-02 -6.561068e-03 -6.516161e-03
<VARIANCE> 39
 1.943234e+01 3.481010e+01 1.963096e+01 9.485802e+00 4.162415e+01 2.648796e+01 2.076375e+01 3.056771e+01 3.781077e+01 3.400648e+01 1.757892e+01 2.336771e+01 1.000000e-02 7.612510e-01 4.773499e-01 6.304252e-01 5.094106e-01 1.034651e+00 1.393161e+00 1.361872e+00 1.238950e+00 1.283143e+00 1.006737e+00 9.807766e-01 8.454256e-01 1.000000e-02 8.648796e-02 6.773120e-02 8.103202e-02 8.652426e-02 1.768378e-01 2.341573e-01 1.847445e-01 1.677427e-01 2.566016e-01 1.946311e-01 1.468747e-01 1.440639e-01 1.000000e-02
<GCONST> 7.143935e+01
<STATE> 5
<MEAN> 39
 2.246783e+00 -2.448353e+00 4.848827e+00 -1.023112e+00 -4.171564e+00 -8.543804e-01 8.332627e+00 7.467334e+00 -2.899806e+00 3.733652e-01 2.417945e+00 -3.861991e+00 7.070519e-01 -1.106356e+00 -1.423151e-01 -1.064979e-01 3.696084e-01 2.296077e-01 4.367862e-02 4.434822e-01 8.552375e-02 2.423114e-01 3.387316e-01 3.560439e-02 1.591446e-01 -4.102650e-02 -1.057955e-03 5.642212e-02 -5.239994e-02 -2.093477e-01 -1.234735e-01 -1.393335e-01 -3.248393e-01 -3.341274e-01 1.030332e-02 -9.230629e-02 -1.718582e-01 9.691900e-02 -3.574977e-03
<VARIANCE> 39
 4.990327e+01 3.615131e+01 3.835691e+01 3.976598e+01 4.196282e+01 3.117150e+01 6.062112e+01 2.958842e+01 7.756439e+01 1.942623e+01 9.678752e+00 2.061537e+01 3.984167e-02 8.243868e-01 2.399803e+00 1.477884e+00 1.951852e+00 1.432203e+00 1.331494e+00 4.271279e+00 2.153783e+00 2.155132e+00 2.053316e+00 1.147842e+00 1.639594e+00 1.000000e-02 1.423493e-01 2.755110e-01 1.873765e-01 2.977558e-01 3.268638e-01 1.825189e-01 4.647217e-01 3.319590e-01 3.925387e-01 3.587665e-01 2.436533e-01 2.692427e-01 1.000000e-02
<GCONST> 9.258250e+01
<STATE> 6
<MEAN> 39
 -9.892494e+00 -2.277309e+00 1.764900e-01 -5.078739e+00 1.390411e+00 -2.585837e+00 1.112543e+00 -6.126308e-01 2.679783e-01 -1.456377e+00 1.464581e+00 -1.284742e+00 5.085639e-01 -1.060880e-01 -6.333330e-02 -5.731460e-02 -1.251063e-01 1.482560e-02 4.550486e-02 -7.466072e-02 -7.686682e-02 -5.092766e-02 -4.949425e-02 -3.411039e-02 -1.109115e-02 -7.379328e-03 6.124379e-02 2.747808e-02 4.000611e-02 3.318331e-02 4.747879e-03 2.719134e-04 2.024021e-02 3.614426e-02 4.366808e-02 1.304239e-02 8.516391e-03 7.969376e-03 3.002716e-03
<VARIANCE> 39
 9.397336e+00 7.338577e+00 9.860530e+00 1.654127e+01 1.317565e+01 1.048580e+01 1.308243e+01 1.459406e+01 1.414722e+01 1.197196e+01 1.183812e+01 1.022428e+01 1.327092e-02 7.223705e-01 6.668813e-01 7.479902e-01 1.258607e+00 1.154267e+00 9.778288e-01 1.214112e+00 1.392863e+00 1.235797e+00 1.329668e+00 1.106169e+00 1.035110e+00 1.000000e-02 1.160708e-01 1.308852e-01 1.250910e-01 2.066730e-01 1.958516e-01 2.201514e-01 2.227735e-01 2.454507e-01 2.386034e-01 2.813911e-01 2.128492e-01 2.111420e-01 1.000000e-02
<GCONST> 6.837308e+01
<STATE> 7
<MEAN> 39
 -5.693903e+00 -3.522892e+00 1.131016e+01 -6.873441e+00 2.184649e+00 -2.331577e+00 -3.352841e+00 -6.218518e-02 -1.345873e+00 1.337461e+00 -2.378036e+00 -1.361871e+00 3.144651e-01 2.228267e-01 -1.949794e-01 5.476658e-01 -6.395021e-02 9.162420e-01 4.804475e-01 -4.520697e-01 -4.263259e-01 6.118127e-02 -1.527757e-01 -9.232280e-02 4.863957e-01 1.874664e-02 7.207864e-02 -2.179071e-02 -5.295082e-02 2.786475e-02 -1.191299e-01 6.009429e-02 1.354633e-01 9.715964e-02 3.500823e-02 -3.864354e-02 8.657564e-02 2.158109e-02 3.759571e-04
<VARIANCE> 39
 4.705040e+01 6.516519e+01 1.131907e+02 8.494785e+01 9.549276e+01 1.052621e+02 2.498280e+01 3.195690e+01 2.466533e+01 2.068605e+01 1.224806e+01 1.914078e+01 3.065127e-02 2.831063e+00 6.159421e+00 8.444325e+00 4.028330e+00 4.137204e+00 8.321321e+00 2.619452e+00 1.772325e+00 1.896918e+00 1.643759e+00 1.157801e+00 1.395780e+00 1.000000e-02 3.255095e-01 1.019724e+00 1.640621e+00 5.966097e-01 5.043260e-01 1.357355e+00 2.735619e-01 3.520861e-01 4.151808e-01 2.492010e-01 1.522438e-01 1.745475e-01 1.000000e-02
<GCONST> 1.071082e+02
<TRANSP> 8
 0.000000e+00 1.000000e+00 0.000000e+00 0.000000e+00 0.000000e+00 0.000000e+00 0.000000e+00 0.000000e+00
 0.000000e+00 9.180328e-01 8.196721e-02 0.000000e+00 0.000000e+00 0.000000e+00 0.000000e+00 0.000000e+00
 0.000000e+00 0.000000e+00 8.360656e-01 1.639344e-01 0.000000e+00 0.000000e+00 0.000000e+00 0.000000e+00
 0.000000e+00 0.000000e+00 0.000000e+00 8.795181e-01 1.204819e-01 0.000000e+00 0.000000e+00 0.000000e+00
 0.000000e+00 0.000000e+00 0.000000e+00 0.000000e+00 8.550724e-01 1.449275e-01 0.000000e+00 0.000000e+00
 0.000000e+00 0.000000e+00 0.000000e+00 0.000000e+00 0.000000e+00 9.549550e-01 4.504504e-02 0.000000e+00
 0.000000e+00 0.000000e+00 0.000000e+00 0.000000e+00 0.000000e+00 0.000000e+00 7.222222e-01 2.777778e-01
 0.000000e+00 0.000000e+00 0.000000e+00 0.000000e+00 0.000000e+00 0.000000e+00 0.000000e+00 0.000000e+00
<ENDHMM>
