~o
<STREAMINFO> 1 39
<VECSIZE> 39<NULLD><MFCC_E_D_A><DIAGC>
~h "trois"
<BEGINHMM>
<NUMSTATES> 7
<STATE> 2
<MEAN> 39
 -7.659120e+00 -3.665517e+00 2.788754e+00 -7.698004e+00 -1.462411e+00 -1.891653e-01 1.454726e+00 -2.728007e+00 3.428922e-01 -5.863094e-01 -1.447191e+00 -8.266248e-01 4.978678e-01 1.440443e-01 6.906043e-01 3.405868e-01 -1.379135e-01 -5.936220e-01 -3.484353e-01 -4.197582e-02 -4.852905e-01 6.869561e-02 1.081857e-01 -3.090863e-02 -5.837360e-02 3.541182e-03 2.218901e-02 5.576007e-02 8.073065e-02 6.885181e-02 3.735272e-02 -8.247934e-02 -2.486032e-02 -1.150224e-02 2.236197e-02 -1.135314e-01 -4.302230e-02 6.327578e-02 -9.155000e-04
<VARIANCE> 39
 1.375979e+01 2.605146e+01 2.958091e+01 6.882117e+01 5.313126e+01 4.503244e+01 1.241256e+01 2.453439e+01 2.669216e+01 1.674665e+01 1.917318e+01 6.808065e+00 2.760597e-02 4.060311e-01 1.875970e+00 1.341166e+00 2.585224e+00 3.437167e+00 2.927785e+00 1.067416e+00 2.067057e+00 2.469093e+00 1.212309e+00 1.309787e+00 1.054000e+00 1.000000e-02 1.122210e-01 1.938713e-01 2.999775e-01 4.463255e-01 6.600065e-01 5.350065e-01 2.456883e-01 4.415264e-01 5.402415e-01 2.355625e-01 2.104905e-01 1.951827e-01 1.000000e-02
<GCONST> 8.798653e+01
<STATE> 3
<MEAN> 39
 -5.719820e+00 1.276850e+00 8.563706e+00 -6.637067e+00 -1.062588e+00 -3.100084e+00 -2.440922e+00 -4.998973e+00 1.547422e+00 -2.882679e+00 -2.517652e+00 -9.303405e-01 5.734668e-01 8.848076e-01 9.839511e-01 5.734455e-01 1.028306e+00 -8.085433e-02 -1.880962e-01 -3.354340e-01 -6.354762e-02 1.919851e-01 -1.936088e-01 3.083264e-01 2.504559e-01 3.371043e-02 2.733906e-01 2.155426e-02 7.424775e-02 1.312494e-01 -1.641161e-01 -3.310643e-02 1.143131e-01 1.301982e-02 8.310159e-02 8.996361e-02 1.255554e-01 1.067917e-01 1.130549e-02
<VARIANCE> 39
 3.109394e+01 4.088797e+01 8.938892e+01 4.304980e+01 2.555501e+01 1.951988e+01 3.300225e+01 1.472949e+01 1.543617e+01 1.619411e+01 1.984098e+01 1.624192e+01 3.487743e-02 2.383210e+00 3.047204e+00 3.367511e+00 2.365323e+00 2.295757e+00 1.801087e+00 2.519767e+00 2.182156e+00 2.212788e+00 1.574795e+00 9.237260e-01 1.913554e+00 1.000000e-02 3.011287e-01 7.251842e-01 4.101361e-01 4.176163e-01 4.776199e-01 3.835105e-01 4.064733e-01 3.683735e-01 4.280795e-01 2.571714e-01 1.862544e-01 3.660751e-01 1.000000e-02
<GCONST> 9.543501e+01
<STATE> 4
<MEAN> 39
 3.946694e+00 7.932349e+00 1.511783e+01 2.413815e+00 -9.126731e+00 -5.700376e+00 9.590066e-01 -8.513645e+00 2.903312e+00 -1.766343e+00 5.758709e-01 3.898044e+00 9.172379e-01 1.039957e+00 -1.668008e-01 4.866118e-01 -1.094690e-01 -1.402110e+00 -1.037431e+00 5.073648e-01 -4.459387e-01 1.519328e-01 6.355241e-02 1.460721e-01 1.105793e-01 4.079754e-02 -4.333084e-01 -3.384159e-01 -3.889717e-01 -4.933524e-01 8.436587e-02 8.901605e-02 -2.958499e-02 1.814504e-01 -4.413935e-02 -1.924116e-03 -2.001727e-01 -2.871281e-01 -1.713898e-02
<VARIANCE> 39
 2.935229e+01 1.601630e+01 4.443406e+01 1.169971e+01 1.407068e+02 2.423130e+01 2.403764e+01 2.773302e+01 1.473848e+01 1.327393e+01 9.038390e+00 1.959997e+01 1.000000e-02 1.630520e+00 2.639271e+00 2.281810e+00 2.135580e+00 2.839106e+00 8.853531e-01 1.744949e+00 1.814646e+00 1.090594e+00 1.611896e+00 7.195795e-01 8.454570e-01 1.000000e-02 1.841637e-01 3.509841e-01 2.919095e-01 2.209029e-01 3.208050e-01 1.582775e-01 3.669572e-01 3.049899e-01 2.075223e-01 2.566648e-01 9.629720e-02 1.214405e-01 1.000000e-02
<GCONST> 8.251094e+01
<STATE> 5
<MEAN> 39
 4.041875e+00 4.659938e+00 8.933069e+00 -5.821253e+00 -1.312359e+01 -9.882956e+00 1.567458e+00 -5.195584e+00 2.637339e+00 -2.585343e+00 -1.964164e+00 -1.449202e+00 9.284627e-01 -3.423532e-01 -3.236366e-01 -9.667566e-01 -9.629239e-01 -1.128424e-01 1.578737e-01 -5.906723e-03 6.157317e-01 2.078324e-03 -4.620396e-01 -3.870191e-01 -4.298382e-01 -1.752828e-02 -1.265068e-01 -7.468190e-03 -4.380553e-02 5.422375e-02 1.427350e-01 1.798473e-01 -6.249002e-02 4.682802e-02 -4.986493e-02 -2.439118e-02 7.001444e-02 9.473833e-02 -7.095919e-03
<VARIANCE> 39
 1.729745e+01 1.846385e+01 3.002789e+01 2.387012e+01 6.882195e+01 2.878800e+01 3.363231e+01 1.606729e+01 1.632918e+01 2.770502e+01 1.862005e+01 2.442309e+01 1.000000e-02 4.055207e-01 8.333359e-01 3.886586e-01 7.323659e-01 1.429209e+00 1.265257e+00 1.314254e+00 9.475375e-01 7.022544e-01 1.721263e+00 8.055564e-01 8.912231e-01 1.000000e-02 7.727446e-02 1.619857e-01 8.178253e-02 1.562817e-01 1.861623e-01 1.767143e-01 3.287335e-01 1.515396e-01 1.083952e-01 3.283857e-01 1.260030e-01 1.275477e-01 1.000000e-02
<GCONST> 7.202904e+01
<STATE> 6
<MEAN> 39
 -4.147161e+00 -5.696896e-01 6.824088e-01 -7.401373e+00 -6.013814e+00 -3.948155e+00 3.903500e-01 -1.203016e+00 2.212628e+00 -3.177393e+00 -1.580606e+00 -1.425493e+00 5.738443e-01 -7.582295e-01 -5.514814e-01 -3.784736e-01 3.341929e-01 8.779194e-01 4.914043e-01 -1.943402e-01 1.857271e-01 -7.388311e-02 2.907699e-01 2.628574e-01 2.514580e-01 -4.155812e-02 6.608056e-02 4.023125e-02 8.555757e-02 1.187281e-01 -3.896623e-03 -1.110383e-01 7.757384e-02 -4.140334e-02 -9.455486e-03 -1.620548e-02 5.879896e-03 5.113074e-02 1.848121e-03
<VARIANCE> 39
 4.113402e+01 1.586811e+01 1.376650e+01 2.401104e+01 4.994062e+01 1.751750e+01 2.097743e+01 1.560579e+01 1.297500e+01 1.455407e+01 1.458079e+01 1.801063e+01 2.210047e-02 1.040798e+00 1.142721e+00 9.419967e-01 1.690654e+00 1.444235e+00 1.639366e+00 1.424851e+00 1.522465e+00 1.136858e+00 1.288286e+00 1.328333e+00 1.296975e+00 1.000000e-02 9.066668e-02 1.362018e-01 1.350624e-01 2.095473e-01 2.346541e-01 2.407043e-01 2.338904e-01 3.372191e-01 2.012894e-01 2.826821e-01 1.951497e-01 2.148394e-01 1.000000e-02
<GCONST> 7.810281e+01
<TRANSP> 7
 0.000000e+00 1.000000e+00 0.000000e+00 0.000000e+00 0.000000e+00 0.000000e+00 0.000000e+00
 0.000000e+00 8.936170e-01 1.063830e-01 0.000000e+00 0.000000e+00 0.000000e+00 0.000000e+00
 0.000000e+00 0.000000e+00 8.666667e-01 1.333333e-01 0.000000e+00 0.000000e+00 0.000000e+00
 0.000000e+00 0.000000e+00 0.000000e+00 8.113208e-01 1.886792e-01 0.000000e+00 0.000000e+00
 0.000000e+00 0.000000e+00 0.000000e+00 0.000000e+00 8.888889e-01 1.111111e-01 0.000000e+00
 0.000000e+00 0.000000e+00 0.000000e+00 0.000000e+00 0.000000e+00 8.936170e-01 1.063830e-01
 0.000000e+00 0.000000e+00 0.000000e+00 0.000000e+00 0.000000e+00 0.000000e+00 0.000000e+00
<ENDHMM>
