~o
<STREAMINFO> 1 39
<VECSIZE> 39<NULLD><MFCC_E_D_A><DIAGC>
~h "un"
<BEGINHMM>
<NUMSTATES> 3
<STATE> 2
<MEAN> 39
 7.001492e-01 -2.885674e+00 -4.304441e-01 -6.008337e+00 -1.274097e+00 1.015381e+00 2.324884e+00 -4.320992e+00 1.264456e+00 -4.427611e+00 -1.083941e+00 8.257598e-01 8.007137e-01 -3.547060e-02 4.857758e-02 -6.321537e-02 9.212886e-02 3.998607e-02 -5.969803e-02 8.205885e-02 2.911684e-01 7.593037e-02 1.192108e-01 -6.134084e-03 -9.910188e-02 -5.251679e-03 -4.699460e-02 3.362831e-03 3.424155e-04 1.858990e-02 2.406732e-02 -3.569583e-02 -1.844341e-02 2.189421e-02 1.970191e-04 9.189040e-03 7.293280e-03 3.465357e-02 -3.028056e-03
<VARIANCE> 39
 4.849221e+01 3.762352e+01 2.175666e+01 1.926170e+01 3.413474e+01 4.565749e+01 4.046406e+01 4.045259e+01 3.486031e+01 1.942426e+01 4.157649e+01 1.799643e+01 4.170793e-02 1.859579e+00 1.236598e+00 9.395686e-01 1.033449e+00 1.220413e+00 1.693695e+00 1.521112e+00 1.911558e+00 1.425577e+00 1.208811e+00 1.364253e+00 1.084731e+00 1.000000e-02 1.857156e-01 1.372616e-01 1.526672e-01 1.571994e-01 1.884307e-01 2.431679e-01 2.210342e-01 2.750486e-01 2.001561e-01 2.120079e-01 1.891033e-01 1.631066e-01 1.000000e-02
<GCONST> 8.433636e+01
<TRANSP> 3
 0.000000e+00 1.000000e+00 0.000000e+00
 0.000000e+00 9.604743e-01 3.952569e-02
 0.000000e+00 0.000000e+00 0.000000e+00
<ENDHMM>
