~o
<STREAMINFO> 1 39
<VECSIZE> 39<NULLD><MFCC_E_D_A><DIAGC>
~h "vingt"
<BEGINHMM>
<NUMSTATES> 4
<STATE> 2
<MEAN> 39
 5.951468e+00 -9.084620e+00 9.329319e+00 8.173768e-01 -4.369995e-01 7.226777e+00 2.886833e+00 3.366793e+00 -4.495256e+00 -9.760625e-01 1.699215e+00 9.653500e-01 6.224906e-01 2.412388e-01 7.687397e-03 -1.397195e-01 -1.307961e-01 -1.234289e-02 3.535227e-02 -1.235920e-01 6.801521e-02 2.662724e-01 -1.578005e-01 -1.334819e-01 -3.935901e-03 7.889699e-04 -4.399154e-02 2.334813e-02 7.453760e-03 5.317986e-03 -2.189551e-02 -5.300894e-02 -3.593593e-02 -3.129375e-03 1.434681e-02 5.620444e-02 -1.467224e-02 -3.611183e-03 -7.305267e-04
<VARIANCE> 39
 8.290733e+01 6.763063e+01 5.625775e+01 2.890928e+01 7.495089e+01 5.601211e+01 7.487892e+01 9.331125e+01 6.258523e+01 9.838222e+01 6.673772e+01 5.385961e+01 8.177409e-02 2.778583e+00 2.546544e+00 2.261573e+00 1.817873e+00 2.582984e+00 2.853031e+00 2.998209e+00 2.984787e+00 3.144262e+00 2.295569e+00 2.697783e+00 1.141066e+00 1.000000e-02 3.685975e-01 2.959796e-01 3.943405e-01 2.831713e-01 3.160923e-01 4.199556e-01 4.174785e-01 4.544181e-01 4.459959e-01 3.892779e-01 4.025393e-01 1.420328e-01 1.000000e-02
<GCONST> 1.080540e+02
<STATE> 3
<MEAN> 39
 -4.509273e+00 -1.241385e+00 -3.744349e-01 -4.259059e+00 -1.230412e+00 -1.469921e+00 2.782263e+00 -1.762380e+00 1.145602e+00 -3.068126e+00 -7.799713e-02 -1.347935e-01 6.214202e-01 -3.613196e-02 4.558698e-02 4.650077e-03 -3.724525e-02 -1.563823e-02 -7.344450e-02 -4.317555e-02 -4.886206e-02 -1.231968e-03 -3.147413e-03 -6.912363e-02 -2.539097e-02 -1.518110e-03 -1.542832e-02 -1.091882e-02 3.699155e-03 9.525464e-03 5.982424e-03 -3.141420e-03 -5.864545e-03 -7.928545e-03 -4.347215e-03 1.985135e-02 -1.072409e-02 -4.333288e-03 -7.892553e-04
<VARIANCE> 39
 4.319150e+01 1.208547e+01 1.062134e+01 1.947187e+01 1.967942e+01 1.604189e+01 2.852036e+01 2.270452e+01 1.983108e+01 2.146063e+01 1.329619e+01 1.518381e+01 5.947459e-02 1.127276e+00 6.358275e-01 6.540399e-01 1.046336e+00 1.040992e+00 1.035805e+00 1.382418e+00 1.611531e+00 1.425026e+00 1.254536e+00 1.042151e+00 9.268044e-01 1.000000e-02 9.941388e-02 9.929340e-02 1.188157e-01 1.615498e-01 1.558699e-01 1.784956e-01 2.253568e-01 2.712425e-01 2.608212e-01 1.963080e-01 1.880947e-01 1.523724e-01 1.000000e-02
<GCONST> 7.406137e+01
<TRANSP> 4
 0.000000e+00 1.000000e+00 0.000000e+00 0.000000e+00
 0.000000e+00 8.989899e-01 1.010101e-01 0.000000e+00
 0.000000e+00 0.000000e+00 9.769585e-01 2.304148e-02
 0.000000e+00 0.000000e+00 0.000000e+00 0.000000e+00
<ENDHMM>
