~o
<STREAMINFO> 1 39
<VECSIZE> 39<NULLD><MFCC_E_D_A><DIAGC>
~h "zero"
<BEGINHMM>
<NUMSTATES> 6
<STATE> 2
<MEAN> 39
 -1.022935e+01 1.133105e-01 1.919538e+00 -1.151393e+00 8.390160e+00 -2.224138e+00 4.083714e+00 -1.444893e+00 2.180703e+00 1.607238e+00 3.057903e+00 9.671441e-01 6.908381e-01 1.297661e-01 -8.656356e-02 2.993087e-01 3.106279e-01 6.062786e-01 -8.729127e-03 7.688511e-02 8.637408e-02 1.170969e-01 1.295385e-01 2.512068e-01 9.442326e-02 1.918527e-02 1.025128e-01 -1.339423e-01 -2.227302e-02 6.496456e-02 -4.950121e-02 8.917410e-02 -1.068824e-01 -4.765970e-02 -1.338838e-02 -2.900008e-02 4.991902e-02 -5.333571e-03 -1.474592e-04
<VARIANCE> 39
 1.622701e+01 2.249695e+01 4.331099e+01 2.276208e+01 5.326960e+01 2.342612e+01 1.724470e+01 1.584656e+01 1.580665e+01 1.710695e+01 1.887800e+01 1.633403e+01 1.606585e-02 1.606849e+00 1.120098e+00 1.050620e+00 1.414711e+00 2.087908e+00 1.816669e+00 1.717445e+00 1.398746e+00 1.582033e+00 1.180070e+00 1.428395e+00 1.119778e+00 1.000000e-02 1.664829e-01 1.180884e-01 1.249105e-01 2.446572e-01 3.098791e-01 2.928441e-01 2.633871e-01 2.558669e-01 2.929792e-01 2.337199e-01 2.383806e-01 1.807247e-01 1.000000e-02
<GCONST> 8.114766e+01
<STATE> 3
<MEAN> 39
 3.984384e-01 -9.120346e+00 7.725391e+00 5.211452e+00 1.133680e+01 4.073973e+00 4.962445e-01 -9.581489e-01 2.190736e+00 -7.473364e-01 4.525532e+00 3.570532e+00 9.411143e-01 1.081370e+00 -1.485426e-01 -1.507232e-01 -3.355373e-01 -1.479343e+00 7.847273e-01 4.083271e-01 7.735224e-02 -2.500106e-01 -1.098716e+00 -5.910240e-01 1.268733e-01 1.004812e-02 -2.366873e-01 4.126334e-01 1.122067e-02 -4.036665e-01 -3.484676e-01 -2.755480e-01 2.959877e-01 1.809335e-01 7.796168e-02 2.586934e-02 -3.031694e-01 -1.295774e-01 -6.542791e-03
<VARIANCE> 39
 2.115300e+01 2.949266e+01 5.365144e+01 3.644587e+01 8.137368e+01 4.739906e+01 3.680788e+01 3.481205e+01 3.314015e+01 4.199968e+01 2.695158e+01 2.172314e+01 1.000000e-02 6.251414e-01 1.938409e+00 7.725873e-01 3.659646e+00 2.347597e+00 1.907496e+00 4.168023e+00 1.900464e+00 2.543365e+00 1.204167e+00 2.336266e+00 1.032148e+00 1.000000e-02 6.674901e-02 7.800590e-02 1.674964e-01 3.327133e-01 2.797252e-01 3.823731e-01 5.154657e-01 3.829088e-01 5.300893e-01 3.473380e-01 3.463095e-01 2.697096e-01 1.000000e-02
<GCONST> 9.163374e+01
<STATE> 4
<MEAN> 39
 4.642784e+00 6.368029e-01 1.447140e+01 -4.185288e+00 -6.248195e+00 -4.235605e-01 3.017689e+00 8.804709e-01 3.287442e+00 -1.550602e+00 -3.052301e+00 3.114442e+00 8.272467e-01 -4.619874e-01 1.125821e+00 5.003146e-01 -1.755187e-01 -6.693049e-01 -1.283720e+00 -6.571932e-01 -2.495400e-01 4.308283e-01 9.524911e-01 3.358001e-02 -2.217319e-01 -2.306984e-02 -7.955268e-02 -2.096830e-01 -2.744452e-02 3.392663e-01 4.555026e-01 3.130289e-02 -4.132434e-01 -2.474340e-01 -1.378619e-01 3.953492e-02 3.221751e-01 1.637976e-01 -6.957861e-04
<VARIANCE> 39
 1.850562e+01 5.364667e+01 8.406987e+01 4.281936e+01 8.021553e+01 5.684234e+01 4.621090e+01 3.177358e+01 6.187786e+01 4.123404e+01 2.062647e+01 2.703830e+01 1.194562e-02 6.403552e-01 1.874486e+00 1.519814e+00 2.060755e+00 5.328982e+00 2.256497e+00 3.465864e+00 3.025729e+00 2.913117e+00 2.976930e+00 2.527300e+00 1.764813e+00 1.000000e-02 1.015930e-01 1.519647e-01 2.025195e-01 3.492420e-01 6.743172e-01 3.877508e-01 7.275290e-01 5.721194e-01 5.479730e-01 7.831514e-01 4.151777e-01 3.541294e-01 1.000000e-02
<GCONST> 1.010295e+02
<STATE> 5
<MEAN> 39
 -3.523613e+00 3.460431e+00 6.159370e+00 -1.592400e-01 -2.071552e+00 -4.636992e+00 -7.528293e-01 -3.630379e+00 2.124453e+00 7.389893e-01 3.388913e+00 1.866189e+00 7.469280e-01 -2.885732e-01 -2.708865e-01 -3.299103e-01 3.821708e-02 3.163289e-01 1.518023e-01 -8.220306e-03 6.988276e-02 -1.514424e-01 -2.697650e-02 2.648314e-02 -7.372005e-02 -1.375562e-02 1.457864e-02 -3.121403e-02 -3.231836e-02 -1.228789e-03 1.830043e-02 6.309205e-02 9.112646e-02 6.444746e-02 -5.151063e-03 -1.266434e-02 -4.900184e-02 -4.467278e-02 -4.489287e-04
<VARIANCE> 39
 2.314324e+01 2.285883e+01 3.050103e+01 1.023538e+01 2.083615e+01 1.113634e+01 1.125222e+01 1.165823e+01 1.181461e+01 1.010778e+01 1.517813e+01 1.047321e+01 2.821568e-02 5.559860e-01 7.055717e-01 1.064325e+00 8.895692e-01 1.136578e+00 8.579966e-01 1.199593e+00 1.211159e+00 1.087536e+00 1.108557e+00 1.053885e+00 1.093961e+00 1.000000e-02 6.543467e-02 8.387219e-02 1.243145e-01 1.488011e-01 1.882062e-01 1.638460e-01 2.147193e-01 2.120627e-01 1.920867e-01 2.127156e-01 1.705919e-01 1.773821e-01 1.000000e-02
<GCONST> 6.831658e+01
<TRANSP> 6
 0.000000e+00 1.000000e+00 0.000000e+00 0.000000e+00 0.000000e+00 0.000000e+00
 0.000000e+00 9.435028e-01 5.649717e-02 0.000000e+00 0.000000e+00 0.000000e+00
 0.000000e+00 0.000000e+00 8.924731e-01 1.075269e-01 0.000000e+00 0.000000e+00
 0.000000e+00 0.000000e+00 0.000000e+00 8.850574e-01 1.149425e-01 0.000000e+00
 0.000000e+00 0.000000e+00 0.000000e+00 0.000000e+00 9.543379e-01 4.566210e-02
 0.000000e+00 0.000000e+00 0.000000e+00 0.000000e+00 0.000000e+00 0.000000e+00
<ENDHMM>
