~o
<STREAMINFO> 1 39
<VECSIZE> 39<NULLD><MFCC_E_D_A><DIAGC>
~h "cinquante"
<BEGINHMM>
<NUMSTATES> 8
<STATE> 2
<MEAN> 39
 -1.628235e+01 -5.814393e-01 5.005293e-01 -5.922550e+00 5.564971e+00 -6.614491e+00 2.932256e+00 -4.276547e+00 3.613629e-01 -3.331075e-01 -3.872607e-01 -7.718737e-01 5.547318e-01 4.290985e-01 -9.564383e-02 2.884367e-01 1.155947e-01 4.089291e-02 2.631553e-01 -8.942585e-02 -1.113631e-01 -7.608280e-02 -4.189889e-02 2.183420e-01 -5.376641e-02 1.763846e-02 2.532531e-01 -1.089243e-02 8.292502e-03 4.733438e-02 -5.887407e-02 9.680927e-02 -5.716173e-02 3.548295e-02 -8.555470e-02 -3.014893e-02 6.862970e-02 -4.283592e-02 3.886960e-03
<VARIANCE> 39
 1.771563e+01 1.864563e+01 5.819543e+01 4.653359e+01 5.292046e+01 2.708227e+01 1.380278e+01 1.532720e+01 2.041617e+01 2.590996e+01 1.716072e+01 1.016849e+01 2.701265e-02 2.846395e+00 8.706515e-01 1.365913e+00 1.837156e+00 1.602730e+00 1.966861e+00 1.592464e+00 1.751039e+00 2.243312e+00 1.693633e+00 1.392173e+00 1.126497e+00 9.786382e-04 2.188173e-01 1.302013e-01 1.723525e-01 2.552312e-01 3.618152e-01 4.057573e-01 2.780433e-01 3.649063e-01 4.331231e-01 3.725698e-01 2.622268e-01 2.213842e-01 2.006042e-04
<GCONST> 8.060816e+01
<STATE> 3
<MEAN> 39
 2.103587e+00 -5.773487e+00 4.826212e+00 -1.711526e+00 3.458289e+00 -4.440551e-01 -1.868028e+00 -5.446103e-01 -2.579597e+00 -2.384671e+00 2.882794e+00 -1.140011e+00 9.180083e-01 2.342259e-01 -1.800368e-01 -6.035533e-02 4.378075e-01 -3.136253e-01 1.230104e-01 -1.853026e-01 6.165845e-01 4.792130e-01 -2.178724e-01 -1.936508e-02 2.317289e-01 2.632441e-03 -4.409966e-01 7.487677e-02 -8.909827e-02 -3.223523e-02 2.983299e-02 -1.539711e-01 1.276473e-01 -1.257649e-02 9.995010e-02 7.440735e-02 -7.829767e-02 3.239523e-02 -1.293495e-02
<VARIANCE> 39
 3.111116e+01 6.570719e+01 5.499478e+01 1.841984e+01 2.862557e+01 1.459252e+01 5.939541e+01 8.511948e+01 4.578411e+01 2.590767e+01 2.074409e+01 2.067530e+01 8.516303e-03 3.934402e+00 1.501096e+00 9.612809e-01 1.363283e+00 2.556792e+00 1.606500e+00 3.275858e+00 2.875246e+00 2.797682e+00 2.148494e+00 1.866806e+00 1.131804e+00 3.225414e-03 2.426738e-01 2.059560e-01 1.835541e-01 2.690794e-01 4.278393e-01 1.947020e-01 4.528640e-01 3.909191e-01 5.516056e-01 3.592635e-01 3.225239e-01 2.416527e-01 1.570646e-04
<GCONST> 8.851431e+01
<STATE> 4
<MEAN> 39
 -3.350249e+00 -3.243584e+00 -4.739410e-01 -4.375834e+00 2.106555e+00 3.185235e-01 1.303909e-01 1.808906e+00 -1.141058e+00 -3.178393e+00 1.998899e+00 -7.047772e-01 6.171672e-01 3.979959e-01 2.811651e-01 -1.488614e-01 -6.563663e-01 -3.098394e-01 8.522938e-02 2.535734e-01 -1.257417e-01 -3.673967e-01 -2.328170e-01 -3.690525e-01 -1.017733e-01 6.728692e-03 2.415749e-01 8.352446e-03 1.406215e-01 2.919321e-02 -8.856855e-02 -8.753586e-02 -1.030302e-01 -5.997165e-03 1.159489e-01 1.277419e-02 -6.546246e-02 -1.764200e-03 9.094113e-03
<VARIANCE> 39
 5.146697e+01 1.386064e+01 2.263402e+01 4.192114e+01 3.934550e+01 2.339661e+01 2.389887e+01 4.281207e+01 3.627111e+01 3.084900e+01 2.417245e+01 1.598693e+01 3.542401e-02 1.836086e+00 2.313595e+00 2.528910e+00 3.108388e+00 4.924715e+00 2.191717e+00 2.642180e+00 3.451858e+00 3.022159e+00 3.272458e+00 1.860839e+00 1.038010e+00 4.345870e-03 2.210143e-01 4.613702e-01 3.703572e-01 6.683118e-01 9.444180e-01 3.946497e-01 5.596687e-01 6.717362e-01 6.124402e-01 5.446700e-01 3.560275e-01 1.982343e-01 4.334200e-04
<GCONST> 9.696658e+01
<STATE> 5
<MEAN> 39
 9.074262e+00 -3.424270e+00 4.893425e+00 -3.378441e+00 -6.801305e+00 -2.406667e+00 4.742649e+00 5.936911e+00 -1.595607e+00 -3.370976e+00 -2.785619e+00 -1.931882e-01 8.446541e-01 5.170876e-02 7.638522e-01 4.498258e-01 4.154263e-01 -6.311809e-01 -9.475164e-01 2.191968e-02 1.874194e-01 3.898669e-01 7.094170e-01 1.084465e-01 -2.479146e-01 -1.360457e-03 -3.655744e-01 -3.701525e-02 -1.806743e-01 -6.277335e-02 1.864951e-01 1.151116e-01 -1.821444e-01 -6.768960e-02 -1.572118e-01 1.292500e-02 2.366408e-01 -2.732647e-02 -1.052485e-02
<VARIANCE> 39
 4.524389e+01 5.043739e+01 4.593700e+01 3.795537e+01 6.780960e+01 2.179808e+01 5.860163e+01 5.533862e+01 1.300895e+02 4.697777e+01 3.814414e+01 2.728965e+01 1.480613e-02 1.773781e+00 1.608404e+00 2.245350e+00 1.849574e+00 2.661428e+00 2.199502e+00 3.158295e+00 9.822880e-01 2.188371e+00 2.235806e+00 1.727430e+00 9.884692e-01 1.295843e-03 1.268064e-01 2.262595e-01 4.310198e-01 3.428220e-01 3.695245e-01 2.756762e-01 3.044415e-01 2.436373e-01 3.765498e-01 3.645431e-01 3.376521e-01 2.005586e-01 1.345153e-04
<GCONST> 9.061440e+01
<STATE> 6
<MEAN> 39
 -6.066982e-01 1.224199e+00 4.652983e+00 -6.168506e+00 -1.081966e+00 -6.667687e+00 -1.571553e+00 3.209475e-01 -1.417805e-01 6.800473e-01 5.856056e-01 -1.784150e+00 6.966565e-01 -7.584099e-01 -2.386035e-01 -2.364490e-01 3.009536e-01 4.706870e-01 3.050491e-01 -1.089416e-01 -2.983678e-01 5.565171e-03 8.594155e-02 2.624409e-01 2.582324e-02 -1.937512e-02 -9.692220e-02 -1.530830e-01 -8.582415e-02 4.576467e-02 1.024933e-01 1.828909e-01 2.233461e-01 1.808018e-02 -6.596049e-02 -5.437377e-02 -4.371066e-02 2.154126e-02 -2.635028e-03
<VARIANCE> 39
 9.051393e+00 4.418333e+01 2.027279e+01 4.832592e+01 8.438499e+01 3.349439e+01 3.178967e+01 3.047847e+01 2.658906e+01 2.563540e+01 1.672093e+01 8.165023e+00 7.423532e-02 9.138429e-01 9.192834e-01 6.922468e-01 2.222666e+00 2.255706e+00 2.446845e+00 2.151235e+00 2.041528e+00 1.432889e+00 9.718878e-01 1.266424e+00 8.944563e-01 1.864412e-03 1.223038e-01 1.016189e-01 1.188312e-01 3.614652e-01 4.117637e-01 3.506742e-01 2.262081e-01 3.159806e-01 2.254478e-01 1.893010e-01 2.335485e-01 1.650933e-01 2.362063e-04
<GCONST> 7.896529e+01
<STATE> 7
<MEAN> 39
 -1.046652e+01 -2.757758e+00 1.394183e+00 -4.524813e+00 1.571770e+00 -1.221556e+00 -2.467325e-01 -1.186124e+00 4.980988e-01 -1.580816e+00 1.127683e+00 -1.123648e+00 5.132568e-01 -2.100640e-01 -1.606021e-01 -2.112795e-02 -1.694506e-01 4.628031e-02 1.115882e-01 -9.171266e-02 -1.101224e-01 -7.688150e-02 4.199695e-02 -1.479016e-02 -1.580664e-02 -9.290517e-03 4.492283e-02 4.374096e-02 8.363606e-03 -1.444069e-02 -3.968251e-02 -5.197532e-02 -5.287927e-02 -9.710581e-03 4.791152e-03 2.172059e-02 1.311842e-02 -1.740485e-02 9.583898e-04
<VARIANCE> 39
 1.017557e+01 6.133309e+00 2.565955e+01 2.448410e+01 1.097845e+01 2.320720e+01 1.880918e+01 1.680718e+01 1.512051e+01 1.549824e+01 1.018202e+01 9.481071e+00 4.740371e-02 5.270128e-01 4.459002e-01 1.488554e+00 1.226646e+00 1.184888e+00 1.379353e+00 1.262006e+00 1.673190e+00 1.356982e+00 1.476172e+00 9.323010e-01 1.073205e+00 1.010565e-03 7.777241e-02 5.819545e-02 2.293216e-01 1.912072e-01 2.106513e-01 2.172532e-01 2.479529e-01 3.115141e-01 2.707408e-01 3.071466e-01 1.811690e-01 2.256793e-01 1.402676e-04
<GCONST> 6.599271e+01
<TRANSP> 8
 0.000000e+00 1.000000e+00 0.000000e+00 0.000000e+00 0.000000e+00 0.000000e+00 0.000000e+00 0.000000e+00
 0.000000e+00 9.448290e-01 5.517102e-02 0.000000e+00 0.000000e+00 0.000000e+00 0.000000e+00 0.000000e+00
 0.000000e+00 0.000000e+00 9.210008e-01 7.899917e-02 0.000000e+00 0.000000e+00 0.000000e+00 0.000000e+00
 0.000000e+00 0.000000e+00 0.000000e+00 9.259449e-01 7.405509e-02 0.000000e+00 0.000000e+00 0.000000e+00
 0.000000e+00 0.000000e+00 0.000000e+00 0.000000e+00 8.362335e-01 1.637665e-01 0.000000e+00 0.000000e+00
 0.000000e+00 0.000000e+00 0.000000e+00 0.000000e+00 0.000000e+00 9.088213e-01 9.117872e-02 0.000000e+00
 0.000000e+00 0.000000e+00 0.000000e+00 0.000000e+00 0.000000e+00 0.000000e+00 9.630184e-01 3.698168e-02
 0.000000e+00 0.000000e+00 0.000000e+00 0.000000e+00 0.000000e+00 0.000000e+00 0.000000e+00 0.000000e+00
<ENDHMM>
