~o
<STREAMINFO> 1 39
<VECSIZE> 39<NULLD><MFCC_E_D_A><DIAGC>
~h "cinq"
<BEGINHMM>
<NUMSTATES> 6
<STATE> 2
<MEAN> 39
 -1.506167e+01 -1.601445e+00 2.841556e+00 -7.141248e+00 6.209024e+00 -7.422656e+00 2.781288e+00 -2.346112e+00 -6.028975e-01 1.000596e-01 1.722598e-01 -2.452015e-01 5.955526e-01 1.076281e+00 -1.010210e-01 1.355584e-01 2.840877e-01 -1.699566e-01 4.832972e-01 1.083390e-01 -4.296943e-02 -2.004146e-01 -3.680992e-01 1.707730e-01 -4.054120e-02 3.093555e-02 2.144931e-01 -2.869326e-02 -5.230344e-02 -3.014058e-02 -9.059181e-02 9.778465e-02 -7.936172e-02 -8.574557e-03 -9.417016e-02 -1.092417e-01 4.252251e-02 2.456913e-03 3.709887e-03
<VARIANCE> 39
 4.650762e+01 4.321414e+01 8.643526e+01 6.846820e+01 4.688449e+01 3.749611e+01 1.971420e+01 2.817674e+01 2.036219e+01 2.357160e+01 2.573888e+01 1.730272e+01 2.730715e-02 4.912185e+00 1.451536e+00 1.470393e+00 2.666682e+00 1.723458e+00 2.924523e+00 2.095112e+00 1.989460e+00 2.263998e+00 2.515795e+00 2.035708e+00 1.509107e+00 1.931137e-03 4.149073e-01 2.177132e-01 1.911723e-01 3.563926e-01 3.506104e-01 4.704921e-01 2.923890e-01 3.320708e-01 3.757895e-01 4.129606e-01 3.624708e-01 2.018247e-01 2.596086e-04
<GCONST> 9.146124e+01
<STATE> 3
<MEAN> 39
 3.561818e+00 -2.226807e+00 -3.089717e-02 -6.667726e+00 -4.317218e-01 5.213964e-01 2.575929e-01 -3.948533e+00 -2.657647e+00 -5.864672e+00 1.284119e+00 -2.814997e-01 9.571558e-01 1.569119e-01 -1.360591e-01 -1.246021e-01 1.702859e-01 -1.775520e-01 -1.416996e-01 -4.964086e-01 -2.376812e-02 3.864856e-01 1.075219e-01 -1.881313e-01 1.141287e-02 5.316234e-04 -4.153728e-01 -3.419247e-03 8.808602e-02 1.776727e-01 1.624084e-01 -1.803974e-01 -2.735174e-02 1.244102e-01 1.504997e-01 1.611511e-01 -3.447727e-02 2.664318e-02 -9.574668e-03
<VARIANCE> 39
 1.296655e+01 4.136331e+01 4.221973e+01 2.783005e+01 2.519338e+01 3.879028e+01 3.813261e+01 3.170776e+01 3.052697e+01 2.196592e+01 1.336683e+01 1.934381e+01 1.589709e-03 1.398322e+00 7.697044e-01 7.805862e-01 2.617170e+00 2.491428e+00 8.720686e-01 1.126822e+00 8.010284e-01 1.215721e+00 1.572630e+00 1.396284e+00 8.113969e-01 8.324648e-04 2.125694e-01 1.155896e-01 1.492061e-01 2.723665e-01 2.554512e-01 1.806197e-01 1.918925e-01 1.652102e-01 2.695411e-01 3.176575e-01 2.798218e-01 1.374331e-01 1.284967e-04
<GCONST> 7.166329e+01
<STATE> 4
<MEAN> 39
 -8.529223e+00 -3.978989e+00 1.905706e+00 -3.440629e-01 1.209269e+00 -2.770569e+00 1.230861e+00 -1.121043e+00 7.040810e-02 -1.661960e+00 1.381273e+00 -1.038294e+00 5.992486e-01 -3.079860e-01 -1.064958e-01 2.632267e-02 2.281054e-02 -6.925623e-02 -1.371113e-02 6.948680e-02 1.221948e-01 3.344987e-02 1.234184e-01 1.227326e-02 -4.829610e-03 -1.275292e-02 3.418505e-02 1.677724e-02 -2.970274e-02 -3.790062e-02 -1.735627e-02 3.561166e-02 2.733315e-02 -2.389795e-02 -1.062608e-02 8.303578e-03 3.606362e-03 1.277489e-02 1.938028e-04
<VARIANCE> 39
 1.528368e+01 1.169437e+01 1.575350e+01 1.093438e+01 1.201047e+01 1.440183e+01 2.254405e+01 1.676775e+01 1.912691e+01 1.426429e+01 1.428225e+01 9.837770e+00 2.969779e-02 6.164029e-01 7.338043e-01 1.227193e+00 1.316833e+00 1.285375e+00 1.439360e+00 1.700333e+00 1.701273e+00 1.675153e+00 1.718328e+00 1.153829e+00 8.548276e-01 1.474409e-03 8.116995e-02 1.371419e-01 2.008569e-01 2.547193e-01 2.524654e-01 2.739340e-01 3.068936e-01 2.834462e-01 2.827011e-01 3.588126e-01 2.191462e-01 1.531214e-01 2.230352e-04
<GCONST> 6.935052e+01
<STATE> 5
<MEAN> 39
 2.493426e+00 -8.617861e+00 8.404756e+00 3.702389e+00 -1.046156e+00 4.084541e-01 -2.710154e+00 7.280713e+00 1.875652e+00 -2.268827e+00 1.144702e+00 -2.912692e+00 5.244215e-01 -4.183688e-01 1.638086e-02 -1.407010e-02 -7.910920e-03 3.967669e-01 9.686683e-04 1.652891e-02 1.247561e-01 3.433568e-01 1.312209e-01 -8.707404e-04 -6.888311e-02 -1.991984e-02 -1.847355e-02 2.182135e-02 3.753187e-02 -1.027776e-02 5.619466e-02 -2.224376e-02 1.858259e-02 -4.062799e-02 2.024971e-02 3.571128e-02 1.922119e-02 -5.949054e-02 -1.076121e-04
<VARIANCE> 39
 8.929646e+01 1.096604e+02 6.524902e+01 2.921879e+01 9.045341e+01 4.833360e+01 1.649906e+02 6.079501e+01 6.521940e+01 2.093082e+01 2.038897e+01 2.983617e+01 1.160799e-01 1.313225e+00 4.711300e+00 3.094752e+00 1.810722e+00 5.035731e+00 3.744170e+00 9.477926e+00 3.481351e+00 2.780620e+00 1.433699e+00 1.678535e+00 1.351951e+00 2.444135e-03 2.094552e-01 5.655896e-01 5.207502e-01 3.106725e-01 6.614805e-01 5.723837e-01 1.124763e+00 5.282592e-01 3.464562e-01 2.540711e-01 3.568670e-01 2.514087e-01 3.754093e-04
<GCONST> 1.054844e+02
<TRANSP> 6
 0.000000e+00 1.000000e+00 0.000000e+00 0.000000e+00 0.000000e+00 0.000000e+00
 0.000000e+00 9.270419e-01 7.295804e-02 0.000000e+00 0.000000e+00 0.000000e+00
 0.000000e+00 0.000000e+00 9.001625e-01 9.983753e-02 0.000000e+00 0.000000e+00
 0.000000e+00 0.000000e+00 0.000000e+00 9.617134e-01 3.828659e-02 0.000000e+00
 0.000000e+00 0.000000e+00 0.000000e+00 0.000000e+00 8.602940e-01 1.397060e-01
 0.000000e+00 0.000000e+00 0.000000e+00 0.000000e+00 0.000000e+00 0.000000e+00
<ENDHMM>
