~o
<STREAMINFO> 1 39
<VECSIZE> 39<NULLD><MFCC_E_D_A><DIAGC>
~h "deux"
<BEGINHMM>
<NUMSTATES> 4
<STATE> 2
<MEAN> 39
 -8.812979e+00 -2.806276e+00 1.288514e+00 -8.068185e-01 3.025896e+00 7.647787e-01 1.738977e+00 -1.896414e+00 8.075226e-01 -2.655206e-01 1.637603e+00 -6.123859e-01 6.552325e-01 4.171562e-01 -1.781431e-01 3.675389e-01 1.681715e-01 2.876066e-01 6.973485e-01 3.569840e-01 4.285513e-02 1.746163e-01 3.679514e-03 5.062112e-01 3.607496e-01 2.938465e-02 7.317499e-02 -4.056212e-02 -6.475779e-03 1.052796e-01 -3.274224e-02 7.399068e-02 7.386102e-02 -1.180322e-01 -7.758182e-03 -5.379190e-02 4.005383e-02 1.341774e-01 2.259957e-03
<VARIANCE> 39
 5.463334e+00 8.326201e+00 1.637441e+01 1.337693e+01 1.447234e+01 2.172021e+01 1.534016e+01 1.439285e+01 1.353183e+01 1.288741e+01 1.978320e+01 1.395640e+01 2.268577e-02 5.778115e-01 7.498958e-01 1.279504e+00 1.566583e+00 1.691397e+00 2.521535e+00 2.042524e+00 1.669015e+00 1.525605e+00 1.546471e+00 2.775393e+00 2.169985e+00 2.001918e-03 5.907382e-02 1.339062e-01 2.360987e-01 2.618375e-01 3.211044e-01 3.547001e-01 3.032229e-01 2.700641e-01 2.659069e-01 2.864889e-01 5.570604e-01 3.648206e-01 3.157427e-04
<GCONST> 7.347714e+01
<STATE> 3
<MEAN> 39
 -2.632492e+00 -4.369525e+00 3.754225e+00 2.244781e+00 3.033984e+00 8.296470e+00 7.328637e+00 -1.846837e+00 1.159065e+00 -3.123651e+00 4.031529e+00 5.312036e+00 7.919533e-01 -2.894759e-01 2.189086e-01 -3.357228e-01 -1.460031e-01 -2.212556e-01 -4.919014e-01 -1.272946e-01 1.608318e-01 3.364779e-02 -3.581487e-03 -2.768086e-01 -2.342399e-01 -2.511235e-02 -8.045746e-02 2.980407e-02 -1.054730e-02 -9.526403e-02 1.133115e-02 -1.427932e-01 -1.186927e-01 3.863138e-02 1.224285e-03 5.822291e-02 -3.257557e-02 -1.078240e-01 -3.641653e-03
<VARIANCE> 39
 2.533798e+01 2.791028e+01 2.413334e+01 1.288863e+01 2.724998e+01 4.794830e+01 2.579114e+01 2.205488e+01 1.616955e+01 2.500225e+01 2.407126e+01 2.094535e+01 5.095584e-02 6.734135e-01 9.728885e-01 5.183337e-01 9.097565e-01 1.435132e+00 1.489335e+00 1.797468e+00 1.405792e+00 1.160284e+00 1.589843e+00 1.268781e+00 1.344135e+00 1.095931e-03 5.832801e-02 1.214242e-01 8.872552e-02 1.386973e-01 2.227795e-01 2.808596e-01 2.317591e-01 2.085956e-01 2.080230e-01 2.795414e-01 2.336348e-01 2.507707e-01 9.878232e-05
<GCONST> 7.153413e+01
<TRANSP> 4
 0.000000e+00 1.000000e+00 0.000000e+00 0.000000e+00
 0.000000e+00 9.293222e-01 7.067784e-02 0.000000e+00
 0.000000e+00 0.000000e+00 9.503757e-01 4.962432e-02
 0.000000e+00 0.000000e+00 0.000000e+00 0.000000e+00
<ENDHMM>
