~o
<STREAMINFO> 1 39
<VECSIZE> 39<NULLD><MFCC_E_D_A><DIAGC>
~h "diviser"
<BEGINHMM>
<NUMSTATES> 8
<STATE> 2
<MEAN> 39
 -1.164773e+01 -1.882556e+00 2.100073e+00 -2.663110e+00 2.118894e+00 -1.235404e+00 2.474016e+00 -1.377559e+00 1.317231e+00 -2.630635e-01 1.249226e+00 -1.068164e+00 6.376561e-01 -1.430032e-01 -4.884263e-02 4.262711e-01 1.690839e-01 4.061168e-02 3.034924e-01 1.939271e-01 -6.389471e-03 1.520901e-01 9.164233e-02 -7.941448e-03 -5.258465e-02 1.813701e-02 3.402803e-02 -9.594788e-02 7.971222e-02 8.939274e-02 5.431149e-02 2.990549e-03 -2.657416e-02 4.132228e-02 6.446158e-02 5.582825e-02 -3.269500e-02 -1.886455e-02 -3.344495e-04
<VARIANCE> 39
 2.083099e+01 9.985634e+00 1.577556e+01 1.656292e+01 1.215991e+01 1.419176e+01 1.191965e+01 1.146722e+01 1.232563e+01 1.253588e+01 1.127063e+01 9.847309e+00 2.849051e-02 6.597707e-01 7.053500e-01 9.889283e-01 1.305757e+00 1.105526e+00 1.438642e+00 1.461794e+00 1.041659e+00 1.672375e+00 1.292675e+00 1.262766e+00 9.134849e-01 1.240988e-03 9.533587e-02 1.051187e-01 1.572673e-01 1.999623e-01 1.989294e-01 2.276794e-01 2.586495e-01 1.927993e-01 2.911971e-01 2.216398e-01 2.386074e-01 1.671312e-01 1.535884e-04
<GCONST> 6.453851e+01
<STATE> 3
<MEAN> 39
 -8.435012e+00 -1.601799e+01 2.409049e+01 8.583954e+00 8.290646e+00 -1.773167e+00 -1.998675e+00 6.623796e+00 5.033152e+00 2.357193e+00 -6.010837e+00 -3.757049e-01 8.480477e-01 -1.587822e-02 -4.653046e-01 7.162771e-01 2.869466e-01 5.046306e-01 -3.777543e-01 -8.175226e-02 1.059998e-01 1.763510e-01 1.376803e-01 -2.685288e-01 4.108126e-02 7.226215e-03 -2.029034e-02 4.542156e-02 -1.993808e-02 -3.815506e-02 -3.432974e-02 -2.417003e-02 -1.343622e-02 -9.308247e-02 -3.730119e-02 -1.513874e-02 -1.492173e-02 -1.372315e-02 -1.352906e-03
<VARIANCE> 39
 9.147377e+00 6.139251e+01 1.249362e+02 1.965234e+02 8.514239e+01 3.230293e+01 3.799038e+01 3.115345e+01 3.585967e+01 3.849761e+01 2.573362e+01 8.533195e+00 1.677301e-02 8.305938e-01 2.462511e+00 3.796019e+00 4.919007e+00 5.264188e+00 2.260807e+00 2.870717e+00 3.425927e+00 1.378934e+00 2.463294e+00 1.555734e+00 8.224683e-01 7.899334e-04 1.267386e-01 2.709635e-01 5.264400e-01 6.111444e-01 7.997907e-01 3.566446e-01 5.890343e-01 6.583466e-01 2.310100e-01 3.872374e-01 3.052704e-01 1.558798e-01 1.031035e-04
<GCONST> 9.303108e+01
<STATE> 4
<MEAN> 39
 -1.090676e+01 -7.016847e+00 8.408254e+00 3.823170e+00 3.820509e+00 4.831522e-01 3.045585e+00 -1.849627e+00 6.934046e+00 3.518900e+00 -5.283929e-01 -1.040754e+00 8.100271e-01 -6.724504e-02 1.733751e-01 -1.705260e-01 -3.051038e-02 2.151794e-01 -2.230654e-01 1.051672e-01 1.074025e-02 -7.685544e-02 1.920663e-01 2.423436e-02 -8.883822e-03 -2.272159e-03 -5.688475e-02 6.055006e-02 -8.833109e-02 -1.007411e-01 2.909285e-03 -4.252931e-02 -9.233402e-03 3.039527e-02 -5.135922e-02 -3.588811e-02 4.794854e-02 4.377693e-03 -1.616578e-03
<VARIANCE> 39
 4.845950e+00 8.955931e+00 1.727759e+01 1.683467e+01 2.083871e+01 2.209753e+01 1.658949e+01 1.327203e+01 2.025924e+01 1.632835e+01 1.486126e+01 1.303465e+01 1.782332e-02 3.808241e-01 7.135311e-01 1.098713e+00 1.161906e+00 9.898677e-01 1.437747e+00 1.089627e+00 1.181140e+00 1.523417e+00 1.086765e+00 1.403084e+00 1.022512e+00 6.583944e-04 4.985716e-02 9.392405e-02 1.677964e-01 1.884198e-01 1.714525e-01 2.323081e-01 2.145486e-01 2.170392e-01 2.760516e-01 1.689473e-01 2.912108e-01 1.995173e-01 1.060861e-04
<GCONST> 6.260356e+01
<STATE> 5
<MEAN> 39
 -1.459580e+01 -2.907930e+00 7.627932e+00 -2.474912e-01 1.183521e+01 -6.213418e+00 4.099551e+00 7.000698e-02 4.317504e+00 4.775400e+00 7.663092e-02 -8.819424e-01 7.530224e-01 6.115189e-01 -1.511607e-01 -4.451760e-02 2.674275e-01 2.220932e-01 2.288876e-01 -2.489164e-01 -7.488794e-02 4.748180e-03 3.272961e-02 4.638829e-01 1.488298e-02 8.693318e-03 2.614014e-01 -1.676391e-01 9.375969e-02 2.262836e-01 -1.204525e-01 2.015833e-01 -7.016405e-02 3.753429e-02 7.161070e-02 -4.078099e-02 4.229705e-03 -9.244415e-03 4.755723e-03
<VARIANCE> 39
 1.595814e+01 3.154357e+01 1.374920e+02 2.615095e+01 7.258273e+01 4.428349e+01 1.913131e+01 2.104473e+01 1.683845e+01 2.224175e+01 4.286177e+01 1.109952e+01 1.217485e-02 1.624796e+00 7.745118e-01 1.534897e+00 2.193031e+00 1.150688e+00 1.401972e+00 1.956816e+00 9.365297e-01 1.459947e+00 1.808306e+00 1.649407e+00 1.189047e+00 8.914646e-04 8.281558e-02 8.658513e-02 2.216100e-01 2.340101e-01 2.830118e-01 2.205777e-01 3.237143e-01 1.837762e-01 3.161719e-01 2.778369e-01 3.092690e-01 1.996752e-01 7.425406e-05
<GCONST> 7.677325e+01
<STATE> 6
<MEAN> 39
 -8.686208e-01 -1.072291e+01 1.316010e+01 1.180843e+01 8.323488e+00 5.582319e-01 -4.831004e+00 1.433992e+00 7.536502e+00 3.937806e+00 3.774740e+00 -2.835164e+00 9.004684e-01 3.384358e-01 3.786089e-02 -2.155301e-01 4.612433e-01 -5.855128e-01 1.700026e-01 -2.694456e-01 2.298439e-01 3.743441e-01 -4.410316e-01 -1.198413e-01 -5.676500e-02 -9.069650e-03 -2.389409e-01 2.089062e-01 -1.259894e-01 -2.531283e-01 7.223832e-02 -1.844238e-01 1.233771e-01 -2.704913e-02 -7.278613e-02 -5.203457e-03 -1.005171e-01 1.160376e-02 -6.591684e-03
<VARIANCE> 39
 1.955556e+01 3.257161e+01 7.437560e+01 2.666436e+01 2.186727e+01 2.051862e+01 9.301579e+01 3.230343e+01 2.380968e+01 3.258739e+01 1.810733e+01 2.005895e+01 1.232314e-02 1.100596e+00 1.420804e+00 1.836703e+00 1.653814e+00 1.689803e+00 1.764456e+00 1.573805e+00 1.170562e+00 1.447166e+00 5.906523e-01 1.519886e+00 7.546182e-01 8.516725e-04 6.928425e-02 9.957836e-02 2.342532e-01 2.694950e-01 2.059836e-01 1.887689e-01 1.741031e-01 1.849938e-01 2.771234e-01 1.203601e-01 1.949905e-01 1.237584e-01 4.890007e-05
<GCONST> 7.269464e+01
<STATE> 7
<MEAN> 39
 -6.817059e+00 -2.981397e+00 2.660130e+00 3.099433e+00 3.190902e+00 -2.637914e+00 -3.054450e-02 1.481970e-01 3.224847e+00 1.754788e-01 1.076555e+00 -1.735604e+00 5.748510e-01 -3.993264e-01 2.525309e-01 -4.057642e-01 -6.901562e-01 -3.639159e-01 -1.736286e-01 2.380608e-02 -3.889988e-01 -4.230659e-01 -1.322647e-01 -1.611744e-01 1.135823e-01 -3.105527e-02 4.366143e-02 -7.731914e-02 8.297870e-02 7.718045e-02 -1.628197e-03 1.755060e-03 -8.167807e-02 -1.103374e-01 1.148794e-02 -5.270067e-03 3.668018e-02 5.002202e-02 2.457336e-03
<VARIANCE> 39
 2.482670e+01 6.207672e+00 1.503750e+01 3.492812e+01 1.501531e+01 1.611459e+01 2.507220e+01 2.260830e+01 2.506257e+01 1.855279e+01 1.061105e+01 2.031642e+01 6.909449e-02 3.953354e-01 5.855899e-01 9.770844e-01 1.924399e+00 1.051492e+00 1.451831e+00 1.489539e+00 1.834199e+00 1.800799e+00 1.218832e+00 7.188986e-01 1.081018e+00 1.073626e-03 6.039475e-02 7.880283e-02 1.257045e-01 2.717739e-01 1.722818e-01 2.272199e-01 1.917366e-01 3.432926e-01 2.757838e-01 2.045063e-01 1.470933e-01 1.874370e-01 1.319525e-04
<GCONST> 6.785942e+01
<TRANSP> 8
 0.000000e+00 1.000000e+00 0.000000e+00 0.000000e+00 0.000000e+00 0.000000e+00 0.000000e+00 0.000000e+00
 0.000000e+00 9.275379e-01 7.246207e-02 0.000000e+00 0.000000e+00 0.000000e+00 0.000000e+00 0.000000e+00
 0.000000e+00 0.000000e+00 8.938382e-01 1.061618e-01 0.000000e+00 0.000000e+00 0.000000e+00 0.000000e+00
 0.000000e+00 0.000000e+00 0.000000e+00 9.440736e-01 5.592643e-02 0.000000e+00 0.000000e+00 0.000000e+00
 0.000000e+00 0.000000e+00 0.000000e+00 0.000000e+00 9.086705e-01 9.132953e-02 0.000000e+00 0.000000e+00
 0.000000e+00 0.000000e+00 0.000000e+00 0.000000e+00 0.000000e+00 9.103746e-01 8.962534e-02 0.000000e+00
 0.000000e+00 0.000000e+00 0.000000e+00 0.000000e+00 0.000000e+00 0.000000e+00 9.129823e-01 8.701770e-02
 0.000000e+00 0.000000e+00 0.000000e+00 0.000000e+00 0.000000e+00 0.000000e+00 0.000000e+00 0.000000e+00
<ENDHMM>
