~o
<STREAMINFO> 1 39
<VECSIZE> 39<NULLD><MFCC_E_D_A><DIAGC>
~h "dix"
<BEGINHMM>
<NUMSTATES> 5
<STATE> 2
<MEAN> 39
 -9.613665e+00 -4.226552e+00 7.417111e+00 1.217533e+00 4.094925e+00 2.974710e-01 1.130134e+00 -1.268982e+00 5.308178e+00 1.508643e+00 -6.668699e-01 1.447266e-01 7.631033e-01 -1.215569e-01 -1.824088e-01 3.751829e-01 7.096107e-02 1.454194e-01 -7.059985e-02 -5.779533e-03 2.072417e-02 2.103112e-01 1.477332e-01 -7.268368e-02 -2.252190e-02 1.243848e-02 -5.337552e-02 2.279517e-02 -5.372888e-02 -8.555978e-02 1.342935e-02 -6.768154e-02 1.740770e-02 -2.768088e-03 -9.741461e-02 -2.979016e-02 5.644278e-03 -1.383964e-02 -2.155357e-03
<VARIANCE> 39
 1.273213e+01 5.457362e+01 7.458901e+01 5.823017e+01 2.340532e+01 2.169629e+01 2.613861e+01 3.181838e+01 3.128655e+01 2.221740e+01 1.740701e+01 1.154355e+01 3.619282e-02 9.034555e-01 2.212395e+00 2.493012e+00 3.100330e+00 2.297492e+00 1.946145e+00 1.524830e+00 2.226619e+00 2.421330e+00 2.421968e+00 1.546838e+00 1.016152e+00 1.263233e-03 1.605266e-01 3.346637e-01 3.271660e-01 4.228804e-01 4.692052e-01 3.421772e-01 2.791776e-01 4.508356e-01 3.984959e-01 4.867139e-01 2.905042e-01 2.137560e-01 1.448634e-04
<GCONST> 8.702116e+01
<STATE> 3
<MEAN> 39
 -1.653875e+01 -1.457955e+01 1.731564e+01 -1.203943e+01 1.708751e+01 -1.410669e+01 -4.707615e-01 2.524027e+00 1.472932e+00 7.607967e+00 -4.481037e+00 6.427004e-01 5.586522e-01 -4.414782e-01 8.102505e-02 -4.629055e-01 -5.215715e-01 1.682956e-01 -3.012121e-01 -1.144294e-01 -2.989402e-01 -5.730953e-01 -1.473486e-01 3.961319e-02 -2.614123e-01 -2.002284e-02 6.798069e-02 -6.816652e-02 -2.849218e-02 2.012071e-01 -1.049580e-01 1.117558e-01 -5.936550e-02 -4.334768e-02 1.134811e-01 -2.383634e-02 1.638796e-02 8.309224e-03 1.763331e-03
<VARIANCE> 39
 2.189964e+01 3.503835e+01 5.995281e+01 4.747043e+01 4.729870e+01 5.519899e+01 3.879509e+01 2.348112e+01 3.629662e+01 3.553736e+01 1.297292e+01 1.269110e+01 2.854600e-02 1.577775e+00 1.168373e+00 1.937267e+00 3.660651e+00 2.210042e+00 3.934794e+00 3.244817e+00 2.008878e+00 2.165454e+00 3.059893e+00 1.162552e+00 1.184003e+00 9.187406e-04 1.686555e-01 2.619762e-01 2.792675e-01 3.944579e-01 3.883048e-01 4.033836e-01 5.547841e-01 4.694349e-01 4.712883e-01 5.319298e-01 2.134719e-01 1.890107e-01 1.118964e-04
<GCONST> 8.927549e+01
<STATE> 4
<MEAN> 39
 -1.484291e+01 -1.263293e+00 9.941448e-02 -3.670957e+00 3.393733e+00 -4.727402e+00 2.109935e+00 -3.061590e+00 6.949587e-01 -2.517887e-01 3.420307e-01 -1.916305e+00 6.704921e-01 1.763694e-01 -3.807529e-02 -4.990250e-02 5.459657e-02 8.177388e-03 -2.681365e-03 -1.069125e-01 -9.902644e-05 -1.015554e-01 -3.872144e-02 4.424769e-02 4.661348e-02 -6.377922e-03 2.384531e-02 -1.889621e-03 3.198295e-02 2.355155e-02 3.430689e-02 1.396303e-02 -2.239312e-02 2.258023e-02 2.054690e-02 7.333599e-03 1.736110e-02 2.674905e-02 4.556607e-04
<VARIANCE> 39
 1.775392e+01 1.256208e+01 1.432257e+01 2.366936e+01 1.686691e+01 1.437516e+01 1.899503e+01 1.951250e+01 1.455645e+01 1.609712e+01 1.280309e+01 1.105221e+01 2.529049e-02 3.423771e-01 5.430362e-01 6.883757e-01 8.579057e-01 9.399657e-01 9.750866e-01 1.400234e+00 1.488757e+00 1.333146e+00 1.355967e+00 1.295750e+00 1.137066e+00 4.431776e-04 6.381520e-02 1.056883e-01 1.176938e-01 1.709101e-01 1.782237e-01 1.843074e-01 2.634495e-01 2.842667e-01 2.679249e-01 2.355912e-01 2.558030e-01 2.261225e-01 8.293375e-05
<GCONST> 6.282154e+01
<TRANSP> 5
 0.000000e+00 1.000000e+00 0.000000e+00 0.000000e+00 0.000000e+00
 0.000000e+00 9.573947e-01 4.260525e-02 0.000000e+00 0.000000e+00
 0.000000e+00 0.000000e+00 8.719736e-01 1.280264e-01 0.000000e+00
 0.000000e+00 0.000000e+00 0.000000e+00 9.687678e-01 3.123227e-02
 0.000000e+00 0.000000e+00 0.000000e+00 0.000000e+00 0.000000e+00
<ENDHMM>
