~o
<STREAMINFO> 1 39
<VECSIZE> 39<NULLD><MFCC_E_D_A><DIAGC>
~h "douze"
<BEGINHMM>
<NUMSTATES> 6
<STATE> 2
<MEAN> 39
 -9.406393e+00 -2.316659e+00 4.795579e-01 -1.874670e+00 1.615437e+00 -9.944158e-01 2.055325e+00 -1.415393e+00 1.223841e+00 -1.243310e+00 1.494945e+00 -2.542818e-01 6.467191e-01 1.222686e-01 -3.676665e-01 -4.309314e-03 -8.942646e-02 3.880763e-01 4.202576e-01 1.133766e-01 1.575461e-01 1.215140e-01 -5.466021e-02 1.618017e-01 1.701681e-01 1.863863e-02 8.128950e-02 -2.942287e-02 6.882874e-02 4.321723e-02 2.131321e-02 9.523229e-02 9.715467e-02 1.574146e-02 3.878384e-03 1.983705e-02 3.612411e-02 1.608338e-01 2.485409e-03
<VARIANCE> 39
 3.413194e+00 7.469378e+00 1.272683e+01 7.402891e+00 1.081710e+01 1.636510e+01 1.407633e+01 1.451426e+01 1.127473e+01 1.152050e+01 9.892457e+00 9.533471e+00 1.679075e-02 3.425289e-01 7.947342e-01 1.003089e+00 1.362375e+00 1.998848e+00 2.204947e+00 1.889588e+00 2.111664e+00 1.701711e+00 1.448715e+00 1.369845e+00 1.379017e+00 9.471767e-04 5.813054e-02 9.005247e-02 9.444503e-02 1.893881e-01 2.708802e-01 4.220221e-01 3.058306e-01 4.079619e-01 3.392431e-01 2.274300e-01 2.730055e-01 2.519937e-01 1.329714e-04
<GCONST> 6.404797e+01
<STATE> 3
<MEAN> 39
 -2.604248e+00 -1.212751e+01 1.692027e+01 -5.257612e+00 -6.645125e-01 1.198650e+01 3.344901e+00 1.440317e+00 2.039424e+00 -7.103142e-01 -2.449747e-01 6.670420e+00 7.594620e-01 1.658483e-01 3.002802e-01 1.090715e-01 7.149951e-02 -1.501219e-02 2.627351e-01 1.801473e-01 2.725330e-01 2.057813e-01 -8.507580e-02 -1.770547e-01 2.589341e-01 3.630996e-03 2.674464e-03 1.482892e-01 -2.902643e-02 2.878746e-03 -1.751311e-01 -1.479374e-01 -1.073183e-02 2.321708e-02 7.390616e-02 7.434926e-03 -8.634355e-02 -1.327087e-01 -3.465712e-03
<VARIANCE> 39
 1.086531e+02 5.768283e+01 8.456477e+01 1.072126e+02 2.318817e+02 6.146102e+01 2.798001e+01 4.577253e+01 8.255396e+01 6.357700e+01 4.366018e+01 3.091767e+01 5.003740e-02 2.598709e+00 2.497933e+00 2.279126e+00 3.216708e+00 6.614863e+00 4.550925e+00 1.778861e+00 4.534056e+00 3.827909e+00 3.156061e+00 2.024805e+00 2.160897e+00 1.806567e-03 1.911203e-01 4.021919e-01 3.552488e-01 4.909286e-01 9.161173e-01 7.992809e-01 2.560985e-01 7.964309e-01 5.409855e-01 5.546021e-01 3.652853e-01 3.677044e-01 1.031093e-04
<GCONST> 1.074324e+02
<STATE> 4
<MEAN> 39
 -5.192544e+00 -2.031537e-01 4.734267e+00 7.802168e-01 4.359513e+00 5.653353e+00 6.788265e+00 4.684154e+00 5.873361e+00 -1.707593e+00 9.981601e-01 3.032406e+00 7.107853e-01 -1.957475e-01 8.374541e-03 -5.984611e-02 -2.703737e-02 -5.814065e-02 -8.641479e-02 2.668637e-02 -1.110110e-01 -9.927783e-02 -1.294212e-02 1.012491e-01 -7.793341e-02 -6.120746e-03 -6.223183e-02 -2.578418e-02 -1.663563e-02 -4.692879e-02 1.519339e-02 -3.343193e-02 -6.360317e-02 -6.801201e-02 -6.457939e-02 2.044438e-02 1.269806e-02 -4.436868e-02 -1.521368e-03
<VARIANCE> 39
 2.127352e+01 1.897773e+01 1.709956e+01 3.653348e+01 3.500494e+01 2.958563e+01 1.748256e+01 3.326205e+01 2.516093e+01 1.547339e+01 2.749933e+01 1.741450e+01 1.541929e-01 1.121345e+00 8.336849e-01 6.158390e-01 1.213908e+00 2.050438e+00 1.566134e+00 1.432784e+00 2.103781e+00 1.592369e+00 1.561137e+00 1.726923e+00 1.734586e+00 7.600416e-04 1.413823e-01 1.281033e-01 1.082077e-01 1.999350e-01 3.396339e-01 2.927048e-01 2.480334e-01 3.656155e-01 2.667709e-01 3.108997e-01 2.636379e-01 3.537884e-01 1.186210e-04
<GCONST> 7.797232e+01
<STATE> 5
<MEAN> 39
 -1.077030e+01 -2.462080e+00 4.933902e-01 -3.139245e+00 1.259301e+00 -1.015160e+00 1.006048e+00 -2.522048e+00 1.158561e+00 -1.502680e+00 1.044076e+00 -2.347762e-01 5.522552e-01 -6.870550e-03 4.249291e-02 -4.367837e-02 1.875411e-02 -9.065441e-02 -1.780374e-01 -1.604561e-01 3.036579e-02 -3.046291e-02 3.175453e-02 -8.156370e-02 -9.095806e-02 -8.035767e-03 2.458601e-02 -3.952750e-03 6.145920e-03 3.480935e-02 1.184362e-02 3.017776e-02 2.886053e-03 7.567390e-03 2.647196e-02 -1.461546e-02 2.814988e-02 5.273069e-02 4.463992e-04
<VARIANCE> 39
 9.598470e+00 4.750642e+00 1.052674e+01 8.817785e+00 1.302421e+01 1.816304e+01 1.559641e+01 1.757950e+01 1.467691e+01 1.087399e+01 1.446675e+01 1.538725e+01 2.118183e-02 3.624949e-01 3.388225e-01 5.573032e-01 6.747544e-01 8.332369e-01 1.439536e+00 1.497939e+00 1.271808e+00 1.025087e+00 1.148747e+00 1.329153e+00 1.292178e+00 4.981301e-04 4.878408e-02 5.695484e-02 9.900741e-02 1.010790e-01 1.419010e-01 2.766227e-01 2.712821e-01 2.364971e-01 1.876298e-01 2.289889e-01 2.381617e-01 2.307772e-01 8.462920e-05
<GCONST> 5.668209e+01
<TRANSP> 6
 0.000000e+00 1.000000e+00 0.000000e+00 0.000000e+00 0.000000e+00 0.000000e+00
 0.000000e+00 9.017085e-01 9.829148e-02 0.000000e+00 0.000000e+00 0.000000e+00
 0.000000e+00 0.000000e+00 9.165230e-01 8.347702e-02 0.000000e+00 0.000000e+00
 0.000000e+00 0.000000e+00 0.000000e+00 9.622800e-01 3.017624e-02 7.543793e-03
 0.000000e+00 0.000000e+00 0.000000e+00 0.000000e+00 9.661511e-01 3.384898e-02
 0.000000e+00 0.000000e+00 0.000000e+00 0.000000e+00 0.000000e+00 0.000000e+00
<ENDHMM>
