~o
<STREAMINFO> 1 39
<VECSIZE> 39<NULLD><MFCC_E_D_A><DIAGC>
~h "egal"
<BEGINHMM>
<NUMSTATES> 6
<STATE> 2
<MEAN> 39
 -6.271342e+00 -7.591582e+00 9.161100e+00 6.444522e+00 3.273437e+00 -2.247554e-01 -7.666241e-01 1.628575e+00 5.658143e+00 -2.920741e+00 1.582549e+00 3.247916e-01 7.267028e-01 2.308616e-01 -1.073034e-01 1.974204e-01 1.893419e-01 2.240481e-02 5.935072e-02 2.847936e-03 2.520025e-02 2.184636e-01 -1.509509e-01 2.267179e-02 2.046873e-01 1.541590e-02 4.665933e-02 1.685988e-04 -5.182078e-02 2.747018e-02 3.039220e-02 3.667382e-02 -2.864383e-02 -5.078068e-02 7.716542e-03 4.465377e-03 -2.838031e-02 -2.481716e-02 9.637105e-05
<VARIANCE> 39
 2.240642e+01 3.590123e+01 5.231689e+01 5.856553e+01 2.058630e+01 3.045671e+01 3.984091e+01 3.846705e+01 4.223729e+01 2.996137e+01 1.649924e+01 2.364645e+01 3.864051e-02 1.480263e+00 1.868135e+00 3.805798e+00 4.451313e+00 1.853678e+00 2.047694e+00 1.326144e+00 2.388638e+00 3.432066e+00 1.854910e+00 1.360880e+00 1.895618e+00 3.676714e-03 1.841744e-01 3.123824e-01 5.371533e-01 5.957333e-01 3.386289e-01 3.228097e-01 2.588987e-01 4.578423e-01 5.416787e-01 3.242116e-01 2.312496e-01 3.256156e-01 4.031883e-04
<GCONST> 9.307063e+01
<STATE> 3
<MEAN> 39
 4.992468e+00 -1.065427e+01 8.269353e+00 8.512495e+00 3.943177e+00 6.587769e+00 -3.217754e+00 -3.686173e+00 4.204892e+00 -7.768105e+00 1.629377e+00 1.521514e+00 9.335696e-01 9.220160e-01 2.690201e-01 -7.584184e-01 -6.488988e-01 7.791211e-02 4.467788e-01 -1.821161e-01 -1.426315e+00 -1.175646e+00 -2.712227e-01 1.946537e-01 -4.446017e-02 5.925109e-03 -1.966420e-01 9.731281e-02 -1.704569e-01 -4.085117e-01 -2.102703e-01 -2.292111e-01 1.139369e-01 7.553030e-02 -4.846695e-01 -8.846381e-02 1.347671e-02 1.365393e-01 -8.699723e-03
<VARIANCE> 39
 5.131330e+01 3.836469e+01 8.265486e+00 2.060364e+01 2.239303e+01 4.874599e+01 2.003272e+01 2.743644e+01 6.749948e+01 4.530602e+01 2.054649e+01 2.315709e+01 3.307582e-03 9.925673e-01 6.372369e-01 7.126899e-01 3.110121e+00 2.024559e+00 1.776734e+00 2.524817e+00 1.835641e+00 3.997877e+00 1.845709e+00 1.217073e+00 1.364210e+00 6.404417e-04 6.196986e-02 1.795796e-01 1.725189e-01 6.821491e-01 3.206533e-01 2.584460e-01 3.253385e-01 2.434663e-01 7.468590e-01 1.343151e-01 2.626179e-01 2.401863e-01 8.872446e-05
<GCONST> 7.843040e+01
<STATE> 4
<MEAN> 39
 3.283342e+00 -4.320780e+00 3.234821e+00 2.382203e+00 3.147620e+00 1.885900e+00 -3.708680e-01 -1.061217e+01 -3.584768e+00 -5.953327e+00 3.830962e+00 2.140643e-01 8.994266e-01 -1.654663e-01 1.951474e-01 -2.603729e-01 2.198822e-02 3.175999e-04 -8.357574e-02 5.805698e-01 2.434974e-01 -4.686348e-01 3.538226e-01 2.447435e-01 -2.014601e-02 -1.050234e-02 -1.533098e-01 -1.671766e-02 4.794366e-02 1.858335e-01 1.844876e-01 3.419322e-02 5.366119e-02 2.434185e-01 2.226980e-01 1.795101e-01 3.010191e-02 -7.852323e-02 -2.200896e-03
<VARIANCE> 39
 9.824978e+00 7.406656e+00 8.783134e+00 2.312436e+01 1.729650e+01 3.403458e+01 2.823201e+01 2.156505e+01 1.870547e+01 5.553060e+01 1.048653e+01 1.640452e+01 3.878006e-03 2.925862e-01 2.897679e-01 6.811593e-01 1.317760e+00 1.578813e+00 1.133841e+00 1.176710e+00 1.970288e+00 1.330604e+00 1.540418e+00 1.028570e+00 6.098674e-01 1.214631e-04 3.252519e-02 5.093468e-02 9.280300e-02 1.429811e-01 1.701232e-01 1.729592e-01 2.466677e-01 2.750445e-01 1.919810e-01 1.569213e-01 2.025502e-01 9.375864e-02 2.252137e-05
<GCONST> 5.558255e+01
<STATE> 5
<MEAN> 39
 -4.675208e+00 -1.889224e+00 5.947406e-01 2.806891e+00 5.742959e+00 1.261921e+00 2.706630e+00 -2.786413e+00 -2.080977e+00 -1.083454e+00 4.521301e+00 7.999677e-01 5.852775e-01 -3.991590e-01 1.119989e-01 -1.788203e-01 -2.999933e-01 -9.553467e-02 -1.242282e-01 -8.837770e-02 9.506927e-02 8.874122e-02 7.200433e-02 -1.370172e-01 -9.701172e-03 -1.871123e-02 5.079493e-02 1.371176e-02 4.168857e-02 -2.940139e-02 -6.677379e-02 -1.896000e-02 -2.341409e-02 -5.922369e-02 -1.147902e-02 -2.684476e-02 -1.899141e-02 -2.887592e-03 1.127669e-03
<VARIANCE> 39
 2.112233e+01 1.327232e+01 1.262887e+01 3.727239e+01 3.089917e+01 3.009627e+01 2.166924e+01 1.768563e+01 2.196992e+01 1.477790e+01 2.474826e+01 1.668861e+01 3.284571e-02 4.681935e-01 6.821216e-01 9.230146e-01 1.318489e+00 1.434874e+00 1.434312e+00 1.516623e+00 1.325508e+00 1.264810e+00 1.249450e+00 1.487343e+00 8.698817e-01 5.586122e-04 7.154693e-02 8.224085e-02 1.273168e-01 2.297120e-01 2.139347e-01 2.713715e-01 2.450101e-01 2.150858e-01 2.259541e-01 2.214336e-01 2.546580e-01 1.515375e-01 7.896910e-05
<GCONST> 6.818845e+01
<TRANSP> 6
 0.000000e+00 1.000000e+00 0.000000e+00 0.000000e+00 0.000000e+00 0.000000e+00
 0.000000e+00 9.556615e-01 4.433855e-02 0.000000e+00 0.000000e+00 0.000000e+00
 0.000000e+00 0.000000e+00 8.493987e-01 1.506013e-01 0.000000e+00 0.000000e+00
 0.000000e+00 0.000000e+00 0.000000e+00 9.037482e-01 9.625184e-02 0.000000e+00
 0.000000e+00 0.000000e+00 0.000000e+00 0.000000e+00 9.567420e-01 4.325799e-02
 0.000000e+00 0.000000e+00 0.000000e+00 0.000000e+00 0.000000e+00 0.000000e+00
<ENDHMM>
