~o
<STREAMINFO> 1 39
<VECSIZE> 39<NULLD><MFCC_E_D_A><DIAGC>
~h "et"
<BEGINHMM>
<NUMSTATES> 3
<STATE> 2
<MEAN> 39
 -3.920558e+00 -7.614570e+00 9.408025e+00 1.039580e+01 4.132999e+00 2.288931e+00 2.347925e-01 -2.137055e-01 8.177620e+00 -2.500757e+00 1.000473e+00 -1.631143e-01 7.643423e-01 -6.460522e-02 1.096647e-01 -1.634842e-01 -5.947362e-02 -4.165744e-02 -9.720900e-02 5.266199e-02 -3.255225e-03 -7.430940e-02 -4.408804e-02 -1.272962e-02 7.138266e-02 -7.885565e-03 -2.498733e-02 3.834420e-02 -5.473176e-02 -4.259220e-02 -2.269174e-02 -4.801526e-02 -2.451606e-02 -4.079422e-02 -2.079220e-02 1.971916e-02 8.101308e-03 -4.825066e-03 -3.045738e-03
<VARIANCE> 39
 2.683952e+01 4.168740e+01 3.484658e+01 4.360688e+01 1.995401e+01 3.840538e+01 2.361764e+01 2.428576e+01 3.794303e+01 1.641827e+01 1.568819e+01 1.499467e+01 7.038312e-02 8.202089e-01 1.330119e+00 1.671586e+00 2.631033e+00 1.412740e+00 1.246934e+00 1.344127e+00 1.866204e+00 1.961414e+00 1.061489e+00 1.199782e+00 1.034130e+00 3.329356e-03 8.690669e-02 1.459668e-01 2.114429e-01 3.185737e-01 2.020369e-01 1.997039e-01 2.429332e-01 3.372512e-01 2.678486e-01 1.858949e-01 2.334666e-01 1.819471e-01 2.377797e-04
<GCONST> 7.927646e+01
<TRANSP> 3
 0.000000e+00 1.000000e+00 0.000000e+00
 0.000000e+00 9.557522e-01 4.424778e-02
 0.000000e+00 0.000000e+00 0.000000e+00
<ENDHMM>
