~o
<STREAMINFO> 1 39
<VECSIZE> 39<NULLD><MFCC_E_D_A><DIAGC>
~h "fois"
<BEGINHMM>
<NUMSTATES> 5
<STATE> 2
<MEAN> 39
 -9.233498e+00 -7.697699e+00 -2.153636e+00 -6.248703e+00 9.167021e-01 -2.807825e+00 1.595852e+00 -1.690299e+00 7.347099e-01 -9.112244e-01 3.426587e-01 -5.807141e-01 4.842795e-01 2.256969e-01 4.462746e-02 1.000138e-01 -8.607771e-02 -1.135904e-01 -2.713279e-01 2.730052e-02 8.285116e-02 1.807701e-02 8.762987e-02 2.194679e-02 1.049811e-01 1.026535e-02 9.107157e-02 1.326876e-01 8.884737e-02 1.030064e-01 -4.219378e-02 -2.286183e-02 -5.970442e-02 -1.535830e-02 2.394973e-02 2.867059e-02 3.459210e-02 1.251004e-02 2.586831e-03
<VARIANCE> 39
 1.145718e+01 5.559180e+01 1.920184e+01 3.406952e+01 1.131647e+01 2.187282e+01 1.959290e+01 2.290058e+01 2.308287e+01 1.794617e+01 1.376770e+01 1.106938e+01 1.935325e-02 4.759722e-01 8.477448e-01 1.103816e+00 9.475058e-01 9.290175e-01 1.745241e+00 9.362441e-01 1.195482e+00 1.612273e+00 1.382138e+00 1.308340e+00 1.225864e+00 5.955891e-04 5.982334e-02 1.620976e-01 1.974589e-01 2.016882e-01 1.597128e-01 3.429616e-01 1.540344e-01 2.273887e-01 3.299631e-01 2.406228e-01 2.728648e-01 2.384778e-01 1.294946e-04
<GCONST> 6.859132e+01
<STATE> 3
<MEAN> 39
 5.135614e+00 -3.621169e-01 1.282327e+01 -3.306332e+00 -1.129498e+01 -3.630420e+00 -1.028663e+00 -2.737775e-01 4.987385e+00 -2.378109e-01 2.346795e-01 3.398302e+00 8.207621e-01 1.006204e+00 1.230493e+00 9.676640e-01 4.487122e-01 -9.270620e-01 -5.140735e-02 -1.002523e-01 1.043474e-04 5.721316e-01 2.650663e-02 -4.715307e-02 2.077551e-01 3.125246e-02 -1.427736e-01 -1.850585e-01 -2.725542e-01 -1.981446e-01 2.317681e-02 1.747712e-02 1.183470e-01 2.020330e-02 -1.038003e-02 -9.231202e-02 -1.337191e-01 -1.326172e-01 -6.109972e-03
<VARIANCE> 39
 3.547246e+01 6.420575e+01 8.567125e+01 5.706397e+01 1.370418e+02 1.696401e+01 1.074409e+01 2.807286e+01 3.009377e+01 3.102952e+01 2.388014e+01 2.219443e+01 3.678422e-02 1.790355e+00 5.105837e+00 5.797994e+00 3.414431e+00 5.196564e+00 1.704289e+00 1.594194e+00 2.179310e+00 2.379860e+00 1.741520e+00 1.310379e+00 1.439435e+00 3.550436e-03 2.076506e-01 7.511225e-01 8.383548e-01 3.767253e-01 9.925118e-01 2.931568e-01 2.541316e-01 3.013619e-01 4.043975e-01 2.840178e-01 1.944440e-01 2.646402e-01 2.937019e-04
<GCONST> 9.613470e+01
<STATE> 4
<MEAN> 39
 1.129933e+00 3.239190e+00 2.980338e+00 -5.664241e+00 -7.244329e+00 -5.500525e+00 7.152044e-01 6.897316e-01 3.064151e+00 -4.849771e+00 -3.009115e+00 -1.652288e+00 7.305192e-01 -5.765231e-01 -3.564182e-01 -5.219203e-01 -1.927432e-01 4.557537e-01 1.106437e-01 3.083040e-02 -8.401565e-02 -4.769329e-01 -3.378353e-01 -2.654772e-01 -3.674717e-01 -2.787314e-02 -4.964622e-02 -3.131260e-02 5.032279e-02 5.006176e-02 4.549674e-02 7.647138e-03 -6.843093e-03 -5.657847e-02 -4.547018e-02 1.742592e-02 3.490192e-02 2.191862e-02 -1.298817e-03
<VARIANCE> 39
 2.687024e+01 2.443191e+01 2.138858e+01 1.339280e+01 3.135245e+01 2.058665e+01 1.460177e+01 1.465209e+01 2.856006e+01 3.042244e+01 2.119064e+01 1.346303e+01 7.327560e-02 7.422013e-01 7.921171e-01 6.775183e-01 9.603501e-01 1.267989e+00 8.993347e-01 1.365669e+00 1.402304e+00 1.536022e+00 1.838885e+00 1.903335e+00 1.247963e+00 1.110650e-03 8.982786e-02 1.112637e-01 1.156823e-01 1.237283e-01 1.525463e-01 1.428431e-01 2.581854e-01 2.371598e-01 2.718658e-01 2.566603e-01 3.631457e-01 2.182420e-01 1.284836e-04
<GCONST> 7.075641e+01
<TRANSP> 5
 0.000000e+00 1.000000e+00 0.000000e+00 0.000000e+00 0.000000e+00
 0.000000e+00 9.496456e-01 5.035443e-02 0.000000e+00 0.000000e+00
 0.000000e+00 0.000000e+00 8.938525e-01 1.061475e-01 0.000000e+00
 0.000000e+00 0.000000e+00 0.000000e+00 9.347249e-01 6.527516e-02
 0.000000e+00 0.000000e+00 0.000000e+00 0.000000e+00 0.000000e+00
<ENDHMM>
