~o
<STREAMINFO> 1 39
<VECSIZE> 39<NULLD><MFCC_E_D_A><DIAGC>
~h "huit"
<BEGINHMM>
<NUMSTATES> 6
<STATE> 2
<MEAN> 39
 -8.172533e+00 -3.399570e+00 -6.541808e-01 2.621810e+00 5.956485e+00 8.471666e-02 2.370852e-01 -1.552717e+00 5.160853e+00 1.853310e+00 6.819085e-01 -9.022527e-01 7.132841e-01 3.032476e-01 -3.207785e-01 -3.332993e-02 6.793272e-01 7.557843e-01 2.403785e-01 -3.083420e-01 1.395407e-01 4.508722e-01 3.470369e-01 -5.570401e-02 1.771118e-01 2.595256e-02 3.204904e-02 -4.610168e-02 1.106999e-01 1.121167e-01 -1.097249e-01 -8.434828e-02 9.055161e-02 3.925330e-02 -2.035985e-02 -1.001228e-01 -1.016550e-01 3.721462e-02 6.939062e-04
<VARIANCE> 39
 7.871259e+00 5.379971e+00 7.847481e+00 1.796400e+01 3.208324e+01 1.394583e+01 1.263166e+01 9.577044e+00 1.675504e+01 2.025871e+01 1.083188e+01 8.689871e+00 4.143443e-02 2.622665e-01 3.822060e-01 6.313753e-01 1.273411e+00 1.439695e+00 8.691782e-01 1.481609e+00 1.121255e+00 1.262599e+00 1.540340e+00 1.459998e+00 9.688720e-01 1.607907e-03 4.597008e-02 6.534164e-02 1.144528e-01 2.224907e-01 3.292119e-01 1.457506e-01 3.162773e-01 2.010587e-01 2.333164e-01 2.667381e-01 2.664206e-01 1.769645e-01 2.238740e-04
<GCONST> 6.174536e+01
<STATE> 3
<MEAN> 39
 -4.619218e+00 -9.336163e+00 1.318794e+01 9.466759e+00 4.015085e+00 2.859143e+00 -2.177975e+00 1.139735e+00 8.415110e+00 9.184278e-01 -8.355327e-01 3.329655e-01 8.630715e-01 -2.870198e-01 1.430122e-01 3.556050e-01 -6.371601e-01 -4.531549e-01 -2.165834e-01 7.784677e-02 -5.221908e-02 -2.666186e-01 -6.702657e-02 4.419408e-02 -1.123306e-01 -1.148280e-02 -6.082968e-02 9.465089e-02 -2.302590e-01 -1.696686e-01 1.199931e-04 -4.258325e-03 4.590940e-03 -6.981194e-02 -1.240091e-01 -3.502657e-02 7.626514e-02 -6.354875e-03 -7.507920e-03
<VARIANCE> 39
 2.516574e+01 5.116455e+01 1.269157e+02 6.077739e+01 4.758777e+01 4.441115e+01 6.394125e+01 4.074747e+01 2.944600e+01 2.649408e+01 2.885716e+01 1.906749e+01 4.462833e-02 1.236652e+00 3.775968e+00 4.960054e+00 4.458869e+00 4.587527e+00 4.485700e+00 4.075260e+00 2.887954e+00 4.200107e+00 1.735849e+00 1.949814e+00 1.117584e+00 3.617482e-03 1.486242e-01 5.577391e-01 5.419505e-01 7.182887e-01 8.723565e-01 8.822817e-01 7.605903e-01 6.256390e-01 7.091929e-01 3.383428e-01 3.436849e-01 2.126233e-01 2.692856e-04
<GCONST> 1.037395e+02
<STATE> 4
<MEAN> 39
 -1.048567e+01 -2.529339e+00 2.434891e-01 -2.576035e+00 1.787061e+00 -2.615248e+00 1.304317e+00 -1.960202e+00 3.647021e-01 -1.166656e+00 9.136815e-01 -1.477896e+00 5.433887e-01 -3.872985e-02 -1.962021e-03 -1.550765e-01 -9.202485e-02 -7.396223e-02 -2.203229e-02 2.004388e-02 -2.622372e-02 -1.171492e-01 -2.359631e-02 1.534269e-02 4.198233e-03 -6.481507e-03 1.695203e-03 -1.232477e-02 7.981995e-02 2.370052e-02 1.092009e-02 2.988695e-02 -1.591996e-02 1.980197e-02 5.606930e-02 2.827552e-02 -9.148055e-03 -1.236784e-02 2.955351e-03
<VARIANCE> 39
 4.484935e+00 4.662044e+00 9.995775e+00 1.108310e+01 1.243538e+01 1.051472e+01 1.478923e+01 1.311021e+01 1.125762e+01 1.083651e+01 1.008109e+01 1.004348e+01 3.182283e-02 3.719458e-01 3.810605e-01 8.731495e-01 8.659803e-01 1.181169e+00 1.169124e+00 1.377148e+00 1.075693e+00 1.183021e+00 1.067660e+00 8.684551e-01 9.314780e-01 1.219320e-03 7.084621e-02 7.382568e-02 1.190598e-01 1.702376e-01 2.280033e-01 2.427343e-01 2.785436e-01 1.888088e-01 2.229725e-01 1.828095e-01 1.653653e-01 1.744207e-01 1.400615e-04
<GCONST> 5.672330e+01
<STATE> 5
<MEAN> 39
 -8.848157e+00 -6.725573e+00 9.842160e+00 -7.300053e+00 8.855273e+00 -3.090325e+00 -5.181901e+00 -2.026948e-01 -3.254166e+00 3.196579e+00 -1.604322e+00 -1.658265e+00 3.424332e-01 4.344330e-01 7.908524e-02 6.510355e-02 2.451041e-02 1.870087e-01 5.141121e-01 -2.871028e-01 -3.437611e-01 -1.671944e-01 -3.509261e-01 3.272877e-02 -1.081873e-01 8.460273e-03 5.017352e-02 7.262402e-03 1.016605e-02 6.882467e-02 -4.636386e-02 6.809943e-02 8.474271e-02 1.943895e-02 3.155579e-02 -1.283590e-01 -3.600649e-02 1.501911e-02 -4.250612e-04
<VARIANCE> 39
 4.895615e+01 3.869598e+01 6.269204e+01 6.602184e+01 4.216616e+01 6.127193e+01 4.843074e+01 3.483725e+01 1.375945e+01 3.167478e+01 2.533665e+01 1.396834e+01 8.079409e-02 2.398892e+00 1.112859e+00 4.020200e+00 4.901043e+00 2.964702e+00 3.788053e+00 2.596430e+00 2.222958e+00 1.689559e+00 3.146164e+00 1.771423e+00 9.297976e-01 3.173896e-03 3.833721e-01 1.249511e-01 4.718063e-01 5.765789e-01 4.222362e-01 4.952216e-01 4.624959e-01 3.695039e-01 2.369483e-01 5.171362e-01 2.953800e-01 1.736642e-01 4.056678e-04
<GCONST> 9.626995e+01
<TRANSP> 6
 0.000000e+00 1.000000e+00 0.000000e+00 0.000000e+00 0.000000e+00 0.000000e+00
 0.000000e+00 9.077590e-01 9.224105e-02 0.000000e+00 0.000000e+00 0.000000e+00
 0.000000e+00 0.000000e+00 9.270859e-01 7.291408e-02 0.000000e+00 0.000000e+00
 0.000000e+00 0.000000e+00 0.000000e+00 9.644014e-01 3.559856e-02 0.000000e+00
 0.000000e+00 0.000000e+00 0.000000e+00 0.000000e+00 8.561941e-01 1.438060e-01
 0.000000e+00 0.000000e+00 0.000000e+00 0.000000e+00 0.000000e+00 0.000000e+00
<ENDHMM>
