~o
<STREAMINFO> 1 39
<VECSIZE> 39<NULLD><MFCC_E_D_A><DIAGC>
~h "moins"
<BEGINHMM>
<NUMSTATES> 6
<STATE> 2
<MEAN> 39
 -5.603997e+00 -9.594058e-01 1.288358e+00 -2.937324e-02 7.817827e-01 -3.304869e+00 3.109972e+00 1.848118e-01 1.181679e+00 -2.158139e+00 1.739131e+00 1.380491e-02 7.747576e-01 6.218233e-01 4.114355e-01 4.487751e-01 2.962770e-01 -5.820987e-02 -8.887240e-02 -8.711793e-02 -1.488206e-01 -9.491034e-02 -1.785095e-01 -1.339478e-01 -8.484039e-02 2.344163e-02 1.840534e-02 3.088228e-02 1.173134e-03 -3.910265e-02 -5.889755e-02 -6.997702e-02 -1.610577e-01 -8.793293e-02 -2.986549e-02 -3.003614e-03 -7.627456e-04 1.143725e-02 -1.361222e-03
<VARIANCE> 39
 9.929327e+00 9.419224e+00 1.311303e+01 1.184736e+01 9.802701e+00 8.450365e+00 1.472392e+01 2.232279e+01 1.204753e+01 8.801920e+00 1.553821e+01 1.206254e+01 2.289140e-02 3.086054e-01 4.628085e-01 6.678274e-01 6.423453e-01 1.132577e+00 1.396985e+00 1.438184e+00 1.597823e+00 1.433795e+00 1.013017e+00 1.262809e+00 9.986510e-01 4.062501e-04 2.871086e-02 4.667206e-02 1.356373e-01 1.043507e-01 2.175795e-01 3.190782e-01 2.514461e-01 2.455291e-01 2.249661e-01 1.793688e-01 2.122594e-01 2.001465e-01 5.121247e-05
<GCONST> 5.631491e+01
<STATE> 3
<MEAN> 39
 7.673163e+00 -7.754030e+00 1.613797e+01 1.917186e+00 -1.212864e+01 -1.199525e+00 5.623961e-01 1.009841e+01 3.385802e+00 -5.904020e+00 1.221350e+00 -6.666901e-02 8.290868e-01 5.402876e-01 -2.075842e-01 2.834542e-01 -1.052031e-01 -5.233451e-01 5.078705e-02 -6.355752e-01 -4.108057e-01 1.858012e-01 -2.260433e-01 -1.752650e-01 3.838749e-02 1.004743e-02 -8.428638e-02 5.545959e-02 -1.769259e-01 -1.111886e-01 7.425524e-02 -1.645834e-02 4.649878e-02 8.270606e-02 5.867189e-02 1.145678e-01 4.811089e-02 2.680354e-02 -2.220250e-03
<VARIANCE> 39
 2.116278e+01 7.325108e+01 1.109641e+02 3.169118e+01 1.220461e+02 2.449603e+01 8.880543e+01 1.189102e+02 2.525020e+02 3.349385e+01 4.628002e+01 1.283369e+02 2.026810e-02 9.222179e-01 2.813153e+00 6.433059e+00 1.546189e+00 4.818441e+00 2.062883e+00 5.895976e+00 4.326198e+00 3.841873e+00 1.677611e+00 2.003633e+00 2.532258e+00 9.813339e-04 8.566263e-02 2.422085e-01 7.795703e-01 2.857659e-01 5.330661e-01 3.485114e-01 6.812610e-01 6.904152e-01 7.081311e-01 3.625261e-01 4.482561e-01 2.955332e-01 4.861728e-05
<GCONST> 1.025096e+02
<STATE> 4
<MEAN> 39
 4.524443e+00 1.803562e+00 4.867316e+00 -3.732533e+00 -7.099390e+00 -5.258736e+00 -5.220516e+00 -1.697719e+00 5.400382e+00 -3.364950e+00 -2.540715e+00 -6.274641e-02 9.539834e-01 8.437861e-02 -2.008822e-01 -8.521701e-01 -8.937312e-01 -2.935946e-01 1.789147e-02 5.872585e-01 4.407594e-01 3.286487e-01 2.069202e-01 -6.998415e-02 -2.451447e-01 -2.802015e-03 -1.657754e-01 -9.871911e-02 -4.311222e-02 1.161518e-01 2.119145e-01 2.317706e-01 3.359769e-01 9.284256e-02 -9.992127e-02 -6.065619e-02 6.322712e-03 -6.777288e-02 -3.139346e-03
<VARIANCE> 39
 2.892452e+01 4.509096e+01 2.191125e+01 2.587347e+01 4.493573e+01 4.222795e+01 4.101398e+01 2.534614e+01 4.998108e+01 3.962745e+01 3.104172e+01 2.333754e+01 3.714655e-03 4.811614e-01 4.282586e-01 6.872098e-01 1.563496e+00 2.380128e+00 2.081558e+00 2.285546e+00 9.713078e-01 2.172460e+00 1.778845e+00 1.584489e+00 1.417063e+00 2.133964e-04 3.117273e-02 5.421123e-02 1.109139e-01 2.324682e-01 3.077914e-01 3.205459e-01 2.930776e-01 2.315913e-01 3.381225e-01 3.339641e-01 2.559291e-01 2.365111e-01 1.409382e-05
<GCONST> 7.166236e+01
<STATE> 5
<MEAN> 39
 -1.207429e+00 -7.457850e-01 -8.477828e-02 -3.953622e+00 -2.678684e+00 -5.733561e-01 5.323631e+00 1.807094e+00 1.805216e+00 -2.439910e+00 -4.437322e-01 -1.807340e+00 7.018381e-01 -9.164750e-01 -6.991252e-02 -9.875471e-02 2.509262e-01 4.360031e-01 1.637145e-01 1.117882e-01 -1.043091e-02 -1.509383e-01 1.282096e-01 4.821964e-02 -1.372288e-01 -3.856289e-02 1.185151e-02 1.503401e-02 6.401235e-02 3.526030e-02 -3.902662e-02 -1.118526e-01 -1.503977e-01 -7.874486e-02 1.601410e-02 -1.757090e-04 9.515830e-03 -1.360241e-02 -1.090144e-03
<VARIANCE> 39
 4.587032e+01 1.070607e+01 1.999411e+01 3.744852e+01 1.872170e+01 2.529802e+01 3.586012e+01 5.583453e+01 1.544042e+01 1.496268e+01 1.417455e+01 1.414633e+01 4.635808e-02 5.501896e-01 7.424822e-01 6.480324e-01 7.637826e-01 5.796828e-01 1.411704e+00 1.968328e+00 1.627252e+00 1.180778e+00 1.159998e+00 9.610883e-01 7.759764e-01 1.033847e-03 8.539104e-02 6.157492e-02 1.154416e-01 8.696843e-02 1.096329e-01 1.536481e-01 3.826358e-01 2.343430e-01 1.784384e-01 1.652825e-01 1.175149e-01 1.248170e-01 1.457742e-04
<GCONST> 6.551492e+01
<TRANSP> 6
 0.000000e+00 1.000000e+00 0.000000e+00 0.000000e+00 0.000000e+00 0.000000e+00
 0.000000e+00 9.211336e-01 7.886638e-02 0.000000e+00 0.000000e+00 0.000000e+00
 0.000000e+00 0.000000e+00 8.579075e-01 1.420925e-01 0.000000e+00 0.000000e+00
 0.000000e+00 0.000000e+00 0.000000e+00 8.776221e-01 1.223780e-01 0.000000e+00
 0.000000e+00 0.000000e+00 0.000000e+00 0.000000e+00 9.108027e-01 8.919729e-02
 0.000000e+00 0.000000e+00 0.000000e+00 0.000000e+00 0.000000e+00 0.000000e+00
<ENDHMM>
