~o
<STREAMINFO> 1 39
<VECSIZE> 39<NULLD><MFCC_E_D_A><DIAGC>
~h "multiplier"
<BEGINHMM>
<NUMSTATES> 14
<STATE> 2
<MEAN> 39
 -6.396315e+00 -3.426389e+00 -1.373998e-01 1.824473e+00 5.874402e+00 6.519049e-01 2.296543e+00 5.354313e-01 5.574973e+00 -2.523629e-01 -1.352930e-01 5.182360e-01 7.838560e-01 5.196388e-01 -2.586558e-01 2.870991e-02 6.416900e-01 6.351708e-01 2.187891e-01 -1.718888e-01 2.961120e-02 4.917246e-01 3.414392e-01 -1.751595e-01 -8.719172e-02 3.279689e-02 -1.457282e-04 -7.253055e-02 5.078256e-02 8.912500e-02 7.258967e-04 -6.314971e-02 -1.045470e-02 -3.557015e-02 -2.803174e-02 6.640026e-02 6.111819e-02 -2.797105e-02 -2.523609e-03
<VARIANCE> 39
 9.633725e+00 4.822906e+00 7.991105e+00 1.012736e+01 1.213072e+01 1.121729e+01 7.614078e+00 1.209661e+01 1.676964e+01 1.190681e+01 1.118678e+01 9.302629e+00 3.295146e-02 3.783799e-01 5.760230e-01 5.790854e-01 9.849883e-01 1.305143e+00 1.180363e+00 7.270930e-01 1.691356e+00 1.440631e+00 1.154427e+00 1.263312e+00 7.286556e-01 1.565781e-03 4.806800e-02 9.070996e-02 1.156432e-01 1.911007e-01 2.057259e-01 2.158984e-01 1.072226e-01 2.536294e-01 2.316142e-01 1.920578e-01 2.280134e-01 1.321636e-01 8.723083e-05
<GCONST> 5.646714e+01
<STATE> 3
<MEAN> 39
 -1.095830e+00 -7.839721e+00 4.586501e+00 1.094818e+01 6.600406e+00 9.703448e-01 -8.721706e-01 -2.161650e+00 7.276428e+00 2.832763e+00 2.582515e-01 5.946405e-01 8.934158e-01 -1.393058e-01 -7.357910e-01 4.524945e-01 2.200648e-01 -5.093870e-01 -2.911267e-01 -3.184702e-01 -1.843907e-01 7.394560e-02 -9.522627e-02 1.164982e-01 -7.257093e-02 3.864390e-04 -1.964775e-01 5.968150e-02 2.191600e-02 -3.662026e-01 -2.124256e-01 -4.120975e-02 1.353954e-02 8.144980e-03 -2.083355e-01 -2.016710e-01 -3.317167e-02 1.915690e-02 -8.747429e-03
<VARIANCE> 39
 4.416368e+01 7.188128e+01 3.097912e+01 3.876490e+01 2.255665e+01 4.652557e+01 3.593015e+01 6.934906e+01 2.182469e+01 1.601383e+01 2.033207e+01 1.832747e+01 6.650685e-03 1.397812e+00 3.769202e+00 1.423629e+00 3.208826e+00 2.554838e+00 4.007401e+00 2.808601e+00 5.352259e+00 4.127065e+00 3.011465e+00 2.218301e+00 1.039348e+00 2.089138e-03 1.071603e-01 4.612578e-01 2.319497e-01 3.335412e-01 4.475622e-01 6.750764e-01 4.597491e-01 7.656207e-01 6.908882e-01 5.802915e-01 4.352618e-01 2.221090e-01 1.347775e-04
<GCONST> 9.380357e+01
<STATE> 4
<MEAN> 39
 -6.723123e+00 -1.575109e+01 1.690075e+01 -2.196444e+00 7.182992e+00 -1.340551e+00 -5.526420e+00 3.279943e+00 1.262246e+00 8.252876e-01 -2.840524e+00 3.613031e+00 5.931339e-01 -8.078179e-01 4.334910e-01 8.251190e-01 -1.686061e+00 -1.847062e-01 -3.668365e-01 2.757008e-01 5.787084e-01 -1.219345e+00 -2.450998e-01 -2.476373e-03 -1.546105e-01 -1.957894e-02 1.380079e-01 -8.604966e-03 -1.409614e-01 3.427587e-01 3.304127e-02 3.526056e-02 1.422937e-03 -1.534428e-01 1.571135e-01 1.586322e-01 -4.293575e-02 -3.217585e-02 3.884335e-03
<VARIANCE> 39
 4.517840e+01 3.005059e+01 1.140175e+02 1.068491e+02 4.449630e+01 2.423397e+01 5.448987e+01 4.694788e+01 6.373386e+01 3.164404e+01 4.412653e+01 4.719753e+01 3.549013e-02 2.115549e+00 1.281582e+00 4.695159e+00 7.387922e+00 4.716194e+00 3.158668e+00 3.777393e+00 2.915361e+00 3.830400e+00 3.364712e+00 3.533387e+00 2.708659e+00 2.751212e-03 3.229515e-01 2.903315e-01 9.739922e-01 1.240282e+00 8.676669e-01 5.437059e-01 9.727888e-01 4.490113e-01 6.549665e-01 6.156798e-01 6.746246e-01 4.428149e-01 2.869367e-04
<GCONST> 1.095739e+02
<STATE> 5
<MEAN> 39
 -1.256767e+01 -4.664013e+00 4.278430e+00 -4.428528e+00 1.982004e+00 -1.989871e+00 9.998537e-01 -1.461318e+00 2.400954e-01 -6.035233e-01 1.108176e+00 -1.726996e+00 6.132883e-01 -2.115230e-01 2.787223e-03 2.705037e-01 -6.397314e-02 -9.097760e-02 5.751715e-03 5.730479e-02 -1.022122e-01 1.309552e-01 1.730516e-01 7.233825e-03 -1.279337e-02 3.019148e-03 1.544993e-01 -9.115524e-02 -1.648686e-02 2.680673e-01 8.138779e-02 6.932747e-02 3.278428e-02 3.483039e-02 1.852428e-01 7.738391e-02 1.917116e-03 6.154557e-02 5.538537e-03
<VARIANCE> 39
 1.826229e+01 1.127343e+01 2.776346e+01 2.491205e+01 1.404990e+01 1.443847e+01 1.306643e+01 2.117442e+01 1.262090e+01 1.552133e+01 9.897573e+00 7.903263e+00 1.643401e-02 1.494723e+00 1.136377e+00 1.635478e+00 3.309095e+00 1.626092e+00 1.488616e+00 1.389255e+00 1.959672e+00 2.159495e+00 1.965178e+00 1.099556e+00 8.513843e-01 2.781966e-03 2.807603e-01 1.678156e-01 2.872795e-01 4.869909e-01 4.059282e-01 3.129477e-01 2.819814e-01 4.318009e-01 3.383187e-01 3.777412e-01 2.547219e-01 1.438065e-01 3.454734e-04
<GCONST> 7.708077e+01
<STATE> 6
<MEAN> 39
 -5.680670e+00 -1.179973e+01 1.268190e+01 6.825106e+00 3.089826e+00 1.641560e+00 -5.364439e-01 -1.479421e-01 5.761540e+00 2.623062e+00 -2.097686e-01 8.668064e-01 8.293838e-01 7.915284e-01 4.573245e-01 -1.523963e+00 1.054340e+00 3.847750e-01 4.270700e-01 3.443531e-02 1.144139e-01 -8.812364e-02 -3.320221e-01 -6.676283e-02 1.589857e-01 -1.595039e-02 -3.907402e-01 4.741476e-01 -3.721968e-01 -8.922019e-01 4.742657e-03 -2.187629e-01 -9.151430e-03 4.086629e-02 -5.731062e-01 -3.012313e-01 -6.934028e-03 -1.679992e-01 -2.264631e-02
<VARIANCE> 39
 2.110531e+01 3.367089e+01 8.588822e+01 4.604523e+01 3.099062e+01 2.305744e+01 2.934636e+01 3.643902e+01 2.538577e+01 1.504907e+01 2.535635e+01 9.564367e+00 2.482696e-02 2.128981e+00 3.049418e+00 4.412404e+00 8.668894e+00 3.368568e+00 2.064216e+00 2.232576e+00 3.207055e+00 4.584363e+00 2.289108e+00 2.033204e+00 8.168699e-01 4.676454e-03 2.298427e-01 3.078048e-01 7.827704e-01 9.334909e-01 7.553985e-01 3.830021e-01 4.886220e-01 5.606434e-01 6.315607e-01 5.616752e-01 4.979373e-01 1.197426e-01 2.879839e-04
<GCONST> 9.722256e+01
<STATE> 7
<MEAN> 39
 -1.002564e+01 -5.616095e+00 7.353426e-01 -6.247586e-01 1.218029e+00 -2.498470e+00 1.076728e+00 -1.185734e+00 1.258767e+00 -1.325129e+00 -1.192281e-01 -1.049391e+00 5.512382e-01 -1.987958e-01 -3.249784e-02 -6.965646e-02 -2.098025e-01 -8.009437e-02 -2.071624e-01 -5.140645e-02 1.052971e-01 9.974075e-03 -2.784457e-02 1.017384e-02 -9.201275e-02 -8.082852e-03 3.366629e-02 -9.926013e-02 2.017093e-01 1.288817e-01 1.562987e-02 7.501814e-02 2.597846e-02 -9.080598e-03 9.626445e-02 9.041080e-02 5.083020e-02 2.737025e-02 7.150908e-03
<VARIANCE> 39
 6.400336e+00 1.343554e+01 1.337598e+01 1.793499e+01 1.163288e+01 1.371259e+01 1.478577e+01 1.392576e+01 1.227758e+01 1.096316e+01 1.056406e+01 8.380707e+00 1.442659e-02 4.571744e-01 1.488531e+00 2.014829e+00 1.822179e+00 1.893811e+00 1.340183e+00 1.705981e+00 1.427584e+00 1.779910e+00 1.584385e+00 1.447717e+00 7.700410e-01 2.422762e-03 9.322005e-02 2.895477e-01 3.234076e-01 2.856381e-01 3.888244e-01 2.470270e-01 4.087437e-01 3.050887e-01 3.493775e-01 3.427092e-01 2.633534e-01 1.653057e-01 2.223292e-04
<GCONST> 7.093118e+01
<STATE> 8
<MEAN> 39
 -8.998762e+00 -1.368414e+01 1.128103e+01 1.556969e+00 3.255010e+00 2.971671e-01 -1.494662e+00 2.132623e+00 1.802662e-01 2.784330e-01 -1.202885e+00 -1.335399e+00 5.261563e-01 -1.449939e-01 -3.012939e-01 1.455049e+00 9.786997e-02 3.530751e-01 7.944035e-02 -1.670845e-01 -9.200858e-02 3.521112e-01 4.770290e-01 -2.542396e-01 -1.310858e-01 3.018390e-02 1.945149e-01 8.860527e-03 9.232108e-02 3.441346e-01 -5.094663e-03 1.072210e-01 -2.613153e-03 -1.495179e-01 3.335409e-01 5.440130e-02 -1.459122e-01 5.424197e-02 7.365656e-03
<VARIANCE> 39
 4.864794e+01 6.670847e+01 1.247044e+02 5.170100e+01 4.668647e+01 4.706440e+01 3.530305e+01 3.965684e+01 2.600419e+01 2.619141e+01 1.993377e+01 9.856429e+00 4.323460e-02 3.721629e+00 4.764151e+00 5.479098e+00 4.631362e+00 5.783042e+00 4.174586e+00 4.201448e+00 3.978325e+00 3.509800e+00 2.767550e+00 1.424399e+00 9.541222e-01 2.665537e-03 6.756335e-01 8.945022e-01 8.909206e-01 1.046421e+00 1.384267e+00 6.866586e-01 7.353544e-01 7.598507e-01 7.639908e-01 5.261859e-01 2.979031e-01 2.210309e-01 6.734283e-04
<GCONST> 1.087568e+02
<STATE> 9
<MEAN> 39
 -7.792255e+00 -1.050928e+01 1.499307e+01 7.900106e+00 2.915797e+00 1.049268e+00 8.047494e-01 -2.525817e+00 8.792038e+00 4.204463e+00 -2.791811e+00 -1.180957e+00 8.798289e-01 9.529626e-01 -4.204247e-01 7.068228e-01 1.915382e+00 -6.507568e-01 3.973212e-01 2.066838e-01 -9.535910e-01 1.728595e+00 2.714633e-02 -7.787094e-01 7.823215e-01 4.959130e-02 -2.272395e-01 -7.670009e-02 -2.746158e-01 -4.766946e-01 -1.359985e-01 -3.168760e-01 -1.742207e-01 2.220493e-01 -3.525273e-01 -4.256153e-01 -1.300027e-01 6.294745e-02 -1.599621e-02
<VARIANCE> 39
 6.174149e+00 2.851978e+01 1.443294e+02 5.071882e+01 4.157029e+01 3.001555e+01 4.175007e+01 3.481810e+01 2.265171e+01 2.120832e+01 2.070930e+01 8.586675e+00 3.987869e-03 6.720546e-01 5.642800e-01 1.351056e+00 2.019772e+00 3.109068e+00 1.894094e+00 1.411983e+00 1.654330e+00 2.720017e+00 2.402992e+00 7.096430e-01 9.387565e-01 1.257392e-03 1.248109e-01 1.072859e-01 1.826816e-01 3.528381e-01 3.077807e-01 2.000816e-01 3.020199e-01 2.900287e-01 3.953918e-01 2.684032e-01 1.800275e-01 1.549055e-01 1.215631e-04
<GCONST> 7.632140e+01
<STATE> 10
<MEAN> 39
 -7.494157e+00 -6.385489e+00 1.000800e+01 6.692141e+00 2.585673e+00 1.509618e+00 3.492070e+00 -2.005320e+00 1.102433e+01 1.315220e+00 -2.295171e+00 1.728225e+00 9.057314e-01 1.858272e-01 -3.780608e-03 8.432873e-03 3.346664e-01 1.362985e-01 -5.039846e-02 5.533115e-02 1.576894e-01 4.887250e-02 -1.458998e-01 3.842924e-02 4.555334e-02 1.742822e-03 -1.715915e-03 2.089755e-02 -5.168371e-02 -2.667227e-02 3.261907e-02 -7.815835e-03 -1.823609e-02 3.307640e-02 -9.684293e-02 1.679467e-02 7.352708e-02 -3.614778e-02 -1.451468e-03
<VARIANCE> 39
 9.306548e+00 1.521951e+01 1.875086e+01 3.449176e+01 1.770992e+01 1.471905e+01 1.541824e+01 2.374302e+01 3.525501e+01 1.491911e+01 1.621721e+01 1.419254e+01 3.758064e-03 2.142432e-01 2.962747e-01 5.025511e-01 9.892243e-01 7.332006e-01 6.292627e-01 8.426922e-01 1.147495e+00 1.446693e+00 1.015614e+00 8.908532e-01 8.460702e-01 1.595152e-04 3.068880e-02 4.700401e-02 9.787326e-02 1.449727e-01 1.398576e-01 1.077785e-01 1.510213e-01 2.191250e-01 2.826516e-01 2.013448e-01 1.618188e-01 1.548557e-01 2.949460e-05
<GCONST> 5.240026e+01
<STATE> 11
<MEAN> 39
 -9.152218e-02 -1.920669e+01 2.662358e+01 1.487137e+01 7.453216e-01 4.409863e-01 -8.414292e+00 5.570536e+00 9.341060e+00 1.189856e+00 -2.920209e+00 3.122520e-01 9.292227e-01 4.269392e-01 9.745066e-02 -4.565830e-01 4.473650e-02 2.372747e-02 1.625218e-01 -3.201047e-01 2.670716e-01 -8.873993e-02 -1.100013e-01 4.973927e-01 1.284628e-03 -5.106615e-03 -8.349518e-02 8.675663e-02 2.203051e-02 -1.715420e-02 7.525647e-02 -2.684820e-02 -3.531123e-03 3.839924e-02 -2.636931e-02 6.691049e-03 2.554110e-02 5.823272e-03 -2.626989e-03
<VARIANCE> 39
 2.643227e+01 2.937666e+01 7.403561e+01 5.794540e+01 3.955190e+01 4.810425e+01 8.941066e+01 4.628942e+01 1.026779e+01 1.805721e+01 6.317826e+01 2.096393e+01 2.155024e-03 4.850454e-01 5.131065e-01 1.510204e+00 1.449722e+00 8.813357e-01 1.027918e+00 6.107984e-01 5.620082e-01 8.462281e-01 6.447110e-01 7.959290e-01 4.744449e-01 1.672348e-04 7.993670e-02 1.028237e-01 2.169148e-01 2.644057e-01 1.441191e-01 1.416571e-01 8.506480e-02 1.029042e-01 1.469620e-01 1.320869e-01 1.349256e-01 7.583501e-02 1.915846e-05
<GCONST> 6.111905e+01
<STATE> 12
<MEAN> 39
 -1.877936e+00 -9.540714e+00 1.185329e+01 1.426842e+01 4.753879e+00 -5.690876e-01 -3.115730e+00 3.418443e+00 8.252667e+00 -1.280390e+00 5.783741e-01 1.568046e-01 7.744448e-01 -8.172181e-01 1.415236e+00 -1.389469e+00 -7.259938e-01 3.895811e-01 -1.048227e-01 3.008088e-01 1.943937e-01 -7.458705e-01 -3.375431e-02 -2.275255e-01 -2.105991e-01 -5.615291e-02 -1.681890e-01 1.089527e-01 -2.947892e-01 -4.218845e-01 -1.905739e-01 6.949111e-02 2.127542e-01 -2.392822e-01 -6.456032e-02 8.517396e-02 -1.399340e-01 -1.237182e-01 -1.074422e-02
<VARIANCE> 39
 1.415411e+01 2.270841e+01 3.476747e+01 4.201160e+01 2.373177e+01 2.142420e+01 7.968863e+01 3.439118e+01 2.895246e+01 3.054482e+01 1.033268e+01 3.088966e+01 2.660253e-02 8.182155e-01 7.239381e-01 1.625720e+00 1.844956e+00 2.341510e+00 1.347810e+00 2.647857e+00 3.313267e+00 9.415479e-01 1.140375e+00 1.259875e+00 1.352309e+00 1.522390e-03 6.018167e-02 8.124235e-02 1.608506e-01 1.263924e-01 3.968093e-01 2.570432e-01 4.812534e-01 2.541408e-01 2.270084e-01 1.844734e-01 1.356536e-01 2.756649e-01 9.086185e-05
<GCONST> 7.645406e+01
<STATE> 13
<MEAN> 39
 -7.924502e+00 -2.613054e+00 3.371268e+00 5.782582e+00 4.305510e+00 -1.270027e+00 1.274739e+00 8.148816e-01 3.679901e+00 -2.249915e-01 4.958740e-01 -5.614179e-01 5.880421e-01 -4.664119e-01 3.271887e-01 -8.403268e-01 -1.171481e+00 -2.548586e-01 -1.496322e-01 1.300402e-01 -1.446183e-01 -4.441975e-01 2.439925e-01 3.166449e-01 -1.839353e-01 -4.221502e-02 3.739492e-02 -8.080535e-02 9.373472e-02 8.476682e-02 -6.396442e-02 3.420573e-02 9.926146e-02 -4.592068e-02 1.130710e-01 6.083273e-02 3.146930e-02 4.875939e-02 1.557288e-03
<VARIANCE> 39
 4.906935e+00 6.824071e+00 1.800106e+01 5.437331e+01 1.760089e+01 1.409091e+01 1.407552e+01 2.059975e+01 1.693827e+01 1.531697e+01 1.552939e+01 6.875817e+00 5.309314e-02 2.389589e-01 6.174033e-01 4.582919e-01 1.230338e+00 1.148299e+00 1.295554e+00 1.560425e+00 1.427875e+00 1.594496e+00 1.524837e+00 9.854116e-01 1.241636e+00 8.655031e-04 2.825055e-02 8.876868e-02 6.133723e-02 1.826873e-01 1.858575e-01 1.755156e-01 2.050007e-01 3.143781e-01 2.143429e-01 3.116733e-01 2.409716e-01 1.413658e-01 7.450448e-05
<GCONST> 6.106657e+01
<TRANSP> 14
 0.000000e+00 1.000000e+00 0.000000e+00 0.000000e+00 0.000000e+00 0.000000e+00 0.000000e+00 0.000000e+00 0.000000e+00 0.000000e+00 0.000000e+00 0.000000e+00 0.000000e+00 0.000000e+00
 0.000000e+00 8.829730e-01 1.170270e-01 0.000000e+00 0.000000e+00 0.000000e+00 0.000000e+00 0.000000e+00 0.000000e+00 0.000000e+00 0.000000e+00 0.000000e+00 0.000000e+00 0.000000e+00
 0.000000e+00 0.000000e+00 8.884978e-01 1.115022e-01 0.000000e+00 0.000000e+00 0.000000e+00 0.000000e+00 0.000000e+00 0.000000e+00 0.000000e+00 0.000000e+00 0.000000e+00 0.000000e+00
 0.000000e+00 0.000000e+00 0.000000e+00 7.771521e-01 2.228479e-01 0.000000e+00 0.000000e+00 0.000000e+00 0.000000e+00 0.000000e+00 0.000000e+00 0.000000e+00 0.000000e+00 0.000000e+00
 0.000000e+00 0.000000e+00 0.000000e+00 0.000000e+00 9.227520e-01 7.724798e-02 0.000000e+00 0.000000e+00 0.000000e+00 0.000000e+00 0.000000e+00 0.000000e+00 0.000000e+00 0.000000e+00
 0.000000e+00 0.000000e+00 0.000000e+00 0.000000e+00 0.000000e+00 8.106551e-01 1.893449e-01 0.000000e+00 0.000000e+00 0.000000e+00 0.000000e+00 0.000000e+00 0.000000e+00 0.000000e+00
 0.000000e+00 0.000000e+00 0.000000e+00 0.000000e+00 0.000000e+00 0.000000e+00 9.192514e-01 8.074857e-02 0.000000e+00 0.000000e+00 0.000000e+00 0.000000e+00 0.000000e+00 0.000000e+00
 0.000000e+00 0.000000e+00 0.000000e+00 0.000000e+00 0.000000e+00 0.000000e+00 0.000000e+00 8.245285e-01 1.754715e-01 0.000000e+00 0.000000e+00 0.000000e+00 0.000000e+00 0.000000e+00
 0.000000e+00 0.000000e+00 0.000000e+00 0.000000e+00 0.000000e+00 0.000000e+00 0.000000e+00 0.000000e+00 6.789097e-01 3.210904e-01 0.000000e+00 0.000000e+00 0.000000e+00 0.000000e+00
 0.000000e+00 0.000000e+00 0.000000e+00 0.000000e+00 0.000000e+00 0.000000e+00 0.000000e+00 0.000000e+00 0.000000e+00 9.335810e-01 6.641898e-02 0.000000e+00 0.000000e+00 0.000000e+00
 0.000000e+00 0.000000e+00 0.000000e+00 0.000000e+00 0.000000e+00 0.000000e+00 0.000000e+00 0.000000e+00 0.000000e+00 0.000000e+00 8.245891e-01 1.754110e-01 0.000000e+00 0.000000e+00
 0.000000e+00 0.000000e+00 0.000000e+00 0.000000e+00 0.000000e+00 0.000000e+00 0.000000e+00 0.000000e+00 0.000000e+00 0.000000e+00 0.000000e+00 7.154782e-01 2.845218e-01 0.000000e+00
 0.000000e+00 0.000000e+00 0.000000e+00 0.000000e+00 0.000000e+00 0.000000e+00 0.000000e+00 0.000000e+00 0.000000e+00 0.000000e+00 0.000000e+00 0.000000e+00 8.530059e-01 1.469941e-01
 0.000000e+00 0.000000e+00 0.000000e+00 0.000000e+00 0.000000e+00 0.000000e+00 0.000000e+00 0.000000e+00 0.000000e+00 0.000000e+00 0.000000e+00 0.000000e+00 0.000000e+00 0.000000e+00
<ENDHMM>
