~o
<STREAMINFO> 1 39
<VECSIZE> 39<NULLD><MFCC_E_D_A><DIAGC>
~h "neuf"
<BEGINHMM>
<NUMSTATES> 5
<STATE> 2
<MEAN> 39
 2.399935e+00 -1.135636e+01 9.655144e+00 -2.169444e+00 1.005896e-01 6.603381e+00 6.300759e-01 1.811594e+00 -2.866426e+00 -2.244589e+00 3.192347e+00 1.979116e+00 6.009557e-01 7.470357e-02 -4.382305e-01 8.774843e-03 -3.009013e-01 -4.024233e-02 -5.182124e-02 -1.323854e-01 -8.701436e-02 -7.227980e-02 -4.892005e-02 -1.215509e-01 7.375382e-02 4.858035e-03 1.791531e-03 1.543338e-02 -2.117793e-02 6.286632e-03 1.033188e-02 5.775874e-03 -3.060820e-02 1.349072e-03 -1.694477e-02 -3.245743e-02 3.425957e-02 2.707082e-02 -3.720025e-04
<VARIANCE> 39
 7.245804e+01 9.090892e+01 3.656731e+01 1.387714e+02 4.121415e+01 5.331851e+01 6.445602e+01 4.685934e+01 6.301640e+01 5.653365e+01 5.078963e+01 4.677893e+01 9.410453e-02 1.930229e+00 2.076964e+00 1.712104e+00 3.309111e+00 2.954826e+00 4.057766e+00 4.333753e+00 4.067149e+00 2.882694e+00 3.777974e+00 1.792863e+00 2.065156e+00 2.650939e-03 1.851111e-01 3.333440e-01 2.579797e-01 4.547461e-01 5.650565e-01 7.028634e-01 8.202654e-01 7.715281e-01 4.607279e-01 6.073356e-01 2.102463e-01 3.436241e-01 2.344935e-04
<GCONST> 1.059701e+02
<STATE> 3
<MEAN> 39
 -5.024832e+00 -2.820162e+00 1.208529e+00 3.099247e-01 3.678748e+00 -9.011240e-02 1.739995e+00 -2.818427e+00 -1.566073e+00 -2.872662e+00 2.818904e+00 8.023764e-01 7.417441e-01 -6.324244e-02 -6.595750e-02 2.703160e-02 -5.405461e-03 -7.892234e-03 1.570643e-02 -1.077613e-02 -1.992533e-02 -2.770987e-02 -4.143655e-02 -4.515998e-03 -6.636429e-03 1.050564e-03 -6.926036e-03 -1.241072e-03 1.086964e-02 -8.575300e-03 -1.176416e-02 -4.356219e-03 1.883469e-02 -1.260232e-03 -1.212922e-02 1.096386e-02 1.449830e-02 -1.104394e-02 -1.529802e-03
<VARIANCE> 39
 3.290147e+01 9.682020e+00 1.279440e+01 1.739415e+01 1.355396e+01 1.990457e+01 1.708678e+01 1.717162e+01 2.288414e+01 1.468248e+01 1.266018e+01 1.125111e+01 5.692932e-02 1.527327e+00 5.750372e-01 7.027057e-01 1.089046e+00 9.642968e-01 1.332937e+00 1.384578e+00 1.461846e+00 1.558523e+00 1.006219e+00 9.985738e-01 8.876483e-01 1.907470e-03 1.622694e-01 1.035553e-01 1.272205e-01 1.919103e-01 1.820792e-01 2.470474e-01 2.655486e-01 2.463467e-01 2.517466e-01 1.764805e-01 2.001637e-01 1.636691e-01 2.063561e-04
<GCONST> 6.801610e+01
<STATE> 4
<MEAN> 39
 -1.055567e+01 -4.058636e+00 -2.949791e-02 -2.773549e+00 1.193957e+00 -2.108580e+00 9.990544e-01 -2.392588e+00 1.814144e-01 -1.501823e+00 1.231222e+00 -2.611021e-01 4.769937e-01 3.719121e-02 5.740166e-02 -1.648601e-02 -2.442968e-02 -1.453622e-02 1.622788e-02 -2.900117e-04 2.408069e-02 2.590999e-03 -1.407116e-02 -4.869446e-02 -1.879990e-02 -3.548420e-03 9.612777e-03 1.925443e-02 3.825794e-03 8.482880e-03 1.604661e-02 -8.017000e-03 -2.716422e-02 -2.258233e-04 -1.283141e-02 1.265604e-03 1.943979e-03 8.921850e-03 4.756317e-04
<VARIANCE> 39
 7.246365e+00 8.732901e+00 6.646724e+00 9.086449e+00 9.727199e+00 1.120790e+01 9.414942e+00 1.091106e+01 1.171552e+01 1.169673e+01 1.203643e+01 9.815622e+00 1.736753e-02 2.102716e-01 3.057533e-01 4.923012e-01 8.744733e-01 9.571444e-01 8.975776e-01 1.007714e+00 1.068440e+00 9.951192e-01 1.174421e+00 1.181779e+00 9.126628e-01 2.694293e-04 3.463182e-02 5.438953e-02 9.610699e-02 1.667065e-01 1.878638e-01 1.790774e-01 1.917780e-01 2.025635e-01 2.046158e-01 2.404417e-01 2.475346e-01 1.815168e-01 5.744663e-05
<GCONST> 5.030789e+01
<TRANSP> 5
 0.000000e+00 1.000000e+00 0.000000e+00 0.000000e+00 0.000000e+00
 0.000000e+00 9.199815e-01 8.001856e-02 0.000000e+00 0.000000e+00
 0.000000e+00 0.000000e+00 9.598235e-01 4.017643e-02 0.000000e+00
 0.000000e+00 0.000000e+00 0.000000e+00 9.649270e-01 3.507306e-02
 0.000000e+00 0.000000e+00 0.000000e+00 0.000000e+00 0.000000e+00
<ENDHMM>
