~o
<STREAMINFO> 1 39
<VECSIZE> 39<NULLD><MFCC_E_D_A><DIAGC>
~h "onze"
<BEGINHMM>
<NUMSTATES> 5
<STATE> 2
<MEAN> 39
 4.885022e+00 -5.447334e+00 7.743219e+00 -1.381470e+00 -9.372655e+00 -8.208035e-02 -3.158032e-02 1.904192e+00 4.272048e+00 -3.902282e+00 6.500706e-01 3.056737e-01 7.651112e-01 4.821837e-01 1.863417e-02 3.879342e-01 2.123131e-01 -1.939314e-01 1.692587e-01 4.909876e-02 -2.047326e-01 1.014682e-01 3.041889e-02 -1.586136e-01 1.326545e-01 2.306503e-02 -8.530913e-02 6.595393e-02 2.583426e-03 -1.627038e-02 9.021763e-02 -3.916969e-03 1.850841e-02 2.551474e-02 -8.035704e-02 -3.868717e-02 -6.897320e-04 -2.840855e-02 -2.683326e-03
<VARIANCE> 39
 1.006539e+02 5.433321e+01 5.427079e+01 3.276324e+01 7.182874e+01 2.490572e+01 5.070111e+01 4.291978e+01 3.263548e+01 2.206626e+01 2.160303e+01 2.303786e+01 4.389277e-02 1.378062e+00 2.506206e+00 1.563687e+00 9.687474e-01 2.288241e+00 1.269432e+00 1.517029e+00 1.438430e+00 1.470657e+00 1.037705e+00 1.039036e+00 1.014736e+00 2.633123e-03 1.791638e-01 2.597346e-01 1.679067e-01 9.233127e-02 3.298965e-01 1.822799e-01 1.668753e-01 1.746890e-01 2.084977e-01 1.763436e-01 1.754349e-01 1.457930e-01 2.432670e-04
<GCONST> 8.177158e+01
<STATE> 3
<MEAN> 39
 7.129598e-01 4.721236e+00 8.770281e+00 -1.809953e-03 -1.714737e+00 -1.616362e+00 3.917998e-02 -2.628046e+00 1.610263e+00 -2.807132e+00 -1.009925e+00 -6.107647e-01 9.350047e-01 -1.996253e-01 -1.368050e-01 -9.832732e-02 -3.259602e-02 2.223017e-01 1.083675e-01 2.282361e-01 4.444862e-01 9.437724e-03 7.565365e-02 2.128437e-01 -8.046006e-02 -2.792395e-03 -7.863665e-02 -2.398585e-02 -2.196605e-02 -5.500621e-02 3.021316e-02 8.898566e-03 4.047678e-02 5.412365e-02 -4.859378e-03 3.232055e-02 1.754638e-02 -2.667111e-02 -2.273942e-03
<VARIANCE> 39
 9.293960e+00 9.195667e+00 1.367056e+01 1.461003e+01 3.077858e+01 1.819580e+01 3.031669e+01 4.407062e+01 3.162692e+01 1.463351e+01 1.820899e+01 1.564984e+01 3.134490e-03 3.119774e-01 2.827350e-01 5.103776e-01 7.420454e-01 9.865075e-01 8.676749e-01 1.250236e+00 1.255566e+00 1.494397e+00 9.729236e-01 9.295282e-01 1.048051e+00 1.690374e-04 3.659917e-02 5.643565e-02 7.441811e-02 8.915716e-02 1.491934e-01 1.380949e-01 2.049862e-01 1.941288e-01 1.855591e-01 1.399843e-01 1.306188e-01 1.876621e-01 1.752452e-05
<GCONST> 5.291601e+01
<STATE> 4
<MEAN> 39
 -1.023746e+01 -1.330860e+00 5.519062e+00 -7.818882e+00 3.247163e+00 1.927956e-01 1.557346e+00 2.602821e+00 2.485607e-01 -1.106964e+00 9.617864e-01 -9.129640e-01 5.699294e-01 -2.529629e-01 -3.966818e-02 -1.364299e-01 -2.555669e-02 1.629403e-01 -1.365719e-02 -1.339424e-01 -1.763530e-01 -1.015369e-01 -9.191680e-03 -3.630598e-02 4.010313e-03 -1.333953e-02 5.637103e-02 1.850321e-02 -3.445043e-02 4.197130e-02 -3.833347e-02 -2.885621e-02 -2.768518e-02 -2.775989e-02 9.472336e-03 -3.499537e-03 -3.591675e-03 2.150712e-02 5.975026e-04
<VARIANCE> 39
 2.820391e+01 1.904444e+01 6.162056e+01 7.064380e+01 4.164617e+01 3.957422e+01 3.228522e+01 3.262437e+01 2.935557e+01 1.768896e+01 2.041137e+01 1.309774e+01 2.735144e-02 1.675790e+00 9.085543e-01 8.112086e-01 2.085076e+00 1.768487e+00 1.747151e+00 1.947763e+00 1.661679e+00 1.609412e+00 1.496028e+00 1.448949e+00 1.138723e+00 6.037508e-04 1.221044e-01 1.121661e-01 1.101006e-01 2.392194e-01 2.370418e-01 2.853008e-01 3.090407e-01 2.803360e-01 2.875593e-01 2.390093e-01 2.878580e-01 2.053767e-01 8.942134e-05
<GCONST> 7.827168e+01
<TRANSP> 5
 0.000000e+00 1.000000e+00 0.000000e+00 0.000000e+00 0.000000e+00
 0.000000e+00 9.295204e-01 7.047967e-02 0.000000e+00 0.000000e+00
 0.000000e+00 0.000000e+00 9.392758e-01 6.072418e-02 0.000000e+00
 0.000000e+00 0.000000e+00 0.000000e+00 9.666039e-01 3.339610e-02
 0.000000e+00 0.000000e+00 0.000000e+00 0.000000e+00 0.000000e+00
<ENDHMM>
