~o
<STREAMINFO> 1 39
<VECSIZE> 39<NULLD><MFCC_E_D_A><DIAGC>
~h "par"
<BEGINHMM>
<NUMSTATES> 6
<STATE> 2
<MEAN> 39
 -3.046392e-01 -2.337152e+00 1.315085e+00 -3.383531e+00 -3.424132e+00 -1.777624e+00 3.753437e+00 -2.669402e+00 -1.482079e+00 -6.254637e+00 -6.120877e-01 -5.424469e-01 7.134401e-01 1.226002e+00 1.747762e-01 4.449681e-01 -1.965742e-01 -1.145085e+00 -3.840700e-01 7.715435e-01 -2.795262e-01 -5.547968e-01 -1.031227e+00 -2.799416e-01 6.277856e-02 7.284175e-02 2.840610e-02 -6.315408e-02 -8.051982e-02 -1.951831e-01 -5.453534e-02 -3.738672e-02 -1.480384e-01 -1.010610e-01 -1.310519e-01 4.304825e-02 7.430580e-02 9.908175e-02 -5.294794e-03
<VARIANCE> 39
 5.747572e+01 1.906838e+01 2.118458e+01 1.757051e+01 3.163728e+01 2.403910e+01 3.348249e+01 1.997745e+01 1.827002e+01 3.467674e+01 1.519373e+01 1.442508e+01 5.001680e-02 2.761412e+00 1.665890e+00 2.893374e+00 2.031458e+00 2.580763e+00 2.917094e+00 3.229156e+00 1.363711e+00 1.658661e+00 3.639306e+00 1.266710e+00 1.403052e+00 1.567873e-03 3.654644e-01 2.438779e-01 3.284710e-01 2.161176e-01 4.790199e-01 2.665043e-01 5.272992e-01 2.222204e-01 2.473611e-01 8.129717e-01 1.843534e-01 1.730952e-01 4.274586e-04
<GCONST> 8.722294e+01
<STATE> 3
<MEAN> 39
 5.336971e+00 -1.332938e+00 2.992080e-01 -1.101131e+01 -1.002312e+01 -5.073958e+00 5.939044e+00 -4.453676e+00 -5.376441e+00 -8.064323e+00 1.567461e-01 -3.760227e-01 9.495192e-01 -1.061829e-01 1.639668e-01 -1.245782e-01 -3.182887e-01 -1.579813e-01 -1.569062e-01 -5.980434e-02 1.848985e-01 1.784839e-01 1.999960e-01 1.419204e-01 -1.305339e-01 -7.383596e-03 -9.611952e-02 2.672132e-02 2.153480e-02 1.091405e-01 8.637377e-02 4.668479e-02 1.780014e-03 1.066411e-01 1.445544e-01 7.564807e-02 -8.708877e-03 -3.994045e-02 -3.898640e-03
<VARIANCE> 39
 1.642037e+01 3.400526e+01 2.506359e+01 2.762874e+01 3.469632e+01 3.225856e+01 2.156231e+01 1.727083e+01 1.145733e+01 3.233576e+01 1.564722e+01 1.255742e+01 1.602200e-03 3.191636e-01 3.390201e-01 5.135826e-01 8.023033e-01 5.784823e-01 7.592135e-01 7.656338e-01 8.164452e-01 8.174819e-01 9.280458e-01 5.544174e-01 5.240871e-01 1.778346e-04 4.846228e-02 6.967759e-02 8.750419e-02 1.007824e-01 1.127988e-01 1.733370e-01 1.487763e-01 1.656449e-01 1.227559e-01 1.794956e-01 9.275874e-02 1.056946e-01 2.569403e-05
<GCONST> 5.062314e+01
<STATE> 4
<MEAN> 39
 -5.712848e+00 -2.410033e+00 -1.791133e-02 -9.148606e+00 -6.329883e+00 -4.046776e+00 4.793662e+00 3.837698e-01 9.757306e-01 -4.188652e+00 1.949492e-01 -1.895060e+00 6.215606e-01 -4.286931e-01 -1.771747e-01 -2.547667e-02 1.642429e-01 2.603275e-01 8.905762e-02 -1.639491e-01 1.367213e-01 2.163325e-01 2.294516e-01 -4.696871e-02 -9.521210e-02 -1.517048e-02 4.466981e-02 -9.761776e-03 -3.738014e-03 -9.040220e-03 -8.698141e-03 2.354129e-02 -7.408225e-03 -2.670829e-02 -5.028490e-02 -2.961528e-02 8.194908e-03 1.789834e-02 9.608635e-04
<VARIANCE> 39
 1.935701e+01 1.725467e+01 6.371541e+00 1.699223e+01 2.546847e+01 2.584073e+01 2.160640e+01 2.185263e+01 1.566286e+01 2.489633e+01 1.006435e+01 1.277122e+01 2.032390e-02 7.044104e-01 8.185699e-01 4.517196e-01 9.673418e-01 9.538672e-01 1.190264e+00 1.082715e+00 1.265872e+00 1.196663e+00 1.396941e+00 9.068940e-01 1.049723e+00 9.918706e-04 7.702966e-02 1.450266e-01 8.523316e-02 1.902558e-01 1.554911e-01 2.028423e-01 2.063908e-01 1.967735e-01 1.892971e-01 2.402813e-01 1.711178e-01 2.090894e-01 1.639852e-04
<GCONST> 6.394543e+01
<STATE> 5
<MEAN> 39
 6.001899e+00 -3.769932e+00 8.111292e+00 -1.136255e+01 -1.654038e+01 1.076982e+00 5.923067e+00 3.524826e+00 -7.223250e-01 -7.104820e+00 -2.296847e+00 -1.543609e+00 5.379908e-01 -1.963585e-01 2.413382e-01 1.519923e-02 -4.028676e-01 2.108909e-01 1.739786e-01 5.609956e-01 -7.859778e-02 -6.803337e-01 7.557106e-02 6.932040e-02 1.101324e-01 -2.394344e-02 -2.985025e-02 4.220963e-02 -6.875030e-02 2.377466e-02 3.982014e-02 -7.129712e-02 2.207514e-02 -5.119791e-02 -1.105849e-01 -1.202073e-01 4.011196e-02 -3.619527e-02 5.272639e-04
<VARIANCE> 39
 6.139364e+01 5.731362e+01 4.221072e+01 1.283346e+02 1.392644e+02 3.636215e+01 6.046230e+01 1.541335e+01 4.995040e+01 2.259629e+01 1.424709e+01 1.572689e+01 4.269094e-02 1.169492e+00 2.326233e+00 2.310854e+00 6.275692e+00 2.844740e+00 2.636224e+00 4.498817e+00 1.454448e+00 1.853848e+00 2.338919e+00 1.164669e+00 1.016660e+00 2.554911e-03 1.760176e-01 2.971418e-01 3.206781e-01 8.311479e-01 5.154359e-01 3.366798e-01 6.313002e-01 2.475068e-01 2.446012e-01 3.477090e-01 1.979033e-01 1.280593e-01 3.065745e-04
<GCONST> 9.421862e+01
<TRANSP> 6
 0.000000e+00 1.000000e+00 0.000000e+00 0.000000e+00 0.000000e+00 0.000000e+00
 0.000000e+00 8.569424e-01 1.430576e-01 0.000000e+00 0.000000e+00 0.000000e+00
 0.000000e+00 0.000000e+00 9.230554e-01 7.694466e-02 0.000000e+00 0.000000e+00
 0.000000e+00 0.000000e+00 0.000000e+00 9.444743e-01 5.552565e-02 0.000000e+00
 0.000000e+00 0.000000e+00 0.000000e+00 0.000000e+00 7.779498e-01 2.220502e-01
 0.000000e+00 0.000000e+00 0.000000e+00 0.000000e+00 0.000000e+00 0.000000e+00
<ENDHMM>
