~o
<STREAMINFO> 1 39
<VECSIZE> 39<NULLD><MFCC_E_D_A><DIAGC>
~h "pause"
<BEGINHMM>
<NUMSTATES> 5
<STATE> 2
<NUMMIXES> 32
<MIXTURE> 1 2.801955e-02
<MEAN> 39
 -9.031529e+00 -1.519245e+00 -4.520440e-01 -3.463402e+00 -1.186510e+00 -1.359970e+00 3.554332e+00 1.027114e+00 5.607712e+00 -2.371327e+00 1.846747e+00 -1.312572e+00 4.242271e-01 -1.207788e-01 -1.973914e-01 -5.044896e-02 -2.636977e-01 -5.909973e-01 -3.627916e-01 -2.118372e-01 6.576739e-02 2.693562e-01 -1.874595e-01 -3.758543e-01 -1.568869e-01 3.700795e-04 -7.384335e-02 -1.562438e-01 -1.489983e-01 1.699611e-01 2.339301e-01 -1.851644e-01 -3.501318e-01 -5.548050e-01 -6.412325e-01 7.312481e-02 -3.316534e-02 -1.983591e-02 1.786665e-03
<VARIANCE> 39
 3.694934e-01 1.584925e+00 2.640341e+00 2.705639e+00 1.756666e+00 1.316189e+00 5.226506e+00 5.209772e+00 1.092144e+01 2.981485e+00 6.357159e+00 6.004373e+00 4.024589e-03 8.905526e-02 8.700923e-02 1.862224e-01 5.104815e-01 6.334769e-01 9.339033e-01 2.205618e+00 1.235297e+00 1.417233e+00 8.149235e-01 3.013867e-01 9.362714e-01 1.512667e-04 1.017352e-02 2.408196e-02 6.077682e-02 1.097340e-01 6.124895e-02 8.212305e-02 1.749120e-01 1.970013e-01 2.291602e-01 1.203033e-01 4.440049e-02 1.403221e-01 4.295191e-05
<GCONST> 2.149730e+01
<MIXTURE> 2 4.514409e-02
<MEAN> 39
 -9.517146e+00 -2.326285e+00 1.519655e-02 -1.550086e+00 -4.234467e-01 -2.863399e+00 2.880351e+00 -2.090404e+00 1.889026e-01 -3.454778e+00 -2.464030e+00 -3.736025e+00 4.072332e-01 -7.685082e-02 -7.283749e-02 -1.668796e-01 -2.954490e-01 -3.002793e-01 -4.515149e-01 -8.471767e-01 -5.147343e-01 -2.647816e-01 1.683709e-01 1.261195e-01 5.542244e-01 1.490748e-04 -4.686299e-02 -6.760300e-02 -1.665816e-01 -1.612938e-01 -3.432729e-02 -1.076876e-01 -3.055827e-01 3.398665e-02 1.870089e-01 1.665401e-01 4.785042e-01 2.269193e-01 1.959943e-03
<VARIANCE> 39
 8.948062e-01 7.586594e-01 1.127738e+00 2.114068e+00 1.404808e+00 6.476093e+00 3.046835e+00 6.121639e+00 4.183403e+00 2.673465e+00 4.592799e+00 4.274635e+00 1.383661e-03 1.658166e-01 2.782181e-01 3.063637e-01 3.683992e-01 5.036777e-01 1.513281e+00 1.144888e+00 1.265706e+00 1.324902e+00 1.134567e+00 8.431514e-01 1.150376e+00 1.180555e-04 1.650536e-02 2.281875e-02 4.191273e-02 7.214455e-02 5.285081e-02 1.312397e-01 9.298677e-02 1.494468e-01 1.779771e-01 6.702933e-02 1.132526e-01 1.124192e-01 4.456249e-05
<GCONST> 2.053200e+01
<MIXTURE> 3 4.735845e-02
<MEAN> 39
 -9.602230e+00 -3.187037e+00 -2.188765e+00 -3.414712e+00 6.198878e-01 3.704289e-01 1.926789e+00 -7.877446e-01 4.411868e+00 1.685617e+00 4.716932e+00 -9.629666e-01 4.194833e-01 -5.735607e-02 -1.205130e-01 -1.755309e-01 -8.011699e-02 2.260390e-01 -5.043863e-02 -3.356420e-01 -3.216394e-01 -1.693998e-01 -6.483827e-02 4.131550e-02 -1.759789e-01 -3.644512e-03 1.808129e-02 1.074832e-01 1.668009e-01 1.598323e-01 7.262731e-02 -4.385221e-01 -1.971651e-01 -2.487645e-01 -4.318438e-01 -5.307999e-01 -4.840438e-01 -6.431855e-02 8.845748e-04
<VARIANCE> 39
 5.364914e-01 9.172121e-01 2.394654e+00 3.790326e+00 3.999360e+00 3.898542e+00 5.382671e+00 8.900208e+00 3.773462e+00 2.422877e+00 5.022667e+00 6.088795e+00 1.754311e-03 1.054386e-01 1.946312e-01 1.702340e-01 5.936214e-01 7.874636e-01 1.564679e+00 1.114800e+00 7.526754e-01 1.740668e+00 8.659111e-01 1.070270e+00 5.434921e-01 1.472173e-04 9.165606e-03 2.344459e-02 5.157335e-02 8.197334e-02 9.109414e-02 1.040893e-01 9.980108e-02 2.050265e-01 1.822593e-01 6.453852e-02 1.120751e-01 1.212012e-01 3.154915e-05
<GCONST> 2.241247e+01
<MIXTURE> 4 4.090527e-02
<MEAN> 39
 -9.992743e+00 -3.755020e+00 -3.666820e+00 -4.088370e+00 -1.681102e+00 -4.222154e+00 1.513679e+00 -7.891387e-01 1.774346e-01 -5.604332e+00 -4.563029e-01 -1.388142e+00 4.215408e-01 -2.272695e-03 -5.410779e-03 -1.665712e-02 -9.552010e-02 -1.348055e-01 -4.162651e-01 -8.357204e-01 -6.808319e-02 2.005875e-01 1.922143e-01 3.511797e-01 1.078791e-01 -1.478278e-03 5.265705e-02 1.066246e-01 3.288587e-01 2.680560e-01 3.727401e-01 2.848370e-01 -1.900413e-02 -2.373525e-01 2.146263e-01 4.227074e-01 1.601291e-01 -1.249330e-01 -2.574975e-03
<VARIANCE> 39
 8.951533e-01 8.637779e-01 1.416922e+00 3.588498e+00 4.334379e+00 9.185843e+00 2.707885e+00 3.899516e+00 4.637342e+00 5.165674e+00 4.282527e+00 5.348848e+00 1.232565e-03 1.053822e-01 1.318850e-01 4.100830e-01 7.837715e-01 1.220360e+00 7.954087e-01 8.031961e-01 9.201113e-01 1.443572e+00 6.070892e-01 8.869521e-01 1.085973e+00 1.063079e-04 1.944360e-02 1.676427e-02 1.471471e-02 4.180715e-02 1.383750e-01 1.589436e-01 6.938299e-02 9.440701e-02 1.214102e-01 1.452233e-01 1.839521e-01 1.430219e-01 2.140891e-05
<GCONST> 2.093945e+01
<MIXTURE> 5 4.340442e-02
<MEAN> 39
 -9.805905e+00 -2.989830e+00 -1.700615e+00 -3.383951e+00 -1.416105e+00 -2.920506e+00 2.451048e+00 -1.142433e+00 2.217469e+00 2.402009e-01 7.555273e-01 -3.197627e+00 3.927308e-01 2.661469e-02 7.487129e-02 1.562914e-01 4.803905e-01 4.768533e-01 2.507693e-01 2.842617e-01 2.413846e-01 2.591504e-02 -1.020430e-02 -6.750822e-02 -3.429227e-01 -1.014764e-04 1.120926e-02 6.734936e-02 7.366713e-02 6.706645e-02 3.064426e-01 7.118184e-02 -2.915149e-01 -1.967461e-01 -5.408990e-02 -4.219417e-01 5.148919e-03 2.804589e-01 4.202697e-03
<VARIANCE> 39
 7.658402e-01 9.017802e-01 1.847649e+00 2.629450e+00 3.570743e+00 2.721165e+00 3.480688e+00 3.044352e+00 5.141765e+00 4.211188e+00 5.399398e+00 3.548062e+00 7.791900e-04 5.142787e-02 1.463405e-01 1.880125e-01 2.367818e-01 5.350226e-01 7.733744e-01 9.227744e-01 7.652679e-01 1.072763e+00 1.076865e+00 8.151198e-01 6.188863e-01 1.989156e-04 1.498403e-02 1.725965e-02 2.236705e-02 1.006277e-01 5.432745e-02 5.435972e-02 6.923690e-02 7.562856e-02 1.007651e-01 6.734590e-02 7.807674e-02 7.653000e-02 2.987291e-05
<GCONST> 1.213323e+01
<MIXTURE> 6 3.224964e-02
<MEAN> 39
 -9.154043e+00 -1.975530e+00 -1.727082e+00 -3.565878e+00 -9.283401e-01 -5.753016e-01 3.530922e+00 -5.101207e+00 -1.494808e+00 -1.677173e+00 2.995196e+00 -5.074949e-01 4.434863e-01 -4.343938e-02 9.527577e-02 1.964818e-01 -5.947659e-02 2.045567e-01 5.085582e-01 3.214267e-01 -6.025409e-01 -1.141806e+00 -5.864639e-01 -3.692400e-01 -4.208460e-02 -3.782061e-03 -5.506244e-02 -6.402891e-02 1.163866e-01 2.083036e-01 2.384356e-01 -3.127825e-01 -5.275289e-01 1.036313e-01 2.540647e-01 -1.179144e-01 -1.977731e-01 -2.577354e-01 -4.770498e-03
<VARIANCE> 39
 5.442213e-01 1.053192e+00 1.055417e+00 3.037539e+00 2.077147e+00 3.889013e+00 5.564306e+00 4.938481e+00 4.548163e+00 7.868287e+00 4.430177e+00 3.778941e+00 2.009950e-03 6.579660e-02 2.095536e-01 2.822663e-01 7.445526e-01 6.547701e-01 1.008526e+00 7.477525e-01 8.095024e-01 1.081694e+00 1.187407e+00 8.461158e-01 6.251714e-01 1.954636e-04 1.089065e-02 3.195950e-02 2.303231e-02 8.268953e-02 2.778468e-02 8.721889e-02 2.036106e-01 1.081753e-01 1.327944e-01 2.193487e-01 1.006486e-01 8.385859e-02 3.903372e-05
<GCONST> 1.965982e+01
<MIXTURE> 7 4.042177e-02
<MEAN> 39
 -8.610070e+00 -8.253047e-01 2.149097e-01 -2.423472e+00 -2.207428e+00 -5.844079e+00 2.676801e-01 -3.265855e+00 -5.821758e-01 -3.104786e+00 -2.759766e-01 -1.331094e+00 4.248059e-01 1.125747e-01 1.826684e-01 1.529355e-01 -3.695304e-01 -3.566925e-01 1.861279e-01 4.241381e-01 5.186560e-01 4.281901e-01 3.545423e-01 3.145621e-02 -7.174494e-02 -9.306579e-04 -1.376368e-01 -2.252593e-01 -1.773366e-01 2.711207e-02 3.744996e-01 5.054267e-01 2.281480e-01 1.497529e-01 2.524855e-01 1.613494e-02 1.640800e-01 -1.162022e-01 -9.926044e-04
<VARIANCE> 39
 6.673112e-01 1.265302e+00 3.613265e+00 3.964638e+00 2.302993e+00 7.276968e+00 4.938744e+00 3.750708e+00 4.727728e+00 2.438884e+00 6.320473e+00 3.515222e+00 1.385564e-03 1.417188e-01 2.106133e-01 2.798397e-01 5.798667e-01 5.445450e-01 6.719317e-01 1.025688e+00 1.430819e+00 8.482817e-01 1.058023e+00 1.007548e+00 7.919235e-01 1.935469e-04 1.473354e-02 2.383653e-02 6.268159e-02 1.046120e-01 4.884942e-02 1.172301e-01 1.202927e-01 1.007137e-01 1.390367e-01 6.069140e-02 1.363577e-01 5.375881e-02 3.953613e-05
<GCONST> 2.165017e+01
<MIXTURE> 8 5.637061e-02
<MEAN> 39
 -9.250846e+00 -2.556655e+00 -1.222286e+00 -1.404979e+00 1.794263e+00 -1.259609e+00 -1.937725e-01 -6.738902e+00 -2.878449e-01 -1.776269e+00 3.752465e+00 -2.050674e+00 4.130344e-01 -4.748457e-02 -1.289110e-02 1.019476e-01 2.324047e-02 -2.225841e-01 -2.807412e-01 9.895796e-02 1.456120e-01 -4.703923e-01 -4.005266e-01 -1.272507e-01 -1.832521e-02 -3.213155e-03 -3.293641e-02 5.782435e-02 2.524614e-02 -1.686223e-01 -1.941512e-01 -1.944786e-01 1.822520e-01 5.472044e-01 1.868990e-01 2.425563e-02 -3.720175e-01 -5.268294e-03 2.542182e-04
<VARIANCE> 39
 7.094392e-01 1.074674e+00 3.249838e+00 2.975436e+00 6.112615e+00 7.627312e+00 4.244228e+00 3.058976e+00 7.373187e+00 2.748280e+00 1.606026e+00 3.930132e+00 1.266719e-03 7.995594e-02 1.072284e-01 3.285457e-01 6.117784e-01 9.214748e-01 8.092073e-01 7.148201e-01 1.400511e+00 1.273971e+00 6.271308e-01 7.287461e-01 9.962509e-01 1.117932e-04 1.676130e-02 1.767562e-02 6.218276e-02 6.158348e-02 1.293528e-01 1.518215e-01 1.171485e-01 1.233873e-01 1.887603e-01 1.035176e-01 9.416539e-02 6.189809e-02 4.320602e-05
<GCONST> 2.097511e+01
<MIXTURE> 9 3.826593e-02
<MEAN> 39
 -8.784927e+00 -2.007324e+00 -1.113002e+00 -7.880418e-01 2.144490e-01 -2.556664e+00 2.047901e+00 -3.237783e+00 2.647703e+00 -6.480965e-01 3.107184e+00 3.164774e-01 4.314834e-01 -1.193737e-03 2.237774e-02 1.599981e-01 3.517520e-01 4.286205e-01 2.685397e-01 4.564584e-01 3.938875e-01 3.422787e-01 4.207631e-01 6.553266e-01 2.026295e-01 -1.967828e-03 -1.027429e-01 -4.593339e-02 -7.190140e-02 -3.540987e-01 -8.471336e-02 -1.140005e-01 -1.572722e-01 1.005328e-01 -1.966797e-01 -9.255163e-02 -1.855022e-01 -2.497294e-01 -2.302757e-03
<VARIANCE> 39
 6.661291e-01 1.468296e+00 8.575219e-01 3.542326e+00 3.963459e+00 5.601474e+00 2.269307e+00 4.038480e+00 8.395863e+00 4.019906e+00 2.892225e+00 4.501193e+00 1.241883e-03 4.200906e-02 9.230231e-02 2.481521e-01 3.945556e-01 7.795290e-01 1.101710e+00 1.020651e+00 1.407259e+00 1.855102e+00 7.407677e-01 6.589084e-01 5.729820e-01 3.194871e-04 1.531876e-02 2.643183e-02 2.314986e-02 5.326612e-02 4.499897e-02 5.612298e-02 8.902691e-02 5.628122e-02 1.211307e-01 1.303040e-01 4.353044e-02 7.851982e-02 3.613464e-05
<GCONST> 1.526112e+01
<MIXTURE> 10 5.262819e-02
<MEAN> 39
 -1.007766e+01 -3.363832e+00 -1.227946e+00 -5.689005e-01 3.934196e+00 1.375105e+00 4.069842e+00 -1.137185e+00 1.967579e+00 -9.427351e-01 2.039863e+00 -1.154976e+00 4.142195e-01 -2.896801e-02 -5.186050e-02 7.766780e-02 -1.441188e-01 -1.486687e-01 -5.928766e-02 -5.664653e-02 4.064317e-02 9.302940e-03 -4.537164e-02 1.017225e-01 -2.696959e-02 -2.874532e-03 4.119270e-02 8.517535e-02 -2.181076e-02 -2.238381e-01 -4.941024e-01 -5.629961e-01 -4.489996e-01 -1.300265e-01 -1.130044e-02 -1.290831e-01 -1.683329e-01 -1.027376e-01 -5.367632e-04
<VARIANCE> 39
 5.929536e-01 1.267668e+00 3.529087e+00 4.688170e+00 3.903200e+00 4.951929e+00 4.716624e+00 5.626973e+00 5.354437e+00 3.941978e+00 5.131520e+00 7.334014e+00 1.241798e-03 5.744050e-02 1.353615e-01 2.030693e-01 5.117473e-01 7.059014e-01 9.015538e-01 9.658055e-01 1.258025e+00 1.530213e+00 1.376156e+00 1.045070e+00 7.044485e-01 2.268420e-04 9.896218e-03 2.110162e-02 5.270994e-02 7.913122e-02 1.330187e-01 8.676464e-02 1.344048e-01 1.205423e-01 1.659515e-01 6.140747e-02 1.065054e-01 1.754807e-01 3.335732e-05
<GCONST> 2.368110e+01
<MIXTURE> 11 2.352537e-02
<MEAN> 39
 -9.018811e+00 -2.438962e+00 2.937687e-01 -1.062426e-01 -1.184106e-01 -3.172045e+00 -2.252664e+00 -5.510764e+00 2.765538e+00 -1.917274e+00 7.049044e-01 -4.135654e+00 4.306076e-01 -5.352816e-02 7.687258e-02 2.569231e-01 3.055059e-01 2.765016e-01 8.327044e-02 1.288410e-01 1.311900e-01 1.529839e-01 1.432404e-01 2.969011e-01 3.553335e-01 3.843136e-03 -5.738010e-02 -4.521889e-02 -2.358211e-01 -3.669344e-01 2.714451e-02 -1.709334e-02 2.000804e-01 3.045109e-01 -2.415232e-01 5.672053e-02 2.182843e-01 4.363650e-01 -2.425799e-03
<VARIANCE> 39
 3.210712e-01 3.289500e-01 2.924465e+00 2.860127e+00 7.191488e+00 2.313724e+00 4.054565e+00 7.437585e+00 2.702141e+00 1.219306e+00 2.328709e+00 5.751873e+00 1.527697e-03 1.283992e-01 1.495280e-01 1.821708e-01 7.694107e-01 4.622407e-01 6.240293e-01 9.828591e-01 1.437683e+00 5.562519e-01 1.141422e+00 4.202722e-01 5.368900e-01 1.800992e-04 6.741290e-03 2.911917e-02 4.900875e-02 8.088698e-02 2.393667e-01 1.113986e-01 1.661919e-01 1.925128e-01 1.445978e-01 4.005827e-02 1.108958e-01 1.096541e-01 2.864798e-05
<GCONST> 1.654002e+01
<MIXTURE> 12 2.231291e-02
<MEAN> 39
 -9.810478e+00 -3.200925e+00 -2.384965e+00 -5.008942e+00 -3.148660e+00 -4.722779e+00 1.706378e+00 -4.987967e+00 -1.273684e+00 -4.114085e+00 -1.031049e+00 -1.573424e+00 4.101008e-01 -4.729503e-02 -3.036031e-02 -6.671539e-02 2.705046e-01 2.470376e-01 1.517994e-01 3.027246e-01 -4.838833e-02 -2.869316e-01 -2.911766e-01 -2.536881e-01 -4.545759e-01 -2.361954e-03 4.749248e-02 7.797455e-02 1.222275e-01 3.765084e-01 4.765337e-01 3.246643e-01 -3.024809e-02 5.003054e-01 4.355739e-01 2.594928e-01 1.837507e-01 -9.655492e-02 1.391863e-03
<VARIANCE> 39
 6.743550e-01 1.020301e+00 1.976331e+00 1.409618e+00 1.845293e+00 7.260206e+00 5.376060e+00 2.925562e+00 5.300391e+00 4.981694e+00 3.243345e+00 1.126020e+01 5.970261e-04 5.554082e-02 1.935844e-01 2.903126e-01 5.417728e-01 1.519590e+00 6.263568e-01 4.058216e-01 7.462359e-01 7.517928e-01 3.434871e-01 5.152441e-01 6.912351e-01 1.902068e-04 1.653993e-02 2.205830e-02 7.917207e-02 3.944150e-02 9.118863e-02 1.802575e-01 1.162439e-01 1.958832e-01 1.676177e-01 1.790531e-01 3.207859e-02 1.672406e-01 2.588670e-05
<GCONST> 1.767477e+01
<MIXTURE> 13 2.398468e-02
<MEAN> 39
 -1.102114e+01 -4.396141e+00 -1.252479e+00 -1.544211e+00 8.790367e-01 -3.139888e+00 4.504856e-01 -3.771782e+00 -1.295489e+00 -6.467347e+00 -2.299214e+00 -2.921274e+00 4.145293e-01 1.804245e-01 2.146779e-01 6.906462e-02 1.222622e-01 -6.424690e-02 -1.384249e-01 3.973022e-02 1.728795e-01 2.515937e-01 2.759606e-01 -4.834151e-02 -5.699395e-02 -1.041535e-02 1.999612e-01 2.556760e-01 -4.687148e-02 -1.635331e-01 -2.302539e-02 1.141598e-01 1.750432e-01 2.798296e-01 5.041419e-01 7.006499e-01 4.959672e-01 1.480637e-01 1.585269e-03
<VARIANCE> 39
 5.985020e-01 1.288395e+00 1.196308e+00 3.131462e+00 5.193645e+00 6.725695e+00 6.028318e+00 4.153838e+00 7.982435e+00 8.152118e+00 4.164564e+00 5.686936e+00 1.794423e-03 1.149541e-01 2.683054e-01 3.900966e-01 7.524994e-01 4.383481e-01 1.068217e+00 4.003396e-01 1.483987e+00 1.994671e+00 1.368516e+00 1.137787e+00 6.290488e-01 1.204788e-04 9.254185e-03 4.057143e-02 3.344581e-02 1.111032e-01 8.453515e-02 7.884305e-02 1.299068e-01 6.333645e-02 1.040858e-01 2.055865e-01 8.417096e-02 9.979223e-02 6.479389e-05
<GCONST> 2.462888e+01
<MIXTURE> 14 1.314452e-02
<MEAN> 39
 -9.781128e+00 -3.002592e+00 -2.048714e+00 -3.270758e+00 -1.240330e+00 -4.337768e+00 -3.132729e+00 -3.902081e+00 2.916052e-01 -5.160880e+00 -1.036100e+00 -3.666191e+00 4.099446e-01 -4.955030e-02 -5.976829e-02 -3.589862e-02 -6.002169e-01 -2.306985e-01 -5.070531e-01 -3.924165e-01 -4.979813e-01 -3.580733e-01 -1.650551e-01 3.120206e-01 4.336997e-01 -4.288493e-03 6.260850e-02 5.064213e-02 2.143007e-01 1.564043e-01 2.779449e-01 1.759672e-01 4.213100e-01 2.443674e-01 1.076455e-01 2.069616e-01 2.701848e-01 1.101195e-01 -2.719416e-04
<VARIANCE> 39
 4.687352e-01 8.548177e-02 8.258736e-01 1.820181e+00 3.040681e+00 4.542753e+00 2.890076e+00 3.376026e+00 3.831380e+00 9.026200e-01 4.192157e+00 6.489135e+00 3.796324e-04 2.509044e-02 3.300553e-02 3.688773e-01 4.709949e-01 6.256444e-01 1.074990e+00 4.094806e-01 2.016227e+00 8.380195e-01 6.908578e-01 8.981222e-01 1.577173e+00 1.840989e-04 1.727408e-02 2.580753e-02 1.865742e-02 1.129647e-01 1.769067e-01 4.509494e-02 4.521382e-02 1.191432e-01 5.426509e-02 2.497469e-02 6.383970e-02 2.813320e-02 1.887820e-05
<GCONST> 4.469669e+00
<MIXTURE> 15 2.177638e-02
<MEAN> 39
 -1.013751e+01 -3.141939e+00 -1.444449e+00 -4.021750e+00 -3.680365e+00 -5.126606e+00 2.680286e-01 -1.180509e+00 3.615475e+00 -3.699936e+00 2.774893e+00 2.229913e+00 4.178383e-01 -9.953581e-02 -1.180094e-01 -2.516425e-01 -4.560493e-01 -8.788843e-01 -7.917539e-01 1.602747e-01 5.867660e-01 2.946541e-01 7.310750e-01 2.914177e-01 2.842842e-01 -2.638079e-03 7.846163e-02 1.028484e-01 7.867981e-02 2.465292e-01 6.032968e-01 4.025774e-01 2.544343e-02 -3.325968e-01 -4.123209e-01 1.156359e-01 -2.132948e-01 -5.250129e-01 -1.300105e-03
<VARIANCE> 39
 6.358171e-01 1.954275e+00 1.879744e+00 5.997984e+00 3.530207e+00 2.440753e+00 4.207995e+00 5.352402e+00 3.294010e+00 5.349773e+00 1.086681e+01 4.172509e+00 1.588182e-03 7.881038e-02 2.885386e-01 3.170631e-01 5.091659e-01 4.822699e-01 1.097353e+00 1.286239e+00 5.814903e-01 8.256523e-01 5.065704e-01 8.562719e-01 1.003024e+00 6.893771e-05 9.516752e-03 2.574375e-02 5.864251e-02 8.108770e-02 5.247228e-02 5.482724e-02 1.753718e-01 1.219710e-01 1.344260e-01 7.723027e-02 2.116324e-01 1.044235e-01 6.310726e-05
<GCONST> 2.127396e+01
<MIXTURE> 16 3.280022e-02
<MEAN> 39
 -9.647156e+00 -2.625741e+00 -2.469994e+00 -5.577485e+00 -2.367220e+00 -3.520111e+00 -1.958789e+00 -5.241081e+00 2.956527e+00 -3.933082e-01 2.030996e+00 -5.961736e-01 4.057713e-01 1.867210e-02 1.145496e-01 5.510047e-03 -3.356979e-01 -8.803675e-02 -4.481523e-01 -3.031752e-01 1.227529e-01 -1.432283e-01 2.621512e-01 5.869626e-01 3.463785e-01 -5.583756e-03 1.822121e-03 -3.103719e-02 1.103014e-01 3.320673e-01 3.261705e-01 1.131791e-01 4.785689e-01 3.379748e-01 -7.150110e-02 -9.760700e-02 -1.254670e-01 -1.244446e-01 1.901275e-03
<VARIANCE> 39
 8.967197e-01 1.384441e+00 1.952749e+00 1.767244e+00 3.698369e+00 3.620866e+00 5.982715e+00 4.645200e+00 2.613092e+00 3.678180e+00 2.568873e+00 5.287446e+00 9.784875e-04 1.155691e-01 1.751379e-01 2.366810e-01 1.159039e-01 6.193966e-01 9.485224e-01 8.387219e-01 1.274897e+00 4.712300e-01 3.361500e-01 6.300972e-01 5.782869e-01 2.011383e-04 1.628636e-02 2.892645e-02 3.439100e-02 4.545565e-02 8.397427e-02 8.323159e-02 1.112170e-01 8.185709e-02 3.202053e-02 1.291612e-01 8.005071e-02 7.822665e-02 1.849105e-05
<GCONST> 1.242568e+01
<MIXTURE> 17 3.396474e-02
<MEAN> 39
 -8.232433e+00 -1.272087e+00 -9.842288e-01 -1.676248e+00 8.861141e-01 -1.659016e+00 1.621147e+00 9.252037e-02 2.741966e+00 -3.079824e+00 -1.131597e+00 -2.915877e+00 4.253718e-01 -2.585027e-01 -4.480460e-01 -4.489848e-01 -5.632735e-02 7.837600e-02 2.369151e-01 4.640566e-01 3.987823e-01 -9.567536e-02 -1.458695e-01 2.588980e-01 3.093682e-02 2.654951e-03 -2.203909e-01 -2.123175e-01 -4.919105e-02 -5.108482e-02 -1.629067e-02 -2.043186e-01 -2.423801e-01 -5.366764e-01 -3.012539e-01 -1.000422e-01 1.994324e-01 6.478521e-02 -1.321987e-03
<VARIANCE> 39
 6.127167e-01 1.027070e+00 2.209481e+00 3.332161e+00 4.919709e+00 5.768282e+00 1.060376e+01 4.514290e+00 7.152163e+00 5.257546e+00 4.679111e+00 4.396178e+00 1.045430e-03 9.353030e-02 1.376280e-01 2.849682e-01 3.226279e-01 6.255609e-01 1.618816e+00 5.505857e-01 1.190587e+00 1.997904e+00 7.309713e-01 1.493655e+00 7.190748e-01 1.950808e-04 1.641914e-02 1.381940e-02 7.063942e-02 8.648746e-02 1.030070e-01 1.500702e-01 2.165513e-01 1.116185e-01 2.416029e-01 1.619655e-01 1.557743e-01 5.344721e-02 2.980948e-05
<GCONST> 2.514010e+01
<MIXTURE> 18 3.500108e-02
<MEAN> 39
 -1.006226e+01 -3.420502e+00 -2.366105e+00 -3.982033e+00 3.818669e-01 -8.148178e-01 4.834946e+00 3.554853e-01 1.320324e+00 -3.168389e+00 1.722580e+00 -1.547288e+00 4.261329e-01 -1.591272e-01 -1.457174e-01 -2.455554e-02 -5.647886e-02 5.124997e-02 1.721600e-01 5.812371e-04 -1.821759e-01 -4.487947e-01 -7.047112e-01 -3.940582e-01 -1.901616e-01 5.148794e-04 8.963471e-02 1.625408e-01 2.089157e-01 2.463495e-01 -4.718867e-02 -3.217421e-01 -7.083232e-01 -5.178220e-01 3.467275e-02 7.610517e-02 -2.121646e-01 -8.539031e-03 -1.682781e-03
<VARIANCE> 39
 7.826898e-01 8.860978e-01 2.974383e+00 4.727264e+00 7.056515e+00 6.323346e+00 5.517126e+00 3.830642e+00 4.231439e+00 6.809688e+00 6.050865e+00 6.459198e+00 1.037078e-03 1.221175e-01 2.158404e-01 4.063480e-01 8.070933e-01 1.017028e+00 9.631286e-01 1.425470e+00 9.408950e-01 5.415139e-01 5.533420e-01 7.474783e-01 5.466287e-01 1.803637e-04 2.041623e-02 1.486487e-02 4.913071e-02 1.004235e-01 1.825592e-01 1.515822e-01 8.814104e-02 1.623691e-01 2.350415e-01 1.724240e-01 1.196960e-01 1.189039e-01 1.450059e-05
<GCONST> 2.591510e+01
<MIXTURE> 19 4.046828e-02
<MEAN> 39
 -9.459249e+00 -2.148764e+00 -9.089420e-01 -6.765110e-01 4.114320e+00 4.148801e-01 1.713119e+00 -1.485329e+00 -1.106063e-01 -4.013816e+00 -1.943990e-02 -2.276111e+00 4.233241e-01 1.017426e-01 2.600031e-01 3.465030e-01 4.922619e-01 2.512491e-01 -3.287988e-02 2.094737e-01 2.613476e-01 3.885244e-01 3.123314e-01 7.757726e-02 -2.470694e-01 5.769816e-04 -3.437398e-02 -1.070414e-01 -1.045691e-01 -3.094349e-01 -5.497193e-01 -3.455221e-01 -1.561141e-02 -2.599788e-02 2.523277e-01 2.184494e-01 5.257127e-02 7.279716e-02 -1.087773e-03
<VARIANCE> 39
 7.599860e-01 1.386156e+00 1.529996e+00 6.034267e+00 4.661315e+00 2.458199e+00 3.650174e+00 7.274654e+00 7.356621e+00 2.800590e+00 2.661818e+00 4.191640e+00 1.446932e-03 1.045235e-01 1.749769e-01 3.265842e-01 2.475084e-01 4.381302e-01 1.297602e+00 9.117021e-01 1.365800e+00 1.021373e+00 9.639376e-01 6.633180e-01 4.647883e-01 1.487848e-04 1.527897e-02 2.017327e-02 3.660522e-02 1.243683e-01 1.233167e-01 1.892474e-01 1.320692e-01 1.689726e-01 1.768458e-01 1.323674e-01 9.900320e-02 8.516792e-02 2.458242e-05
<GCONST> 2.152086e+01
<MIXTURE> 20 4.136237e-02
<MEAN> 39
 -9.761674e+00 -2.727939e+00 -1.087496e+00 -1.759045e+00 -8.681338e-02 -5.164375e+00 -1.406649e+00 -2.464788e+00 -6.842147e-01 -3.324157e+00 4.519492e+00 1.301718e+00 4.179610e-01 4.646784e-02 2.804822e-02 2.482906e-02 2.857117e-03 5.422509e-02 -1.656300e-01 -4.957712e-01 -3.468205e-01 -5.421914e-01 5.501485e-02 2.483948e-01 -3.255205e-01 -3.874617e-03 4.348936e-02 1.805238e-02 -2.361400e-02 -6.104732e-02 4.095628e-02 4.632761e-01 3.221948e-01 -1.522594e-01 2.647374e-01 2.318815e-01 -3.581729e-01 -3.918114e-01 1.149750e-03
<VARIANCE> 39
 6.244207e-01 1.076393e+00 2.749709e+00 2.648712e+00 4.834945e+00 5.392959e+00 4.634181e+00 2.438333e+00 4.798985e+00 6.722184e+00 5.435894e+00 4.052230e+00 1.463566e-03 1.226500e-01 1.337995e-01 2.725697e-01 7.115429e-01 5.966737e-01 1.303644e+00 1.500833e+00 1.410403e+00 1.118495e+00 7.995608e-01 6.760225e-01 6.736543e-01 1.440722e-04 9.772565e-03 3.110754e-02 5.871514e-02 6.699590e-02 1.400996e-01 1.482135e-01 8.112270e-02 9.415953e-02 1.322821e-01 7.926398e-02 1.395083e-01 7.743715e-02 5.062455e-05
<GCONST> 2.263311e+01
<MIXTURE> 21 2.981906e-02
<MEAN> 39
 -9.111376e+00 -1.706102e+00 -5.876628e-01 -8.227038e-01 1.737315e-01 -2.735475e+00 2.125274e+00 -4.496797e-01 3.159623e+00 1.330494e+00 2.270474e+00 -5.295550e+00 4.224050e-01 1.863950e-01 1.679923e-01 9.114293e-02 -1.940007e-01 1.585639e-01 -1.007547e-01 -4.334833e-01 -3.330435e-01 -2.656459e-01 3.576356e-02 5.082219e-01 4.540783e-01 3.560396e-03 -7.841631e-02 -1.057885e-01 -8.141956e-02 -2.685643e-01 -6.198127e-03 4.990388e-03 -1.027660e-01 -2.305105e-01 -2.434275e-01 -4.298376e-01 -1.597309e-01 5.748149e-01 5.807317e-04
<VARIANCE> 39
 3.887903e-01 6.288964e-01 2.481542e+00 1.743073e+00 3.723413e+00 4.498695e+00 1.394588e+01 4.842444e+00 1.146888e+01 4.426168e+00 4.802275e+00 2.716210e+00 2.358982e-03 3.435395e-02 1.115685e-01 5.510673e-01 3.709341e-01 7.464769e-01 5.726702e-01 1.374036e+00 1.627558e+00 9.904115e-01 8.271016e-01 1.106945e+00 1.126597e+00 3.668205e-04 1.040335e-02 1.312182e-02 4.385847e-02 6.873371e-02 6.084278e-02 4.369187e-02 2.947592e-01 7.236017e-02 1.380364e-01 7.549756e-02 9.425917e-02 3.605236e-02 5.383138e-05
<GCONST> 1.956497e+01
<MIXTURE> 22 2.016194e-02
<MEAN> 39
 -9.331349e+00 -1.963211e+00 5.869287e-02 -4.947003e-01 2.932519e+00 -3.154865e+00 -3.778988e+00 -7.546378e+00 -1.442838e-01 -2.188990e+00 1.991870e+00 1.974545e+00 4.256274e-01 -1.889055e-01 -6.240170e-03 7.695791e-02 -5.317620e-03 2.368206e-01 2.390387e-01 2.239236e-01 9.192485e-02 7.933448e-01 2.420274e-01 1.311473e-01 1.709969e-01 5.242816e-03 -2.988762e-02 -7.297517e-02 -1.233046e-01 -2.481487e-01 -3.903521e-01 2.059320e-02 6.536679e-01 7.963215e-01 1.976444e-01 -2.307619e-02 -5.913408e-02 -3.829820e-01 1.076397e-03
<VARIANCE> 39
 4.807344e-01 1.584960e+00 1.983286e+00 2.021061e+00 3.042557e+00 5.660456e+00 4.935688e+00 3.297857e+00 2.287331e+00 8.595901e+00 3.902153e+00 1.907290e+00 1.507582e-03 6.365639e-02 1.411649e-01 5.225772e-01 6.020677e-01 8.257213e-01 8.054616e-01 1.163956e+00 8.219144e-01 5.086588e-01 7.936919e-01 1.019977e+00 1.882757e+00 3.894039e-04 1.773828e-02 3.964979e-02 4.115997e-02 6.255700e-02 1.031586e-01 1.304377e-01 8.797256e-02 1.346412e-01 7.326978e-02 1.652450e-01 8.079809e-02 7.740160e-02 1.987276e-05
<GCONST> 2.021178e+01
<MIXTURE> 23 2.077038e-02
<MEAN> 39
 -1.003467e+01 -3.148718e+00 -7.670658e-01 -1.444727e+00 -3.417875e-01 -7.618570e+00 -4.111039e+00 -6.449694e+00 -3.908480e-02 -5.114442e-01 3.057763e+00 -5.317724e-01 4.119895e-01 -7.014014e-02 -1.102948e-01 -2.420157e-01 -1.833489e-01 3.037055e-02 1.828293e-01 1.319288e-01 -1.338666e-01 5.506094e-02 5.196718e-02 -8.068109e-02 -2.682888e-02 -9.992612e-04 4.488023e-02 9.139113e-02 -1.087640e-01 -8.503999e-02 5.178852e-02 5.796468e-01 7.236828e-01 4.398174e-01 2.206422e-01 -2.193342e-01 -3.871611e-01 -3.020363e-01 8.545802e-04
<VARIANCE> 39
 6.380621e-01 8.365241e-01 1.633859e+00 4.878002e+00 4.484686e+00 1.760297e+00 5.854689e+00 3.953614e+00 5.118564e+00 1.138666e+01 1.027019e+01 6.524661e+00 1.207221e-03 9.949236e-02 1.551246e-01 1.789752e-01 8.355778e-01 9.845235e-01 1.128215e+00 1.263683e+00 1.059670e+00 9.334567e-01 1.006697e+00 8.141941e-01 1.195274e+00 2.514879e-04 6.491687e-03 8.914462e-03 6.063927e-02 9.777494e-02 1.777519e-01 7.998141e-02 1.701614e-01 1.223085e-01 1.938347e-01 2.540111e-01 1.935147e-01 1.282640e-01 2.053965e-05
<GCONST> 2.532091e+01
<MIXTURE> 24 4.196067e-02
<MEAN> 39
 -9.881449e+00 -3.691236e+00 -3.202338e+00 -4.682642e+00 -1.706386e+00 -3.330929e+00 1.250882e+00 -5.706164e-01 5.910864e+00 3.140996e-01 -3.733580e-01 -1.663652e+00 4.229775e-01 2.366710e-02 3.574798e-02 -4.642134e-02 9.462836e-02 2.802431e-01 8.153063e-02 2.193864e-02 -2.833898e-01 -2.246857e-01 3.029777e-01 3.990919e-01 1.969690e-01 -3.019369e-03 5.109268e-02 1.349702e-01 2.591985e-01 2.914543e-01 2.292662e-01 9.153950e-02 2.854230e-02 -2.473556e-01 -7.214484e-01 -2.650531e-01 2.054145e-01 -2.132408e-02 -6.338992e-04
<VARIANCE> 39
 3.464092e-01 1.445817e+00 1.763332e+00 3.126785e+00 3.702406e+00 4.694081e+00 1.108194e+01 7.294651e+00 3.757692e+00 4.767240e+00 6.464887e+00 4.510943e+00 2.050475e-03 1.421773e-01 2.329457e-01 3.571697e-01 3.392977e-01 4.693102e-01 1.051506e+00 9.137664e-01 7.866316e-01 1.109317e+00 6.823443e-01 9.770561e-01 8.608908e-01 1.391749e-04 1.315131e-02 2.701154e-02 4.147186e-02 5.661783e-02 1.319329e-01 1.825781e-01 2.149593e-01 1.679723e-01 1.131436e-01 1.026676e-01 1.657227e-01 1.045071e-01 3.835516e-05
<GCONST> 2.439964e+01
<MIXTURE> 25 1.039597e-02
<MEAN> 39
 -1.021339e+01 -2.008554e+00 -1.784955e-01 -2.442034e+00 -2.687334e+00 -8.196481e+00 -4.556631e+00 -6.981370e+00 -4.061882e+00 -4.216242e+00 5.306153e-01 -3.571713e+00 4.037936e-01 2.122590e-01 4.308990e-01 3.322310e-01 -1.744213e-01 -1.623782e-01 -3.607055e-01 2.423773e-01 -1.862278e-01 1.173503e-01 -2.198552e-01 -5.697829e-01 1.133132e-02 1.733109e-03 1.027929e-01 -2.869172e-02 -1.631882e-01 -3.747875e-02 3.130533e-01 8.416407e-01 7.070014e-01 5.674298e-01 7.381472e-01 4.492829e-01 1.106503e-01 1.899082e-01 2.968153e-03
<VARIANCE> 39
 4.197161e-01 9.782448e-01 6.752379e-01 1.460568e+00 5.601520e+00 7.530607e+00 7.372696e+00 6.661156e+00 7.290534e+00 6.016007e+00 5.133060e+00 4.792781e+00 2.361594e-04 5.867298e-02 1.810519e-01 6.359499e-01 6.994313e-01 3.284994e-01 4.671682e-01 7.287912e-01 6.142676e-01 2.351692e-01 7.836836e-01 4.912826e-01 8.668848e-01 5.191878e-05 1.501909e-02 1.193032e-02 2.353951e-02 6.499634e-02 1.259355e-01 7.137806e-02 1.714519e-01 2.538516e-01 2.011346e-01 4.474441e-02 2.868844e-01 1.849224e-01 1.983267e-05
<GCONST> 1.516752e+01
<MIXTURE> 26 8.500556e-03
<MEAN> 39
 -1.033545e+01 -4.635773e+00 -3.621273e+00 -6.372829e+00 -4.281806e+00 -7.469819e+00 -5.711989e+00 -6.286376e+00 -1.782568e+00 -4.900414e+00 -4.898930e-02 -2.575996e+00 4.146186e-01 -1.998557e-01 -1.858596e-01 -2.509628e-02 1.541996e-01 8.366041e-02 2.364931e-01 8.109938e-02 -2.396338e-03 1.763617e-01 2.112741e-01 1.017933e-01 -1.569193e-01 -1.310252e-04 4.567069e-02 1.415554e-01 2.598615e-01 4.947765e-01 5.053944e-01 5.991157e-01 7.773033e-01 4.862571e-01 4.374206e-01 1.823085e-01 8.109707e-02 2.729197e-01 3.022719e-03
<VARIANCE> 39
 3.360607e-01 1.580031e+00 2.000604e+00 6.836043e-01 4.735243e+00 1.856598e+00 2.486131e+00 2.767838e+00 1.222565e+01 2.930311e+00 3.781477e+00 1.803847e+00 1.027676e-03 3.093047e-02 8.574990e-02 1.301287e-01 4.644240e-01 6.067570e-01 1.024696e+00 1.516212e+00 1.131906e+00 4.723333e-01 1.559375e-01 8.888353e-01 3.072636e-01 1.144302e-04 7.888174e-03 5.838601e-02 2.187135e-02 2.411417e-02 1.123104e-01 1.559322e-01 1.248384e-01 1.954866e-01 3.554873e-01 9.949581e-02 1.931064e-01 4.783698e-02 3.364307e-05
<GCONST> 1.110811e+01
<MIXTURE> 27 2.187382e-02
<MEAN> 39
 -9.182933e+00 -2.238045e+00 -2.735453e+00 -3.293201e+00 1.372824e+00 -4.783048e+00 -3.782581e+00 -1.378672e+00 3.653289e+00 -2.216374e+00 3.458098e+00 -4.805153e-01 4.161340e-01 1.403387e-01 3.116633e-01 2.431060e-01 3.277957e-01 4.964082e-01 3.578439e-01 1.510016e-01 1.861962e-02 -1.575100e-01 -7.618577e-02 -1.065548e-01 -2.591463e-01 1.630903e-03 -5.565439e-02 -1.098071e-01 1.264550e-01 1.368272e-01 -1.622317e-01 2.656862e-01 6.684787e-01 -4.416256e-02 -2.566430e-01 3.691568e-02 -3.393360e-01 -1.782948e-01 -4.353193e-04
<VARIANCE> 39
 4.602307e-01 6.379524e-01 1.249712e+00 2.444751e+00 4.573637e+00 3.988883e+00 3.177451e+00 1.092040e+00 9.032220e+00 1.038345e+01 6.787657e+00 4.634616e+00 5.978251e-04 8.105257e-02 1.274243e-01 3.866578e-01 3.075826e-01 1.040809e+00 5.191970e-01 1.226386e+00 1.222465e+00 8.929529e-01 4.884073e-01 1.046274e+00 5.355794e-01 1.437655e-04 1.319923e-02 3.794585e-02 5.926298e-02 3.350886e-02 3.598728e-02 8.249313e-02 7.778266e-02 3.820323e-02 1.420523e-01 1.818441e-01 1.002329e-01 9.407436e-02 1.245429e-05
<GCONST> 1.404224e+01
<MIXTURE> 28 2.581229e-02
<MEAN> 39
 -8.962154e+00 -1.609276e+00 -1.054867e+00 -1.732471e+00 -7.262504e-01 -5.251914e+00 5.018657e-01 1.522452e+00 1.593726e+00 -1.610640e+00 3.668933e+00 3.800247e-01 4.333228e-01 1.434808e-01 1.480712e-01 9.646858e-02 2.454029e-01 -1.695293e-01 -6.791245e-01 -3.999875e-02 -2.787693e-01 -4.870176e-01 1.623266e-02 4.340611e-01 6.556708e-01 4.867785e-03 -8.956505e-02 -1.457790e-01 -6.615647e-02 -1.224413e-01 1.377738e-01 3.081292e-01 -7.882108e-02 -7.661743e-01 -1.333449e-01 -1.939088e-02 -3.623961e-01 -2.302663e-01 -2.661970e-03
<VARIANCE> 39
 1.119953e+00 1.012321e+00 2.686642e+00 2.934689e+00 2.954679e+00 7.808555e+00 1.437031e+00 7.217065e+00 5.411110e+00 1.015085e+01 4.647889e+00 9.688090e-01 8.959107e-04 6.620608e-02 2.404979e-01 2.427593e-01 5.479363e-01 1.103258e+00 5.964057e-01 1.128938e+00 1.673914e+00 1.583468e+00 1.152280e+00 7.303351e-01 3.653241e-01 2.091120e-04 1.329765e-02 1.646786e-02 8.070072e-02 9.268007e-02 4.180159e-02 2.875800e-01 2.274407e-01 1.268737e-01 1.288175e-01 1.364405e-01 7.557098e-02 3.828927e-02 1.978292e-05
<GCONST> 2.070060e+01
<MIXTURE> 29 2.964214e-02
<MEAN> 39
 -9.192358e+00 -1.624242e+00 -1.756438e+00 -4.087601e+00 -2.626040e+00 -5.493572e+00 1.383351e+00 -3.017699e+00 6.358815e-01 7.455027e-01 4.744138e+00 -2.049157e+00 4.256674e-01 -9.577945e-02 -7.392910e-02 -2.725109e-02 -4.989379e-02 3.399632e-02 3.369311e-01 1.461300e-01 2.771788e-01 -1.100739e-01 4.187434e-02 -1.978155e-01 7.466372e-02 -1.694466e-03 -1.033542e-01 -1.430659e-01 9.583209e-02 2.676340e-01 4.494337e-01 4.227114e-01 3.654334e-02 4.436611e-02 1.316837e-02 -4.798326e-01 -4.174423e-01 1.261757e-01 -2.138698e-03
<VARIANCE> 39
 3.994036e-01 1.438247e+00 1.864696e+00 7.545298e-01 2.835638e+00 2.851506e+00 5.677226e+00 7.933063e+00 7.026228e+00 8.010373e+00 4.199023e+00 3.805064e+00 2.097664e-03 1.382353e-01 6.998760e-02 2.466401e-01 6.687136e-01 6.986021e-01 9.629284e-01 1.501363e+00 8.885205e-01 7.543883e-01 5.690460e-01 1.193191e+00 7.026954e-01 6.251206e-05 7.465243e-03 2.678628e-02 3.999895e-02 7.467552e-02 9.015410e-02 9.411203e-02 1.643195e-01 1.534813e-01 2.163671e-01 9.468445e-02 1.232447e-01 1.291942e-01 4.387909e-05
<GCONST> 1.990324e+01
<MIXTURE> 30 2.563395e-02
<MEAN> 39
 -1.039417e+01 -3.218263e+00 -1.233634e+00 9.268954e-01 3.645027e+00 7.676562e-01 4.458226e+00 -3.118026e+00 -1.345472e+00 -3.866169e+00 -2.209545e-01 -4.745408e+00 4.100611e-01 6.062524e-02 4.787474e-02 -2.603253e-01 -2.757758e-01 -6.082878e-03 -4.919233e-01 -3.155281e-01 2.861975e-01 3.289473e-02 -1.081766e-01 -3.664532e-01 -6.888874e-02 -3.349635e-03 9.415927e-02 6.589101e-02 -6.785187e-02 -4.737834e-01 -3.794359e-01 -5.030707e-01 -3.808001e-01 1.884846e-01 4.523574e-01 3.214153e-01 2.067055e-01 4.446488e-01 1.702858e-03
<VARIANCE> 39
 3.281066e-01 1.499364e+00 7.502626e-01 2.990646e+00 4.786514e+00 8.701356e+00 6.840712e+00 6.610785e+00 9.246698e+00 7.676689e+00 4.480228e+00 7.900476e+00 1.229244e-03 4.876570e-02 1.080874e-01 2.572227e-01 1.053873e+00 1.144908e+00 1.077295e+00 5.394539e-01 7.719863e-01 5.670717e-01 8.650025e-01 6.180844e-01 4.991757e-01 1.360683e-04 7.400258e-03 2.335534e-02 2.500983e-02 3.275989e-02 1.207015e-01 1.421857e-01 1.540819e-01 1.295930e-01 1.886075e-01 1.109849e-01 1.057959e-01 2.170388e-01 1.538842e-05
<GCONST> 1.996576e+01
<MIXTURE> 31 2.177141e-02
<MEAN> 39
 -9.659620e+00 -3.134952e+00 -1.308942e+00 -3.045931e+00 -1.867796e+00 -6.237519e+00 -6.233994e-01 1.520050e-01 2.699793e+00 -2.412517e+00 7.108433e-01 -3.766556e+00 4.214957e-01 -1.505422e-01 -3.359882e-01 -2.107022e-01 -4.568841e-01 -5.115444e-01 -5.281094e-01 -5.194898e-01 9.791637e-02 8.205783e-01 3.510219e-01 -2.147030e-02 -1.048082e-02 9.659583e-03 -2.937770e-02 2.755717e-02 -3.750832e-02 1.670280e-01 3.660595e-01 5.382649e-01 2.573504e-01 -3.374454e-01 -1.236119e-01 -2.115916e-02 6.928442e-02 2.866853e-01 1.878938e-03
<VARIANCE> 39
 2.257845e+00 1.540395e+00 3.410864e+00 8.031653e+00 5.503288e+00 5.613604e+00 2.611855e+00 4.012296e+00 6.236705e+00 4.503261e+00 4.824833e+00 4.714842e+00 2.736337e-03 5.383790e-02 1.652872e-01 3.578274e-01 3.122618e-01 9.400025e-01 8.023931e-01 6.917295e-01 1.088823e+00 1.127091e+00 3.899285e-01 9.545149e-01 7.195711e-01 1.343554e-04 3.924389e-02 2.477367e-02 3.562796e-02 1.852057e-01 1.539954e-01 8.084211e-02 1.104973e-01 9.160022e-02 6.587975e-02 9.133722e-02 6.689541e-02 6.303478e-02 3.558851e-05
<GCONST> 2.321946e+01
<MIXTURE> 32 3.054938e-02
<MEAN> 39
 -9.446815e+00 -2.644288e+00 -6.015060e-01 -1.542034e+00 -2.483234e-01 -1.061285e+00 2.203339e+00 -4.240949e+00 -4.469414e+00 -4.548146e+00 2.181313e+00 -6.196716e-01 4.371050e-01 -1.900895e-01 -6.472673e-02 1.689771e-01 2.324030e-01 1.433880e-01 -2.954147e-01 -5.378006e-01 -1.893523e-02 1.784550e-01 -1.104140e-01 -5.145792e-01 -1.056135e-01 -3.399954e-03 -2.552823e-02 -1.573469e-02 -9.468337e-02 -1.155991e-01 -2.050909e-02 -2.575995e-01 -1.821004e-01 1.938285e-01 9.157178e-01 3.679823e-01 -2.723016e-01 -2.409880e-01 -3.177955e-03
<VARIANCE> 39
 6.977909e-01 2.250736e+00 3.061176e+00 2.882777e+00 1.894371e+00 6.070274e+00 1.922763e+00 6.920896e+00 2.370620e+00 8.055381e+00 7.386956e+00 5.817152e+00 3.008002e-03 7.503644e-02 1.681165e-01 2.747929e-01 4.626574e-01 6.288382e-01 3.326255e-01 1.107193e+00 9.166933e-01 8.670791e-01 6.223980e-01 4.603302e-01 8.190690e-01 1.810482e-04 7.572235e-03 4.476362e-02 5.284094e-02 6.382907e-02 6.000045e-02 1.258142e-01 7.063053e-02 1.985287e-01 1.163391e-01 9.738754e-02 2.282714e-01 1.075893e-01 4.968173e-05
<GCONST> 2.111430e+01
<STATE> 3
<NUMMIXES> 32
<MIXTURE> 1 5.189465e-02
<MEAN> 39
 -9.282244e+00 -3.003369e+00 -3.019830e+00 -3.015325e+00 1.212615e+00 -2.757951e+00 8.104447e-01 -2.194013e+00 -1.620727e-01 -3.131348e+00 8.564626e-01 -2.186642e+00 3.947518e-01 3.565748e-02 1.276515e-01 1.555602e-01 1.749599e-01 5.236932e-01 6.894678e-01 6.190947e-01 4.243124e-01 1.089284e-01 -1.089973e-01 -5.797102e-02 2.615847e-02 -1.724741e-03 -6.110317e-02 3.224945e-02 2.624165e-01 1.116549e-01 -1.071369e-01 1.076603e-01 -4.445524e-03 -6.052063e-02 2.710240e-01 8.283326e-02 -1.892273e-02 3.190148e-02 2.777882e-03
<VARIANCE> 39
 6.210806e-01 1.657558e+00 2.382045e+00 1.658332e+00 3.813033e+00 2.485831e+00 3.912130e+00 6.097362e+00 4.730309e+00 2.598678e+00 4.265416e+00 5.201746e+00 6.955291e-04 8.610837e-02 2.247277e-01 4.728415e-01 6.076499e-01 5.422259e-01 8.084286e-01 7.990538e-01 1.132501e+00 6.964281e-01 5.992854e-01 1.341114e+00 5.789115e-01 7.985017e-05 8.813293e-03 4.039797e-02 6.254213e-02 4.908824e-02 4.804526e-02 1.516046e-02 7.293980e-02 1.245119e-01 8.767077e-02 1.491210e-01 1.302796e-01 8.703235e-02 2.734879e-05
<GCONST> 1.518339e+01
<MIXTURE> 2 2.914741e-02
<MEAN> 39
 -9.233336e+00 -2.053126e+00 -4.720009e-01 -2.699003e+00 -1.751666e+00 -3.327866e+00 -1.423660e+00 -4.731515e+00 -1.634086e+00 -3.445757e+00 3.652180e+00 1.182732e+00 4.113025e-01 -1.775601e-03 1.221002e-01 -1.650267e-01 5.608777e-02 -2.789656e-02 -4.159625e-01 -4.824086e-01 -4.963865e-01 -1.551381e-01 -5.603105e-01 -2.479721e-01 -4.260399e-01 1.994288e-03 -4.053304e-02 -9.573254e-02 -1.862614e-01 2.622549e-02 2.172305e-01 9.158150e-02 3.364628e-01 3.853867e-01 4.790942e-01 1.637079e-01 -3.026834e-01 -3.808045e-01 -2.151744e-05
<VARIANCE> 39
 3.617137e-01 2.294405e+00 1.492224e+00 5.499115e+00 3.849736e+00 1.539053e+00 4.950837e+00 1.171211e+00 3.262907e+00 2.055545e+00 5.920977e+00 5.982076e+00 1.272562e-03 5.053278e-02 1.586017e-01 1.862312e-01 6.262705e-01 1.005581e+00 5.681423e-01 6.920449e-01 4.997503e-01 7.669857e-01 1.365495e+00 1.138387e+00 9.617959e-01 8.067781e-05 1.006560e-02 3.702962e-02 2.056886e-02 7.846025e-02 1.207843e-01 1.331133e-01 9.603129e-02 1.842515e-02 4.136344e-02 9.074869e-02 1.142115e-01 1.448867e-01 3.118926e-05
<GCONST> 1.319795e+01
<MIXTURE> 3 3.520465e-02
<MEAN> 39
 -9.260106e+00 -2.631955e+00 -1.916408e+00 -1.473968e+00 2.634826e+00 -3.699942e-01 4.665534e+00 -1.394037e+00 1.031428e+00 -5.240689e+00 -2.854403e+00 -4.647699e+00 4.149141e-01 -4.729412e-02 -2.574437e-02 -6.930149e-02 2.883146e-01 3.469463e-01 1.381327e-01 1.059354e-01 1.858002e-01 -1.279591e-02 -2.680297e-01 -3.867152e-01 -1.283813e-01 1.464638e-03 -5.714675e-02 1.373279e-02 8.436693e-02 -1.271970e-01 -3.244387e-01 -3.542327e-01 -4.977362e-01 -1.886578e-01 7.129037e-03 4.964565e-01 6.599236e-01 3.777778e-01 2.832653e-05
<VARIANCE> 39
 1.016542e+00 1.461782e+00 3.524759e+00 1.586045e+00 1.865239e+00 2.575233e+00 4.008047e+00 3.097142e+00 4.532661e+00 9.197566e+00 6.028447e+00 7.868443e+00 8.358276e-04 1.372110e-01 3.147349e-01 3.475547e-01 6.491382e-01 5.306174e-01 4.500901e-01 1.413812e+00 7.899142e-01 3.491701e-01 9.435944e-01 7.498293e-01 4.424574e-01 1.506166e-04 1.767192e-02 3.795500e-02 1.122844e-01 7.177321e-02 8.653431e-02 1.130856e-01 8.761123e-02 1.037904e-01 5.521803e-02 2.257464e-01 7.339993e-02 9.367326e-02 2.922025e-05
<GCONST> 2.015744e+01
<MIXTURE> 4 7.472213e-03
<MEAN> 39
 -9.612577e+00 -3.196805e+00 -7.047375e-01 -2.104331e-01 3.562048e+00 -2.390015e+00 1.476513e+00 -1.481396e+00 4.786752e+00 2.484751e+00 7.021074e+00 -1.528143e-01 4.488157e-01 -8.468310e-02 -1.256095e-01 1.715292e-01 -1.205776e-01 -3.117175e-01 -5.541870e-02 -3.648891e-01 -6.803886e-01 1.976470e-01 8.241910e-02 3.452422e-01 -6.449035e-02 -7.522927e-03 -4.403059e-02 -7.403781e-02 -5.748419e-02 -2.583118e-01 -3.989064e-01 -1.210133e-02 2.133925e-01 -1.454650e-01 -6.189480e-01 -6.798272e-01 -8.022822e-01 -1.217639e-02 -3.122743e-03
<VARIANCE> 39
 3.643980e-01 5.952597e-01 5.040523e+00 3.119117e+00 1.418365e+00 7.469854e+00 8.963044e+00 9.067727e+00 8.151000e+00 5.624103e+00 2.185576e+00 2.977422e+00 1.949535e-03 1.003042e-02 1.075843e-01 2.953349e-01 4.934818e-01 3.791876e-01 3.347635e-01 1.495872e-01 2.036942e-01 6.047310e-01 4.138233e-01 4.981991e-01 1.304377e+00 5.351708e-05 1.600717e-02 2.129219e-02 1.000571e-01 2.308017e-02 8.496011e-02 1.087104e-01 2.288683e-01 3.523324e-01 6.987064e-02 1.342449e-01 6.745305e-02 4.943961e-02 6.287602e-05
<GCONST> 1.185153e+01
<MIXTURE> 5 5.103555e-02
<MEAN> 39
 -8.762550e+00 -1.206986e+00 -8.134660e-01 -1.775108e+00 1.415090e+00 -1.864045e+00 2.273559e+00 -2.551222e+00 -3.911051e-01 -9.649364e-01 3.376035e+00 -1.035583e+00 4.085137e-01 1.018742e-02 -7.942861e-02 7.813132e-02 6.639002e-02 -2.742704e-01 -2.012125e-01 6.490760e-02 1.688427e-01 3.006838e-01 4.306135e-01 3.587933e-01 2.883193e-01 3.327816e-03 -1.451484e-01 -2.474395e-01 -9.971444e-02 -1.458231e-01 -1.856624e-01 -1.307499e-01 -2.632976e-01 -1.008912e-01 1.856646e-01 -1.199699e-01 -2.702392e-01 -1.262815e-01 1.017953e-03
<VARIANCE> 39
 2.342104e-01 8.991554e-01 3.258846e+00 3.744404e+00 2.193023e+00 5.415025e+00 9.686701e+00 8.954735e+00 4.947597e+00 4.072884e+00 3.007812e+00 9.942928e+00 3.956371e-04 8.016966e-02 3.502673e-01 3.671910e-01 6.045454e-01 2.937222e-01 4.465846e-01 6.093266e-01 8.448735e-01 1.010377e+00 8.068666e-01 1.113007e+00 8.448684e-01 1.861086e-04 5.846817e-03 2.622523e-02 5.636445e-02 8.280239e-02 6.425590e-02 9.411301e-02 1.575533e-01 1.348774e-01 1.188091e-01 1.030583e-01 1.092882e-01 1.503687e-01 1.125065e-05
<GCONST> 1.848085e+01
<MIXTURE> 6 3.628697e-02
<MEAN> 39
 -9.312663e+00 -1.649541e+00 9.764878e-01 5.853239e-01 -8.051644e-01 -4.822647e+00 6.588326e-02 -1.961620e+00 1.519077e+00 -4.015858e+00 2.495914e-01 -2.114242e+00 4.241620e-01 2.931002e-02 -2.288128e-03 5.576231e-02 7.882932e-02 1.948245e-01 2.809623e-01 2.970724e-01 9.177978e-02 1.733378e-01 3.245169e-01 -5.453343e-02 -2.361424e-01 1.403746e-03 -7.555497e-02 -1.687518e-01 -2.647657e-01 -4.506927e-01 5.435871e-02 2.508128e-01 -1.185465e-02 -2.744188e-01 -9.274661e-02 2.806658e-01 1.679867e-01 1.367623e-01 -1.816527e-03
<VARIANCE> 39
 6.650518e-01 1.992930e+00 1.236552e+00 1.645971e+00 2.599571e+00 2.008448e+00 5.063113e+00 7.419174e+00 1.751609e+00 3.213087e+00 1.675719e+00 7.000448e+00 1.718643e-03 4.280074e-02 1.335592e-01 2.815962e-01 5.713177e-01 5.831872e-01 1.105048e+00 8.175163e-01 8.031050e-01 8.853739e-01 5.041623e-01 1.577269e+00 5.965065e-01 1.014833e-04 1.206413e-02 4.633231e-02 6.093759e-02 5.941781e-02 4.778412e-02 1.034600e-01 1.660001e-01 1.232475e-01 1.065390e-01 1.303971e-01 6.254063e-02 9.481829e-02 5.419028e-05
<GCONST> 1.632069e+01
<MIXTURE> 7 4.746844e-02
<MEAN> 39
 -9.930346e+00 -2.897832e+00 -1.136430e+00 -3.287739e+00 -7.629160e-01 -2.181345e+00 2.335580e+00 -3.250999e+00 -2.311166e-01 -2.551450e+00 2.816011e+00 3.391578e-01 4.058466e-01 -1.833542e-01 -2.729170e-01 -1.756670e-01 -3.801756e-01 -3.819007e-01 -6.987731e-02 3.276580e-01 6.750453e-01 9.273744e-01 4.685414e-01 1.048775e-01 8.515172e-02 -2.355057e-03 3.358729e-02 4.146902e-02 1.184851e-02 1.423735e-01 2.193003e-01 2.396731e-02 -5.975493e-02 1.262788e-01 2.123449e-01 -7.135621e-02 -3.035521e-01 -3.416468e-01 1.536998e-03
<VARIANCE> 39
 4.520508e-01 1.102119e+00 2.438079e+00 6.231396e+00 4.793764e+00 4.487278e+00 4.992081e+00 3.481595e+00 6.680835e+00 3.549397e+00 2.017648e+00 4.768353e+00 1.126159e-03 5.210518e-02 1.499199e-01 2.655574e-01 2.810130e-01 3.642775e-01 4.255622e-01 8.175861e-01 1.050596e+00 4.066965e-01 8.606054e-01 7.377084e-01 7.546357e-01 1.532731e-04 6.420000e-03 3.162519e-02 5.523929e-02 9.294648e-02 8.004815e-02 1.098153e-01 4.396069e-02 7.762397e-02 1.675474e-01 1.629710e-01 7.593670e-02 8.679994e-02 2.148534e-05
<GCONST> 1.482456e+01
<MIXTURE> 8 1.793095e-02
<MEAN> 39
 -9.066798e+00 -9.594694e-01 -1.716687e-01 -1.413254e+00 2.522052e+00 -9.066941e-01 9.568258e-01 -1.467868e+00 3.368818e+00 -5.077422e+00 -3.578869e-01 2.065257e+00 4.794410e-01 -3.984568e-02 1.835450e-01 3.935273e-01 2.849827e-02 2.337435e-01 1.406800e-01 7.019924e-01 6.180027e-01 1.937387e-01 1.427190e-01 -8.998889e-01 -5.408798e-01 -2.820942e-03 -5.820224e-02 -1.636312e-01 -1.056553e-01 -1.241736e-01 -2.141344e-01 -1.592285e-01 4.920855e-03 -8.822224e-02 -2.409774e-01 4.147717e-01 3.032712e-01 -4.627392e-01 -8.387001e-04
<VARIANCE> 39
 1.187769e+00 2.201323e+00 2.297385e+00 3.998618e+00 3.324794e+00 3.609640e+00 9.337607e+00 6.601599e+00 5.763351e+00 4.547565e+00 5.799063e+00 8.443195e-01 2.585975e-02 1.505241e-01 2.406579e-01 2.222526e-01 3.972619e-01 3.191408e-01 4.224012e-01 3.635211e-01 3.185306e-01 6.230898e-01 9.136849e-01 8.097209e-01 3.040232e-01 1.153352e-04 1.987020e-02 6.098689e-02 8.247478e-02 8.768819e-02 5.321120e-02 8.504118e-02 1.634063e-01 1.557012e-01 5.135991e-02 7.336028e-02 1.549550e-01 1.543001e-01 5.702423e-05
<GCONST> 2.192316e+01
<MIXTURE> 9 3.871631e-02
<MEAN> 39
 -9.492670e+00 -3.287677e+00 -2.648957e+00 -3.987024e+00 -1.123937e+00 -1.017223e+00 4.630583e+00 -2.688972e+00 -5.569732e-01 -2.023010e+00 7.123995e-01 -2.197089e+00 3.909453e-01 1.254087e-01 9.537316e-02 -2.912510e-01 -1.884070e-01 2.713298e-01 1.505463e-01 1.326662e-01 -1.692663e-01 -1.007828e-01 1.849380e-01 2.156038e-01 2.860264e-01 1.637099e-03 -9.740137e-03 1.120786e-01 1.657934e-01 2.052102e-01 1.970543e-01 -1.781379e-01 -3.822544e-01 8.289676e-02 2.898168e-01 6.345280e-02 1.385552e-01 1.352912e-01 3.842144e-03
<VARIANCE> 39
 4.826344e-01 1.304311e+00 2.314827e+00 3.148261e+00 2.138575e+00 4.571460e+00 4.472961e+00 2.599320e+00 1.145420e+00 4.055727e+00 6.291607e+00 3.403776e+00 5.615525e-04 1.622805e-01 4.299397e-01 3.705766e-01 4.089597e-01 5.193215e-01 7.907674e-01 5.697057e-01 1.092540e+00 8.800048e-01 1.031354e+00 7.684699e-01 1.134826e+00 1.681728e-04 1.135782e-02 2.527967e-02 4.420912e-02 3.549016e-02 7.197351e-02 7.140420e-02 9.894490e-02 8.665594e-02 7.542069e-02 8.604722e-02 2.030010e-01 6.585825e-02 2.690459e-05
<GCONST> 1.569289e+01
<MIXTURE> 10 4.859562e-02
<MEAN> 39
 -9.247530e+00 -1.946701e+00 -9.671400e-01 -1.925199e+00 6.255891e-01 -2.879431e+00 -2.148331e+00 -3.754881e+00 2.244617e+00 -3.469315e+00 1.255877e-01 -1.187962e+00 4.154241e-01 -1.562935e-01 -2.487399e-01 -3.636747e-01 -2.397963e-01 -3.895628e-01 -1.196265e-01 -1.976717e-01 -2.278781e-01 -2.923052e-01 -5.718302e-01 -4.171601e-01 -7.139901e-02 3.545871e-03 -3.460026e-02 -3.184219e-02 9.606410e-04 -1.729445e-01 -1.297975e-01 1.914222e-02 4.183031e-01 1.839420e-01 -8.416208e-02 2.148472e-01 1.276501e-01 -7.284439e-02 -5.138734e-04
<VARIANCE> 39
 7.354548e-01 8.137786e-01 3.764190e+00 3.054968e+00 2.981094e+00 3.678307e+00 2.253688e+00 2.316532e+00 6.321408e+00 4.663704e+00 5.418710e+00 5.976582e+00 7.302631e-04 7.722327e-02 1.911619e-01 3.606188e-01 4.043713e-01 1.012670e+00 1.051557e+00 1.319002e+00 1.104074e+00 5.822190e-01 1.395370e+00 1.298835e+00 7.310297e-01 1.748684e-04 1.339592e-02 2.480852e-02 8.448696e-02 9.698462e-02 8.585974e-02 5.861928e-02 5.378147e-02 5.015734e-02 1.175076e-01 9.247559e-02 1.729992e-01 9.662622e-02 1.353653e-05
<GCONST> 1.883511e+01
<MIXTURE> 11 5.960122e-02
<MEAN> 39
 -9.235233e+00 -2.519286e+00 -9.114949e-01 -3.499641e+00 2.624271e-01 -1.280394e+00 2.225311e+00 -9.204539e-01 1.960987e+00 -1.027179e+00 2.806281e+00 -6.221648e-01 4.048689e-01 7.355851e-02 1.756412e-01 5.565785e-01 6.216643e-01 6.669541e-02 2.153207e-01 5.543858e-01 2.578619e-01 -1.120352e-02 -2.014157e-01 -4.375753e-01 -5.142169e-01 1.097530e-04 -6.304187e-02 -3.114563e-03 -1.936312e-02 2.468537e-01 4.619599e-03 -1.230049e-01 -9.745032e-02 -3.239466e-01 -2.037241e-01 -1.938537e-01 -2.929330e-01 -1.957321e-01 7.856166e-04
<VARIANCE> 39
 4.263389e-01 1.367209e+00 1.097450e+00 4.202868e+00 3.820778e+00 7.216577e+00 8.076160e+00 2.882824e+00 2.370705e+00 5.400114e+00 4.163235e+00 5.237656e+00 6.288905e-04 7.875867e-02 1.389495e-01 1.179800e-01 5.828809e-01 1.162566e+00 8.185008e-01 1.041142e+00 1.723781e+00 1.658315e+00 7.867674e-01 7.795514e-01 7.566062e-01 1.267420e-04 1.086691e-02 2.333516e-02 3.961757e-02 7.982143e-02 1.005010e-01 1.078883e-01 1.885345e-01 1.433623e-01 7.576623e-02 1.041512e-01 7.939247e-02 9.595895e-02 3.883883e-05
<GCONST> 1.945212e+01
<MIXTURE> 12 2.892033e-02
<MEAN> 39
 -9.312448e+00 -5.314702e-01 2.057073e+00 -1.549038e+00 4.538872e-01 -1.518892e+00 2.743778e+00 -2.029886e+00 3.039448e+00 -4.309682e-01 -9.861835e-01 -3.523077e+00 4.062684e-01 9.914746e-03 -5.269225e-02 -3.330305e-01 -4.499637e-02 -5.514098e-02 -2.589341e-01 1.858445e-01 -1.745995e-01 3.617119e-01 6.607804e-02 1.529969e-02 1.025766e-01 -3.938512e-03 -5.385264e-02 -2.654869e-01 -4.139795e-01 -6.748267e-02 -5.874194e-02 -1.898587e-01 -1.969680e-01 3.450926e-03 -1.230717e-01 -8.468708e-02 3.847179e-01 1.928394e-01 4.761560e-04
<VARIANCE> 39
 3.829798e-01 1.345357e+00 1.492362e+00 4.880538e+00 3.887724e+00 4.944621e+00 3.718338e+00 4.106281e+00 3.395598e+00 8.014425e+00 4.730757e+00 2.575254e+00 6.857799e-04 9.582191e-02 3.412080e-01 3.953689e-01 2.624072e-01 8.873346e-01 6.227008e-01 4.355763e-01 3.055820e-01 1.085916e+00 1.264685e+00 1.141659e+00 5.985107e-01 1.249379e-04 1.578785e-02 2.239524e-02 1.288294e-02 1.089162e-01 1.234576e-01 2.009743e-01 1.243317e-01 1.531275e-01 6.147310e-02 1.271435e-01 6.517509e-02 1.023699e-01 1.592961e-05
<GCONST> 1.677007e+01
<MIXTURE> 13 5.336551e-02
<MEAN> 39
 -8.857544e+00 -1.547541e+00 -1.924879e+00 -3.200840e+00 4.209135e-01 -4.102346e+00 -4.740921e-02 -5.390659e+00 -1.522694e+00 -4.065748e+00 -1.349282e+00 -2.099656e+00 3.939010e-01 -9.095143e-02 -1.848882e-01 1.928711e-02 5.120236e-01 1.471263e-01 -1.031861e-01 -3.782256e-01 -4.848777e-01 -3.824058e-01 -1.792406e-01 1.532288e-01 3.206047e-01 -3.648267e-03 -9.251364e-02 -1.230080e-01 1.354929e-01 1.030559e-01 -1.050529e-01 1.447520e-01 1.218129e-01 3.525567e-01 2.776191e-01 2.234342e-01 3.490562e-01 1.110214e-01 2.920959e-03
<VARIANCE> 39
 4.511669e-01 1.751504e+00 1.699563e+00 4.042762e+00 4.736152e+00 4.031525e+00 5.480989e+00 5.891432e+00 3.092119e+00 9.662179e+00 5.378349e+00 5.713584e+00 4.368408e-04 9.935725e-02 2.321182e-01 4.248656e-01 2.888093e-01 5.724210e-01 6.518628e-01 7.561073e-01 9.141113e-01 8.569093e-01 1.336457e+00 6.998301e-01 8.599181e-01 1.187950e-04 1.592506e-02 5.189272e-02 4.826360e-02 1.240195e-01 6.542251e-02 7.975493e-02 1.750688e-01 8.618610e-02 6.973047e-02 2.051093e-01 1.297224e-01 1.036184e-01 1.073619e-05
<GCONST> 2.058157e+01
<MIXTURE> 14 3.813572e-02
<MEAN> 39
 -1.036350e+01 -3.926532e+00 -3.172159e+00 -3.860576e+00 -2.123743e+00 -5.977223e+00 -3.109443e+00 -4.551503e+00 1.630305e+00 -1.112719e+00 2.338975e+00 -2.503189e+00 3.975110e-01 3.038805e-02 -2.239908e-02 1.028678e-01 -9.336928e-02 -1.811883e-01 -1.406792e-01 6.410583e-02 2.198063e-01 -1.133609e-01 -3.177047e-01 -4.175747e-01 -2.330895e-01 1.343948e-04 1.113858e-01 1.815656e-01 2.239202e-01 1.763999e-01 2.348500e-01 3.995998e-01 4.956715e-01 2.209123e-01 -1.043189e-01 -1.194255e-01 -1.338524e-01 1.157882e-01 1.490156e-03
<VARIANCE> 39
 8.066021e-01 1.313752e+00 1.518346e+00 7.972330e+00 4.109368e+00 2.864697e+00 2.351971e+00 6.130554e+00 8.776669e+00 5.764201e+00 5.544804e+00 6.250948e+00 1.165892e-03 7.359868e-02 2.821996e-01 4.815813e-01 5.210562e-01 6.723592e-01 3.932559e-01 9.990790e-01 9.171788e-01 1.112563e+00 8.285933e-01 9.614942e-01 4.925427e-01 1.533005e-04 1.990533e-02 2.805062e-02 4.755663e-02 1.604585e-01 8.933718e-02 3.338128e-02 5.456488e-02 1.204848e-01 1.665706e-01 1.089058e-01 1.556242e-01 9.286738e-02 2.469824e-05
<GCONST> 2.173066e+01
<MIXTURE> 15 3.029861e-02
<MEAN> 39
 -9.123794e+00 -2.336921e+00 -1.200046e+00 -1.910840e+00 1.384342e+00 -4.725361e+00 -2.632477e-01 -1.389256e+00 4.564147e+00 7.186154e-01 1.118615e+00 -1.400089e+00 4.990113e-01 -1.949848e-01 -5.615572e-01 -6.721037e-01 -5.066267e-01 -2.719876e-01 6.243909e-02 -3.566268e-01 -3.132430e-01 -5.673661e-01 -1.607523e-01 -2.478936e-01 -2.726047e-01 -2.308718e-03 -5.634390e-02 4.060464e-02 -4.499541e-03 -1.313103e-01 -2.556946e-01 2.218187e-01 1.031968e-01 -9.410390e-02 -4.892507e-01 -4.470632e-01 -8.202127e-02 -1.940767e-01 -2.700645e-03
<VARIANCE> 39
 3.120551e-01 7.508386e-01 2.426289e+00 2.223077e+00 3.696090e+00 4.390830e+00 5.606292e+00 3.901680e+00 3.402625e+00 7.333549e+00 4.012740e+00 7.203966e+00 1.854329e-02 7.088228e-02 2.181469e-01 3.367536e-01 3.867353e-01 5.552875e-01 3.819058e-01 1.253451e+00 1.079985e+00 5.841399e-01 2.871480e-01 4.323125e-01 6.117395e-01 2.293094e-04 1.248704e-02 6.123119e-02 8.560222e-02 8.115357e-02 1.151115e-01 1.177895e-01 2.201025e-01 8.621183e-02 1.305866e-01 2.131555e-01 6.306794e-02 1.305351e-01 9.104951e-05
<GCONST> 2.332912e+01
<MIXTURE> 16 2.877542e-02
<MEAN> 39
 -9.539133e+00 -1.253706e+00 8.484743e-01 -2.106268e+00 -3.269651e-01 -3.273364e+00 -2.411798e+00 -5.397534e+00 4.522951e+00 2.460904e+00 3.956116e+00 -3.232702e-01 4.290991e-01 9.656645e-02 -1.718027e-01 -4.916464e-01 -4.095803e-01 -5.119775e-02 -6.098414e-02 2.188845e-01 -5.006635e-02 4.632178e-01 4.082529e-01 1.655137e-01 3.701476e-02 -4.556743e-03 6.219060e-04 -1.581043e-01 -3.051356e-01 -2.297399e-02 2.187873e-02 1.315018e-01 4.574711e-01 2.626424e-01 -3.813342e-01 -4.425696e-01 -3.445194e-01 -8.916284e-02 -2.254360e-03
<VARIANCE> 39
 6.085516e-01 1.063602e+00 1.350281e+00 1.974078e+00 3.217934e+00 1.001943e+01 4.055835e+00 6.734531e+00 4.305742e+00 2.944769e+00 4.363493e+00 6.782765e+00 3.023641e-03 7.750835e-02 2.624042e-01 3.100988e-01 3.348542e-01 8.611449e-01 5.307063e-01 7.328818e-01 1.185269e+00 5.875257e-01 1.075381e+00 1.189269e+00 7.744560e-01 3.093133e-04 1.200474e-02 3.896112e-02 2.825948e-02 5.184551e-02 5.695526e-02 2.786300e-01 1.315553e-01 1.120964e-01 2.236533e-01 1.236605e-01 1.671459e-01 7.637278e-02 2.555903e-05
<GCONST> 2.234610e+01
<MIXTURE> 17 5.200782e-02
<MEAN> 39
 -1.094731e+01 -4.228666e+00 -1.405420e+00 -1.023394e+00 1.512250e+00 -2.481423e+00 -1.002841e-01 -3.354949e+00 2.348465e-01 -8.010336e-01 3.061070e+00 2.317125e-01 3.870368e-01 -5.036671e-02 -1.054568e-01 -2.297710e-01 -7.394958e-02 -7.088686e-02 -7.309070e-02 -1.310784e-02 6.160497e-02 -1.038652e-01 -2.901954e-01 -2.238938e-02 1.714277e-01 3.898538e-03 2.294136e-01 3.066219e-01 8.555226e-02 -1.894371e-01 -2.372171e-01 -1.449678e-01 1.505966e-01 5.823297e-02 8.059431e-02 -2.351108e-01 -2.682391e-01 -2.003212e-01 4.396481e-03
<VARIANCE> 39
 5.143181e-01 1.469220e+00 1.978697e+00 3.760416e+00 4.432883e+00 3.684149e+00 5.280500e+00 8.139006e+00 5.635762e+00 7.809679e+00 8.667836e+00 9.248780e+00 5.292686e-04 9.949272e-02 2.560116e-01 4.294152e-01 5.875271e-01 6.898322e-01 9.616406e-01 7.172669e-01 4.928911e-01 1.013504e+00 6.053591e-01 9.928910e-01 9.930637e-01 1.734211e-04 8.801691e-03 1.636013e-02 3.069723e-02 8.780740e-02 8.223554e-02 9.467617e-02 1.780982e-01 1.375948e-01 1.400344e-01 1.914037e-01 1.345049e-01 1.633768e-01 1.965608e-05
<GCONST> 2.332198e+01
<MIXTURE> 18 1.951285e-02
<MEAN> 39
 -9.823981e+00 -3.048920e+00 -3.146336e+00 -5.246739e+00 -2.355536e+00 -3.911000e+00 2.160667e+00 -1.143784e+00 4.945612e+00 8.332838e-01 4.969274e+00 1.949342e+00 4.617324e-01 1.151934e-01 2.339207e-01 1.360957e-01 -4.062828e-03 -1.040336e-01 2.434177e-01 6.275964e-01 3.351485e-01 7.474993e-01 -4.317905e-02 8.631894e-04 4.641788e-01 -1.035532e-03 -1.000583e-02 8.206116e-02 2.924684e-01 5.218836e-01 3.967552e-01 1.380209e-01 -1.561908e-01 -2.297309e-01 -5.376387e-01 -5.368021e-01 -5.429087e-01 -4.185539e-01 1.732084e-04
<VARIANCE> 39
 7.874529e-01 2.186517e+00 1.003402e+00 5.731221e+00 1.793134e+00 8.128199e+00 3.782145e+00 9.293392e+00 1.008439e+01 4.524762e+00 8.845849e+00 1.105810e+01 1.582514e-02 8.592467e-02 3.352763e-01 3.458442e-01 1.048290e+00 6.926489e-01 9.480752e-01 2.162446e+00 1.037082e+00 9.867023e-01 9.910644e-01 5.874022e-01 3.839241e-01 1.019010e-03 2.240310e-02 7.205857e-02 4.198040e-02 1.822962e-01 4.296828e-02 9.752132e-02 1.465495e-01 2.074788e-01 1.534526e-01 6.711709e-02 1.386489e-01 1.967259e-01 1.181663e-04
<GCONST> 3.440058e+01
<MIXTURE> 19 3.403932e-02
<MEAN> 39
 -9.706399e+00 -2.135483e+00 1.013362e+00 -1.174661e+00 1.349316e+00 -5.898170e-01 1.648585e+00 -3.932807e+00 -2.705503e+00 -6.450340e+00 -2.251649e+00 -3.608485e+00 4.031921e-01 1.603035e-01 9.915166e-02 -4.305698e-02 2.085203e-03 1.502387e-01 3.620465e-01 7.118079e-02 -1.954615e-03 -4.213706e-01 -1.574561e-01 7.582455e-01 3.434620e-01 4.607310e-03 2.812524e-02 -4.838257e-02 -3.085676e-01 -1.050200e-01 -1.947973e-01 -3.450840e-01 -1.398042e-01 2.043880e-01 4.618194e-01 5.974711e-01 6.138856e-01 3.374829e-01 -6.481363e-05
<VARIANCE> 39
 3.825076e-01 8.720920e-01 2.153990e+00 5.346978e+00 5.337157e+00 5.631201e+00 3.343812e+00 5.070292e+00 8.407198e+00 9.125365e+00 6.682036e+00 7.068336e+00 5.025146e-04 7.745805e-02 2.905999e-01 2.022223e-01 7.158396e-01 9.982279e-01 1.193998e+00 1.014525e+00 1.104873e+00 1.188782e+00 7.798510e-01 9.378296e-01 5.108721e-01 1.158324e-04 1.625711e-02 1.996966e-02 3.791516e-02 1.335908e-01 2.019711e-01 1.021303e-01 8.763643e-02 1.057194e-01 8.852481e-02 1.774388e-01 8.760038e-02 1.149145e-01 7.855635e-06
<GCONST> 2.215705e+01
<MIXTURE> 20 1.659946e-02
<MEAN> 39
 -1.032362e+01 -3.594067e+00 -2.085461e+00 -2.642187e+00 3.767423e+00 2.113245e+00 4.806199e+00 -1.404747e-01 3.145085e+00 -8.673500e-01 6.946734e-01 -4.243928e+00 6.000823e-01 -3.633357e-02 -3.146850e-01 -4.401466e-01 -2.106548e-01 -2.642185e-01 -4.200784e-01 -4.689418e-01 -2.135841e-01 -6.849853e-01 4.238315e-02 4.985023e-01 -8.716667e-02 1.292774e-02 1.772999e-01 2.929457e-01 2.696049e-01 1.418784e-01 -3.150551e-01 -4.034037e-01 -3.568225e-01 -2.769395e-01 -3.242346e-01 -2.869194e-01 4.276460e-02 4.881232e-01 9.199635e-04
<VARIANCE> 39
 2.253322e+00 3.388056e+00 6.140093e+00 9.170146e+00 3.731925e+00 5.806836e+00 7.742993e+00 4.358057e+00 2.142302e+01 1.186793e+01 5.454193e+00 9.354148e+00 4.653591e-02 1.949906e-01 3.771258e-01 6.821601e-01 4.071846e-01 9.586142e-01 4.957333e-01 1.023595e+00 1.071916e+00 1.274936e+00 1.120833e+00 1.224315e+00 1.141842e+00 3.556356e-04 1.204729e-02 4.184863e-02 6.590466e-02 4.188110e-02 1.245109e-01 1.482374e-01 1.194413e-01 1.593444e-01 5.065426e-01 1.727343e-01 1.359799e-01 1.387919e-01 1.267148e-04
<GCONST> 4.212790e+01
<MIXTURE> 21 2.734166e-02
<MEAN> 39
 -9.433232e+00 -1.884779e+00 -4.391545e-01 -2.200449e+00 1.406183e+00 -4.943210e-01 -1.574878e+00 -5.688324e+00 4.110426e+00 -1.735882e+00 -3.608009e-01 -3.866714e+00 4.271814e-01 1.145827e-01 1.828729e-01 -9.218083e-02 2.265786e-01 -2.079373e-01 -3.126950e-01 -6.207200e-01 -7.861576e-01 -4.978779e-01 -6.493064e-02 -4.698634e-02 1.170212e-01 -1.705953e-04 -9.828736e-03 -9.826358e-02 -1.709302e-01 6.679146e-03 -8.782026e-02 -2.705843e-01 3.138559e-01 5.078618e-01 -3.751620e-01 -8.623479e-02 3.008766e-01 2.917617e-01 -1.365552e-03
<VARIANCE> 39
 5.835349e-01 1.499187e+00 1.650950e+00 2.037879e+00 6.093314e+00 4.122754e+00 7.471712e+00 8.366396e+00 3.371781e+00 6.934433e+00 5.035010e+00 2.671512e+00 3.394101e-03 1.205446e-01 2.028744e-01 1.951443e-01 2.054358e-01 5.402007e-01 6.222634e-01 7.351385e-01 4.281788e-01 9.369430e-01 1.280725e+00 8.364387e-01 5.725963e-01 1.256328e-04 1.513579e-02 3.393532e-02 4.958038e-02 3.498501e-02 1.157019e-01 1.418859e-01 7.624211e-02 1.583849e-01 8.401926e-02 1.049588e-01 7.048322e-02 6.659659e-02 8.138234e-05
<GCONST> 1.950563e+01
<MIXTURE> 22 1.278371e-02
<MEAN> 39
 -9.881826e+00 -3.583313e+00 -1.528742e+00 -2.567910e+00 2.048765e+00 -5.639920e-02 4.720372e+00 3.617567e+00 5.018564e+00 -1.539183e+00 -9.942570e-02 -3.113216e-01 4.020445e-01 9.922866e-02 8.118324e-02 3.095352e-01 5.406497e-01 5.837993e-02 -2.832390e-01 -2.576030e-01 -3.641284e-01 -2.740063e-01 -4.587645e-01 -5.508865e-01 1.411594e-01 -1.168796e-03 -9.956364e-03 1.881345e-02 2.947077e-02 -1.346780e-01 -4.558048e-01 -3.043778e-01 -5.243485e-01 -8.706857e-01 -4.284917e-01 -1.468773e-02 3.865390e-01 -9.673948e-02 2.335483e-03
<VARIANCE> 39
 8.463635e-02 4.382745e-01 5.617062e-01 3.445428e+00 1.682374e+00 3.430121e+00 3.337844e+00 3.035941e+00 3.054533e+00 5.571335e+00 2.140754e+00 4.592643e+00 5.626216e-04 6.788415e-02 2.367148e-01 3.631055e-01 1.232799e-01 6.453573e-01 8.452662e-01 7.881622e-01 1.193856e+00 1.620086e+00 1.779195e-01 4.944342e-01 3.599201e-01 3.932147e-04 2.730257e-03 7.899852e-03 5.261350e-02 8.181166e-02 8.985313e-02 5.864373e-03 5.080421e-02 1.226932e-01 1.883152e-01 1.340271e-01 8.560666e-02 5.407362e-02 3.662564e-05
<GCONST> 3.945157e+00
<MIXTURE> 23 5.332997e-03
<MEAN> 39
 -8.495288e+00 -1.929203e+00 8.595375e-01 -2.231677e-01 3.564490e+00 -1.297643e+00 5.655611e+00 4.220644e+00 3.026740e+00 -2.029752e+00 4.235654e+00 -2.607999e+00 5.204461e-01 -1.290238e-01 9.963340e-02 1.324304e-01 -9.136546e-02 3.461330e-01 -1.098858e-01 -9.946235e-01 -8.561459e-01 -3.220963e-01 4.478212e-01 8.618870e-01 -8.062218e-02 -3.079335e-03 -9.056254e-02 2.296317e-02 -1.499369e-01 -4.222203e-01 -2.915305e-01 3.194273e-02 -5.444412e-01 -7.429116e-01 -2.853609e-01 -7.461616e-02 -4.455567e-01 1.099996e-02 -3.149954e-03
<VARIANCE> 39
 1.175709e-01 1.707003e+00 1.522700e-01 7.815398e+00 4.278358e+00 3.010205e+00 2.168070e+00 4.708471e+00 5.609128e+00 5.141878e+00 6.508998e-01 2.951327e+00 4.102543e-02 4.744370e-02 4.192947e-01 3.048487e-01 6.904710e-01 5.930956e-01 9.713209e-01 6.493596e-01 3.661014e-01 3.085602e-01 1.139601e+00 3.541295e-01 1.815016e+00 2.007340e-04 2.845078e-02 1.178349e-01 5.079906e-02 2.211951e-01 1.230100e-01 1.044093e-01 1.034245e-01 6.072045e-02 1.402415e-02 7.297286e-02 6.110671e-02 1.250934e-02 8.122237e-05
<GCONST> 1.538925e+01
<MIXTURE> 24 2.557482e-02
<MEAN> 39
 -9.086914e+00 -1.639365e+00 -4.309327e-01 -3.616934e+00 -2.447152e+00 -4.138609e+00 2.628627e-01 -2.265712e+00 1.777354e+00 -1.737075e+00 -1.436759e+00 -2.957875e+00 4.136393e-01 1.054368e-01 1.157515e-02 2.973675e-01 1.235498e-01 -4.991997e-02 1.773068e-01 5.801561e-01 -4.273909e-01 -2.464019e-01 -2.658780e-01 -5.026626e-01 3.258976e-01 -7.017893e-04 -6.307942e-02 -1.711296e-01 -1.452135e-01 2.167229e-01 5.674596e-01 3.189319e-01 9.540199e-02 -1.365928e-02 7.251355e-02 1.299737e-01 5.821756e-01 2.328695e-01 4.179539e-04
<VARIANCE> 39
 2.737127e-01 1.697882e+00 8.865507e-01 3.476784e+00 4.787733e+00 1.133519e+01 6.370910e+00 5.698233e+00 8.363541e+00 2.732966e+00 6.811327e+00 2.398866e+00 3.758267e-04 3.139472e-02 1.024049e-01 3.316419e-01 5.455984e-01 1.572262e+00 8.482210e-01 7.707919e-01 5.032457e-01 1.326855e+00 7.524907e-01 8.233771e-01 4.957268e-01 1.331797e-04 9.899423e-03 3.595534e-02 1.335206e-02 6.661825e-02 7.242860e-02 1.764927e-01 1.056434e-01 9.436662e-02 1.810752e-01 8.849166e-02 1.152955e-01 8.505353e-02 1.087294e-05
<GCONST> 1.560772e+01
<MIXTURE> 25 1.908800e-02
<MEAN> 39
 -1.000373e+01 -4.155974e+00 -2.909329e+00 -4.792134e+00 -1.049493e+00 -2.574144e+00 1.239711e+00 -1.849920e+00 9.840167e-01 -1.798677e+00 -1.188191e-01 -5.287829e+00 5.145786e-01 1.510918e-01 4.237711e-01 6.091103e-02 1.056471e-01 1.862202e-01 -7.281205e-03 1.643649e-01 -4.589167e-01 -4.411228e-01 -3.609253e-01 -6.108730e-01 -4.391579e-01 1.049586e-02 1.209040e-01 2.963834e-01 2.310120e-01 2.422951e-01 9.061389e-02 -3.396132e-02 6.793115e-02 2.461982e-02 -1.095074e-02 -4.129414e-02 2.237503e-01 4.084414e-01 -5.487976e-03
<VARIANCE> 39
 6.169189e-01 9.976449e-01 1.841003e+00 1.719366e+00 3.553113e+00 6.063721e+00 4.756028e+00 6.547889e+00 4.134446e+00 3.547508e+00 6.590350e-01 5.082897e+00 3.609214e-02 8.012149e-02 1.701273e-01 1.967500e-01 1.502527e-01 9.436290e-01 9.922229e-01 3.151366e-01 3.097507e-01 9.729424e-01 9.791576e-01 2.391406e-01 3.019448e-01 2.989819e-04 1.611804e-02 1.449446e-02 3.576660e-02 2.787095e-02 4.402684e-02 2.079895e-01 7.259654e-02 6.101473e-02 4.078437e-02 2.647863e-02 7.371391e-02 1.253877e-01 1.878817e-04
<GCONST> 1.294465e+01
<MIXTURE> 26 1.705502e-02
<MEAN> 39
 -8.504478e+00 -5.660504e-01 1.822567e+00 -2.632569e-01 2.839320e+00 -1.610276e+00 1.867973e+00 -2.108670e+00 -1.230848e+00 -9.395022e-01 9.858673e-01 -1.084051e+00 7.959759e-01 3.640351e-02 1.494204e-01 4.405153e-01 2.343347e-01 -4.996930e-02 1.240882e-01 1.929430e-01 4.853254e-01 8.041247e-01 1.739850e-01 -3.630929e-01 3.289310e-01 -1.943325e-02 -1.434874e-01 -2.689707e-01 -3.999363e-01 -2.931214e-01 -3.124580e-01 -6.569706e-02 9.601674e-02 1.155029e-01 5.974531e-01 -4.508749e-02 -1.243666e-02 -8.593033e-02 -9.694127e-03
<VARIANCE> 39
 2.215117e+00 5.147412e+00 4.814638e+00 3.089813e+00 3.714227e+00 1.163176e+01 7.101542e+00 3.817747e+00 1.104243e+01 5.788627e+00 5.738900e+00 5.852728e+00 2.837288e-02 1.790343e-01 5.514371e-01 9.133483e-01 9.181158e-01 1.010516e+00 6.201756e-01 7.030727e-01 1.568166e+00 2.141726e+00 1.424817e+00 2.527280e-01 8.135844e-01 2.120446e-03 2.898201e-02 9.593529e-02 1.505512e-01 4.621601e-02 7.445944e-02 1.740856e-01 1.778106e-01 1.529428e-01 1.972299e-01 1.460770e-01 1.393789e-01 2.026354e-01 1.684648e-04
<GCONST> 4.389660e+01
<MIXTURE> 27 2.445385e-02
<MEAN> 39
 -9.929071e+00 -3.058258e+00 -1.646875e+00 -3.024011e+00 5.665291e-01 -3.336087e+00 -3.153061e+00 -8.262036e+00 -3.472846e+00 -3.567292e+00 2.395959e+00 9.448752e-02 4.357718e-01 4.883705e-02 1.628157e-01 1.006136e-01 -2.356917e-01 -1.959222e-01 3.670114e-01 5.372129e-01 3.568634e-01 1.440838e-01 4.131020e-01 3.394613e-01 -4.943907e-03 4.141408e-03 7.682306e-02 1.128626e-01 1.214314e-01 1.724978e-01 2.759619e-02 1.101209e-01 5.118145e-01 7.988814e-01 6.708240e-01 1.847159e-01 -2.219848e-01 -3.983631e-01 -4.380865e-04
<VARIANCE> 39
 1.100837e+00 2.607610e+00 3.621012e+00 8.826721e+00 6.695352e+00 6.219952e+00 3.767539e+00 4.258225e+00 5.390679e+00 7.816667e+00 5.786304e+00 7.039746e+00 4.493001e-03 3.880045e-02 1.374959e-01 3.713798e-01 5.846776e-01 6.244596e-01 9.000279e-01 7.360743e-01 7.875317e-01 3.152313e-01 5.460646e-01 5.453402e-01 2.241963e-01 1.983370e-04 1.619245e-02 5.010864e-02 6.471575e-02 1.398911e-01 1.520847e-01 9.775881e-02 7.417010e-02 1.539294e-01 8.424305e-02 4.646286e-02 2.584063e-02 8.463973e-02 3.339504e-05
<GCONST> 2.199661e+01
<MIXTURE> 28 5.014822e-02
<MEAN> 39
 -1.028747e+01 -3.130953e+00 -1.859853e+00 -2.348459e+00 1.824038e+00 -1.646747e+00 7.758569e-01 -4.502426e+00 2.354544e+00 -3.518536e+00 -1.526029e+00 -1.239980e+00 3.999605e-01 -8.809254e-03 2.017103e-02 2.425262e-01 2.763948e-02 -9.567051e-02 1.394081e-01 -2.366580e-01 2.675208e-01 1.702394e-01 1.228031e-01 1.251011e-01 -1.061114e-02 1.088445e-04 1.206045e-01 9.307624e-02 8.130921e-02 4.332797e-02 -2.294058e-01 -5.374244e-02 9.175123e-02 3.240228e-01 -1.919701e-01 1.845883e-01 4.322899e-01 -1.134228e-01 2.428201e-03
<VARIANCE> 39
 2.116030e-01 4.266171e-01 1.529820e+00 4.296919e+00 6.512492e+00 3.542228e+00 4.278334e+00 3.352537e+00 7.398219e+00 4.484002e+00 4.661292e+00 5.035323e+00 9.589629e-04 6.425487e-02 1.650082e-01 3.529710e-01 3.642256e-01 6.027569e-01 7.833679e-01 9.844501e-01 1.213017e+00 1.008849e+00 6.081479e-01 9.111438e-01 1.011799e+00 1.267910e-04 4.845849e-03 1.085940e-02 3.974744e-02 9.261418e-02 1.363906e-01 8.076835e-02 1.199507e-01 1.265269e-01 8.571617e-02 9.631751e-02 1.324890e-01 5.524737e-02 1.747654e-05
<GCONST> 1.512927e+01
<MIXTURE> 29 8.516140e-03
<MEAN> 39
 -1.090522e+01 -4.955497e+00 -3.270111e+00 -4.169096e+00 -2.477568e+00 -3.893406e+00 -1.104303e+00 -2.267667e+00 -5.903996e-01 -6.229607e+00 2.539280e+00 2.202837e+00 5.966180e-01 -1.290828e-01 -2.449541e-01 -3.003587e-01 -8.309518e-02 -4.783559e-01 -2.467487e-01 9.705080e-02 -5.725276e-01 -1.049845e+00 -4.782875e-01 1.135797e-01 -6.469733e-02 1.304154e-02 2.368181e-01 4.969601e-01 4.957293e-01 3.774137e-01 5.124728e-01 1.800206e-01 2.947443e-01 9.666211e-02 4.766171e-01 5.196202e-01 -1.786324e-01 -1.781807e-01 4.354731e-04
<VARIANCE> 39
 9.938853e-01 1.270477e+00 2.797275e+00 1.751735e+00 1.534739e+00 3.839390e+00 2.363152e+00 1.335693e+00 3.094011e+00 7.314886e+00 2.798606e+00 2.330934e+00 3.494717e-02 1.475277e-01 1.857494e-01 1.021052e-01 3.618533e-01 3.041250e-01 9.832243e-01 4.678242e-01 2.788953e-01 2.007676e+00 6.898515e-01 3.174544e-01 7.919251e-01 7.080873e-04 4.264657e-03 2.582119e-02 9.807465e-02 5.492442e-02 6.685423e-02 8.412325e-02 8.509042e-02 1.838505e-01 7.193705e-02 1.376670e-01 1.094693e-02 6.686802e-02 1.375998e-04
<GCONST> 1.521462e+01
<MIXTURE> 30 3.864116e-02
<MEAN> 39
 -9.873024e+00 -2.839495e+00 -1.628428e+00 -3.702767e+00 -1.706636e+00 -3.818416e+00 -7.473305e-01 -3.784629e+00 6.792030e-01 -6.303823e+00 -3.766724e+00 -4.423448e+00 4.259274e-01 1.143398e-01 4.019158e-02 1.158144e-01 -2.959999e-02 3.339253e-02 1.143548e-01 4.342313e-01 6.556665e-01 2.436500e-01 2.623934e-02 9.331540e-03 -2.716152e-02 2.922578e-03 3.606528e-02 4.164156e-02 2.367268e-02 1.014127e-01 3.120481e-01 4.435600e-02 2.126582e-01 1.170745e-01 -1.298888e-01 4.607248e-01 6.972944e-01 4.113635e-01 -1.315954e-03
<VARIANCE> 39
 2.711151e-01 1.862361e+00 1.773003e+00 3.005334e+00 3.265077e+00 4.290883e+00 5.686006e+00 1.155510e+01 4.851856e+00 6.122197e+00 6.350937e+00 5.196956e+00 9.422912e-04 9.594119e-02 1.631289e-01 4.313394e-01 7.653755e-01 7.296129e-01 5.526619e-01 1.040470e+00 9.016089e-01 7.719550e-01 1.119056e+00 8.761156e-01 6.025563e-01 9.920604e-05 9.086989e-03 4.569253e-02 4.137440e-02 1.064117e-01 7.746470e-02 8.154877e-02 7.568070e-02 1.861474e-01 1.086003e-01 1.545300e-01 8.187228e-02 8.693987e-02 2.377401e-05
<GCONST> 2.095275e+01
<MIXTURE> 31 4.285546e-02
<MEAN> 39
 -9.832905e+00 -2.871581e+00 7.956327e-02 -1.087577e+00 5.225965e-01 -2.130641e+00 2.251029e+00 1.340744e+00 6.044521e+00 -1.266773e+00 -4.764471e-01 -4.058872e+00 4.136796e-01 6.611520e-02 -4.209827e-02 5.709051e-02 1.325560e-02 -4.755046e-02 2.457278e-01 4.219003e-01 1.358573e-01 1.130252e-01 -1.457833e-01 -4.597449e-01 -1.497760e-01 -3.645995e-03 6.180799e-02 6.959953e-02 -1.627392e-01 -1.616708e-01 -1.622858e-02 -5.773555e-02 -1.670742e-01 -4.101021e-01 -6.245086e-01 -1.281621e-01 3.000489e-01 3.836466e-01 5.446668e-04
<VARIANCE> 39
 3.583378e-01 1.145073e+00 2.502712e+00 1.079680e+00 4.079145e+00 7.778487e+00 5.431458e+00 3.122156e+00 3.202231e+00 5.961286e+00 5.057763e+00 5.285714e+00 6.070444e-04 6.502324e-02 1.621766e-01 2.687337e-01 5.789141e-01 8.499746e-01 8.936642e-01 1.318466e+00 1.189288e+00 9.352650e-01 1.365148e+00 1.386275e+00 6.152696e-01 2.099192e-04 7.802046e-03 2.647051e-02 4.207292e-02 6.078113e-02 1.435160e-01 1.655592e-01 7.402922e-02 7.642640e-02 1.112885e-01 1.364531e-01 1.139391e-01 1.004817e-01 1.533069e-05
<GCONST> 1.916388e+01
<MIXTURE> 32 3.200009e-03
<MEAN> 39
 -8.053151e+00 -3.914644e-01 6.314919e-01 6.527851e-02 4.038381e+00 1.145430e+00 7.959000e+00 7.152935e+00 7.969809e+00 -1.162024e+00 2.481169e+00 1.837988e+00 7.311760e-01 -4.022698e-01 -4.051732e-01 -2.979593e-01 -4.644492e-01 -2.776254e-01 1.606412e-02 -4.192899e-01 1.549859e-01 1.018201e+00 1.825751e-01 -4.783962e-01 -4.506124e-01 -3.100003e-02 -7.998667e-02 -2.122850e-01 -1.110324e-01 -2.210923e-01 -3.098795e-01 -1.222747e-01 -5.017527e-01 -8.869195e-01 -8.270049e-01 1.724040e-01 3.169135e-02 -5.866500e-01 -4.444515e-03
<VARIANCE> 39
 1.538757e+00 2.780609e+00 1.226118e+01 1.608531e+01 7.868819e+00 6.950079e+00 2.498893e+00 3.840311e-01 2.287928e-01 1.707135e+00 1.528581e+00 2.970556e+00 3.281017e-02 1.806486e-01 9.931262e-01 1.328986e+00 1.820531e+00 2.902849e-01 4.783357e-01 1.891080e-01 1.002171e+00 1.709105e+00 4.234718e-01 4.382159e-01 1.639687e-01 4.126018e-04 3.046174e-02 2.259353e-02 8.626558e-02 2.267362e-01 1.161208e-01 7.871881e-02 5.030834e-02 1.820020e-02 8.833744e-02 3.137011e-02 3.358360e-02 8.173799e-02 2.875141e-04
<GCONST> 2.146276e+01
<STATE> 4
<NUMMIXES> 32
<MIXTURE> 1 4.365296e-02
<MEAN> 39
 -9.267036e+00 -2.438547e+00 -4.471562e-02 -1.248839e-01 1.912954e+00 -1.386582e+00 3.613767e+00 -1.610217e+00 4.903819e-01 -5.701019e+00 -5.041569e-01 -1.800581e+00 4.075741e-01 -1.939844e-01 -1.420615e-01 -5.288084e-02 -1.377368e-01 -5.735137e-02 -1.385438e-01 -2.508078e-01 1.179913e-01 6.559815e-01 8.235451e-01 8.442446e-01 1.518208e-01 -5.269268e-03 -6.327872e-02 -7.033139e-02 -1.535576e-01 -3.474061e-01 -2.566245e-01 -2.615970e-01 -4.958733e-01 -2.421538e-01 -4.279727e-02 4.312642e-01 1.866108e-01 -5.249920e-02 8.302900e-04
<VARIANCE> 39
 5.131666e-01 1.040413e+00 3.248086e+00 3.706235e+00 5.240414e+00 6.726215e+00 4.477739e+00 4.712712e+00 5.644202e+00 5.260166e+00 3.925109e+00 3.878647e+00 4.820492e-04 6.564363e-02 2.036870e-01 3.840888e-01 3.441654e-01 4.216919e-01 6.461201e-01 6.048862e-01 1.212530e+00 8.876577e-01 7.991752e-01 9.025181e-01 4.507246e-01 1.815137e-04 5.153059e-03 3.932543e-02 6.674504e-02 7.947399e-02 7.535177e-02 1.143591e-01 1.163357e-01 9.837286e-02 1.378208e-01 7.992204e-02 1.156844e-01 5.440309e-02 1.677816e-05
<GCONST> 1.728062e+01
<MIXTURE> 2 4.231111e-02
<MEAN> 39
 -9.889699e+00 -1.662229e+00 1.920640e-01 -4.135517e-01 4.154422e+00 -1.398020e+00 3.156352e-01 -5.090324e+00 -1.170891e+00 -3.334640e+00 2.116593e+00 4.501055e-01 4.044979e-01 -1.235349e-02 4.245583e-02 1.762039e-01 -3.300897e-01 -6.517238e-02 3.485348e-01 2.858872e-01 -1.758186e-01 -2.516950e-01 -6.155673e-02 1.297347e-01 1.206934e-01 5.354963e-04 8.860965e-02 -8.688623e-02 -2.583764e-01 -3.277837e-01 -5.691059e-01 -2.150607e-01 1.814915e-02 3.046379e-01 3.797607e-01 1.592055e-01 -1.104704e-02 -2.674258e-01 3.514735e-03
<VARIANCE> 39
 6.783397e-01 1.202662e+00 2.204408e+00 2.164865e+00 1.654281e+00 4.107997e+00 2.826326e+00 5.780389e+00 3.126046e+00 5.651314e+00 7.708930e+00 3.246856e+00 7.713715e-04 1.491023e-01 2.378534e-01 5.277561e-01 8.256403e-01 7.577888e-01 9.809426e-01 1.511564e+00 1.080439e+00 4.198991e-01 9.814321e-01 6.889355e-01 7.223377e-01 1.876101e-04 1.010199e-02 2.053420e-02 4.398139e-02 6.168187e-02 4.621545e-02 9.724764e-02 9.050416e-02 1.595679e-01 1.326507e-01 1.351157e-01 1.083083e-01 1.024543e-01 2.755777e-05
<GCONST> 1.947405e+01
<MIXTURE> 3 4.915415e-02
<MEAN> 39
 -9.814064e+00 -1.965734e+00 -1.753457e-01 -2.774524e+00 1.984533e-01 -2.725429e+00 -2.596069e-01 -5.629441e+00 -1.443773e+00 -7.584535e-01 3.375334e+00 -1.946737e+00 4.035269e-01 1.124055e-01 1.659316e-01 9.329739e-02 4.415305e-01 5.606136e-01 2.699749e-01 -2.782128e-01 -5.250264e-01 1.071983e-01 3.370632e-01 1.261256e-01 -8.693179e-02 6.836761e-03 5.012011e-02 -2.693754e-02 -1.451555e-01 8.143094e-02 -1.877316e-02 1.195514e-02 1.582546e-01 3.281935e-01 1.207791e-01 -2.414168e-01 -2.692845e-01 3.767436e-02 2.446950e-03
<VARIANCE> 39
 4.877655e-01 1.047160e+00 8.534682e-01 3.776780e+00 2.166620e+00 3.501856e+00 4.576988e+00 5.243549e+00 3.175611e+00 4.052964e+00 2.192102e+00 6.167033e+00 1.129500e-03 8.149289e-02 1.242020e-01 3.322845e-01 4.257784e-01 6.379513e-01 8.210303e-01 9.383392e-01 8.362072e-01 1.352897e+00 8.093699e-01 5.189570e-01 3.739564e-01 2.011788e-04 1.235496e-02 1.863836e-02 3.115658e-02 7.194223e-02 6.933788e-02 1.371817e-01 1.105356e-01 1.124431e-01 5.172605e-02 2.153932e-01 9.705004e-02 1.524138e-01 3.917408e-05
<GCONST> 1.587728e+01
<MIXTURE> 4 5.594166e-03
<MEAN> 39
 -9.631701e+00 -2.721034e+00 -9.534095e-01 -1.284832e+00 3.489491e+00 -2.300214e+00 1.767480e+00 1.799317e+00 9.038820e+00 1.985770e+00 5.622405e+00 -6.488007e-01 4.026221e-01 1.167512e-01 -1.324731e-01 -1.280622e-01 -2.230498e-01 8.568244e-02 3.459273e-01 8.829503e-01 8.936877e-01 4.010151e-02 4.253981e-01 8.588216e-01 -1.579417e-01 1.722586e-02 -4.755345e-02 3.265014e-03 8.749110e-02 -1.050035e-02 -1.472883e-01 1.740262e-01 3.751272e-01 -5.071523e-01 -9.956368e-01 -4.160452e-01 -2.493956e-01 2.064905e-02 2.110475e-04
<VARIANCE> 39
 3.439418e-01 1.282406e+00 4.546737e-01 2.674768e+00 4.339941e+00 2.396094e+00 3.759694e+00 1.134176e+01 3.324903e+00 4.356943e+00 6.632488e+00 4.733869e+00 1.545078e-03 2.969175e-02 1.151664e-01 2.388413e-01 5.458926e-02 5.889814e-01 6.762916e-01 1.901564e-01 7.030140e-01 3.441263e-01 1.209322e+00 8.001773e-01 4.931263e-01 1.868571e-04 1.763921e-02 2.271305e-02 5.285582e-02 1.372571e-01 1.259997e-01 7.680937e-02 8.391157e-02 9.906255e-02 6.444145e-02 1.356483e-02 1.319653e-01 1.576176e-01 7.309846e-06
<GCONST> 8.535662e+00
<MIXTURE> 5 4.048759e-02
<MEAN> 39
 -9.609974e+00 -2.213455e+00 -1.065683e+00 -1.091236e+00 2.043605e+00 -1.594571e+00 -4.474335e-01 -4.645644e+00 -5.131486e-01 -3.877609e+00 -3.395414e+00 -4.624275e+00 4.330532e-01 -3.074390e-03 -7.522154e-02 4.822169e-02 3.081718e-01 1.093476e-01 1.136674e-01 3.897033e-01 -1.718357e-01 -6.552128e-02 1.669897e-01 1.845256e-02 7.964105e-02 -5.147778e-03 2.634891e-02 -3.429930e-02 -3.200004e-02 -1.515611e-01 -1.662432e-01 -1.451053e-02 3.705635e-01 3.776101e-01 2.548397e-01 2.694256e-01 6.499238e-01 3.708987e-01 -2.751844e-03
<VARIANCE> 39
 5.359118e-01 1.609376e+00 2.815013e+00 5.538192e+00 5.948071e+00 5.493495e+00 2.806305e+00 8.205608e+00 5.263436e+00 4.294753e+00 1.615679e+00 4.565123e+00 2.012865e-03 4.723955e-02 1.748065e-01 3.437067e-01 4.380556e-01 3.260839e-01 8.392257e-01 6.305773e-01 9.245076e-01 1.433787e+00 1.920604e+00 5.688329e-01 7.047231e-01 3.351751e-04 1.223484e-02 2.696706e-02 5.318105e-02 5.266440e-02 6.950322e-02 5.891015e-02 8.632422e-02 1.528150e-01 1.018993e-01 1.304664e-01 1.158942e-01 1.465615e-01 8.094257e-05
<GCONST> 2.184157e+01
<MIXTURE> 6 3.500395e-02
<MEAN> 39
 -8.782612e+00 -1.200783e+00 -6.917524e-01 -2.565338e+00 -1.680771e+00 -6.605299e+00 -1.995224e+00 -4.190956e-01 4.161959e+00 -2.444782e+00 5.537664e-02 -3.385688e+00 4.410134e-01 1.103455e-01 1.884437e-01 1.967415e-01 4.910305e-01 5.153354e-01 -3.620804e-02 -1.305110e-01 -3.165577e-01 -4.877132e-01 9.565915e-02 -7.120229e-02 -9.752673e-02 1.611620e-03 -7.810153e-02 -1.990683e-01 -1.320371e-01 -1.711392e-02 2.080382e-01 5.929245e-01 4.306119e-01 -3.160765e-01 -4.131122e-01 4.005853e-02 1.158956e-01 2.294203e-01 -1.860675e-03
<VARIANCE> 39
 5.659610e-01 1.055556e+00 1.960992e+00 4.519499e+00 2.413401e+00 4.048352e+00 4.108139e+00 6.288495e+00 3.002481e+00 7.101485e+00 4.570670e+00 5.379103e+00 2.070503e-03 5.244632e-02 3.232198e-01 5.257545e-01 4.372466e-01 4.017698e-01 1.157499e+00 1.513138e+00 1.213940e+00 1.306155e+00 1.586567e+00 7.555478e-01 1.039643e+00 1.769283e-04 1.453279e-02 3.342613e-02 6.643543e-02 7.780053e-02 3.937046e-02 8.542819e-02 6.933721e-02 1.496630e-01 7.943480e-02 9.402198e-02 1.494934e-01 1.392745e-01 8.119677e-05
<GCONST> 2.375388e+01
<MIXTURE> 7 1.698049e-02
<MEAN> 39
 -9.929473e+00 -2.810631e+00 -7.414150e-01 -2.479843e+00 1.779666e+00 2.079820e+00 5.412895e+00 -2.800811e+00 5.592914e-01 -1.712398e+00 6.866938e-01 -3.260518e+00 4.582691e-01 -1.884075e-02 7.336953e-02 3.878097e-01 6.846459e-03 -5.969728e-01 -5.193009e-01 7.971735e-02 9.780691e-01 4.762022e-01 -9.584263e-02 -8.444907e-01 -1.061754e+00 -1.153076e-03 4.326678e-02 3.654334e-02 -9.419628e-02 2.755025e-02 -7.399022e-02 -7.691916e-01 -6.159773e-01 -7.338259e-03 -9.936938e-02 -2.105437e-01 9.816433e-02 2.117159e-01 -3.656538e-03
<VARIANCE> 39
 3.542430e-01 3.406920e+00 2.422756e+00 7.314036e+00 5.007072e+00 1.060314e+01 9.741514e+00 8.592465e+00 3.131098e+00 1.491843e+01 3.169058e+00 1.561850e+00 1.590081e-03 1.149868e-01 1.164049e-01 3.651828e-01 6.255249e-01 2.174510e-01 2.683569e-01 1.098526e+00 1.067109e+00 3.051466e-01 4.861749e-01 6.441123e-01 7.946203e-01 1.749623e-04 1.338775e-02 6.376791e-02 5.753775e-02 2.485874e-01 1.323317e-01 1.664124e-01 2.511578e-01 3.341486e-01 1.419858e-01 1.715779e-01 2.283141e-01 1.004769e-01 4.746672e-05
<GCONST> 2.738539e+01
<MIXTURE> 8 3.493014e-02
<MEAN> 39
 -9.698450e+00 -2.921608e+00 -1.090453e+00 -2.212240e+00 -4.953671e-01 -2.668451e+00 2.178229e+00 -1.885296e+00 3.185506e-01 -2.246136e+00 3.737215e+00 1.719373e+00 3.963568e-01 -1.689751e-01 -2.872463e-01 -5.181038e-01 -4.347008e-01 2.922693e-01 1.392735e-01 -2.014653e-01 -1.427825e-01 -5.378645e-01 -6.626125e-01 -7.961874e-02 -2.740248e-01 3.654484e-03 -2.425585e-02 8.944944e-03 -6.735506e-02 -8.694777e-02 8.164006e-02 -4.955241e-02 -3.212478e-01 -2.077691e-01 2.434330e-02 -7.879056e-02 -4.466150e-01 -5.151195e-01 2.227618e-03
<VARIANCE> 39
 5.341418e-01 2.544218e+00 2.668145e+00 1.237047e+00 4.390759e+00 4.319055e+00 3.729780e+00 3.236512e+00 1.829995e+00 3.579002e+00 3.748852e+00 1.522207e+00 1.178897e-03 8.010098e-02 2.339100e-01 3.442770e-01 3.268432e-01 6.156786e-01 1.289297e+00 1.033902e+00 1.077156e+00 4.946800e-01 5.545576e-01 7.058719e-01 7.405198e-01 1.341642e-04 1.565581e-02 6.549823e-02 5.264001e-02 3.482557e-02 1.286122e-01 6.966995e-02 7.135183e-02 1.257835e-01 6.783698e-02 1.047332e-01 8.602638e-02 2.576332e-02 2.052971e-05
<GCONST> 1.388043e+01
<MIXTURE> 9 4.884655e-02
<MEAN> 39
 -1.009104e+01 -2.514531e+00 -6.329554e-02 -3.333460e+00 -2.677212e+00 -4.138123e+00 2.292968e+00 -2.669117e-01 1.037783e+00 -4.174968e+00 -9.516463e-01 -7.396401e-01 4.145970e-01 -6.883704e-02 4.184953e-02 2.498596e-02 1.821735e-01 3.676379e-01 -7.739489e-04 -1.096462e-01 -4.040003e-01 -4.480179e-01 -1.767862e-01 -1.051809e-01 -2.337480e-01 -1.295064e-03 1.061510e-01 4.155304e-02 -1.803314e-01 9.430036e-02 3.897167e-01 2.662446e-01 -2.573112e-01 -4.069240e-01 -4.635181e-02 2.405657e-01 2.801608e-01 -1.065775e-01 5.372973e-04
<VARIANCE> 39
 7.644720e-01 1.102279e+00 2.208786e+00 2.365418e+00 3.421580e+00 4.826210e+00 4.794789e+00 3.482780e+00 9.560433e+00 4.905537e+00 4.887345e+00 3.149439e+00 1.533164e-03 1.043109e-01 1.187125e-01 5.148638e-01 6.731753e-01 5.944708e-01 1.535959e+00 1.051993e+00 8.828442e-01 1.449236e+00 1.328403e+00 1.373049e+00 8.335951e-01 1.406313e-04 1.453180e-02 3.995952e-02 4.115194e-02 7.394890e-02 4.623473e-02 1.328505e-01 1.365789e-01 4.720420e-02 1.711067e-01 1.194099e-01 2.004035e-01 1.213837e-01 3.436959e-05
<GCONST> 2.391710e+01
<MIXTURE> 10 5.595210e-03
<MEAN> 39
 -9.808117e+00 -1.693059e+00 6.771036e-01 -1.724452e+00 1.330947e+00 -5.484433e-01 8.924437e+00 4.512373e+00 -6.260577e-01 -2.130785e+00 7.653410e-01 -2.498812e+00 4.671389e-01 1.543534e-01 -1.112998e-02 -3.312420e-01 -2.891733e-01 -7.212747e-02 -3.760717e-01 -7.844897e-01 -1.980688e-01 8.184537e-02 -2.629055e-01 7.291202e-02 -1.392613e-01 9.971292e-03 -2.383681e-03 1.676964e-03 -2.707147e-01 -8.429173e-02 -1.566070e-01 -3.294213e-01 -1.100561e+00 -5.869894e-01 2.279738e-01 -6.264569e-02 4.184932e-02 1.238960e-01 -1.590973e-03
<VARIANCE> 39
 4.445173e-01 1.254504e+00 2.581949e+00 2.766597e+00 6.069978e+00 7.742521e+00 1.297756e+00 9.428102e+00 1.730776e+00 4.681861e+00 1.993497e+00 2.280170e+00 2.195795e-03 1.245768e-01 1.073317e-01 3.881354e-02 3.630137e-01 8.892896e-01 9.463499e-01 8.398659e-01 5.444828e-01 5.558369e-01 6.515269e-01 2.700837e-01 1.486205e+00 4.740799e-04 1.283795e-02 9.696045e-03 4.088039e-02 1.442664e-01 9.543495e-02 2.122306e-01 1.960104e-01 4.273065e-01 7.646692e-02 1.153032e-01 1.933511e-01 1.020377e-01 4.205493e-05
<GCONST> 1.854732e+01
<MIXTURE> 11 4.837651e-02
<MEAN> 39
 -8.941846e+00 -2.468889e+00 -1.143915e+00 -2.721136e+00 2.800277e-01 -1.960506e+00 1.999966e+00 -4.133594e+00 -6.499202e-01 -3.537646e+00 5.171412e-01 -1.139086e+00 4.609750e-01 9.186158e-02 -4.840223e-02 -4.444611e-02 -4.514954e-01 -3.957362e-01 -8.757405e-02 -1.837753e-02 3.844088e-01 4.173390e-01 4.880168e-02 1.022681e-01 3.865356e-01 5.066364e-03 -9.846602e-02 -1.089566e-02 -2.590484e-02 -1.998182e-02 -5.735010e-02 -1.738716e-01 -3.047044e-01 -2.336433e-02 1.334217e-01 1.627778e-01 1.219131e-01 -6.786576e-02 -6.978428e-03
<VARIANCE> 39
 7.149190e-01 9.080102e-01 2.589853e+00 2.493886e+00 2.946110e+00 2.085681e+00 4.035974e+00 2.302830e+00 2.890651e+00 6.402747e+00 6.295043e+00 4.937863e+00 1.839004e-03 7.466918e-02 2.432301e-01 4.593526e-01 5.254344e-01 4.962852e-01 6.308622e-01 9.691799e-01 1.093623e+00 9.344066e-01 1.280198e+00 5.434518e-01 5.938208e-01 1.604634e-04 1.701176e-02 3.135655e-02 5.895278e-02 6.558192e-02 8.106635e-02 7.119110e-02 4.915417e-02 6.462126e-02 6.421185e-02 1.377388e-01 1.335917e-01 7.266341e-02 4.036905e-05
<GCONST> 1.751080e+01
<MIXTURE> 12 2.576218e-02
<MEAN> 39
 -1.032093e+01 -3.525807e+00 -2.658944e+00 -4.462671e+00 -2.608251e+00 -6.547153e+00 -1.209806e+00 -7.595092e-01 4.453306e+00 6.613920e-01 2.502845e+00 5.705894e-02 4.345604e-01 3.866514e-02 2.475843e-01 5.597832e-01 5.749857e-01 4.798574e-01 4.839578e-01 -2.417985e-01 -1.144987e-01 4.755465e-02 -7.991611e-01 -6.410045e-01 -1.854259e-01 9.485041e-03 1.068595e-01 1.493938e-01 2.289876e-01 2.821069e-01 4.573726e-01 5.059975e-01 3.678237e-01 -1.337253e-01 -3.134545e-01 -2.892602e-01 -1.951230e-01 -1.864904e-01 6.612411e-04
<VARIANCE> 39
 5.891535e-01 3.003407e+00 3.346578e+00 4.521842e+00 8.100515e+00 4.470542e+00 3.314690e+00 4.464931e+00 5.547356e+00 6.502608e+00 5.526915e+00 3.059700e+00 7.247480e-04 9.254449e-02 2.391187e-01 1.886616e-01 2.787016e-01 7.087789e-01 1.024708e+00 6.950810e-01 8.721527e-01 1.139670e+00 1.047322e+00 1.336711e+00 1.173355e+00 8.457412e-05 8.244275e-03 5.944930e-02 4.471987e-02 1.004910e-01 9.804375e-02 1.499072e-01 9.786879e-02 1.165939e-01 2.130944e-01 1.008189e-01 3.404253e-02 1.181187e-01 2.051112e-05
<GCONST> 2.223479e+01
<MIXTURE> 13 2.119507e-02
<MEAN> 39
 -9.537676e+00 -1.923892e+00 -2.561236e+00 -4.937223e+00 5.303865e-01 -2.217980e-01 3.307648e+00 -2.679825e+00 3.017366e+00 -5.297036e-01 1.441626e+00 2.007895e+00 4.145649e-01 -1.254034e-02 -1.864880e-01 -6.080874e-02 -1.425175e-01 -4.561739e-02 -5.746951e-02 6.516840e-02 -1.387038e-01 3.270357e-02 -4.088403e-01 -2.844350e-02 6.059834e-01 -2.028808e-03 -1.056439e-02 -4.786279e-02 2.113805e-01 2.529343e-01 -1.065060e-01 -3.776290e-01 -2.495332e-01 2.327290e-01 -9.242896e-02 -1.584540e-01 3.358454e-02 -5.725171e-01 -5.412773e-04
<VARIANCE> 39
 2.279390e-01 8.562296e-01 4.309106e+00 2.779018e+00 5.236819e+00 3.286419e+00 5.166175e+00 1.707360e+00 4.449640e+00 3.853464e+00 6.785123e-01 3.576664e+00 1.312385e-03 1.488286e-01 3.223041e-01 5.969834e-01 5.419627e-01 1.140913e+00 5.733964e-01 3.167877e-01 8.814464e-01 2.884694e-01 5.484248e-01 9.106406e-01 5.901860e-01 2.260588e-04 8.669185e-03 2.910717e-02 4.302408e-02 6.073908e-02 6.286092e-02 5.696091e-02 1.418309e-01 5.138502e-02 1.291201e-01 1.335315e-01 1.147354e-01 7.649302e-02 3.001628e-05
<GCONST> 1.392043e+01
<MIXTURE> 14 5.008522e-02
<MEAN> 39
 -1.018464e+01 -3.369282e+00 -6.102404e-01 -1.752725e+00 7.405993e-02 -4.499864e+00 -3.722017e-01 -1.227940e+00 4.090168e+00 8.416363e-01 4.117730e+00 -4.306307e-01 3.917581e-01 4.070522e-02 5.336012e-03 2.279873e-02 -9.320264e-02 -1.337867e-01 -2.115196e-01 -5.257430e-01 -2.462311e-01 1.233045e-01 2.038119e-01 -2.220497e-01 -2.294538e-01 4.343903e-03 8.173631e-02 1.253126e-01 -4.892977e-02 -7.201317e-02 6.335131e-02 3.046999e-01 1.637590e-01 -3.221542e-01 -5.155971e-01 -4.289222e-01 -3.481451e-01 -1.223686e-01 3.657347e-03
<VARIANCE> 39
 3.795584e-01 6.148939e-01 9.688101e-01 2.818414e+00 3.330824e+00 3.279654e+00 7.784400e+00 1.037294e+01 4.534240e+00 7.399710e+00 7.721914e+00 4.450316e+00 4.853165e-04 1.205460e-01 3.194258e-01 3.399557e-01 7.234930e-01 3.366853e-01 4.381138e-01 7.983598e-01 9.648590e-01 9.264855e-01 1.022204e+00 1.130596e+00 4.016071e-01 1.637187e-04 1.004869e-02 1.831904e-02 4.598184e-02 7.377315e-02 6.793983e-02 6.010400e-02 1.137596e-01 1.459680e-01 6.608939e-02 1.032216e-01 1.402661e-01 1.062997e-01 3.043184e-05
<GCONST> 1.755404e+01
<MIXTURE> 15 2.647398e-02
<MEAN> 39
 -9.389875e+00 -2.342193e+00 -1.663376e+00 -3.404521e+00 2.668036e+00 -2.374885e+00 1.546677e+00 1.557637e+00 4.785656e+00 -1.760941e+00 -8.655525e-01 -3.623522e+00 4.279460e-01 5.480350e-02 6.933318e-02 1.915908e-01 4.620188e-01 2.518810e-03 -4.571566e-01 -5.822455e-01 1.243855e-01 4.793979e-01 5.963902e-01 6.094513e-01 -3.325396e-02 2.474875e-03 -1.653690e-02 -1.264792e-02 2.126727e-02 6.278056e-02 -3.374124e-01 -1.772387e-01 -2.777933e-01 -6.645120e-01 -2.383577e-01 7.138462e-02 2.254718e-01 2.667694e-01 -1.283634e-03
<VARIANCE> 39
 8.699126e-01 8.272122e-01 2.963084e+00 3.168179e+00 5.717432e+00 1.836499e+00 2.868629e+00 2.243449e+00 5.425192e+00 3.707771e+00 1.985789e+00 6.461082e+00 2.101426e-03 1.652708e-01 2.779938e-01 2.990820e-01 1.176199e+00 7.211637e-01 6.658616e-01 1.621842e+00 1.847475e+00 7.100691e-01 7.385578e-01 8.161220e-01 9.315443e-01 3.406259e-04 1.800551e-02 4.111915e-02 3.955667e-02 4.626530e-02 1.395126e-01 7.458577e-02 1.185309e-01 1.165098e-01 1.118898e-01 6.347525e-02 5.617200e-02 1.934117e-01 3.699039e-05
<GCONST> 2.248941e+01
<MIXTURE> 16 5.774188e-02
<MEAN> 39
 -1.021707e+01 -3.768545e+00 -2.490397e+00 -3.132504e+00 2.558747e-02 -5.337824e+00 -1.368729e+00 -1.788205e+00 -1.000795e-01 -3.949307e+00 1.049617e+00 -2.301271e+00 4.266341e-01 -6.110003e-02 -7.788711e-03 -1.264550e-01 -8.899678e-03 6.829791e-02 4.405105e-01 2.344984e-01 -2.698156e-01 -3.898033e-01 -3.311297e-01 -5.139480e-01 -2.965499e-01 1.356396e-03 9.974566e-02 1.634632e-01 7.102661e-02 3.909890e-02 2.578377e-03 3.779121e-01 3.700249e-01 -3.868946e-02 2.103127e-01 2.522147e-01 -4.289096e-02 4.439042e-02 5.901676e-04
<VARIANCE> 39
 3.820086e-01 8.619019e-01 1.376625e+00 4.300616e+00 4.025543e+00 7.742455e+00 3.995940e+00 4.774457e+00 7.509590e+00 7.845377e+00 2.242669e+00 6.742061e+00 2.032230e-03 6.009431e-02 1.671660e-01 3.240506e-01 5.514420e-01 8.966243e-01 7.044382e-01 1.156497e+00 6.892923e-01 8.420873e-01 1.178771e+00 9.596423e-01 9.709407e-01 3.296208e-04 1.426585e-02 2.823782e-02 3.334175e-02 6.456042e-02 3.735276e-02 1.573989e-01 1.505520e-01 1.786460e-01 1.008186e-01 1.553629e-01 4.228008e-02 1.294294e-01 5.580657e-05
<GCONST> 2.235332e+01
<MIXTURE> 17 7.036408e-02
<MEAN> 39
 -9.360968e+00 -1.777527e+00 2.640415e-01 -1.058074e-01 3.131570e+00 -2.374995e+00 2.158618e-01 -2.908319e+00 2.687366e+00 -2.743833e-01 1.271515e+00 -2.691666e+00 4.282394e-01 -1.752621e-02 3.709389e-02 -1.625865e-01 -2.972288e-02 3.962390e-01 3.554219e-01 -2.234526e-01 -4.357384e-01 -4.039328e-01 -1.859176e-01 -2.881154e-01 1.090439e-01 -3.000754e-03 -1.867995e-02 -9.854792e-02 -2.300107e-01 -2.823105e-01 -3.487781e-01 9.973797e-02 2.408203e-01 1.076687e-01 -2.674408e-01 -4.075663e-01 -1.398787e-01 9.404264e-02 -5.296970e-04
<VARIANCE> 39
 6.916205e-01 1.848011e+00 3.262659e+00 3.827638e+00 3.993518e+00 4.558491e+00 8.454072e+00 3.836389e+00 4.873965e+00 7.223860e+00 3.869338e+00 4.817188e+00 2.291512e-03 9.024074e-02 2.077558e-01 3.299506e-01 3.608381e-01 5.704293e-01 8.036543e-01 1.229057e+00 1.087726e+00 6.302984e-01 7.334153e-01 5.530714e-01 9.213043e-01 2.577488e-04 1.639820e-02 4.186497e-02 7.758121e-02 1.351139e-01 9.914912e-02 9.609541e-02 1.981248e-01 1.242395e-01 8.208974e-02 1.630207e-01 8.100560e-02 9.531649e-02 6.028364e-05
<GCONST> 2.583851e+01
<MIXTURE> 18 3.189189e-02
<MEAN> 39
 -9.245852e+00 -1.714156e+00 -1.989513e+00 -3.599120e+00 1.411928e+00 -4.448699e-01 1.144778e+00 -3.565230e+00 2.135853e+00 2.644355e+00 3.299477e+00 -1.828165e+00 4.261036e-01 4.000551e-02 -2.208285e-01 -2.709902e-01 -6.759225e-01 -7.225960e-01 -1.041915e-01 4.746331e-01 6.519840e-01 1.174932e+00 7.293395e-01 3.433591e-01 2.243931e-01 1.741639e-04 -4.170119e-02 -1.708577e-01 1.311170e-01 1.667846e-01 -2.012264e-01 -3.726549e-01 -1.662181e-01 9.845310e-02 -1.851715e-01 -6.422175e-01 -2.678023e-01 1.495079e-01 1.617200e-06
<VARIANCE> 39
 7.266874e-01 1.512679e+00 3.461160e+00 4.202150e+00 5.715805e+00 2.984613e+00 4.276209e+00 9.390714e+00 6.189546e+00 8.665024e+00 8.672302e+00 4.024800e+00 1.050300e-03 1.053990e-01 2.824166e-01 2.432671e-01 5.841970e-01 8.976198e-01 1.973977e+00 9.801095e-01 4.854085e-01 1.111021e+00 1.126673e+00 5.062848e-01 7.313118e-01 1.286450e-04 4.422645e-03 3.442689e-02 6.625262e-02 1.137357e-01 1.442749e-01 4.454530e-02 6.781970e-02 1.108998e-01 6.971140e-02 1.154863e-01 1.834287e-01 1.166518e-01 1.782306e-05
<GCONST> 2.307393e+01
<MIXTURE> 19 3.284962e-02
<MEAN> 39
 -9.328488e+00 -2.832287e+00 -1.478655e+00 -2.987623e+00 -2.408975e-01 -3.762581e+00 3.090049e-01 -5.615148e+00 -5.902105e+00 -6.500471e+00 -1.879933e-01 -2.385472e+00 4.222823e-01 7.200535e-02 6.080268e-03 -1.825288e-01 -2.934115e-01 -2.280014e-01 2.243617e-01 2.410536e-02 -2.810676e-03 1.582929e-02 -1.842491e-01 -1.877300e-01 9.921575e-02 6.448395e-04 -2.314077e-02 1.761765e-02 1.951932e-03 5.030505e-02 -6.515160e-02 1.210561e-01 1.982022e-01 3.999102e-01 8.490854e-01 5.771171e-01 2.388911e-01 8.823027e-02 2.176295e-05
<VARIANCE> 39
 9.254141e-01 7.518973e-01 1.799904e+00 3.047951e+00 2.790509e+00 3.616429e+00 5.930240e+00 7.148282e+00 2.619864e+00 6.799866e+00 3.299537e+00 5.054340e+00 1.976448e-03 9.460969e-02 1.718993e-01 2.465655e-01 5.460518e-01 7.170690e-01 8.459499e-01 1.251528e+00 3.781201e-01 8.701061e-01 1.042466e+00 6.216669e-01 2.837245e-01 1.408480e-04 1.043645e-02 2.267494e-02 4.459439e-02 7.149049e-02 8.307724e-02 9.514870e-02 5.154403e-02 1.129639e-01 5.136879e-02 1.392770e-01 8.118790e-02 8.236495e-02 4.769758e-05
<GCONST> 1.648861e+01
<MIXTURE> 20 4.841548e-02
<MEAN> 39
 -9.937764e+00 -3.947561e+00 -3.500373e+00 -4.928439e+00 -1.850382e+00 -3.775770e+00 1.916929e+00 -3.113912e+00 2.004636e+00 -1.118966e+00 2.194654e+00 -1.294435e+00 4.116308e-01 -1.202821e-01 -2.615243e-01 -3.032752e-01 -1.231701e-01 -4.016614e-01 -6.519986e-01 -4.369481e-01 9.252271e-02 -2.507810e-02 -6.867517e-02 4.072371e-01 2.127229e-01 -2.572872e-03 4.311435e-02 2.060994e-01 3.437474e-01 3.550432e-01 3.042701e-01 1.745018e-01 -8.777101e-02 3.393560e-02 -1.713724e-01 -1.830676e-01 -1.692001e-01 -1.245178e-01 5.744488e-04
<VARIANCE> 39
 1.067942e+00 2.261011e+00 2.674439e+00 5.063427e+00 5.074310e+00 4.811446e+00 6.699590e+00 5.266008e+00 4.166915e+00 6.716846e+00 1.133195e+01 3.180693e+00 7.432425e-04 3.329848e-02 1.135452e-01 2.582183e-01 6.735790e-01 3.617503e-01 5.681882e-01 4.893590e-01 7.349678e-01 6.046471e-01 8.127009e-01 4.844701e-01 5.898614e-01 1.183190e-04 1.847872e-02 3.160439e-02 5.700280e-02 6.565297e-02 8.361642e-02 9.897551e-02 8.392707e-02 1.276849e-01 8.511684e-02 1.533341e-01 1.460737e-01 1.011225e-01 2.457915e-05
<GCONST> 1.916673e+01
<MIXTURE> 21 4.185596e-02
<MEAN> 39
 -9.042652e+00 -2.486008e+00 -2.893715e+00 -3.046882e+00 1.399600e+00 -4.933536e-01 -2.268924e-01 -6.518798e+00 -9.143692e-01 -2.068482e+00 3.213824e-01 -1.128960e+00 4.310339e-01 -2.732102e-03 4.897145e-02 1.075395e-01 1.501630e-01 -6.970845e-02 1.550208e-01 4.349837e-02 7.816192e-02 8.440489e-01 3.665833e-01 1.455622e-01 -2.924699e-01 2.528187e-03 -6.861950e-02 1.061005e-02 2.573206e-01 1.009488e-01 -1.861931e-01 -3.935838e-01 1.675729e-01 6.945230e-01 2.781205e-01 -1.154399e-01 7.270686e-02 -1.881725e-01 -3.343803e-03
<VARIANCE> 39
 1.511680e+00 2.180256e+00 1.608298e+00 4.502809e+00 7.983714e+00 3.006570e+00 6.042163e+00 6.132555e+00 3.509313e+00 5.017411e+00 5.596724e+00 5.811065e+00 1.095942e-03 4.920284e-02 1.631272e-01 2.424140e-01 1.467898e-01 5.361474e-01 8.553837e-01 1.345500e+00 2.035006e+00 9.638974e-01 1.156345e+00 9.363018e-01 1.294003e+00 2.071363e-04 1.814075e-02 4.136850e-02 2.366233e-02 4.054058e-02 1.323545e-01 6.768394e-02 1.746012e-01 1.596709e-01 1.081315e-01 1.785760e-01 8.768268e-02 1.607079e-01 1.623652e-05
<GCONST> 2.338276e+01
<MIXTURE> 22 2.353586e-02
<MEAN> 39
 -9.948630e+00 -3.278462e+00 -3.509852e+00 -2.717009e+00 4.925608e-01 -3.486950e+00 4.121093e+00 -3.757358e-01 3.649002e+00 1.153143e+00 2.494029e+00 -2.614916e+00 4.337341e-01 7.112435e-02 3.695430e-01 3.395641e-02 1.530228e-01 6.106443e-03 3.838262e-01 4.302110e-03 -5.742443e-01 -1.898820e-01 -5.364964e-02 1.525855e-01 2.227928e-01 -5.203218e-04 5.867955e-02 4.217677e-02 2.011798e-01 2.301302e-03 -4.304177e-02 8.015277e-02 -4.791279e-01 -4.045978e-01 -3.236450e-01 -4.402003e-01 -2.186523e-01 9.840567e-02 -1.028996e-04
<VARIANCE> 39
 2.070639e-01 7.883561e-01 1.867601e+00 5.354376e-01 1.864235e+00 3.607403e+00 2.573279e+00 5.954872e+00 5.786036e+00 8.994693e+00 4.916185e+00 3.731529e+00 5.027943e-03 5.892034e-02 1.208605e-01 5.367743e-01 9.581635e-01 1.102359e+00 3.919770e-01 6.390596e-01 8.185664e-01 4.473969e-01 1.146196e+00 9.387310e-01 1.595845e+00 1.927464e-04 3.366888e-03 3.299462e-02 5.502997e-02 3.072123e-02 1.035864e-01 9.730145e-02 1.274882e-01 7.029036e-02 1.191177e-01 1.926731e-01 7.647704e-02 3.964000e-02 7.029494e-05
<GCONST> 1.621819e+01
<MIXTURE> 23 8.959524e-03
<MEAN> 39
 -9.386373e+00 -2.996366e+00 -2.282397e+00 -3.760252e+00 -1.155672e+00 -2.164847e+00 2.387541e+00 4.367605e+00 8.145323e+00 -5.348467e-01 9.442468e-01 -4.791093e-01 4.634515e-01 1.748905e-01 2.579616e-01 1.527637e-01 -2.283316e-01 -6.441415e-01 -7.330850e-01 -5.606801e-01 3.741625e-02 3.438123e-01 -4.162741e-02 -2.031454e-01 -5.771763e-01 3.523351e-03 -1.014326e-04 -3.295719e-02 6.443282e-02 8.872665e-02 1.223653e-01 9.452574e-03 -3.374841e-02 -5.866523e-01 -6.612056e-01 -1.807049e-01 -1.151034e-01 -2.694756e-01 -6.303335e-03
<VARIANCE> 39
 3.848062e-01 5.962186e-01 3.045501e+00 7.778096e-01 3.735641e+00 4.716024e+00 9.796177e+00 3.274407e+00 1.082061e+00 2.127598e+00 5.275336e+00 5.568697e+00 4.147122e-04 1.345777e-01 1.791830e-01 4.483378e-01 3.507692e-01 4.390560e-01 1.062972e+00 6.561707e-01 9.821337e-01 4.403515e-01 6.749440e-01 7.016660e-01 3.518828e-01 1.987281e-05 8.233038e-03 4.866295e-02 8.588435e-02 3.380977e-02 1.016745e-01 4.425529e-02 3.030050e-01 1.187212e-01 1.104149e-01 1.925451e-01 5.349784e-02 1.628318e-01 6.291498e-06
<GCONST> 1.065279e+01
<MIXTURE> 24 4.178054e-02
<MEAN> 39
 -9.410368e+00 -2.363219e+00 -1.576944e+00 -2.209268e+00 -9.328630e-01 -2.096917e+00 2.600423e+00 1.778450e+00 2.182288e+00 -2.909190e+00 3.339166e+00 -2.264457e+00 4.067490e-01 -1.374059e-02 1.920127e-01 8.450390e-02 -1.859487e-01 -4.437808e-01 -2.295341e-01 -2.988036e-01 -4.508026e-01 -1.216090e-01 1.018589e-01 1.022389e-01 1.139966e-01 -2.791698e-03 -3.522217e-02 -4.981347e-02 3.031582e-02 -1.988543e-03 1.287538e-01 -1.669931e-03 -1.551821e-01 -5.289570e-01 -1.810127e-01 3.025504e-03 -2.857729e-01 1.530425e-01 1.016260e-03
<VARIANCE> 39
 7.018236e-01 1.112096e+00 1.870151e+00 2.395230e+00 4.488818e+00 4.930287e+00 3.248523e+00 3.168910e+00 2.559442e+00 4.502206e+00 1.805509e+00 8.552331e+00 6.356029e-04 7.545771e-02 2.188979e-01 5.319598e-01 3.714136e-01 4.358551e-01 3.959764e-01 9.738243e-01 1.022376e+00 1.290875e+00 1.871771e+00 1.035100e+00 7.609579e-01 9.126642e-05 1.083196e-02 2.009206e-02 6.171454e-02 3.943339e-02 1.189856e-01 1.908330e-01 1.042979e-01 1.232854e-01 9.197814e-02 6.975581e-02 7.563418e-02 1.562955e-01 2.404572e-05
<GCONST> 1.732123e+01
<MIXTURE> 25 1.119361e-02
<MEAN> 39
 -9.411571e+00 -2.791082e+00 -2.480814e+00 -2.981710e+00 4.761997e-01 9.295830e-01 7.160985e+00 3.702121e+00 5.133733e+00 -3.615320e+00 -5.337233e-01 -1.400295e+00 4.494156e-01 1.695887e-01 -1.067989e-01 6.198275e-02 -1.354207e-01 -7.515987e-02 1.438966e-01 7.493642e-01 4.056041e-01 -1.020943e+00 -4.075634e-01 6.377677e-01 6.123332e-01 3.667315e-04 -3.465114e-02 2.051876e-02 2.073451e-01 1.795045e-01 1.338152e-01 -2.481326e-01 -7.594349e-01 -7.009062e-01 -1.516732e-01 1.395521e-01 -6.354614e-02 -1.181515e-01 -5.345104e-03
<VARIANCE> 39
 4.807704e-01 2.379486e+00 1.905515e+00 2.098906e+00 3.034420e+00 2.377655e+00 5.979383e+00 8.445089e-01 1.264849e+00 4.069470e+00 3.650595e+00 1.446630e+01 2.856211e-03 4.870869e-02 1.207188e-01 1.413038e-01 2.359645e-01 3.508451e-01 5.849117e-01 1.282100e+00 1.683756e+00 1.909302e+00 5.669134e-01 1.688245e-01 5.970563e-01 3.127425e-04 4.867478e-03 5.211158e-02 3.291442e-02 4.700619e-02 2.089146e-02 4.161560e-02 2.907760e-02 9.747373e-02 1.032008e-01 1.921917e-01 6.366274e-02 1.686389e-01 4.193049e-05
<GCONST> 1.070488e+01
<MIXTURE> 26 3.523526e-02
<MEAN> 39
 -1.014509e+01 -2.351141e+00 -1.171213e+00 -3.784654e+00 7.490721e-01 -5.133019e-02 4.357715e+00 -3.329623e-03 -1.195375e+00 -4.802929e+00 3.113440e-01 -3.432935e+00 3.993520e-01 3.364985e-01 2.993178e-01 7.255602e-03 3.826720e-01 2.718990e-01 3.459899e-01 3.799725e-02 7.469296e-02 3.435455e-01 6.756872e-02 1.153255e-01 -9.298572e-02 5.069343e-04 1.176894e-01 -1.847715e-03 1.688643e-02 2.086909e-01 9.023442e-03 -3.692904e-01 -4.738284e-01 -4.031874e-01 3.392392e-01 3.765711e-01 2.099651e-01 3.075405e-01 3.108211e-03
<VARIANCE> 39
