~o
<STREAMINFO> 1 39
<VECSIZE> 39<NULLD><MFCC_E_D_A><DIAGC>
~h "plus"
<BEGINHMM>
<NUMSTATES> 7
<STATE> 2
<MEAN> 39
 -4.198365e+00 -1.007318e+01 -6.889214e-01 5.194035e-01 6.718028e+00 3.213276e+00 7.561552e-01 -2.596505e+00 8.683716e-01 2.871423e-01 4.231947e-01 5.397997e-02 7.049384e-01 4.015289e-01 -5.075926e-01 3.760014e-01 9.840780e-01 8.730257e-02 3.529581e-01 -1.959414e-01 -1.692871e-01 5.862243e-01 4.575518e-01 2.626503e-01 3.167244e-01 3.287013e-02 2.220744e-02 3.223916e-02 1.466230e-01 8.418074e-02 -1.079413e-01 6.647980e-03 3.831687e-02 -5.739277e-02 8.619486e-02 -2.896607e-02 3.026103e-02 1.255601e-02 1.805087e-03
<VARIANCE> 39
 2.224823e+01 4.912479e+01 4.491585e+01 6.080931e+01 3.004229e+01 4.905640e+01 3.246759e+01 1.941465e+01 1.951186e+01 2.199468e+01 1.643212e+01 1.134355e+01 2.474393e-02 8.684912e-01 1.410873e+00 2.183714e+00 1.968317e+00 2.129263e+00 3.312854e+00 3.027121e+00 1.886703e+00 2.017459e+00 2.650982e+00 1.504893e+00 1.927932e+00 2.273149e-03 1.581891e-01 1.916378e-01 1.942814e-01 2.446084e-01 3.494169e-01 4.625131e-01 4.590408e-01 3.522709e-01 3.144910e-01 3.737907e-01 2.655520e-01 2.723199e-01 3.466236e-04
<GCONST> 8.700948e+01
<STATE> 3
<MEAN> 39
 -1.060700e+00 -1.303848e+01 6.566473e+00 1.128904e+01 5.185007e+00 7.959906e+00 -2.365559e-01 -4.645618e+00 9.058003e+00 3.141112e+00 2.807481e+00 2.671412e+00 9.711438e-01 -3.396253e-01 7.047581e-02 7.364715e-01 -1.818449e-01 -3.667744e-01 -5.926371e-02 -9.298111e-02 2.363166e-01 7.088239e-02 1.132372e-01 1.793046e-01 -1.459320e-01 -3.425533e-03 -2.383960e-01 1.273239e-01 -8.456307e-02 -4.692976e-01 -1.288197e-02 -1.683514e-01 -6.348850e-02 1.030097e-01 -3.117692e-01 -4.953327e-02 -7.016733e-02 -1.468990e-01 -1.035977e-02
<VARIANCE> 39
 1.723818e+01 6.126734e+01 2.989792e+01 2.288137e+01 2.585590e+01 3.376724e+01 2.160487e+01 2.113978e+01 2.049284e+01 2.733392e+01 1.033196e+01 1.745665e+01 8.251821e-04 7.869584e-01 8.233448e-01 7.819710e-01 1.997546e+00 1.824552e+00 8.495900e-01 1.075791e+00 1.459983e+00 1.918091e+00 1.524826e+00 7.995595e-01 1.191207e+00 6.217162e-04 1.058448e-01 2.010124e-01 1.625958e-01 3.299682e-01 2.571323e-01 1.922816e-01 2.361510e-01 2.972798e-01 2.906349e-01 3.601332e-01 2.040616e-01 2.443614e-01 4.824874e-05
<GCONST> 6.939708e+01
<STATE> 4
<MEAN> 39
 -1.008391e+01 -9.467546e+00 1.054206e+01 -9.698833e-01 1.834422e+00 3.192646e+00 -7.414197e-01 -1.620533e+00 3.366724e+00 2.495544e+00 2.042333e+00 -4.216402e-01 7.483913e-01 -2.189922e+00 7.722528e-01 3.607165e-01 -3.159404e+00 -4.160604e-01 -1.137205e+00 -4.605383e-01 1.421656e-01 -1.005363e+00 -1.108977e+00 -1.017783e+00 -2.083259e-01 -4.475899e-02 1.578948e-01 -7.755205e-03 -1.286487e-01 2.579923e-01 2.478349e-01 1.346327e-01 -9.478451e-02 -1.601941e-01 3.968121e-01 -1.115378e-01 -1.516888e-01 2.034365e-01 8.010733e-03
<VARIANCE> 39
 2.819209e+01 4.961296e+01 3.420825e+01 4.053328e+01 1.921967e+01 2.500379e+01 2.847164e+01 1.691184e+01 1.853619e+01 1.969919e+01 2.031097e+01 9.166269e+00 1.111698e-02 1.037652e+00 1.236253e+00 1.111795e+00 2.325899e+00 2.147053e+00 2.297882e+00 1.509256e+00 2.562011e+00 3.557365e+00 2.463018e+00 2.113391e+00 9.262137e-01 7.866335e-04 2.751196e-01 1.868946e-01 1.069264e-01 6.980760e-01 2.382647e-01 3.312420e-01 3.247359e-01 4.886364e-01 5.430769e-01 3.994975e-01 3.705350e-01 1.689968e-01 1.352859e-04
<GCONST> 8.182679e+01
<STATE> 5
<MEAN> 39
 -1.380805e+01 -2.458913e+00 7.165751e+00 -8.039159e+00 9.466968e-01 2.492296e+00 -3.506534e+00 -1.602677e+00 3.162302e+00 -2.815883e+00 1.296877e+00 2.864074e-01 7.085428e-01 1.338014e-01 6.712196e-02 -1.252864e-01 1.053660e-02 7.523097e-02 -7.396650e-02 -4.156709e-02 4.067820e-02 2.355625e-02 2.557636e-02 -1.512980e-02 5.636897e-03 -6.387752e-03 4.043817e-02 -1.547052e-02 -2.390559e-02 7.167496e-02 1.024439e-02 -2.371027e-02 1.396025e-02 -2.547924e-02 -1.835055e-02 2.569053e-02 -5.168295e-03 -1.153527e-02 2.763592e-05
<VARIANCE> 39
 1.307409e+01 2.589327e+01 1.643141e+01 1.175140e+01 1.204884e+01 1.992838e+01 1.545098e+01 1.576577e+01 1.865906e+01 1.278669e+01 1.244536e+01 1.178304e+01 1.630478e-02 2.234753e-01 4.471494e-01 7.604515e-01 1.023157e+00 8.023232e-01 1.264091e+00 1.258603e+00 1.418236e+00 1.138016e+00 1.117042e+00 1.337672e+00 1.232415e+00 3.484001e-04 3.902755e-02 6.986228e-02 1.241438e-01 1.984504e-01 1.417338e-01 2.341628e-01 2.335718e-01 2.904209e-01 2.292828e-01 2.213662e-01 2.897437e-01 2.498048e-01 5.380231e-05
<GCONST> 5.976380e+01
<STATE> 6
<MEAN> 39
 -1.557496e+01 -1.364157e+01 2.065269e+01 -1.451868e+01 7.943137e+00 4.496037e+00 -6.183079e+00 -2.255164e+00 2.233147e+00 2.973153e+00 -5.269535e+00 3.315107e-01 5.908532e-01 1.553540e-02 2.458209e-01 -2.410711e-01 -1.370830e-01 -1.767286e-01 2.584551e-01 1.547422e-01 -2.263600e-01 -3.064001e-01 -7.289034e-02 6.214194e-02 -4.192527e-02 -6.133249e-03 7.018827e-03 -6.815040e-02 -6.107379e-02 -1.740030e-02 -1.632532e-01 9.112751e-02 5.106726e-02 4.797556e-02 2.132041e-02 -6.463359e-03 7.271865e-02 4.842753e-02 3.964481e-04
<VARIANCE> 39
 2.595530e+01 6.221930e+01 1.033208e+02 5.300790e+01 5.179895e+01 4.673076e+01 2.254305e+01 1.569944e+01 3.795243e+01 3.783701e+01 2.032367e+01 1.830162e+01 7.877081e-03 9.697242e-01 7.694005e-01 1.108833e+00 2.049763e+00 3.490969e+00 2.869604e+00 2.157536e+00 1.816234e+00 1.885337e+00 1.381677e+00 1.630667e+00 1.521990e+00 5.050372e-04 1.297809e-01 1.297239e-01 2.175759e-01 4.062855e-01 5.211681e-01 5.746033e-01 4.230424e-01 3.253342e-01 2.902725e-01 2.443949e-01 2.701178e-01 2.560228e-01 8.302278e-05
<GCONST> 8.373895e+01
<TRANSP> 7
 0.000000e+00 1.000000e+00 0.000000e+00 0.000000e+00 0.000000e+00 0.000000e+00 0.000000e+00
 0.000000e+00 9.010347e-01 9.896531e-02 0.000000e+00 0.000000e+00 0.000000e+00 0.000000e+00
 0.000000e+00 0.000000e+00 8.894545e-01 1.105455e-01 0.000000e+00 0.000000e+00 0.000000e+00
 0.000000e+00 0.000000e+00 0.000000e+00 7.794270e-01 2.205730e-01 0.000000e+00 0.000000e+00
 0.000000e+00 0.000000e+00 0.000000e+00 0.000000e+00 9.551547e-01 4.484529e-02 0.000000e+00
 0.000000e+00 0.000000e+00 0.000000e+00 0.000000e+00 0.000000e+00 8.416876e-01 1.583125e-01
 0.000000e+00 0.000000e+00 0.000000e+00 0.000000e+00 0.000000e+00 0.000000e+00 0.000000e+00
<ENDHMM>
