~o
<STREAMINFO> 1 39
<VECSIZE> 39<NULLD><MFCC_E_D_A><DIAGC>
~h "quarante"
<BEGINHMM>
<NUMSTATES> 9
<STATE> 2
<MEAN> 39
 -6.371612e+00 -7.725065e+00 2.501817e+00 -2.092874e+00 2.383971e+00 1.316008e+00 1.146339e+00 -4.607620e-01 8.876800e-02 -2.091866e+00 9.016395e-01 -1.841910e+00 5.614751e-01 1.059941e+00 -1.394883e-01 7.362454e-01 1.064817e+00 2.002614e-01 1.636120e-01 -6.881501e-01 -4.764608e-01 1.967392e-01 -5.185792e-01 1.693188e-01 3.906047e-03 4.909233e-02 2.111201e-01 5.672688e-02 -2.519646e-01 -1.450555e-01 -1.246581e-01 8.399606e-02 -7.320809e-02 -2.141350e-01 2.275460e-02 -8.087555e-02 5.622190e-02 5.189642e-02 2.857365e-03
<VARIANCE> 39
 4.372551e+01 3.992173e+01 9.782915e+01 7.700880e+01 3.225201e+01 7.372124e+01 4.242274e+01 2.182330e+01 3.728102e+01 2.599796e+01 1.910620e+01 1.313098e+01 8.205441e-02 2.927650e+00 2.418618e+00 4.103379e+00 3.146341e+00 4.023179e+00 2.111047e+00 2.805186e+00 2.395944e+00 2.242821e+00 2.544110e+00 1.883958e+00 1.166245e+00 2.944734e-03 3.386147e-01 3.504339e-01 5.231403e-01 7.539119e-01 7.466130e-01 3.071580e-01 2.509549e-01 3.850821e-01 4.089088e-01 4.942812e-01 4.414403e-01 2.404858e-01 3.979331e-04
<GCONST> 9.929357e+01
<STATE> 3
<MEAN> 39
 4.958341e+00 -4.950513e+00 1.960763e+00 -5.620375e+00 -1.581341e+00 -1.392807e+00 -6.015148e-01 -3.043516e+00 -2.381162e+00 -1.034925e+01 1.363781e+00 5.134966e-01 9.518093e-01 1.280640e-01 6.860912e-01 -5.034465e-01 -1.388444e+00 -1.175268e+00 -5.591127e-01 9.016823e-01 5.022597e-01 -2.501588e-01 -4.018006e-01 -3.113706e-01 2.251851e-01 -2.967423e-03 -2.462239e-01 4.457045e-02 2.280705e-01 1.386796e-02 -2.219135e-02 -5.323192e-02 6.193441e-02 2.896140e-01 1.835561e-01 2.931509e-01 -6.660153e-02 -1.362205e-01 -7.400609e-03
<VARIANCE> 39
 1.176512e+01 3.030092e+01 4.051199e+01 5.915423e+01 3.229955e+01 4.760793e+01 4.119361e+01 5.086670e+01 2.304201e+01 2.857933e+01 3.499427e+01 1.876480e+01 3.532580e-03 8.978340e-01 8.224378e-01 1.999226e+00 2.756568e+00 1.853231e+00 9.790583e-01 1.941302e+00 2.749902e+00 2.523309e+00 2.628674e+00 2.063296e+00 2.010185e+00 5.398019e-04 2.016606e-01 1.901298e-01 2.957038e-01 4.884976e-01 3.198210e-01 2.732409e-01 5.204036e-01 3.595140e-01 4.054043e-01 3.972442e-01 3.228036e-01 3.246505e-01 8.570767e-05
<GCONST> 8.436076e+01
<STATE> 4
<MEAN> 39
 1.994216e+00 4.970456e+00 3.641016e+00 -7.226385e+00 -8.152558e+00 -8.286733e+00 -1.942749e+00 -2.774044e+00 3.309169e+00 -3.378509e+00 -6.145145e-02 -8.927728e-02 8.600811e-01 -1.260974e-01 1.806455e-01 2.450085e-01 3.029490e-01 9.205165e-02 -2.000338e-01 -4.272886e-01 -1.299751e-01 2.511475e-03 2.548700e-01 2.494345e-02 -1.372648e-01 -3.436886e-03 -1.647912e-02 -1.032003e-01 -6.998804e-02 7.922287e-02 1.316960e-01 8.814374e-02 6.522035e-02 -3.349390e-02 -1.082030e-01 -6.458050e-02 3.497422e-02 3.439476e-02 1.644487e-04
<VARIANCE> 39
 7.579602e+00 1.230542e+01 1.806384e+01 1.680719e+01 1.149481e+01 1.913347e+01 2.813225e+01 2.291832e+01 2.630416e+01 1.715246e+01 8.543077e+00 1.125153e+01 7.769384e-03 8.295873e-01 4.891823e-01 8.348482e-01 7.764034e-01 1.172305e+00 1.381158e+00 1.739664e+00 1.181883e+00 1.666899e+00 1.505452e+00 7.707715e-01 1.078633e+00 5.731003e-04 1.143993e-01 6.074393e-02 1.195927e-01 1.461876e-01 1.700223e-01 2.333813e-01 2.508875e-01 1.992951e-01 2.176701e-01 1.982250e-01 1.109726e-01 2.314799e-01 7.550586e-05
<GCONST> 6.121427e+01
<STATE> 5
<MEAN> 39
 1.041534e+01 -5.165674e+00 7.884716e+00 -1.971315e+00 -9.672117e+00 -2.844225e+00 1.448025e-01 3.723825e+00 1.811212e-01 -3.145725e+00 -1.796943e+00 -1.320779e+00 8.140759e-01 -3.900598e-01 2.201561e-01 -5.514524e-02 5.299104e-01 6.135720e-01 3.269551e-01 7.129264e-01 3.767957e-01 -1.269666e-01 4.819536e-01 3.794247e-02 -8.445837e-02 -2.062864e-02 -1.408147e-01 -1.573293e-02 -8.369946e-02 -2.416357e-02 4.112500e-02 5.772636e-02 -9.364749e-04 -6.113247e-03 8.131419e-02 9.176813e-03 1.112540e-02 4.288088e-02 -3.145703e-03
<VARIANCE> 39
 4.103918e+01 6.473128e+01 3.261192e+01 4.887520e+01 9.309505e+01 2.257080e+01 9.170132e+01 9.143490e+01 1.400047e+02 4.040680e+01 3.948270e+01 3.182469e+01 1.834003e-02 1.017549e+00 1.658316e+00 1.289172e+00 1.759161e+00 2.802116e+00 1.775929e+00 3.999984e+00 2.963935e+00 2.329499e+00 2.859520e+00 1.497647e+00 1.557373e+00 3.227822e-04 8.329993e-02 2.257160e-01 1.850576e-01 3.096186e-01 4.658991e-01 2.906284e-01 5.322396e-01 4.300758e-01 4.121076e-01 4.951851e-01 2.675690e-01 2.083057e-01 4.667021e-05
<GCONST> 9.076662e+01
<STATE> 6
<MEAN> 39
 -7.080061e+00 -2.458728e-01 7.842461e-01 -1.496519e+00 1.861790e-01 -2.236795e+00 2.509599e+00 1.080919e-01 1.689129e+00 -1.082277e+00 7.539709e-01 -1.736199e+00 6.021701e-01 -1.032244e+00 -5.863639e-01 -3.886222e-01 -1.865395e-01 3.068268e-01 3.861915e-01 -1.537692e-01 -8.662044e-02 1.788872e-01 1.886612e-01 -2.938500e-02 1.038277e-01 -3.736606e-02 1.006183e-01 1.079784e-01 7.594085e-02 -1.560143e-01 -9.449830e-02 -1.292676e-01 -1.975017e-01 -1.162186e-01 -4.442044e-02 -7.313254e-02 2.069086e-02 6.520659e-02 2.149796e-03
<VARIANCE> 39
 1.121711e+01 9.101903e+00 9.706474e+00 1.063039e+01 1.048573e+01 1.075561e+01 1.538925e+01 1.393978e+01 1.556038e+01 1.141208e+01 1.165431e+01 8.184416e+00 2.809074e-02 6.230237e-01 6.655989e-01 9.751032e-01 1.055917e+00 1.227552e+00 1.752892e+00 2.527175e+00 2.032599e+00 1.909674e+00 2.077499e+00 1.028344e+00 1.018393e+00 1.484567e-03 1.020724e-01 8.033501e-02 1.434918e-01 1.890400e-01 2.278877e-01 2.563365e-01 4.257899e-01 1.875255e-01 2.766109e-01 3.980798e-01 1.814486e-01 2.205843e-01 2.312578e-04
<GCONST> 6.608660e+01
<STATE> 7
<MEAN> 39
 -5.578125e+00 -4.982170e+00 8.386076e+00 -8.337210e+00 4.438097e+00 1.460114e-03 -1.990415e+00 -9.733250e-01 -2.867304e+00 2.849685e-01 -1.833073e+00 -1.427516e+00 2.814721e-01 -5.115415e-01 -3.595288e-01 3.520586e-01 -6.288381e-01 2.593617e-01 2.692557e-01 -5.265099e-01 -4.234190e-01 -6.988542e-02 1.467813e-01 1.144720e-01 7.068063e-02 -2.060483e-03 1.492082e-01 -2.080391e-02 5.529964e-02 1.606149e-01 -4.481641e-02 -9.131485e-03 1.699284e-01 1.335124e-01 -4.370084e-02 5.583517e-02 1.088491e-01 -7.746829e-02 1.934879e-03
<VARIANCE> 39
 4.933494e+01 6.690030e+01 6.033686e+01 7.283177e+01 1.247624e+02 6.447306e+01 5.074001e+01 5.043412e+01 3.981710e+01 2.319925e+01 1.317237e+01 1.329229e+01 5.341350e-02 7.954958e-01 2.674050e+00 3.155483e+00 4.900156e+00 3.706290e+00 5.232136e+00 2.321350e+00 2.952428e+00 3.308288e+00 2.382820e+00 1.412586e+00 1.206120e+00 4.742469e-03 1.785558e-01 3.948213e-01 4.952706e-01 8.061404e-01 6.830537e-01 8.689932e-01 4.945045e-01 7.102295e-01 6.830508e-01 4.711009e-01 2.507630e-01 2.159511e-01 7.160978e-04
<GCONST> 1.032706e+02
<STATE> 8
<MEAN> 39
 -9.741685e+00 -2.701446e+00 1.619201e+00 -5.297553e+00 1.553401e+00 -1.724512e+00 -2.688621e-01 -1.845875e+00 -6.962860e-02 -1.781800e+00 1.506132e+00 -1.158253e+00 4.573813e-01 1.497757e-01 1.754251e-03 -1.466633e-02 7.721020e-02 -7.049140e-02 4.288062e-02 5.266294e-02 8.585902e-02 6.208922e-02 -4.731986e-02 1.323504e-02 1.940450e-03 -2.097527e-03 2.184801e-03 1.551617e-02 -3.115690e-02 3.517533e-02 6.016187e-03 -5.180046e-03 -3.349103e-03 3.312725e-02 2.928984e-02 1.037135e-02 -2.903923e-02 -2.667651e-02 5.211900e-04
<VARIANCE> 39
 6.473554e+00 5.238194e+00 1.189716e+01 1.594147e+01 1.336157e+01 1.397787e+01 1.362545e+01 1.794724e+01 1.205461e+01 1.231195e+01 1.265905e+01 1.048108e+01 1.776569e-02 3.738586e-01 4.083620e-01 7.547663e-01 9.927797e-01 1.123600e+00 9.917516e-01 1.175912e+00 1.474119e+00 1.043440e+00 1.148987e+00 1.228530e+00 1.182236e+00 6.520275e-04 5.389816e-02 7.852142e-02 1.260965e-01 1.622818e-01 2.267299e-01 1.784247e-01 2.068639e-01 2.485715e-01 1.503892e-01 1.954519e-01 2.426881e-01 2.287932e-01 1.184157e-04
<GCONST> 5.775366e+01
<TRANSP> 9
 0.000000e+00 1.000000e+00 0.000000e+00 0.000000e+00 0.000000e+00 0.000000e+00 0.000000e+00 0.000000e+00 0.000000e+00
 0.000000e+00 9.002038e-01 9.979624e-02 0.000000e+00 0.000000e+00 0.000000e+00 0.000000e+00 0.000000e+00 0.000000e+00
 0.000000e+00 0.000000e+00 8.959388e-01 1.040612e-01 0.000000e+00 0.000000e+00 0.000000e+00 0.000000e+00 0.000000e+00
 0.000000e+00 0.000000e+00 0.000000e+00 9.347460e-01 6.525397e-02 0.000000e+00 0.000000e+00 0.000000e+00 0.000000e+00
 0.000000e+00 0.000000e+00 0.000000e+00 0.000000e+00 8.412287e-01 1.587713e-01 0.000000e+00 0.000000e+00 0.000000e+00
 0.000000e+00 0.000000e+00 0.000000e+00 0.000000e+00 0.000000e+00 8.768765e-01 1.231235e-01 0.000000e+00 0.000000e+00
 0.000000e+00 0.000000e+00 0.000000e+00 0.000000e+00 0.000000e+00 0.000000e+00 8.310991e-01 1.689010e-01 0.000000e+00
 0.000000e+00 0.000000e+00 0.000000e+00 0.000000e+00 0.000000e+00 0.000000e+00 0.000000e+00 9.444569e-01 5.554312e-02
 0.000000e+00 0.000000e+00 0.000000e+00 0.000000e+00 0.000000e+00 0.000000e+00 0.000000e+00 0.000000e+00 0.000000e+00
<ENDHMM>
