~o
<STREAMINFO> 1 39
<VECSIZE> 39<NULLD><MFCC_E_D_A><DIAGC>
~h "quatorze"
<BEGINHMM>
<NUMSTATES> 9
<STATE> 2
<MEAN> 39
 -1.444242e+00 -9.662773e+00 6.451324e+00 -4.618677e+00 4.785319e+00 3.492146e+00 -3.730339e+00 1.632133e+00 -4.446448e+00 -2.744306e+00 1.879672e+00 -2.964396e+00 6.121970e-01 4.209849e-01 1.052196e-01 7.888493e-01 3.052067e-01 -1.448434e-01 -1.551404e-02 -6.967031e-02 2.509018e-01 9.024099e-02 5.371794e-02 -8.374833e-02 -1.543775e-01 2.004367e-02 -1.453845e-02 1.029631e-01 -1.167397e-01 2.550081e-02 2.219048e-02 -9.754355e-03 -8.371802e-03 -9.061124e-02 7.793836e-02 -2.014177e-02 -3.157134e-02 7.173454e-02 -2.504030e-03
<VARIANCE> 39
 7.825668e+01 4.737244e+01 1.058711e+02 1.014550e+02 4.880843e+01 5.531380e+01 4.319151e+01 6.161900e+01 6.865017e+01 3.643670e+01 3.443273e+01 1.912023e+01 1.043451e-01 3.122069e+00 4.432226e+00 3.605099e+00 2.973227e+00 3.604345e+00 2.132546e+00 3.466658e+00 2.635605e+00 3.743562e+00 3.024738e+00 2.319253e+00 1.065025e+00 6.409112e-03 4.057297e-01 8.388317e-01 5.478671e-01 5.201024e-01 7.152407e-01 3.877913e-01 6.410100e-01 5.930435e-01 5.229937e-01 5.641077e-01 4.368611e-01 2.211405e-01 6.885896e-04
<GCONST> 1.091296e+02
<STATE> 3
<MEAN> 39
 -7.339665e+00 -2.353587e+00 6.188089e-01 -3.536884e-01 2.720234e+00 -2.234798e+00 1.021069e+00 -3.069565e+00 6.694583e-01 -1.562401e+00 1.915398e+00 -1.079632e+00 5.829073e-01 -8.250459e-02 7.095835e-02 -7.645020e-02 -3.128147e-01 -6.056556e-02 2.537730e-02 1.229908e-01 -8.857530e-02 -7.450588e-02 -3.052561e-02 2.163030e-02 3.554166e-02 -1.835274e-03 7.349853e-02 -2.935152e-02 7.818070e-02 -7.727235e-03 -4.046515e-02 5.188873e-02 6.885374e-02 7.407416e-02 -8.879205e-02 -2.787454e-02 8.167973e-02 -1.978388e-02 5.061588e-03
<VARIANCE> 39
 2.007247e+01 4.386803e+00 9.434211e+00 2.703298e+01 1.814869e+01 1.553829e+01 1.191634e+01 2.057158e+01 1.520556e+01 1.428438e+01 1.413646e+01 9.855646e+00 6.716707e-02 1.646424e+00 7.054621e-01 8.598660e-01 1.604753e+00 2.041058e+00 1.525752e+00 1.361882e+00 2.503102e+00 1.656875e+00 1.567930e+00 1.584372e+00 7.875478e-01 4.329198e-03 2.585706e-01 1.030993e-01 1.637979e-01 2.789285e-01 3.771043e-01 3.214403e-01 3.116417e-01 4.398788e-01 3.314561e-01 3.541232e-01 2.755103e-01 1.343529e-01 4.480700e-04
<GCONST> 7.506782e+01
<STATE> 4
<MEAN> 39
 -2.012873e+00 -2.805102e+00 5.933648e+00 -1.915016e+00 4.615670e-01 3.403803e+00 3.801477e+00 -1.373305e+00 -4.359319e+00 -3.457426e+00 3.414903e+00 -1.165985e+00 7.251732e-01 1.323012e+00 8.277284e-02 2.688355e-01 4.367968e-02 -7.324439e-01 4.603834e-01 7.302731e-01 3.277479e-01 -2.844557e-01 -8.445005e-01 -2.417593e-01 2.848542e-01 4.331060e-02 -7.202475e-02 -9.459651e-03 -8.834313e-02 -8.227499e-02 -1.427373e-01 -2.284316e-01 3.551437e-02 7.651356e-02 1.252041e-01 -1.310026e-02 -2.668703e-01 -5.584052e-02 -5.620639e-03
<VARIANCE> 39
 4.136636e+01 2.234038e+01 5.162948e+01 2.890364e+01 1.718072e+01 4.334625e+01 2.514087e+01 1.403844e+01 4.198125e+01 2.288573e+01 2.798252e+01 2.901325e+01 6.863843e-02 3.830967e+00 1.678952e+00 1.855407e+00 2.409350e+00 2.678028e+00 3.207572e+00 2.600509e+00 9.450908e-01 4.466916e+00 2.358922e+00 2.416903e+00 1.638290e+00 4.494107e-03 6.412869e-01 3.521252e-01 2.853721e-01 5.411443e-01 4.467615e-01 6.422248e-01 4.601208e-01 2.159496e-01 7.635249e-01 4.095552e-01 3.703966e-01 2.930752e-01 5.689518e-04
<GCONST> 9.614791e+01
<STATE> 5
<MEAN> 39
 4.797209e+00 8.457018e-01 6.618118e+00 -5.115086e+00 -9.593620e+00 -1.805322e+00 7.282607e+00 1.599382e+00 6.946707e-02 -5.992962e+00 -2.454320e+00 -1.057111e+00 9.335159e-01 -7.219607e-03 6.872728e-01 1.622069e-01 -3.509436e-01 -9.492616e-01 -9.536083e-01 -2.913790e-01 1.043749e-01 7.727846e-01 7.000738e-01 -1.610135e-01 -3.056995e-01 -8.152022e-03 -1.028040e-01 3.692804e-02 -8.556281e-03 2.484214e-02 1.617170e-01 2.597224e-02 -1.527929e-01 -8.861493e-02 -1.424666e-02 1.745169e-01 2.087253e-01 1.343398e-02 -3.875081e-03
<VARIANCE> 39
 2.173298e+01 3.021433e+01 3.679812e+01 1.462540e+01 5.739050e+01 4.907533e+01 2.101992e+01 9.566595e+00 4.251312e+01 2.240972e+01 1.398892e+01 1.407687e+01 3.677567e-03 1.512227e-01 2.375577e-01 3.230527e-01 6.084679e-01 5.603502e-01 7.477103e-01 1.185946e+00 6.286148e-01 8.411347e-01 1.215826e+00 1.320392e+00 9.729068e-01 1.062149e-04 4.100342e-02 5.050198e-02 4.652354e-02 1.026927e-01 9.030593e-02 9.204581e-02 1.826444e-01 8.605867e-02 1.153953e-01 1.707624e-01 1.531891e-01 1.379578e-01 2.647295e-05
<GCONST> 5.045251e+01
<STATE> 6
<MEAN> 39
 1.933164e-01 5.374407e+00 7.300880e+00 -7.462884e+00 -5.433792e+00 -5.584338e+00 6.792778e-01 2.380141e+00 2.447205e+00 8.806820e-01 1.972957e+00 -1.902893e+00 7.811704e-01 -6.913893e-01 -1.513512e-02 -2.289785e-01 4.123436e-02 8.527220e-01 1.246550e-01 -1.772746e-01 1.613527e-01 -1.541752e-01 -5.833815e-02 1.818366e-01 1.270232e-01 -2.047818e-02 -1.238611e-01 -1.359654e-01 -5.314109e-02 -1.780467e-02 1.013096e-01 1.159590e-01 6.790056e-02 3.007324e-02 -5.947544e-02 -1.107673e-01 -3.521809e-02 1.961742e-03 -1.300618e-03
<VARIANCE> 39
 3.679391e+01 7.593649e+00 3.106252e+01 4.223073e+01 4.545067e+01 1.742440e+01 1.216181e+01 4.138578e+01 2.661243e+01 1.499935e+01 1.215193e+01 1.040911e+01 7.356576e-03 6.998898e-01 7.551255e-01 8.365564e-01 5.180164e-01 1.275763e+00 1.298342e+00 1.366743e+00 9.721326e-01 1.137194e+00 1.356925e+00 1.093869e+00 8.268784e-01 5.488172e-04 9.549021e-02 7.858451e-02 1.550993e-01 1.055832e-01 2.223901e-01 1.837993e-01 2.023495e-01 2.129255e-01 1.996832e-01 2.541822e-01 2.079419e-01 1.469927e-01 5.975615e-05
<GCONST> 6.390281e+01
<STATE> 7
<MEAN> 39
 -1.027832e+01 -8.455765e-01 2.058591e+01 -2.202774e+01 2.834352e+00 6.346444e+00 -6.780373e+00 7.368564e+00 -7.861187e-01 -1.457777e+00 -1.866204e+00 3.085544e-01 4.410597e-01 -1.543221e+00 -8.639804e-01 -7.744520e-03 -3.660571e-01 9.975332e-01 4.729917e-01 -3.729819e-01 -5.096398e-01 -2.000936e-01 1.670612e-01 -3.399529e-02 7.795795e-02 -2.786803e-02 9.166963e-02 1.633358e-02 -9.613393e-02 1.596514e-01 -1.332285e-01 -1.154663e-01 -4.241366e-02 -5.970721e-02 4.330976e-02 6.218346e-02 1.777367e-02 3.283954e-02 3.859511e-04
<VARIANCE> 39
 1.113626e+02 5.035534e+01 9.554680e+01 1.059512e+02 8.946129e+01 5.246469e+01 6.384683e+01 6.682651e+01 2.384221e+01 2.439333e+01 2.980750e+01 1.771319e+01 2.050132e-02 2.141185e+00 1.176671e+00 3.870258e+00 3.749566e+00 4.199624e+00 1.461599e+00 3.749217e+00 1.724903e+00 1.587196e+00 1.153388e+00 1.226793e+00 1.145025e+00 9.916350e-04 1.960170e-01 2.198105e-01 5.577691e-01 5.479314e-01 3.503931e-01 2.457007e-01 6.434130e-01 2.844358e-01 3.525978e-01 2.117338e-01 1.711983e-01 2.773317e-01 1.825306e-04
<GCONST> 9.366898e+01
<STATE> 8
<MEAN> 39
 -1.173591e+01 -1.719109e+00 8.599692e-01 -6.028780e+00 3.021375e+00 -2.659756e+00 1.304955e+00 -5.041993e-01 -2.444793e-02 -1.624060e+00 1.722925e+00 -8.862581e-01 4.796587e-01 -5.221103e-02 -1.548841e-01 -1.394365e-01 9.287104e-02 -6.493305e-02 3.490941e-02 -1.658234e-02 -8.697449e-02 8.221969e-05 -2.420917e-02 -2.457425e-02 4.982847e-02 -5.978684e-03 7.813544e-02 2.618303e-02 6.074342e-03 -5.613401e-04 -6.312452e-02 -1.274763e-02 -2.454687e-02 3.250982e-03 2.108610e-02 2.096451e-02 -1.395372e-02 2.644415e-03 1.353696e-03
<VARIANCE> 39
 1.155064e+01 8.471313e+00 1.064277e+01 2.161206e+01 1.493780e+01 1.831886e+01 1.850508e+01 1.552905e+01 1.406881e+01 1.502426e+01 1.295358e+01 9.825607e+00 2.185444e-02 7.887563e-01 4.594102e-01 8.275687e-01 1.322967e+00 1.211783e+00 1.047469e+00 1.469563e+00 1.695700e+00 1.440873e+00 1.481002e+00 1.173132e+00 1.001253e+00 7.831068e-04 9.371819e-02 8.458286e-02 1.443356e-01 1.996670e-01 1.925580e-01 2.040779e-01 2.808271e-01 3.325964e-01 2.792583e-01 2.990671e-01 2.049750e-01 1.665595e-01 1.279973e-04
<GCONST> 6.452653e+01
<TRANSP> 9
 0.000000e+00 1.000000e+00 0.000000e+00 0.000000e+00 0.000000e+00 0.000000e+00 0.000000e+00 0.000000e+00 0.000000e+00
 0.000000e+00 9.089965e-01 9.100349e-02 0.000000e+00 0.000000e+00 0.000000e+00 0.000000e+00 0.000000e+00 0.000000e+00
 0.000000e+00 0.000000e+00 9.307579e-01 6.924213e-02 0.000000e+00 0.000000e+00 0.000000e+00 0.000000e+00 0.000000e+00
 0.000000e+00 0.000000e+00 0.000000e+00 8.610461e-01 1.389540e-01 0.000000e+00 0.000000e+00 0.000000e+00 0.000000e+00
 0.000000e+00 0.000000e+00 0.000000e+00 0.000000e+00 8.927525e-01 1.072475e-01 0.000000e+00 0.000000e+00 0.000000e+00
 0.000000e+00 0.000000e+00 0.000000e+00 0.000000e+00 0.000000e+00 9.122851e-01 8.771493e-02 0.000000e+00 0.000000e+00
 0.000000e+00 0.000000e+00 0.000000e+00 0.000000e+00 0.000000e+00 0.000000e+00 7.996659e-01 2.003341e-01 0.000000e+00
 0.000000e+00 0.000000e+00 0.000000e+00 0.000000e+00 0.000000e+00 0.000000e+00 0.000000e+00 9.466864e-01 5.331364e-02
 0.000000e+00 0.000000e+00 0.000000e+00 0.000000e+00 0.000000e+00 0.000000e+00 0.000000e+00 0.000000e+00 0.000000e+00
<ENDHMM>
