~o
<STREAMINFO> 1 39
<VECSIZE> 39<NULLD><MFCC_E_D_A><DIAGC>
~h "quatre"
<BEGINHMM>
<NUMSTATES> 8
<STATE> 2
<MEAN> 39
 -5.254507e+00 -6.603124e+00 5.266905e+00 -2.517908e-01 2.120091e+00 -6.355435e-02 -2.084502e-02 -1.261933e+00 -3.775464e-01 -2.686614e+00 1.499264e+00 -1.323556e+00 6.624767e-01 1.128705e+00 3.938342e-02 5.346438e-01 7.903932e-01 -6.225749e-02 2.516900e-01 -4.510571e-01 -5.352280e-01 -8.040200e-02 -6.510632e-01 7.358932e-02 2.417046e-02 5.263619e-02 1.506683e-01 -3.343679e-02 -2.475327e-01 -1.142059e-01 -2.973238e-02 -5.596703e-02 -1.103747e-01 -2.584653e-01 -2.687990e-02 -1.585380e-01 4.652578e-02 -8.579213e-03 2.174607e-03
<VARIANCE> 39
 6.033049e+01 3.616428e+01 3.862876e+01 4.612437e+01 4.673513e+01 5.795573e+01 4.423753e+01 1.659470e+01 3.775863e+01 2.489203e+01 1.713375e+01 1.055040e+01 4.225811e-02 2.828584e+00 1.519124e+00 3.220932e+00 2.486218e+00 4.764098e+00 2.000568e+00 3.597244e+00 2.291526e+00 2.907027e+00 1.843653e+00 1.085574e+00 1.000662e+00 1.985887e-03 5.101400e-01 1.901511e-01 3.993316e-01 4.849336e-01 6.868716e-01 2.999056e-01 7.052172e-01 3.046947e-01 3.974213e-01 1.900654e-01 1.562246e-01 1.855619e-01 3.924617e-04
<GCONST> 9.261520e+01
<STATE> 3
<MEAN> 39
 2.663448e+00 -4.970589e+00 1.689779e+00 -1.137110e+00 2.576446e+00 -2.572150e+00 -1.694403e+00 -8.404588e+00 -5.735058e+00 -8.860262e+00 4.396757e+00 -4.073769e-01 9.798833e-01 1.137025e-01 5.205398e-01 -6.054881e-01 -1.139889e+00 -5.300013e-01 -1.760831e-01 9.339749e-01 -1.907581e-01 -1.236190e+00 -3.925079e-01 5.055669e-01 3.119659e-01 -1.921098e-03 -3.615189e-01 1.720216e-01 1.787794e-01 1.538509e-02 1.280179e-01 1.718930e-01 2.893090e-01 5.393605e-01 6.395625e-02 3.706568e-01 -2.403284e-02 -1.055005e-01 -1.331536e-02
<VARIANCE> 39
 4.749496e+00 1.004225e+01 3.057817e+01 3.796060e+01 1.621462e+01 3.515714e+01 2.880486e+01 1.663143e+01 8.164526e+01 4.033609e+01 1.688558e+01 1.150049e+01 2.750705e-04 6.238474e-01 5.283897e-01 6.099464e-01 1.595053e+00 5.077155e-01 1.069716e+00 1.560714e+00 2.597484e+00 1.646342e+00 2.364779e+00 1.570098e+00 1.047171e+00 3.981439e-04 1.592639e-01 1.225198e-01 1.378571e-01 4.155439e-01 2.093701e-01 2.356669e-01 3.887759e-01 3.106855e-01 5.181522e-01 3.415416e-01 2.852128e-01 2.097862e-01 6.221824e-05
<GCONST> 6.781432e+01
<STATE> 4
<MEAN> 39
 1.348966e+00 -4.710006e+00 6.410501e+00 -8.410561e+00 2.850499e+00 1.354614e+00 1.094014e+00 -2.437980e+00 -8.867583e+00 -5.954558e+00 1.404272e+00 2.952621e-02 6.290511e-01 -1.222462e+00 3.745657e-01 -4.154309e-02 -7.444608e-01 4.368925e-01 -2.266008e-02 2.661364e-02 7.315599e-01 6.236393e-01 8.574015e-01 -6.436837e-01 3.149661e-02 -5.593184e-02 -2.187128e-01 -2.382106e-01 3.242428e-03 -1.274763e-03 -1.576705e-01 -1.524000e-01 -3.156594e-01 -6.203826e-02 2.734215e-01 1.056171e-02 -2.385560e-01 2.455561e-02 -7.001891e-03
<VARIANCE> 39
 1.319252e+01 4.207655e+01 5.487745e+01 1.273382e+02 3.471929e+01 4.452115e+01 2.301571e+01 2.758060e+01 3.861289e+01 2.867580e+01 3.883879e+01 1.806567e+01 7.965421e-02 1.899825e+00 3.296787e+00 1.184650e+00 5.955746e+00 1.676646e+00 2.732910e+00 2.229733e+00 2.172590e+00 4.559932e+00 2.584183e+00 2.501454e+00 1.361645e+00 3.805062e-03 2.235031e-01 6.124119e-01 1.472431e-01 1.073292e+00 2.440172e-01 4.239175e-01 3.690017e-01 4.500858e-01 6.448832e-01 5.113720e-01 5.497360e-01 3.025204e-01 5.587821e-04
<GCONST> 9.839655e+01
<STATE> 5
<MEAN> 39
 -9.341524e+00 -2.297511e+00 -8.092712e-01 -3.543898e+00 1.018779e+00 -2.161334e+00 1.600429e+00 -2.197808e+00 -5.232559e-01 -2.605889e+00 -3.071749e-02 -1.222702e+00 4.681270e-01 -3.634524e-01 -1.225623e-01 -1.608141e-01 -4.636995e-01 -1.677188e-01 -1.128697e-01 -1.252823e-02 1.705184e-01 2.165882e-01 3.629537e-02 -3.100505e-01 -8.626425e-02 -8.932957e-03 2.148094e-01 2.636530e-02 -3.511533e-02 -1.229045e-01 1.199236e-02 3.493635e-02 1.332437e-01 -3.855850e-02 -1.802935e-01 -6.841103e-02 1.509051e-01 2.533754e-02 1.084592e-02
<VARIANCE> 39
 3.407885e+00 4.655008e+00 6.203085e+00 1.862130e+01 9.261170e+00 9.394478e+00 1.008662e+01 9.964583e+00 1.482062e+01 1.014020e+01 9.969193e+00 8.108353e+00 1.231288e-02 9.051236e-01 5.814629e-01 5.370136e-01 1.207623e+00 1.537870e+00 9.646456e-01 1.496858e+00 1.300068e+00 2.158342e+00 1.274551e+00 1.401719e+00 1.075506e+00 3.161481e-03 1.513845e-01 1.048303e-01 1.194224e-01 1.959007e-01 2.645062e-01 1.740856e-01 2.736428e-01 2.291902e-01 3.829118e-01 2.269734e-01 2.086176e-01 2.312337e-01 3.193705e-04
<GCONST> 6.165609e+01
<STATE> 6
<MEAN> 39
 -3.737913e+00 -6.957976e+00 3.040583e-01 -2.132972e+01 -1.159927e+00 5.549628e+00 4.327744e+00 3.922192e-01 -5.556049e+00 -3.108699e+00 1.507487e+00 3.920682e-01 5.006213e-01 1.189895e-01 -6.468125e-02 -4.844275e-01 1.222643e-01 -5.880867e-01 8.114190e-01 6.298002e-01 2.270939e-01 2.888933e-01 2.070760e-01 5.500284e-01 -1.708414e-02 -5.469969e-05 -1.556086e-02 3.733372e-02 5.432966e-02 2.665296e-01 2.690548e-02 5.333468e-02 -3.295060e-02 -7.991678e-02 3.573704e-02 -1.084312e-03 -3.912878e-02 -7.932947e-02 -8.035438e-03
<VARIANCE> 39
 3.424591e+01 6.657182e+01 3.765793e+01 1.396396e+02 4.729971e+01 8.068478e+01 2.635081e+01 2.432045e+01 5.690800e+01 1.827989e+01 2.390112e+01 1.962666e+01 3.418828e-02 7.417676e-01 1.289334e+00 1.571343e+00 3.344896e+00 1.502126e+00 1.498754e+00 1.460669e+00 1.619444e+00 2.462091e+00 1.331254e+00 1.212809e+00 1.710278e+00 1.489492e-03 1.264219e-01 1.621835e-01 2.473732e-01 3.026557e-01 3.171071e-01 2.602533e-01 2.853602e-01 2.636298e-01 3.900157e-01 2.520969e-01 2.401731e-01 2.753467e-01 1.946959e-04
<GCONST> 8.596268e+01
<STATE> 7
<MEAN> 39
 -8.743064e+00 -2.814859e+00 -2.627609e+00 -9.015681e+00 -1.789736e+00 3.434011e-01 5.591602e+00 8.021006e-02 -3.762082e-01 -4.170172e+00 -2.514963e-01 -1.222755e+00 5.484850e-01 -8.033895e-02 6.396390e-02 3.774631e-02 3.528241e-01 -6.968055e-02 -2.242844e-01 -1.822947e-01 -5.263276e-02 2.664194e-01 1.195328e-01 -3.946080e-02 -5.479682e-02 -1.542092e-02 -1.575320e-02 2.895381e-02 1.628409e-02 2.986141e-02 3.763821e-03 -1.150478e-01 -4.272047e-02 2.278442e-02 5.544138e-02 4.568012e-02 2.371929e-02 1.503946e-03 -9.420107e-04
<VARIANCE> 39
 2.935947e+00 3.151597e+00 8.499491e+00 1.922908e+01 1.383702e+01 1.467322e+01 2.152470e+01 1.539179e+01 1.736833e+01 1.373617e+01 1.286854e+01 7.073666e+00 1.331772e-02 1.956575e-01 3.083631e-01 4.418098e-01 9.683032e-01 8.653336e-01 1.525474e+00 1.719293e+00 1.243519e+00 1.044133e+00 1.462145e+00 1.593771e+00 5.255185e-01 5.376514e-04 3.927884e-02 5.364976e-02 7.752975e-02 1.726497e-01 1.696047e-01 2.930552e-01 2.584530e-01 2.122100e-01 1.598115e-01 2.699350e-01 3.114677e-01 1.010957e-01 1.082316e-04
<GCONST> 5.376672e+01
<TRANSP> 8
 0.000000e+00 1.000000e+00 0.000000e+00 0.000000e+00 0.000000e+00 0.000000e+00 0.000000e+00 0.000000e+00
 0.000000e+00 8.876130e-01 1.123870e-01 0.000000e+00 0.000000e+00 0.000000e+00 0.000000e+00 0.000000e+00
 0.000000e+00 0.000000e+00 8.296455e-01 1.703546e-01 0.000000e+00 0.000000e+00 0.000000e+00 0.000000e+00
 0.000000e+00 0.000000e+00 0.000000e+00 8.257979e-01 1.742021e-01 0.000000e+00 0.000000e+00 0.000000e+00
 0.000000e+00 0.000000e+00 0.000000e+00 0.000000e+00 8.964090e-01 1.035910e-01 0.000000e+00 0.000000e+00
 0.000000e+00 0.000000e+00 0.000000e+00 0.000000e+00 0.000000e+00 8.267227e-01 1.213251e-01 5.195228e-02
 0.000000e+00 0.000000e+00 0.000000e+00 0.000000e+00 0.000000e+00 0.000000e+00 9.252520e-01 7.474806e-02
 0.000000e+00 0.000000e+00 0.000000e+00 0.000000e+00 0.000000e+00 0.000000e+00 0.000000e+00 0.000000e+00
<ENDHMM>
