~o
<STREAMINFO> 1 39
<VECSIZE> 39<NULLD><MFCC_E_D_A><DIAGC>
~h "quinze"
<BEGINHMM>
<NUMSTATES> 5
<STATE> 2
<MEAN> 39
 -5.695284e+00 -8.051335e+00 4.529186e+00 5.725591e-01 2.829259e+00 -4.834467e-01 -9.486531e-01 -8.208569e-01 1.358396e+00 -1.961023e+00 1.411449e+00 -1.665498e+00 6.703460e-01 8.156997e-01 -1.923365e-01 4.544812e-01 3.915960e-01 -7.214842e-02 4.158027e-02 -5.407784e-01 -3.096522e-01 9.980574e-02 -1.126276e-01 1.362218e-01 1.351175e-02 3.395221e-02 2.236360e-02 6.086309e-02 -1.299817e-01 -8.746602e-02 -2.782224e-03 4.285780e-02 -1.167525e-02 -3.549160e-03 -5.658644e-02 -2.566284e-02 1.951080e-02 -2.994075e-02 -8.241992e-04
<VARIANCE> 39
 3.958086e+01 4.102749e+01 1.056072e+02 4.959362e+01 2.038740e+01 5.516177e+01 5.201324e+01 3.998848e+01 2.910217e+01 1.785181e+01 1.434192e+01 1.509810e+01 8.939925e-02 2.224975e+00 1.650594e+00 4.093418e+00 4.090899e+00 1.797842e+00 2.860890e+00 3.187781e+00 2.602856e+00 2.926250e+00 1.537870e+00 1.233914e+00 1.410356e+00 2.665732e-03 3.668387e-01 2.817033e-01 5.241859e-01 6.838127e-01 3.406144e-01 4.238873e-01 5.620469e-01 4.970992e-01 5.264777e-01 2.664446e-01 2.369903e-01 2.700117e-01 4.301376e-04
<GCONST> 9.654754e+01
<STATE> 3
<MEAN> 39
 3.601271e+00 -3.457969e+00 7.677494e-01 -4.442341e+00 1.861242e+00 1.752127e+00 -1.451764e+00 -8.986486e-01 -7.961926e-01 -5.168840e+00 2.792763e+00 -1.519193e+00 9.163001e-01 -1.229744e-01 4.295693e-01 -2.002161e-01 -1.596279e-01 -9.346015e-03 -1.498366e-01 5.423432e-01 4.281791e-01 -2.702582e-01 -5.271234e-02 6.660419e-02 6.106587e-02 -7.551951e-03 -5.996493e-02 8.768057e-03 6.467792e-02 7.331015e-02 4.344333e-02 -2.769355e-02 4.530610e-02 -4.017218e-03 4.517861e-02 4.567830e-02 8.906541e-03 1.517239e-02 -8.470109e-04
<VARIANCE> 39
 1.691770e+01 4.875008e+01 4.170154e+01 2.977927e+01 1.853580e+01 4.512881e+01 6.085682e+01 7.165920e+01 3.149244e+01 3.261715e+01 2.088265e+01 3.892802e+01 5.577840e-03 1.304689e-01 3.104635e-01 8.116657e-01 1.002536e+00 9.765725e-01 1.202525e+00 8.511952e-01 9.509014e-01 1.052527e+00 9.901634e-01 6.922097e-01 8.305806e-01 5.070732e-05 2.184449e-02 4.315888e-02 7.515118e-02 1.026396e-01 1.596078e-01 1.658172e-01 1.028206e-01 1.820901e-01 1.778569e-01 1.295019e-01 1.196506e-01 1.301815e-01 6.462922e-06
<GCONST> 5.588407e+01
<STATE> 4
<MEAN> 39
 -9.441094e+00 5.803737e-01 2.030571e+00 -4.134967e+00 6.328518e+00 -4.317681e+00 5.195309e+00 -7.691672e-01 -1.401906e+00 -1.091570e+00 1.477953e+00 8.218485e-01 5.896164e-01 -4.532068e-01 -6.715271e-02 5.599263e-02 -1.185458e-01 1.287500e-01 -1.191536e-01 -9.729397e-02 -1.482235e-01 5.574380e-02 1.101346e-01 -1.271888e-01 3.367441e-02 -1.280145e-02 2.406382e-02 -2.649390e-02 -1.036565e-02 1.403793e-03 -1.654142e-02 3.003788e-02 -6.488623e-02 5.299001e-03 -1.780193e-02 -2.772299e-02 -1.394662e-04 -1.362802e-02 1.510648e-04
<VARIANCE> 39
 3.917745e+01 2.205544e+01 3.937782e+01 2.562558e+01 7.882485e+01 1.653282e+01 2.528234e+01 2.101313e+01 4.285816e+01 1.921272e+01 1.467765e+01 2.064396e+01 2.907484e-02 1.077845e+00 6.777155e-01 9.779069e-01 1.171337e+00 2.136095e+00 1.474877e+00 1.727077e+00 1.641158e+00 1.707395e+00 1.402628e+00 1.089116e+00 1.402697e+00 3.873937e-04 9.652825e-02 8.534155e-02 1.637668e-01 1.816135e-01 2.537607e-01 2.556407e-01 2.804587e-01 2.894511e-01 3.011058e-01 2.580906e-01 1.923212e-01 2.529715e-01 4.660420e-05
<GCONST> 7.403268e+01
<TRANSP> 5
 0.000000e+00 1.000000e+00 0.000000e+00 0.000000e+00 0.000000e+00
 0.000000e+00 9.357131e-01 6.428692e-02 0.000000e+00 0.000000e+00
 0.000000e+00 0.000000e+00 9.484783e-01 5.152173e-02 0.000000e+00
 0.000000e+00 0.000000e+00 0.000000e+00 9.662565e-01 3.374355e-02
 0.000000e+00 0.000000e+00 0.000000e+00 0.000000e+00 0.000000e+00
<ENDHMM>
