~o
<STREAMINFO> 1 39
<VECSIZE> 39<NULLD><MFCC_E_D_A><DIAGC>
~h "seize"
<BEGINHMM>
<NUMSTATES> 5
<STATE> 2
<MEAN> 39
 -1.310312e+01 -2.163854e+00 5.629865e-01 -3.014320e+00 4.041487e+00 -4.021518e+00 1.879164e+00 -3.415873e+00 6.893478e-01 -9.131154e-01 1.952207e+00 -1.468810e+00 5.549440e-01 6.655272e-01 -1.826520e-01 2.287449e-01 5.146967e-01 1.009329e-01 3.380755e-01 -8.745677e-02 -2.118151e-01 -2.175918e-01 -1.100945e-01 3.016877e-01 -2.673502e-02 2.804115e-02 4.111328e-02 -2.895603e-02 1.211200e-02 2.801796e-02 -6.066695e-04 5.103272e-02 -2.385765e-02 -8.313559e-04 4.106407e-02 -5.274424e-04 1.373608e-02 -6.864297e-03 -3.283725e-05
<VARIANCE> 39
 5.263522e+01 3.334434e+01 6.012781e+01 4.410614e+01 3.012533e+01 3.441343e+01 2.574021e+01 2.741700e+01 2.138059e+01 2.060059e+01 2.129619e+01 1.335539e+01 3.492129e-02 2.945284e+00 1.087663e+00 1.218515e+00 1.984584e+00 1.340662e+00 3.312464e+00 2.041209e+00 1.435905e+00 1.608468e+00 1.140072e+00 2.045857e+00 1.177226e+00 1.654329e-03 3.126425e-01 1.357840e-01 1.551746e-01 2.802969e-01 2.232504e-01 5.213114e-01 3.369816e-01 2.144810e-01 2.941675e-01 1.796073e-01 3.770285e-01 2.191346e-01 2.794156e-04
<GCONST> 8.392213e+01
<STATE> 3
<MEAN> 39
 2.355366e+00 -7.659252e+00 6.777118e+00 5.602503e+00 8.203537e+00 4.532621e+00 1.580489e-01 -3.549929e+00 -1.809578e+00 -2.121881e+00 8.579198e+00 -1.672531e+00 9.441442e-01 -1.481552e-01 7.633214e-02 -1.484199e-01 -1.524154e-01 1.752215e-01 4.040239e-02 1.141709e-01 3.206140e-01 1.987628e-02 1.140874e-01 1.511751e-01 2.040094e-01 -8.464597e-03 -1.196117e-01 1.000664e-01 -6.955414e-02 -7.790059e-02 4.048471e-02 -6.608552e-02 1.217354e-01 8.563093e-03 -4.382807e-02 5.486937e-02 -3.097527e-02 4.646191e-02 -3.563773e-03
<VARIANCE> 39
 1.232052e+01 3.023121e+01 3.774916e+01 3.131049e+01 2.916877e+01 5.041173e+01 3.720400e+01 3.046398e+01 5.162498e+01 1.378476e+01 1.951812e+01 3.371795e+01 3.100684e-03 2.911581e-01 4.155640e-01 4.504031e-01 5.574696e-01 5.527692e-01 5.743169e-01 6.705651e-01 7.256905e-01 7.818809e-01 7.752144e-01 8.485416e-01 4.809824e-01 1.915682e-04 5.328414e-02 6.955746e-02 5.123527e-02 9.786656e-02 1.013146e-01 1.138785e-01 8.719409e-02 1.181646e-01 1.596767e-01 1.048908e-01 1.730997e-01 6.186597e-02 2.927123e-05
<GCONST> 5.196499e+01
<STATE> 4
<MEAN> 39
 -8.452510e+00 -6.546131e-01 2.312452e+00 -3.240979e+00 9.711456e+00 -1.201905e+00 4.782247e+00 -2.248685e+00 -1.559672e+00 3.273549e-01 3.099551e+00 7.946303e-01 5.426351e-01 -2.633158e-01 1.128458e-01 -1.550728e-01 -3.145421e-01 -1.975798e-01 -2.450335e-01 -3.172367e-02 -5.711180e-02 3.027923e-02 -4.047469e-02 -3.752721e-01 -3.691415e-02 -1.497814e-02 4.563691e-02 -2.988715e-02 7.114292e-03 2.659675e-02 -1.323842e-02 2.594463e-02 -5.344474e-02 2.410688e-02 2.088196e-02 -3.006594e-02 2.966299e-02 -2.657280e-02 4.844170e-04
<VARIANCE> 39
 3.686026e+01 2.438196e+01 6.006536e+01 3.838683e+01 9.182765e+01 2.270311e+01 2.486713e+01 1.715480e+01 3.395184e+01 2.563190e+01 3.162322e+01 1.391427e+01 4.003864e-02 1.179796e+00 7.553982e-01 7.951789e-01 9.657374e-01 2.035830e+00 1.533303e+00 1.522351e+00 1.602257e+00 1.701248e+00 1.315532e+00 1.381378e+00 9.113011e-01 4.682535e-04 1.076974e-01 8.268419e-02 1.176906e-01 1.491165e-01 3.003182e-01 2.300748e-01 2.351617e-01 2.738870e-01 2.618825e-01 2.382765e-01 2.357174e-01 1.530426e-01 4.794362e-05
<GCONST> 7.435682e+01
<TRANSP> 5
 0.000000e+00 1.000000e+00 0.000000e+00 0.000000e+00 0.000000e+00
 0.000000e+00 9.575381e-01 4.246184e-02 0.000000e+00 0.000000e+00
 0.000000e+00 0.000000e+00 9.381666e-01 6.183347e-02 0.000000e+00
 0.000000e+00 0.000000e+00 0.000000e+00 9.664170e-01 3.358306e-02
 0.000000e+00 0.000000e+00 0.000000e+00 0.000000e+00 0.000000e+00
<ENDHMM>
