~o
<STREAMINFO> 1 39
<VECSIZE> 39<NULLD><MFCC_E_D_A><DIAGC>
~h "sept"
<BEGINHMM>
<NUMSTATES> 5
<STATE> 2
<MEAN> 39
 -1.585525e+01 5.790632e-01 1.170031e+00 -7.117644e+00 7.206782e+00 -6.590403e+00 2.733358e+00 -2.400501e+00 7.128366e-01 -3.066074e-02 2.623859e-01 -1.525524e-01 5.610885e-01 -1.721110e-01 -1.522926e-02 8.616406e-02 -2.927882e-02 -1.865565e-02 -1.449585e-01 1.974851e-02 -2.406931e-02 1.155103e-01 -3.706681e-02 -8.225005e-02 -8.480259e-02 1.583041e-02 1.539632e-01 -7.345609e-02 4.012836e-02 1.042735e-01 1.158621e-02 1.010982e-01 3.445178e-02 -1.365553e-02 -6.492335e-02 1.753776e-02 4.684670e-02 -6.145636e-02 5.735688e-04
<VARIANCE> 39
 1.414989e+01 1.393895e+01 9.191500e+01 8.327232e+01 1.165286e+02 1.906094e+01 1.747127e+01 3.526042e+01 1.944166e+01 1.173864e+01 2.030823e+01 1.191831e+01 2.024333e-02 7.671295e-01 8.430620e-01 1.417795e+00 1.105729e+00 1.778374e+00 1.763826e+00 1.638402e+00 1.316677e+00 1.409496e+00 1.015737e+00 1.462245e+00 8.236777e-01 6.821529e-04 1.238760e-01 1.455906e-01 2.593656e-01 2.317213e-01 3.167970e-01 3.285441e-01 3.082846e-01 1.838539e-01 1.955057e-01 1.783791e-01 2.879057e-01 1.816142e-01 1.307028e-04
<GCONST> 7.502386e+01
<STATE> 3
<MEAN> 39
 -2.246624e+00 -6.010734e+00 8.305625e+00 -1.509802e+00 8.949273e+00 1.961266e+00 -5.038597e-01 -2.959732e+00 -3.298568e+00 2.463972e-01 3.361639e+00 -3.044865e+00 6.400650e-01 3.575825e-01 -9.250051e-02 -5.559726e-03 2.181753e-01 -1.187453e-01 3.048340e-01 -1.879810e-01 2.268284e-03 -3.320487e-03 -4.327357e-02 8.566707e-02 -1.889150e-02 -8.956572e-03 -1.597325e-01 2.346827e-02 -1.000885e-01 -1.018890e-01 -6.309243e-02 -5.745727e-02 -1.519488e-02 4.823601e-03 4.630122e-02 -3.718737e-03 -8.102991e-02 7.267497e-02 -5.214629e-03
<VARIANCE> 39
 5.994377e+01 4.049871e+01 6.499705e+01 1.165064e+02 3.802664e+01 8.642213e+01 3.363401e+01 3.723745e+01 3.681733e+01 2.536646e+01 5.561322e+01 3.536736e+01 1.311421e-01 5.056906e+00 1.683057e+00 2.894412e+00 4.991343e+00 2.349430e+00 3.616135e+00 2.295260e+00 2.237316e+00 2.315779e+00 1.953251e+00 3.467845e+00 1.927798e+00 5.750969e-03 4.602260e-01 1.978863e-01 3.289006e-01 6.329490e-01 3.478466e-01 4.859680e-01 3.805139e-01 3.291364e-01 3.825670e-01 3.577038e-01 5.387773e-01 3.139491e-01 5.855761e-04
<GCONST> 1.038356e+02
<STATE> 4
<MEAN> 39
 -9.744563e+00 -2.023812e+00 1.708025e-01 -2.291697e+00 2.454576e+00 -3.054006e+00 1.397605e+00 -2.256447e+00 3.197261e-01 -1.360738e+00 9.537901e-01 -1.367558e+00 4.680914e-01 -2.373843e-02 -4.873823e-02 -4.275406e-02 -6.474927e-02 -4.611713e-02 -2.497647e-02 -7.499779e-03 -4.593280e-02 -6.843229e-03 -1.686910e-02 -3.799803e-02 2.412537e-02 -2.417255e-03 4.778592e-02 8.971022e-03 3.460494e-02 4.227419e-02 3.242384e-02 1.528016e-02 -3.468761e-03 -1.151845e-02 3.064063e-03 8.283678e-03 2.622552e-02 -2.425689e-02 2.242871e-03
<VARIANCE> 39
 5.915301e+00 6.674864e+00 9.403518e+00 1.153803e+01 1.081304e+01 1.407818e+01 1.419262e+01 1.760362e+01 1.159849e+01 1.106121e+01 1.017408e+01 8.728201e+00 2.129131e-02 4.867213e-01 4.045911e-01 7.023168e-01 9.602361e-01 8.853645e-01 9.944361e-01 1.224885e+00 1.648648e+00 1.374031e+00 1.104915e+00 1.172216e+00 9.195951e-01 7.315578e-04 9.319629e-02 8.225320e-02 1.368244e-01 1.821140e-01 1.802755e-01 1.713690e-01 2.291805e-01 3.336432e-01 2.866835e-01 2.166236e-01 2.332923e-01 1.661064e-01 1.179985e-04
<GCONST> 5.822041e+01
<TRANSP> 5
 0.000000e+00 1.000000e+00 0.000000e+00 0.000000e+00 0.000000e+00
 0.000000e+00 9.310307e-01 6.896925e-02 0.000000e+00 0.000000e+00
 0.000000e+00 0.000000e+00 9.498736e-01 5.012637e-02 0.000000e+00
 0.000000e+00 0.000000e+00 0.000000e+00 9.608631e-01 3.913687e-02
 0.000000e+00 0.000000e+00 0.000000e+00 0.000000e+00 0.000000e+00
<ENDHMM>
