~o
<STREAMINFO> 1 39
<VECSIZE> 39<NULLD><MFCC_E_D_A><DIAGC>
~h "six"
<BEGINHMM>
<NUMSTATES> 5
<STATE> 2
<MEAN> 39
 -1.563209e+01 4.812915e-01 7.204015e-01 -3.749158e+00 4.575741e+00 -5.119554e+00 3.976914e+00 -2.850499e+00 8.466586e-01 -9.119388e-02 1.076588e+00 -1.780581e+00 7.509168e-01 -2.633539e-02 -2.099833e-02 2.250296e-01 4.870571e-02 1.308313e-01 4.873381e-02 1.226329e-01 6.957481e-02 6.336562e-02 1.335721e-01 -9.292552e-03 -2.816169e-02 1.194183e-02 2.727896e-02 -2.927461e-02 2.791234e-02 3.055391e-02 -2.187511e-02 2.889864e-02 -3.335409e-03 1.031881e-02 4.786818e-02 3.242686e-02 -1.793722e-02 5.812777e-03 -3.964224e-05
<VARIANCE> 39
 1.630383e+01 9.909983e+00 2.366931e+01 2.197875e+01 1.803853e+01 1.816789e+01 1.347020e+01 1.621815e+01 1.471235e+01 1.832598e+01 1.236064e+01 1.262744e+01 1.847237e-02 7.688574e-01 5.742279e-01 1.168646e+00 1.483461e+00 1.180133e+00 1.537741e+00 1.263520e+00 1.316136e+00 1.504773e+00 1.372775e+00 1.121698e+00 1.161861e+00 6.435073e-04 7.932233e-02 8.282202e-02 1.461516e-01 2.818404e-01 2.090104e-01 2.348476e-01 2.542996e-01 2.494609e-01 2.649609e-01 2.519029e-01 2.117805e-01 2.474158e-01 8.973694e-05
<GCONST> 6.636897e+01
<STATE> 3
<MEAN> 39
 -1.508796e+01 -8.263119e+00 1.798654e+01 -8.177518e+00 1.517477e+01 -5.067554e+00 -1.211618e+00 4.726891e+00 2.330873e+00 2.704354e+00 -3.107565e+00 -4.403178e-01 6.891996e-01 -3.191322e-02 6.398851e-02 -8.898859e-02 1.131030e-02 -1.532249e-01 -4.031931e-02 -1.326786e-01 -6.139598e-02 -1.384041e-01 -2.320394e-01 5.334916e-02 -8.289597e-02 -7.104670e-03 -5.914906e-02 6.546767e-02 -1.124799e-01 -4.770713e-02 -6.893517e-02 -8.844595e-02 5.645012e-03 -2.134327e-02 -1.074602e-01 -8.203334e-02 4.572621e-02 -1.718734e-02 -3.191821e-03
<VARIANCE> 39
 4.673795e+01 5.454451e+01 8.042348e+01 2.177251e+02 1.100766e+02 5.589358e+01 6.900087e+01 4.016583e+01 4.908381e+01 1.967383e+01 2.423513e+01 1.997156e+01 5.249032e-02 2.276439e+00 2.442497e+00 2.601607e+00 7.376741e+00 3.417087e+00 3.560517e+00 3.261301e+00 2.185378e+00 3.014284e+00 1.909478e+00 1.694288e+00 1.446437e+00 1.768977e-03 2.854247e-01 3.446370e-01 4.277834e-01 8.215594e-01 4.965902e-01 5.840880e-01 5.326766e-01 4.356906e-01 5.237018e-01 3.168850e-01 2.809065e-01 2.776907e-01 2.080447e-04
<GCONST> 1.026049e+02
<STATE> 4
<MEAN> 39
 -1.587351e+01 7.175688e-01 1.141187e-01 -4.463990e+00 4.802023e+00 -5.849164e+00 2.398680e+00 -2.098374e+00 -2.933152e-01 -1.498124e+00 1.638760e+00 -2.162413e+00 7.234206e-01 1.240740e-01 -3.017236e-02 -1.194165e-01 -1.738578e-03 -1.021418e-01 -7.049637e-03 -8.250437e-02 -3.072465e-02 -9.412105e-02 -6.479233e-02 -4.064664e-02 5.319754e-02 -6.760373e-03 3.718902e-02 -6.948444e-03 3.660097e-02 3.551130e-02 2.911531e-02 2.224826e-02 1.084215e-02 -8.548923e-03 1.109030e-02 4.171624e-02 -9.787742e-03 5.509096e-03 1.091899e-03
<VARIANCE> 39
 1.444797e+01 6.315927e+00 1.677122e+01 1.426100e+01 1.753608e+01 1.429655e+01 2.273830e+01 2.513368e+01 1.814771e+01 1.301841e+01 1.455677e+01 1.239818e+01 1.845473e-02 3.252692e-01 3.535518e-01 6.586962e-01 8.962930e-01 8.580554e-01 9.838617e-01 1.107445e+00 1.339887e+00 1.377890e+00 1.213974e+00 1.079226e+00 9.275750e-01 2.323036e-04 4.580851e-02 6.263071e-02 1.041332e-01 1.663800e-01 1.647587e-01 1.663553e-01 1.902009e-01 2.879762e-01 2.871270e-01 2.453047e-01 1.802263e-01 1.778202e-01 4.060623e-05
<GCONST> 5.727617e+01
<TRANSP> 5
 0.000000e+00 1.000000e+00 0.000000e+00 0.000000e+00 0.000000e+00
 0.000000e+00 9.586105e-01 4.138952e-02 0.000000e+00 0.000000e+00
 0.000000e+00 0.000000e+00 9.413655e-01 5.863449e-02 0.000000e+00
 0.000000e+00 0.000000e+00 0.000000e+00 9.593236e-01 4.067634e-02
 0.000000e+00 0.000000e+00 0.000000e+00 0.000000e+00 0.000000e+00
<ENDHMM>
