~o
<STREAMINFO> 1 39
<VECSIZE> 39<NULLD><MFCC_E_D_A><DIAGC>
~h "soixante"
<BEGINHMM>
<NUMSTATES> 9
<STATE> 2
<MEAN> 39
 -1.477372e+01 -3.523871e+00 5.010659e+00 -1.171269e+01 4.803813e+00 5.406774e-02 -3.417641e+00 -4.290316e-01 2.565034e-01 -2.665978e+00 6.629561e-01 -2.191160e-01 5.481315e-01 2.882039e-01 -6.729823e-02 8.560903e-02 8.315824e-02 -1.329656e-01 2.099288e-01 1.947988e-01 -1.138391e-01 1.446041e-01 -1.683676e-01 -2.178692e-01 8.654281e-02 1.633076e-02 2.067102e-01 5.856674e-02 9.345108e-03 1.353418e-01 -1.207589e-01 2.084200e-02 1.748809e-01 4.887092e-02 2.630799e-02 3.722361e-03 -2.200113e-02 -2.238342e-02 1.914790e-03
<VARIANCE> 39
 2.116733e+01 9.591365e+00 7.187382e+01 7.258035e+01 4.127617e+01 3.060434e+01 4.032733e+01 3.666988e+01 2.003921e+01 1.860443e+01 1.539801e+01 1.551548e+01 1.059291e-02 1.426955e+00 1.020928e+00 1.627165e+00 1.683271e+00 2.022980e+00 1.293138e+00 2.301882e+00 2.271418e+00 1.711827e+00 1.525216e+00 1.445951e+00 1.126504e+00 9.842368e-04 1.425693e-01 1.780773e-01 2.997504e-01 2.574840e-01 3.117680e-01 2.063392e-01 4.397254e-01 3.878166e-01 3.176604e-01 2.162930e-01 2.692268e-01 2.359730e-01 2.069356e-04
<GCONST> 8.069883e+01
<STATE> 3
<MEAN> 39
 1.867836e+00 -4.752691e+00 1.392782e+01 -1.044340e+01 -7.783296e+00 7.334325e+00 3.298667e+00 2.025094e+00 3.295635e+00 -2.468107e+00 -3.960907e+00 -1.907038e-01 7.286891e-01 1.911660e+00 6.074518e-01 1.741875e-01 4.811287e-01 -6.416060e-01 2.792303e-01 8.960322e-01 9.304395e-01 -1.816878e-01 -3.478802e-01 2.626420e-01 -2.923138e-01 4.084086e-02 -2.010316e-01 -7.972670e-02 -5.723407e-02 -2.980698e-01 2.135333e-01 -1.291747e-01 -1.584291e-01 -5.219074e-02 -1.592312e-01 -9.710411e-02 -6.574317e-03 4.520668e-02 -4.934159e-03
<VARIANCE> 39
 1.041686e+02 5.607389e+01 9.262435e+01 9.024460e+01 1.393513e+02 3.530860e+01 2.876797e+01 2.714952e+01 4.279183e+01 4.174981e+01 2.349270e+01 2.261639e+01 6.037559e-02 4.783524e+00 5.679826e+00 5.176754e+00 4.621985e+00 8.784740e+00 4.030152e+00 2.910468e+00 2.682089e+00 5.940442e+00 3.583508e+00 1.992263e+00 1.726384e+00 6.400836e-03 6.874149e-01 9.272983e-01 8.715526e-01 7.106000e-01 1.162742e+00 9.843918e-01 2.523713e-01 4.152068e-01 7.727028e-01 6.756670e-01 4.784903e-01 2.802590e-01 9.221446e-04
<GCONST> 1.141418e+02
<STATE> 4
<MEAN> 39
 1.963099e+00 5.187929e-01 5.164531e+00 -4.465550e+00 -3.702142e-02 3.901682e+00 6.209112e+00 2.764107e+00 -2.979248e+00 -8.407037e+00 1.380212e+00 -9.483753e-01 9.455644e-01 -8.417851e-01 -1.956277e-01 -2.626530e-01 -1.656906e-01 9.240061e-01 -6.091942e-01 -3.837638e-01 -6.079182e-01 -7.018619e-01 4.375111e-01 5.424168e-01 9.008244e-02 -1.097797e-02 -6.857409e-01 -8.683066e-02 -2.130939e-01 -1.003631e-01 2.221452e-01 -3.390837e-01 -2.325451e-01 -2.154605e-01 1.968216e-01 3.475632e-01 -9.403960e-02 -5.381230e-02 -1.407372e-02
<VARIANCE> 39
 9.264220e+00 1.310378e+01 2.022867e+01 1.694699e+01 2.140033e+01 1.166424e+01 1.156387e+01 1.823829e+01 3.394692e+01 2.101851e+01 2.234218e+01 1.047533e+01 2.428328e-03 3.149079e+00 7.903779e-01 1.494648e+00 1.422307e+00 2.751418e+00 2.429766e+00 1.058437e+00 1.500623e+00 2.806128e+00 3.900534e+00 2.210686e+00 8.095019e-01 1.303416e-03 1.754734e-01 2.187388e-01 2.887940e-01 2.606740e-01 2.950872e-01 1.996084e-01 2.126767e-01 4.029945e-01 4.954486e-01 4.752667e-01 5.624840e-01 1.627346e-01 8.691309e-05
<GCONST> 7.522754e+01
<STATE> 5
<MEAN> 39
 -1.294431e+01 -2.720596e+00 2.619934e+00 -1.046619e+01 7.236963e+00 -5.457410e+00 2.077078e+00 -9.440813e-01 -1.650633e+00 -6.813001e-01 2.903801e-01 -9.144775e-01 6.370476e-01 7.112197e-02 1.058160e-01 -8.142159e-02 -8.094177e-02 -2.765462e-01 -1.371561e-01 -9.863536e-02 5.157327e-02 1.411186e-01 -5.631824e-02 -1.511784e-01 -3.955111e-02 -5.022523e-03 4.688277e-01 1.325871e-01 8.552962e-02 7.680046e-02 -3.169646e-01 1.889751e-01 2.502861e-02 7.438792e-02 -6.640768e-03 -1.821692e-01 2.033020e-02 -1.275439e-02 9.132188e-03
<VARIANCE> 39
 2.463957e+01 3.279248e+01 6.136641e+01 6.517667e+01 2.348719e+01 2.519974e+01 2.192252e+01 2.987113e+01 2.008632e+01 1.618539e+01 2.583174e+01 1.021137e+01 1.311348e-02 5.638566e+00 1.457317e+00 1.255556e+00 1.658571e+00 3.034822e+00 2.890137e+00 2.092282e+00 1.613371e+00 1.820968e+00 1.998770e+00 1.647979e+00 1.232627e+00 1.693484e-03 1.733360e-01 2.471752e-01 1.526670e-01 2.722232e-01 3.701818e-01 3.328322e-01 4.038646e-01 2.836966e-01 3.570212e-01 3.709095e-01 2.952121e-01 2.510366e-01 2.098240e-04
<GCONST> 8.472155e+01
<STATE> 6
<MEAN> 39
 4.084363e+00 1.436467e+00 6.171263e+00 -6.221426e+00 -6.219541e+00 -2.548452e+00 -7.934785e-02 2.970217e+00 -9.120854e-01 -3.856567e+00 1.671793e+00 -3.477732e+00 8.329053e-01 -1.120513e-01 9.454951e-02 8.331785e-03 5.094049e-01 -1.424220e-01 5.816709e-03 1.489820e-01 1.040335e-01 2.039172e-01 2.195866e-01 1.238803e-01 -2.967240e-02 -5.075112e-03 -3.453213e-01 -1.845040e-01 -1.043712e-01 4.117722e-02 2.744333e-01 1.552286e-03 7.594924e-02 -3.779310e-02 -2.644741e-02 1.020121e-01 1.730159e-02 5.431641e-02 -8.668426e-03
<VARIANCE> 39
 3.994394e+01 3.797525e+01 2.945347e+01 4.653911e+01 3.878408e+01 4.064919e+01 5.262690e+01 4.958809e+01 5.447060e+01 2.423619e+01 2.795332e+01 1.574095e+01 1.310312e-02 2.569919e+00 1.725587e+00 1.167920e+00 1.939789e+00 3.020315e+00 1.898342e+00 2.532480e+00 1.879957e+00 2.027451e+00 1.613213e+00 1.626943e+00 1.092612e+00 1.906765e-03 1.849019e-01 2.395702e-01 1.819054e-01 2.779036e-01 2.869014e-01 3.260390e-01 2.969436e-01 2.917673e-01 3.130267e-01 2.711236e-01 2.862131e-01 1.694572e-01 1.262170e-04
<GCONST> 8.611678e+01
<STATE> 7
<MEAN> 39
 -9.335517e+00 -1.532550e+00 2.725360e-01 -3.344657e+00 1.740191e+00 -2.445027e+00 1.080409e+00 -6.077307e-01 7.404105e-01 -2.143337e-01 1.313226e+00 -5.986313e-01 5.050355e-01 -2.388927e-01 -1.756710e-01 -1.050396e-01 -1.077941e-01 5.138211e-02 9.821460e-02 -1.914830e-02 -1.795518e-01 -1.115997e-01 -4.945759e-02 -9.839716e-02 6.452309e-02 -1.399641e-02 7.839239e-02 5.310426e-02 8.273162e-02 -5.548836e-02 -7.529908e-02 -3.917201e-02 -6.291631e-02 -8.275977e-03 -6.529733e-03 -5.234941e-02 6.835648e-03 -5.085601e-03 3.182187e-03
<VARIANCE> 39
 6.994797e+00 7.105652e+00 7.718217e+00 1.263914e+01 1.181144e+01 1.277189e+01 1.414916e+01 1.598808e+01 1.506968e+01 1.065285e+01 1.098808e+01 7.503379e+00 2.466327e-02 7.238567e-01 5.599348e-01 7.587643e-01 1.025978e+00 1.272649e+00 1.145991e+00 1.540952e+00 1.332911e+00 1.382384e+00 1.248400e+00 1.171066e+00 7.152113e-01 1.213390e-03 1.228631e-01 9.744953e-02 1.174667e-01 1.962339e-01 2.437697e-01 2.213721e-01 3.277150e-01 2.634703e-01 2.740604e-01 2.522523e-01 2.129566e-01 1.340220e-01 1.719510e-04
<GCONST> 6.152694e+01
<STATE> 8
<MEAN> 39
 -9.399906e+00 -5.051184e+00 9.375895e+00 -1.075752e+01 2.845178e+00 -9.911897e-01 -2.504897e+00 -5.613461e-01 7.173082e-02 -6.431442e-01 -9.282110e-02 7.624584e-01 3.854333e-01 1.831594e-02 -5.712368e-02 4.526657e-01 -5.420890e-01 5.885639e-02 -4.952340e-02 -7.737150e-01 5.891890e-02 2.178858e-01 4.935740e-02 -3.819589e-02 -1.290153e-02 4.360386e-03 1.048744e-01 4.191832e-02 -5.709001e-02 1.881811e-01 -5.927583e-02 5.533952e-02 -1.326540e-02 4.418114e-02 9.568652e-03 7.910118e-02 4.486063e-02 -1.047517e-01 -1.566873e-03
<VARIANCE> 39
 6.397731e+01 2.459354e+01 5.605220e+01 4.240701e+01 8.046288e+01 9.009606e+01 2.689666e+01 1.837053e+01 1.994145e+01 2.305384e+01 2.299480e+01 1.354182e+01 5.582355e-02 7.279696e-01 2.376004e+00 2.727628e+00 4.859102e+00 5.242354e+00 4.948072e+00 2.255850e+00 1.096495e+00 2.545968e+00 1.744670e+00 1.714036e+00 1.717868e+00 2.061200e-03 7.633552e-02 3.427871e-01 3.730895e-01 7.793304e-01 7.004140e-01 7.250617e-01 4.277883e-01 1.210771e-01 4.372551e-01 3.086272e-01 2.886906e-01 1.978311e-01 3.983405e-04
<GCONST> 9.335917e+01
<TRANSP> 9
 0.000000e+00 1.000000e+00 0.000000e+00 0.000000e+00 0.000000e+00 0.000000e+00 0.000000e+00 0.000000e+00 0.000000e+00
 0.000000e+00 9.367478e-01 6.325224e-02 0.000000e+00 0.000000e+00 0.000000e+00 0.000000e+00 0.000000e+00 0.000000e+00
 0.000000e+00 0.000000e+00 8.281570e-01 1.718430e-01 0.000000e+00 0.000000e+00 0.000000e+00 0.000000e+00 0.000000e+00
 0.000000e+00 0.000000e+00 0.000000e+00 8.592529e-01 1.407471e-01 0.000000e+00 0.000000e+00 0.000000e+00 0.000000e+00
 0.000000e+00 0.000000e+00 0.000000e+00 0.000000e+00 9.358096e-01 6.419043e-02 0.000000e+00 0.000000e+00 0.000000e+00
 0.000000e+00 0.000000e+00 0.000000e+00 0.000000e+00 0.000000e+00 9.357598e-01 6.424025e-02 0.000000e+00 0.000000e+00
 0.000000e+00 0.000000e+00 0.000000e+00 0.000000e+00 0.000000e+00 0.000000e+00 9.492944e-01 5.070557e-02 0.000000e+00
 0.000000e+00 0.000000e+00 0.000000e+00 0.000000e+00 0.000000e+00 0.000000e+00 0.000000e+00 8.387067e-01 1.612933e-01
 0.000000e+00 0.000000e+00 0.000000e+00 0.000000e+00 0.000000e+00 0.000000e+00 0.000000e+00 0.000000e+00 0.000000e+00
<ENDHMM>
