~o
<STREAMINFO> 1 39
<VECSIZE> 39<NULLD><MFCC_E_D_A><DIAGC>
~h "sur"
<BEGINHMM>
<NUMSTATES> 5
<STATE> 2
<MEAN> 39
 -1.522479e+01 -4.037437e+00 6.378536e+00 -5.750690e+00 2.406092e-01 8.516307e-01 -2.035321e+00 -2.221761e+00 2.159527e+00 -1.273586e+00 8.401015e-01 -7.009699e-01 6.235428e-01 1.844377e-01 -2.865902e-01 1.822166e-01 6.781775e-01 1.383099e-01 -3.878957e-03 2.551611e-01 -4.920730e-02 9.564497e-02 2.060335e-01 1.041874e-02 9.141754e-03 1.604111e-02 1.286456e-01 -5.858241e-03 -6.140009e-02 1.237460e-01 5.858399e-02 3.288381e-02 1.786995e-02 -6.473463e-03 4.654593e-02 6.557769e-02 4.432903e-02 3.565856e-02 1.744167e-03
<VARIANCE> 39
 2.012831e+01 1.734011e+01 3.248568e+01 5.510297e+01 3.143592e+01 3.112749e+01 4.432328e+01 2.004014e+01 1.981484e+01 2.001885e+01 2.237580e+01 1.298514e+01 1.711781e-02 1.470687e+00 7.050714e-01 8.039026e-01 3.182898e+00 2.286394e+00 1.829720e+00 1.604288e+00 1.391333e+00 1.525489e+00 1.621960e+00 1.690585e+00 9.883423e-01 6.486734e-04 1.152710e-01 1.074918e-01 1.189949e-01 2.681033e-01 3.278778e-01 3.360598e-01 2.902843e-01 2.604960e-01 2.858229e-01 3.231157e-01 3.021345e-01 1.746919e-01 1.074718e-04
<GCONST> 7.648795e+01
<STATE> 3
<MEAN> 39
 -3.143544e-01 -9.812343e+00 4.412477e+00 9.770199e+00 5.952633e+00 5.482951e+00 2.219351e+00 -3.311777e+00 5.397987e+00 1.633959e+00 1.741939e+00 2.466292e+00 9.604968e-01 7.821502e-01 4.714820e-01 -3.000811e-01 -5.470639e-01 -3.197800e-01 4.004813e-01 5.214124e-01 1.988045e-01 -2.576494e-01 -6.587406e-01 -3.392858e-01 2.656041e-01 8.784994e-03 -2.273016e-01 1.220759e-01 6.410862e-02 -3.689784e-01 -3.456462e-01 -2.144258e-01 7.194343e-02 1.036634e-01 -1.051730e-01 -1.117846e-01 -1.329067e-01 -1.273862e-01 -7.160756e-03
<VARIANCE> 39
 1.737063e+01 4.336346e+01 2.095591e+01 2.032756e+01 2.251694e+01 4.013843e+01 2.247923e+01 1.433258e+01 2.962281e+01 2.961167e+01 1.429160e+01 1.239336e+01 1.160323e-03 8.474657e-01 1.299886e+00 5.700129e-01 2.702026e+00 2.522173e+00 1.232934e+00 2.077317e+00 1.773150e+00 2.318233e+00 2.568707e+00 1.472010e+00 7.795798e-01 6.914226e-04 1.093200e-01 1.430299e-01 8.211463e-02 3.252495e-01 1.920123e-01 2.388315e-01 2.595288e-01 2.540938e-01 2.866503e-01 3.799845e-01 2.428129e-01 1.607496e-01 6.234780e-05
<GCONST> 7.101894e+01
<STATE> 4
<MEAN> 39
 -5.094959e+00 -8.937409e-01 2.159033e+00 -4.313749e+00 -5.815864e+00 -2.133964e+00 3.889978e+00 -4.393493e-01 1.276835e+00 -1.236510e+00 -1.407503e+00 -3.315446e-01 6.087996e-01 -5.324960e-01 1.722104e-01 -1.169769e-01 -2.839350e-01 -2.551021e-01 -5.607416e-01 -4.580409e-01 -1.352779e-01 1.056478e-01 2.896845e-01 1.403467e-01 -2.097004e-01 -2.577442e-02 4.390294e-03 -7.406037e-02 -8.356383e-03 1.076122e-01 1.418258e-01 8.859639e-02 -5.776550e-02 -5.260043e-02 3.339790e-02 7.907311e-03 7.186075e-02 3.694284e-02 3.428830e-04
<VARIANCE> 39
 3.323682e+01 2.812350e+01 3.029088e+01 1.587102e+01 3.477820e+01 2.754649e+01 3.842876e+01 2.021507e+01 2.318058e+01 2.066615e+01 1.749747e+01 1.438318e+01 3.397417e-02 6.518144e-01 1.281956e+00 7.202734e-01 1.404745e+00 2.513404e+00 1.900862e+00 1.822528e+00 1.436909e+00 1.377973e+00 1.783159e+00 1.554796e+00 1.396624e+00 7.830447e-04 1.036759e-01 1.688997e-01 1.233518e-01 1.863290e-01 2.887545e-01 2.516507e-01 3.801714e-01 2.780013e-01 2.488834e-01 3.937331e-01 2.937148e-01 2.459521e-01 9.970469e-05
<GCONST> 7.656060e+01
<TRANSP> 5
 0.000000e+00 1.000000e+00 0.000000e+00 0.000000e+00 0.000000e+00
 0.000000e+00 9.571302e-01 4.286983e-02 0.000000e+00 0.000000e+00
 0.000000e+00 0.000000e+00 9.210130e-01 7.898700e-02 0.000000e+00
 0.000000e+00 0.000000e+00 0.000000e+00 9.490120e-01 5.098803e-02
 0.000000e+00 0.000000e+00 0.000000e+00 0.000000e+00 0.000000e+00
<ENDHMM>
