~o
<STREAMINFO> 1 39
<VECSIZE> 39<NULLD><MFCC_E_D_A><DIAGC>
~h "treize"
<BEGINHMM>
<NUMSTATES> 7
<STATE> 2
<MEAN> 39
 -8.029631e+00 -5.925324e+00 -6.722890e-01 -1.099754e+01 3.522608e+00 1.740374e+00 3.258893e+00 -3.175982e+00 -2.401046e+00 -1.023351e+00 1.260967e+00 -8.031864e-01 5.712616e-01 3.364098e-01 -1.232452e-01 1.677314e-01 -1.436691e-02 -9.478942e-03 2.538824e-01 1.762887e-01 -2.774415e-01 -2.248369e-01 -1.727513e-02 3.330205e-01 1.393976e-01 2.068184e-02 1.863521e-01 6.734713e-02 8.620219e-02 1.719773e-01 -3.827171e-02 -7.094005e-02 -1.124599e-01 -3.466878e-02 -4.748957e-02 -4.571258e-02 4.251608e-02 -2.082522e-02 2.849306e-03
<VARIANCE> 39
 1.148515e+01 3.647680e+01 2.499455e+01 7.547444e+01 4.507168e+01 2.958464e+01 1.754208e+01 2.277034e+01 2.677959e+01 2.719564e+01 2.045421e+01 1.382955e+01 3.193129e-02 1.282712e+00 1.128051e+00 1.308546e+00 3.702371e+00 1.821194e+00 1.784631e+00 1.551358e+00 1.667111e+00 1.919237e+00 2.151138e+00 1.261711e+00 9.857649e-01 2.903522e-03 2.029646e-01 2.002249e-01 1.969571e-01 4.468173e-01 2.821797e-01 2.825007e-01 2.590315e-01 3.233230e-01 3.244120e-01 3.815165e-01 2.407901e-01 1.969190e-01 5.718503e-04
<GCONST> 8.385761e+01
<STATE> 3
<MEAN> 39
 3.557959e+00 -6.640759e+00 6.299225e+00 -3.170928e+00 1.810131e+00 2.353167e+00 -1.417634e-01 -6.157600e+00 -6.223689e+00 -4.432415e+00 6.243397e+00 -6.581936e-02 9.046564e-01 1.579513e+00 -2.493533e-01 8.859397e-01 1.567630e+00 3.919253e-02 2.658695e-01 -1.207853e+00 -3.536396e-01 -2.681012e-01 -7.964339e-01 6.675267e-01 -5.633309e-01 6.051947e-02 -6.926392e-01 -1.430480e-01 -3.313406e-01 -4.129727e-01 1.717931e-01 1.594888e-01 5.936400e-02 -3.768114e-02 1.485398e-01 2.460178e-01 -1.492082e-01 -2.580130e-01 -1.846759e-02
<VARIANCE> 39
 1.656669e+01 5.263099e+01 4.637285e+01 4.999334e+01 3.494720e+01 2.591861e+01 2.885462e+01 2.450672e+01 2.996206e+01 2.029051e+01 1.127976e+01 6.408557e+00 1.065757e-02 2.496274e+00 1.133447e+00 1.578275e+00 1.648175e+00 1.137215e+00 1.094704e+00 1.505691e+00 2.834580e+00 1.986342e+00 1.471417e+00 1.306883e+00 1.180368e+00 2.130146e-03 1.526912e-01 2.317821e-01 1.638560e-01 1.818301e-01 1.737544e-01 1.959121e-01 1.621662e-01 4.222818e-01 2.210322e-01 1.744214e-01 8.750294e-02 1.180878e-01 1.584274e-04
<GCONST> 7.524195e+01
<STATE> 4
<MEAN> 39
 3.017713e+00 -7.518799e+00 7.625809e+00 3.380975e+00 6.385729e+00 3.487098e+00 -2.920518e+00 -4.908725e+00 -3.904535e+00 -2.017370e+00 8.081188e+00 -3.793283e+00 9.345453e-01 -3.136649e-01 1.537203e-01 -4.021937e-02 3.439272e-01 6.002564e-01 1.256426e-01 1.917509e-01 4.385420e-01 1.706842e-01 5.725291e-01 2.426393e-01 -1.411933e-01 -8.046815e-03 -5.954004e-02 7.848982e-02 -5.433716e-02 -1.024959e-01 -2.385033e-02 -3.410902e-02 1.533645e-01 5.948930e-02 -3.638645e-02 5.271038e-02 -2.749082e-02 1.072327e-01 -2.553484e-03
<VARIANCE> 39
 2.219709e+01 4.812019e+01 4.937450e+01 4.088227e+01 2.325617e+01 4.464513e+01 4.052495e+01 2.493777e+01 4.134484e+01 1.809639e+01 1.721408e+01 1.945868e+01 6.587653e-03 2.077507e-01 2.974277e-01 3.677498e-01 3.588338e-01 4.070095e-01 4.963206e-01 8.279647e-01 4.422978e-01 4.413474e-01 5.773982e-01 7.157055e-01 5.529516e-01 9.196427e-05 2.641896e-02 4.901068e-02 4.534565e-02 5.298902e-02 6.134447e-02 9.353722e-02 8.684582e-02 7.103921e-02 9.563237e-02 9.954282e-02 1.257474e-01 7.385465e-02 1.214828e-05
<GCONST> 4.495109e+01
<STATE> 5
<MEAN> 39
 -5.158207e+00 -2.821814e+00 9.525359e+00 -7.526015e+00 2.110582e+01 2.062144e+00 4.315927e+00 1.841945e+00 -7.900395e+00 4.042313e+00 5.813465e+00 2.175729e+00 6.426284e-01 -1.069312e+00 6.393597e-01 -1.627451e-01 -7.365162e-01 5.561329e-01 -1.694712e-01 5.437657e-01 6.492896e-02 1.755610e-01 9.513597e-02 -6.339260e-01 5.518790e-01 -3.063724e-02 -3.154842e-02 -8.747239e-02 -4.131513e-02 -1.161126e-02 -8.367160e-02 5.021379e-02 -1.145781e-01 -8.214916e-02 1.032095e-01 -1.661376e-01 -6.982937e-02 -2.026088e-02 -1.333153e-03
<VARIANCE> 39
 4.892890e+01 2.676082e+01 4.533749e+01 1.308944e+02 1.410340e+02 3.500858e+01 2.263409e+01 2.161642e+01 4.562336e+01 1.948444e+01 3.111296e+01 4.400252e+01 5.230328e-02 7.181608e-01 9.833922e-01 1.226522e+00 1.451932e+00 3.685635e+00 3.972186e+00 1.548873e+00 1.209987e+00 2.393653e+00 1.632750e+00 1.633079e+00 1.670034e+00 2.878135e-04 8.450121e-02 7.085262e-02 2.215594e-01 1.974202e-01 6.052426e-01 6.058690e-01 2.431569e-01 2.013283e-01 4.076039e-01 2.832085e-01 2.366649e-01 2.719188e-01 2.494269e-05
<GCONST> 8.328707e+01
<STATE> 6
<MEAN> 39
 -1.073628e+01 4.143549e-01 1.580846e-01 -2.187835e+00 5.530938e+00 -2.130501e+00 3.409665e+00 -2.150154e+00 8.185964e-01 -9.570618e-01 2.084827e+00 3.492024e-01 5.505678e-01 -7.014040e-02 -1.254491e-01 -1.318773e-01 -1.471570e-01 -3.588452e-01 -1.396127e-01 -3.067314e-01 -3.421371e-02 -3.668997e-02 -2.139298e-01 -2.191283e-01 -7.719709e-02 -1.222259e-02 3.871059e-02 -1.219737e-02 3.616881e-02 5.423047e-02 1.432605e-02 5.701810e-03 -2.699381e-02 7.664326e-03 -4.157601e-02 2.612596e-02 4.614922e-02 -3.812259e-02 8.165244e-04
<VARIANCE> 39
 7.905002e+00 1.075531e+01 9.571363e+00 1.334433e+01 3.027372e+01 1.835230e+01 2.069970e+01 1.329681e+01 1.475022e+01 1.448066e+01 1.227699e+01 9.521474e+00 2.998533e-02 6.762661e-01 3.572929e-01 6.527805e-01 7.969214e-01 9.362018e-01 1.313659e+00 1.670159e+00 1.305336e+00 1.276267e+00 1.327146e+00 1.361238e+00 7.302360e-01 6.501205e-04 8.308592e-02 5.606830e-02 9.387566e-02 1.355344e-01 1.472185e-01 2.279865e-01 3.433083e-01 2.676708e-01 2.671447e-01 2.609178e-01 2.640386e-01 1.457434e-01 8.438188e-05
<GCONST> 6.080492e+01
<TRANSP> 7
 0.000000e+00 1.000000e+00 0.000000e+00 0.000000e+00 0.000000e+00 0.000000e+00 0.000000e+00
 0.000000e+00 9.367060e-01 6.329397e-02 0.000000e+00 0.000000e+00 0.000000e+00 0.000000e+00
 0.000000e+00 0.000000e+00 7.677188e-01 2.322812e-01 0.000000e+00 0.000000e+00 0.000000e+00
 0.000000e+00 0.000000e+00 0.000000e+00 9.230242e-01 7.697577e-02 0.000000e+00 0.000000e+00
 0.000000e+00 0.000000e+00 0.000000e+00 0.000000e+00 8.854294e-01 1.145707e-01 0.000000e+00
 0.000000e+00 0.000000e+00 0.000000e+00 0.000000e+00 0.000000e+00 9.511639e-01 4.883611e-02
 0.000000e+00 0.000000e+00 0.000000e+00 0.000000e+00 0.000000e+00 0.000000e+00 0.000000e+00
<ENDHMM>
