~o
<STREAMINFO> 1 39
<VECSIZE> 39<NULLD><MFCC_E_D_A><DIAGC>
~h "trente"
<BEGINHMM>
<NUMSTATES> 8
<STATE> 2
<MEAN> 39
 -7.572160e+00 -4.078935e+00 2.619474e+00 -1.263501e+01 -2.217818e+00 -2.304375e+00 3.739184e+00 -2.823226e-01 2.040551e-01 -2.150818e+00 -7.649415e-01 -1.201002e+00 6.032852e-01 2.560774e-01 3.353474e-01 -1.063524e-02 -5.250874e-01 -7.548057e-01 -3.468283e-01 1.877467e-01 5.707582e-03 2.771474e-02 -1.743544e-01 -9.845537e-02 8.622114e-02 1.204215e-02 1.534401e-01 6.155812e-02 1.072050e-01 1.279999e-01 -2.422239e-02 -1.135499e-01 -1.124353e-01 3.319384e-02 1.522593e-01 7.042649e-02 5.057652e-03 4.976914e-02 3.517712e-03
<VARIANCE> 39
 1.819360e+01 3.245556e+01 3.119966e+01 7.879313e+01 6.429523e+01 1.893308e+01 2.510803e+01 2.001703e+01 2.031049e+01 2.356208e+01 1.741665e+01 1.241572e+01 2.363155e-02 1.009099e+00 1.081380e+00 1.218431e+00 1.864249e+00 1.907953e+00 1.824961e+00 2.728461e+00 1.747683e+00 2.069609e+00 1.161400e+00 1.253953e+00 1.209883e+00 2.145434e-03 2.150089e-01 1.938465e-01 1.730622e-01 3.364849e-01 3.663199e-01 1.979752e-01 4.438740e-01 2.448348e-01 3.129539e-01 1.807380e-01 1.870775e-01 2.276857e-01 5.053269e-04
<GCONST> 8.137523e+01
<STATE> 3
<MEAN> 39
 1.854324e+00 1.366272e+00 7.704665e+00 -1.028049e+01 -1.105307e+01 -8.060157e+00 1.833363e-02 -4.275445e-01 4.112965e+00 -2.015222e+00 -2.224781e+00 2.153365e+00 8.280151e-01 2.116263e+00 1.077215e+00 7.263474e-01 1.275343e+00 -4.731598e-01 -3.857911e-01 -1.196099e+00 -9.161789e-01 5.326467e-01 -1.787164e-01 -5.376108e-01 4.549348e-01 6.610438e-02 -2.599581e-01 -2.806768e-01 -1.144419e-01 -2.204140e-01 1.727419e-02 2.459306e-01 1.014142e-01 -1.446232e-01 -2.028469e-01 -9.378270e-02 2.885522e-02 -2.106554e-01 -7.654850e-03
<VARIANCE> 39
 4.284708e+01 3.785422e+01 2.724604e+01 3.872064e+01 6.861669e+01 1.085001e+01 2.052461e+01 6.573874e+01 3.270012e+01 3.928411e+01 1.572256e+01 3.087940e+01 3.547930e-02 2.171553e+00 2.274206e+00 1.396865e+00 2.305448e+00 1.353239e+00 1.551304e+00 1.713715e+00 1.902725e+00 2.242409e+00 3.020681e+00 1.615273e+00 1.245391e+00 2.441726e-03 5.188010e-01 3.844182e-01 2.644306e-01 2.350946e-01 2.538766e-01 1.833784e-01 2.336985e-01 3.495691e-01 4.755226e-01 4.247955e-01 3.218494e-01 1.347358e-01 6.247625e-04
<GCONST> 8.906370e+01
<STATE> 4
<MEAN> 39
 5.703694e+00 3.486842e+00 6.201508e+00 -5.433004e+00 -9.353502e+00 -7.566879e+00 -4.449573e+00 -4.207027e+00 4.197469e+00 -2.788962e+00 -1.855670e+00 9.491898e-01 9.529674e-01 -2.886752e-01 -1.275927e-01 -5.670359e-01 4.778448e-01 8.294736e-01 3.257131e-01 2.919902e-01 6.882191e-01 -5.498214e-01 3.940745e-02 5.189286e-01 -5.272292e-01 -1.298213e-02 -2.510640e-01 -8.074460e-02 -1.061913e-01 5.400078e-02 2.444624e-01 1.125356e-01 2.897867e-01 2.518857e-01 -5.898044e-02 6.768125e-02 7.917749e-02 -7.528981e-02 -6.521355e-03
<VARIANCE> 39
 1.886473e+01 3.974437e+01 2.241347e+01 9.710535e+00 4.132183e+01 2.611700e+01 2.085241e+01 3.250249e+01 3.710414e+01 3.942463e+01 1.899083e+01 2.248797e+01 2.430066e-03 4.811000e-01 2.641655e-01 5.095742e-01 5.319410e-01 1.035080e+00 1.311793e+00 1.377423e+00 1.243792e+00 1.271402e+00 8.254296e-01 9.660308e-01 7.498922e-01 1.976023e-04 9.395300e-02 7.877389e-02 1.056527e-01 6.697363e-02 1.421349e-01 2.101035e-01 1.587309e-01 1.561683e-01 2.362723e-01 2.168821e-01 1.630453e-01 1.276788e-01 4.955604e-05
<GCONST> 5.935921e+01
<STATE> 5
<MEAN> 39
 1.931882e+00 -1.466270e+00 4.525864e+00 -1.237537e+00 -3.757160e+00 -1.633976e+00 6.949178e+00 6.087967e+00 -2.468812e+00 -1.199232e-01 2.310393e+00 -3.629234e+00 7.448247e-01 -1.171859e+00 -3.570881e-01 -2.524340e-01 3.697774e-01 4.120457e-01 2.379319e-01 5.487054e-01 2.483862e-01 6.358558e-02 2.294000e-01 4.987538e-02 -7.338656e-03 -4.251979e-02 -4.876721e-02 -1.047859e-02 -3.658022e-02 -1.830758e-01 -1.774385e-01 -1.095038e-01 -2.496976e-01 -3.073626e-01 7.833056e-02 -4.666500e-02 -1.361475e-01 1.237475e-01 -5.679298e-03
<VARIANCE> 39
 4.705421e+01 3.637603e+01 3.425660e+01 3.809845e+01 3.822348e+01 3.122905e+01 6.160425e+01 3.264912e+01 7.254877e+01 1.987274e+01 1.052692e+01 1.877172e+01 2.298649e-02 9.550083e-01 2.344848e+00 1.620926e+00 1.813297e+00 1.554542e+00 1.551543e+00 3.935091e+00 2.206261e+00 2.405057e+00 2.242594e+00 1.165694e+00 1.576380e+00 1.454939e-03 1.236403e-01 2.641739e-01 1.656496e-01 2.922115e-01 2.325741e-01 2.054582e-01 4.584002e-01 3.047492e-01 3.753242e-01 3.473221e-01 2.378361e-01 2.583960e-01 1.364802e-04
<GCONST> 8.527644e+01
<STATE> 6
<MEAN> 39
 -9.903991e+00 -2.313576e+00 1.553498e-01 -5.121602e+00 1.396008e+00 -2.589226e+00 1.062115e+00 -5.841073e-01 2.568789e-01 -1.439925e+00 1.436671e+00 -1.311328e+00 5.072880e-01 -1.042774e-01 -5.708312e-02 -4.430354e-02 -1.175191e-01 -6.282099e-03 5.578662e-02 -5.238771e-02 -5.126796e-02 -3.335490e-02 -3.827160e-02 -1.858048e-02 -5.153370e-03 -6.919195e-03 5.947346e-02 3.101775e-02 3.709424e-02 3.905576e-02 2.826723e-03 6.661958e-03 2.592089e-02 3.368252e-02 3.942358e-02 7.549229e-03 1.371916e-02 9.311059e-03 3.014214e-03
<VARIANCE> 39
 9.664021e+00 7.495117e+00 9.784061e+00 1.646212e+01 1.330401e+01 1.051662e+01 1.285919e+01 1.547252e+01 1.425746e+01 1.237765e+01 1.177151e+01 1.076595e+01 1.288424e-02 7.258379e-01 6.460431e-01 7.262051e-01 1.258953e+00 1.062599e+00 9.719331e-01 1.161472e+00 1.340830e+00 1.208739e+00 1.309091e+00 1.097059e+00 1.052036e+00 1.158877e-03 1.146626e-01 1.310478e-01 1.247646e-01 2.048236e-01 1.879871e-01 2.132691e-01 2.177944e-01 2.486014e-01 2.433516e-01 2.815651e-01 2.102605e-01 2.123239e-01 1.663694e-04
<GCONST> 6.192097e+01
<STATE> 7
<MEAN> 39
 -5.389570e+00 -3.547061e+00 1.108096e+01 -6.838919e+00 1.489536e+00 -2.028724e+00 -2.355577e+00 7.120560e-01 -1.457343e+00 1.298278e+00 -2.176771e+00 -1.592850e+00 2.955099e-01 1.793300e-01 -1.361588e-01 5.012420e-01 -6.629474e-02 1.044667e+00 4.243002e-01 -5.671569e-01 -5.414725e-01 3.498457e-02 -1.698041e-01 -1.220498e-01 5.600324e-01 1.648884e-02 1.170719e-01 -2.165934e-02 -2.131417e-02 -1.825565e-03 -1.211692e-02 5.622738e-03 6.350210e-02 8.618673e-02 1.692660e-02 -2.251173e-02 5.302162e-02 2.161686e-02 3.455157e-03
<VARIANCE> 39
 4.591210e+01 6.220103e+01 1.076591e+02 8.027634e+01 9.791056e+01 1.020578e+02 4.187622e+01 4.103305e+01 2.378908e+01 1.961073e+01 1.263867e+01 1.893376e+01 3.495967e-02 2.725669e+00 5.873140e+00 8.016727e+00 3.859515e+00 4.309482e+00 7.925095e+00 2.742114e+00 1.898838e+00 1.816193e+00 1.591184e+00 1.157669e+00 1.448344e+00 3.383931e-03 3.446270e-01 9.634684e-01 1.566237e+00 5.877752e-01 6.797335e-01 1.339431e+00 3.591675e-01 3.409954e-01 3.977207e-01 2.452238e-01 1.679276e-01 1.661107e-01 9.090307e-04
<GCONST> 1.046133e+02
<TRANSP> 8
 0.000000e+00 1.000000e+00 0.000000e+00 0.000000e+00 0.000000e+00 0.000000e+00 0.000000e+00 0.000000e+00
 0.000000e+00 9.217203e-01 7.827977e-02 0.000000e+00 0.000000e+00 0.000000e+00 0.000000e+00 0.000000e+00
 0.000000e+00 0.000000e+00 8.028431e-01 1.971569e-01 0.000000e+00 0.000000e+00 0.000000e+00 0.000000e+00
 0.000000e+00 0.000000e+00 0.000000e+00 8.695915e-01 1.304086e-01 0.000000e+00 0.000000e+00 0.000000e+00
 0.000000e+00 0.000000e+00 0.000000e+00 0.000000e+00 8.745012e-01 1.254988e-01 0.000000e+00 0.000000e+00
 0.000000e+00 0.000000e+00 0.000000e+00 0.000000e+00 0.000000e+00 9.545386e-01 4.546134e-02 0.000000e+00
 0.000000e+00 0.000000e+00 0.000000e+00 0.000000e+00 0.000000e+00 0.000000e+00 7.382228e-01 2.617772e-01
 0.000000e+00 0.000000e+00 0.000000e+00 0.000000e+00 0.000000e+00 0.000000e+00 0.000000e+00 0.000000e+00
<ENDHMM>
