~o
<STREAMINFO> 1 39
<VECSIZE> 39<NULLD><MFCC_E_D_A><DIAGC>
~h "trois"
<BEGINHMM>
<NUMSTATES> 7
<STATE> 2
<MEAN> 39
 -7.927188e+00 -3.180834e+00 3.145185e+00 -7.755268e+00 -1.302288e+00 -3.769065e-01 1.343941e+00 -3.327903e+00 6.887854e-01 -1.100303e+00 -1.211164e+00 -5.953890e-01 5.055658e-01 1.313395e-01 5.881883e-01 3.400358e-01 -1.134947e-01 -5.252929e-01 -2.564663e-01 -3.080186e-02 -3.892421e-01 9.392826e-02 6.653225e-02 2.748879e-02 -3.334523e-02 3.097512e-03 2.952751e-02 4.504971e-02 5.778699e-02 7.578532e-02 3.065569e-02 -7.994880e-02 1.113703e-02 2.905979e-02 -1.197495e-03 -9.072383e-02 -4.514724e-02 4.381527e-02 -1.102631e-03
<VARIANCE> 39
 1.301989e+01 2.924318e+01 2.916198e+01 6.610529e+01 4.885781e+01 4.229383e+01 1.196404e+01 2.564009e+01 2.717977e+01 1.984462e+01 1.902007e+01 8.189022e+00 2.489938e-02 3.928848e-01 1.574393e+00 1.292363e+00 2.323711e+00 3.261574e+00 2.727147e+00 9.842097e-01 2.020119e+00 2.584469e+00 1.112601e+00 1.112994e+00 1.063145e+00 1.882400e-03 9.005678e-02 1.882585e-01 2.696513e-01 4.284689e-01 6.396324e-01 5.186199e-01 2.117895e-01 4.103667e-01 5.547618e-01 2.280491e-01 1.920491e-01 1.942333e-01 4.400292e-04
<GCONST> 8.176362e+01
<STATE> 3
<MEAN> 39
 -5.716390e+00 9.685994e-02 7.971174e+00 -7.022408e+00 -1.142113e+00 -3.310663e+00 -2.334319e+00 -4.163857e+00 9.875729e-01 -2.302480e+00 -2.873532e+00 -1.489966e+00 5.545537e-01 8.421112e-01 1.086307e+00 4.863155e-01 9.832467e-01 -1.103180e-01 -3.071781e-01 -3.477685e-01 -1.174790e-01 1.200120e-01 -1.795681e-01 2.335923e-01 1.559300e-01 3.187942e-02 3.045623e-01 1.049530e-01 1.253202e-01 1.828833e-01 -9.928700e-02 -3.540066e-02 2.162260e-02 -4.720926e-02 1.173658e-01 5.936743e-02 1.314086e-01 1.336773e-01 1.427821e-02
<VARIANCE> 39
 2.660513e+01 3.062431e+01 9.796526e+01 4.278353e+01 2.809825e+01 2.177398e+01 3.387189e+01 1.565624e+01 1.447156e+01 1.451848e+01 1.931875e+01 1.385411e+01 3.908562e-02 2.376758e+00 3.489087e+00 3.522747e+00 2.739968e+00 2.455682e+00 2.103410e+00 2.656804e+00 2.378435e+00 2.092760e+00 1.720418e+00 1.252020e+00 1.932974e+00 5.628242e-03 3.405687e-01 6.555392e-01 4.665014e-01 3.884201e-01 4.045393e-01 3.864082e-01 3.918620e-01 4.211362e-01 4.120647e-01 2.849523e-01 2.123207e-01 3.912397e-01 7.293603e-04
<GCONST> 9.324047e+01
<STATE> 4
<MEAN> 39
 3.382723e+00 8.801697e+00 1.425941e+01 2.435725e+00 -7.236978e+00 -5.270331e+00 1.782946e-01 -8.820913e+00 3.139948e+00 -1.271385e+00 6.349701e-02 3.576021e+00 8.912110e-01 1.296105e+00 -1.420431e-02 8.945575e-01 2.124805e-01 -1.548701e+00 -1.078002e+00 4.926401e-01 -6.994126e-01 3.316103e-01 8.578986e-02 1.321224e-01 4.228750e-01 5.467434e-02 -4.749165e-01 -4.625943e-01 -4.203809e-01 -6.323317e-01 -7.452433e-02 2.909612e-02 1.228404e-01 2.323862e-01 -5.064300e-02 -1.116017e-02 -1.694863e-01 -3.069465e-01 -2.027564e-02
<VARIANCE> 39
 2.357671e+01 2.206325e+01 3.674719e+01 1.269466e+01 8.820107e+01 3.067709e+01 3.173492e+01 2.740807e+01 1.319061e+01 9.809359e+00 1.163233e+01 1.756643e+01 5.996192e-03 1.953720e+00 3.353555e+00 2.238795e+00 2.785843e+00 3.175413e+00 9.829712e-01 2.137599e+00 1.710142e+00 1.145746e+00 1.861588e+00 8.030694e-01 8.707022e-01 1.856554e-03 1.932000e-01 4.702097e-01 2.908155e-01 2.171317e-01 4.959397e-01 2.106050e-01 5.182178e-01 3.042549e-01 2.133718e-01 2.646304e-01 1.195204e-01 1.275593e-01 1.927907e-04
<GCONST> 7.919073e+01
<STATE> 5
<MEAN> 39
 4.764410e+00 4.814785e+00 1.059939e+01 -4.399662e+00 -1.379716e+01 -9.249952e+00 1.558882e+00 -5.625228e+00 2.690364e+00 -2.468111e+00 -1.550031e+00 -4.136816e-01 9.521002e-01 -1.110314e-01 -2.059061e-01 -8.603012e-01 -9.546846e-01 -2.674862e-01 -5.847147e-02 7.865965e-02 5.690106e-01 3.327940e-02 -3.982513e-01 -3.552923e-01 -6.402676e-01 -1.041765e-02 -1.245918e-01 4.947993e-03 -6.812883e-02 1.237596e-02 1.956445e-01 1.886557e-01 -7.071523e-02 4.224286e-02 -3.839250e-02 -2.592693e-02 1.565453e-02 6.687612e-02 -6.717582e-03
<VARIANCE> 39
 2.075657e+01 1.917430e+01 4.255273e+01 2.520139e+01 1.026273e+02 3.077788e+01 2.982077e+01 1.667228e+01 1.719556e+01 2.936127e+01 1.862002e+01 2.872988e+01 1.960865e-03 3.372439e-01 6.168978e-01 4.357954e-01 6.296551e-01 1.395894e+00 1.110753e+00 1.288148e+00 7.753087e-01 6.502696e-01 1.419472e+00 6.906800e-01 5.783690e-01 2.904031e-04 7.438762e-02 1.494521e-01 9.703246e-02 1.308719e-01 1.876414e-01 1.665783e-01 2.864138e-01 1.318898e-01 1.186073e-01 3.394003e-01 1.217751e-01 1.272801e-01 4.042126e-05
<GCONST> 6.050972e+01
<STATE> 6
<MEAN> 39
 -3.452804e+00 1.741066e-01 1.424117e+00 -7.513653e+00 -6.620226e+00 -4.704070e+00 6.146562e-01 -1.517292e+00 2.180594e+00 -3.333636e+00 -1.624621e+00 -1.619236e+00 6.069750e-01 -8.033903e-01 -5.861309e-01 -5.050992e-01 1.866174e-01 8.241428e-01 5.452029e-01 -2.210617e-01 2.564941e-01 -1.225964e-01 1.929011e-01 2.208848e-01 3.009337e-01 -4.191428e-02 3.319944e-02 1.321221e-02 7.187203e-02 1.339626e-01 -1.449941e-02 -6.668141e-02 3.906275e-02 -3.837402e-02 -1.444039e-02 -1.657367e-03 3.295046e-02 6.570811e-02 4.024946e-04
<VARIANCE> 39
 4.079301e+01 1.903946e+01 1.837371e+01 2.533169e+01 4.983045e+01 2.239032e+01 2.350816e+01 1.558807e+01 1.321732e+01 1.419158e+01 1.463073e+01 1.846471e+01 2.718002e-02 9.554253e-01 1.217889e+00 9.933883e-01 1.734829e+00 1.407469e+00 1.596557e+00 1.373350e+00 1.622594e+00 1.105241e+00 1.575417e+00 1.343061e+00 1.272804e+00 1.870888e-03 9.614150e-02 1.567598e-01 1.314253e-01 2.067250e-01 2.300348e-01 2.408623e-01 2.718162e-01 3.304324e-01 1.867548e-01 2.668184e-01 1.893337e-01 1.999933e-01 1.891587e-04
<GCONST> 7.379085e+01
<TRANSP> 7
 0.000000e+00 1.000000e+00 0.000000e+00 0.000000e+00 0.000000e+00 0.000000e+00 0.000000e+00
 0.000000e+00 8.973004e-01 1.026996e-01 0.000000e+00 0.000000e+00 0.000000e+00 0.000000e+00
 0.000000e+00 0.000000e+00 8.524091e-01 1.475909e-01 0.000000e+00 0.000000e+00 0.000000e+00
 0.000000e+00 0.000000e+00 0.000000e+00 7.830793e-01 2.169207e-01 0.000000e+00 0.000000e+00
 0.000000e+00 0.000000e+00 0.000000e+00 0.000000e+00 8.842542e-01 1.157458e-01 0.000000e+00
 0.000000e+00 0.000000e+00 0.000000e+00 0.000000e+00 0.000000e+00 9.077307e-01 9.226932e-02
 0.000000e+00 0.000000e+00 0.000000e+00 0.000000e+00 0.000000e+00 0.000000e+00 0.000000e+00
<ENDHMM>
