~o
<STREAMINFO> 1 39
<VECSIZE> 39<NULLD><MFCC_E_D_A><DIAGC>
~h "un"
<BEGINHMM>
<NUMSTATES> 3
<STATE> 2
<MEAN> 39
 7.001151e-01 -2.885634e+00 -4.304769e-01 -6.008351e+00 -1.274101e+00 1.015364e+00 2.324854e+00 -4.321033e+00 1.264472e+00 -4.427602e+00 -1.083978e+00 8.257560e-01 8.007133e-01 -3.547038e-02 4.857693e-02 -6.321349e-02 9.212833e-02 3.998734e-02 -5.969626e-02 8.205738e-02 2.911658e-01 7.593006e-02 1.192102e-01 -6.132416e-03 -9.910091e-02 -5.251559e-03 -4.699520e-02 3.362135e-03 3.424367e-04 1.859034e-02 2.406750e-02 -3.569600e-02 -1.844298e-02 2.189511e-02 1.978186e-04 9.189158e-03 7.293556e-03 3.465307e-02 -3.028069e-03
<VARIANCE> 39
 4.849203e+01 3.762300e+01 2.175640e+01 1.926151e+01 3.413432e+01 4.565765e+01 4.046400e+01 4.045232e+01 3.486024e+01 1.942419e+01 4.157656e+01 1.799633e+01 4.170812e-02 1.859587e+00 1.236583e+00 9.395657e-01 1.033453e+00 1.220415e+00 1.693699e+00 1.521105e+00 1.911559e+00 1.425579e+00 1.208814e+00 1.364263e+00 1.084729e+00 2.394994e-03 1.857158e-01 1.372606e-01 1.526669e-01 1.572001e-01 1.884314e-01 2.431682e-01 2.210327e-01 2.750485e-01 2.001562e-01 2.120086e-01 1.891043e-01 1.631067e-01 1.829975e-04
<GCONST> 7.890624e+01
<TRANSP> 3
 0.000000e+00 1.000000e+00 0.000000e+00
 0.000000e+00 9.604743e-01 3.952566e-02
 0.000000e+00 0.000000e+00 0.000000e+00
<ENDHMM>
