~o
<STREAMINFO> 1 39
<VECSIZE> 39<NULLD><MFCC_E_D_A><DIAGC>
~h "vingt"
<BEGINHMM>
<NUMSTATES> 4
<STATE> 2
<MEAN> 39
 5.949358e+00 -9.082136e+00 9.325668e+00 8.145757e-01 -4.365621e-01 7.223887e+00 2.886128e+00 3.367311e+00 -4.493858e+00 -9.760894e-01 1.700321e+00 9.661657e-01 6.224597e-01 2.405497e-01 7.568136e-03 -1.400020e-01 -1.318930e-01 -1.258945e-02 3.569810e-02 -1.236499e-01 6.810576e-02 2.662951e-01 -1.590332e-01 -1.350993e-01 -4.600001e-03 7.751053e-04 -4.387590e-02 2.338631e-02 7.673155e-03 5.466905e-03 -2.225356e-02 -5.295878e-02 -3.599965e-02 -3.233966e-03 1.394276e-02 5.562999e-02 -1.518288e-02 -3.554630e-03 -7.351495e-04
<VARIANCE> 39
 8.287015e+01 6.763482e+01 5.628429e+01 2.892086e+01 7.490955e+01 5.602115e+01 7.485996e+01 9.327769e+01 6.257618e+01 9.834731e+01 6.672848e+01 5.384615e+01 8.175553e-02 2.780163e+00 2.544081e+00 2.261530e+00 1.818779e+00 2.581184e+00 2.851862e+00 2.996955e+00 2.983886e+00 3.143420e+00 2.290101e+00 2.695673e+00 1.142187e+00 3.011890e-03 3.684727e-01 2.958656e-01 3.943488e-01 2.829653e-01 3.162605e-01 4.198593e-01 4.173585e-01 4.543076e-01 4.459249e-01 3.901727e-01 4.034252e-01 1.419511e-01 3.190455e-04
<GCONST> 1.034053e+02
<STATE> 3
<MEAN> 39
 -4.509294e+00 -1.241403e+00 -3.742729e-01 -4.258847e+00 -1.230629e+00 -1.469773e+00 2.782458e+00 -1.762813e+00 1.145620e+00 -3.068496e+00 -7.846539e-02 -1.349755e-01 6.214316e-01 -3.598552e-02 4.561705e-02 4.722408e-03 -3.699316e-02 -1.558987e-02 -7.353691e-02 -4.315977e-02 -4.889077e-02 -1.254216e-03 -2.859765e-03 -6.875087e-02 -2.523848e-02 -1.514994e-03 -1.545498e-02 -1.092976e-02 3.648212e-03 9.490782e-03 6.065555e-03 -3.151130e-03 -5.848565e-03 -7.905197e-03 -4.256708e-03 1.998181e-02 -1.060589e-02 -4.347208e-03 -7.882580e-04
<VARIANCE> 39
 4.320174e+01 1.208634e+01 1.062133e+01 1.947349e+01 1.968573e+01 1.604434e+01 2.852219e+01 2.270404e+01 1.983248e+01 2.146408e+01 1.329376e+01 1.518410e+01 5.947834e-02 1.126940e+00 6.362943e-01 6.539256e-01 1.046039e+00 1.041308e+00 1.035972e+00 1.382606e+00 1.611636e+00 1.425130e+00 1.255633e+00 1.042470e+00 9.265376e-01 1.304465e-03 9.943105e-02 9.930960e-02 1.187929e-01 1.615896e-01 1.558164e-01 1.785094e-01 2.253715e-01 2.712542e-01 2.608299e-01 1.960997e-01 1.878757e-01 1.523903e-01 1.223715e-04
<GCONST> 6.762209e+01
<TRANSP> 4
 0.000000e+00 1.000000e+00 0.000000e+00 0.000000e+00
 0.000000e+00 8.990096e-01 1.009903e-01 0.000000e+00
 0.000000e+00 0.000000e+00 9.769570e-01 2.304308e-02
 0.000000e+00 0.000000e+00 0.000000e+00 0.000000e+00
<ENDHMM>
