~o
<STREAMINFO> 1 39
<VECSIZE> 39<NULLD><MFCC_E_D_A><DIAGC>
~h "zero"
<BEGINHMM>
<NUMSTATES> 6
<STATE> 2
<MEAN> 39
 -1.023082e+01 1.052212e-01 1.795763e+00 -1.163916e+00 8.247040e+00 -2.236553e+00 4.147807e+00 -1.476179e+00 2.193304e+00 1.575410e+00 3.083065e+00 9.104032e-01 6.903668e-01 1.225329e-01 -6.387830e-02 3.005257e-01 3.030969e-01 5.918308e-01 -2.377406e-02 9.965770e-02 9.956490e-02 1.137718e-01 1.332264e-01 2.362882e-01 8.569694e-02 1.926978e-02 1.027370e-01 -1.341830e-01 -1.873507e-02 7.051785e-02 -4.666602e-02 8.690510e-02 -1.148648e-01 -4.431061e-02 -1.467942e-02 -2.418748e-02 5.276978e-02 -6.693239e-03 -1.356439e-04
<VARIANCE> 39
 1.626435e+01 2.257360e+01 4.107055e+01 2.286761e+01 4.966822e+01 2.356492e+01 1.685876e+01 1.585645e+01 1.587977e+01 1.701345e+01 1.889842e+01 1.547456e+01 1.608449e-02 1.600230e+00 1.052864e+00 1.056638e+00 1.416157e+00 2.075880e+00 1.779345e+00 1.655459e+00 1.373137e+00 1.586864e+00 1.187570e+00 1.407136e+00 1.117110e+00 8.635832e-04 1.671038e-01 1.186993e-01 1.241811e-01 2.421874e-01 3.100372e-01 2.942241e-01 2.538025e-01 2.562447e-01 2.950757e-01 2.323218e-01 2.389634e-01 1.818756e-01 9.353240e-05
<GCONST> 7.366815e+01
<STATE> 3
<MEAN> 39
 2.313273e-01 -8.995138e+00 7.927800e+00 5.206610e+00 1.161654e+01 3.994373e+00 4.120068e-01 -9.478240e-01 2.144347e+00 -5.815979e-01 4.510303e+00 3.611851e+00 9.383361e-01 1.088526e+00 -2.069801e-01 -1.448822e-01 -2.907168e-01 -1.413517e+00 8.149682e-01 3.482866e-01 4.870197e-02 -2.328784e-01 -1.101227e+00 -5.391628e-01 1.531148e-01 1.027669e-02 -2.310357e-01 4.061745e-01 -8.850866e-04 -4.124462e-01 -3.471372e-01 -2.624560e-01 3.101777e-01 1.774424e-01 7.524594e-02 7.866041e-03 -3.122041e-01 -1.207142e-01 -6.480054e-03
<VARIANCE> 39
 2.256201e+01 3.082844e+01 5.520228e+01 3.605927e+01 8.638839e+01 4.738926e+01 3.682268e+01 3.448426e+01 3.248362e+01 4.155685e+01 2.671226e+01 2.284167e+01 6.505630e-03 6.362444e-01 2.020785e+00 7.711739e-01 3.610818e+00 2.540136e+00 1.930191e+00 4.279390e+00 1.954936e+00 2.539944e+00 1.178808e+00 2.407712e+00 1.027610e+00 4.799133e-04 6.851909e-02 8.163062e-02 1.664322e-01 3.284533e-01 2.782317e-01 3.837994e-01 5.198365e-01 3.819432e-01 5.212830e-01 3.426520e-01 3.303388e-01 2.662749e-01 3.410770e-05
<GCONST> 8.283271e+01
<STATE> 4
<MEAN> 39
 4.668861e+00 5.032623e-01 1.440264e+01 -4.216238e+00 -6.128034e+00 -3.497488e-01 3.036196e+00 9.891327e-01 3.255316e+00 -1.699098e+00 -3.217486e+00 3.186037e+00 8.284833e-01 -4.576892e-01 1.136426e+00 4.975765e-01 -2.134854e-01 -7.220301e-01 -1.271301e+00 -6.231424e-01 -2.118553e-01 4.352405e-01 9.374701e-01 1.971438e-02 -2.439015e-01 -2.291331e-02 -8.623129e-02 -1.997914e-01 -1.889939e-02 3.413199e-01 4.502284e-01 1.463357e-02 -4.205196e-01 -2.565913e-01 -1.322521e-01 6.783587e-02 3.380532e-01 1.597590e-01 -8.360146e-04
<VARIANCE> 39
 1.853943e+01 5.379827e+01 8.600270e+01 4.292445e+01 8.129281e+01 5.739369e+01 4.628234e+01 3.166926e+01 6.230889e+01 4.179282e+01 1.808947e+01 2.709972e+01 1.212463e-02 6.421282e-01 1.889711e+00 1.534034e+00 2.130142e+00 5.288575e+00 2.262119e+00 3.533908e+00 2.955712e+00 2.923051e+00 3.000420e+00 2.572149e+00 1.772029e+00 1.256271e-03 1.016380e-01 1.526102e-01 2.068592e-01 3.509977e-01 6.866786e-01 3.876293e-01 7.261496e-01 5.700553e-01 5.586322e-01 7.648047e-01 4.088980e-01 3.578776e-01 1.831037e-04
<GCONST> 9.502340e+01
<STATE> 5
<MEAN> 39
 -3.497881e+00 3.476005e+00 6.184409e+00 -1.628056e-01 -2.105906e+00 -4.624162e+00 -7.436424e-01 -3.638976e+00 2.149081e+00 7.573105e-01 3.423743e+00 1.858009e+00 7.472728e-01 -2.891227e-01 -2.650807e-01 -3.275756e-01 4.236975e-02 3.255228e-01 1.408160e-01 -1.605765e-02 5.621432e-02 -1.549113e-01 -1.732782e-02 2.483329e-02 -6.901149e-02 -1.386849e-02 1.567023e-02 -3.431354e-02 -3.340723e-02 -6.327496e-04 1.892681e-02 6.692467e-02 9.169424e-02 6.532117e-02 -5.685154e-03 -2.009605e-02 -5.173832e-02 -4.493026e-02 -4.117600e-04
<VARIANCE> 39
 2.316145e+01 2.283545e+01 3.050931e+01 1.019112e+01 2.101517e+01 1.111609e+01 1.124586e+01 1.156608e+01 1.195103e+01 1.013328e+01 1.551021e+01 1.047645e+01 2.810948e-02 5.549899e-01 7.088333e-01 1.059218e+00 8.892313e-01 1.146529e+00 8.770956e-01 1.207260e+00 1.246686e+00 1.085072e+00 1.114510e+00 1.054657e+00 1.091532e+00 1.265264e-03 6.536543e-02 8.523525e-02 1.239182e-01 1.478962e-01 1.876940e-01 1.656902e-01 2.139498e-01 2.122754e-01 1.910191e-01 2.228463e-01 1.726835e-01 1.779463e-01 1.202439e-04
<GCONST> 6.198775e+01
<TRANSP> 6
 0.000000e+00 1.000000e+00 0.000000e+00 0.000000e+00 0.000000e+00 0.000000e+00
 0.000000e+00 9.430828e-01 5.691717e-02 0.000000e+00 0.000000e+00 0.000000e+00
 0.000000e+00 0.000000e+00 8.931684e-01 1.068317e-01 0.000000e+00 0.000000e+00
 0.000000e+00 0.000000e+00 0.000000e+00 8.845398e-01 1.154601e-01 0.000000e+00
 0.000000e+00 0.000000e+00 0.000000e+00 0.000000e+00 9.545643e-01 4.543569e-02
 0.000000e+00 0.000000e+00 0.000000e+00 0.000000e+00 0.000000e+00 0.000000e+00
<ENDHMM>
